{
    "task_type": "CLS",
    "dataset": "cal_housing",
    "refit": "full",
    "filter": "m6_p6",
    "time_limit": 3600,
    "best": 0.8970445736434108,
    "fixed_ens": {
        "ensemble_selection10": 0.9018895348837209,
        "cma_es": 0.9040697674418605,
        "qdo_es": 0.903827519379845,
        "OptDivBO": 0.9031007751937985,
        "stacking-1_0.4_L1_linear": 0.9045542635658915,
        "stacking-1_0.4_L2_linear": 0.907218992248062,
        "stacking1000_0.4_L1_linear": 0.9103682170542635,
        "stacking1000_0.4_L2_linear": 0.9084302325581395,
        "ensemble_selection25": 0.9040697674418605,
        "EnsOpt": 0.905765503875969,
        "stacking1000_0.4_L1_weighted": 0.905765503875969,
        "stacking-1_0.4_L1_weighted": 0.9040697674418605,
        "stacking1000_0.4_L2_weighted": 0.908672480620155,
        "stacking-1_0.4_L2_weighted": 0.9079457364341085,
        "autogluon-": 0.9089692107217696
    },
    "defopt_ens": {
        "s10_r20_d20": "0.909156976744186, 0.9084302325581395, 0.9084302325581395, 0.9074612403100775, 0.9084302325581395, 0.9084302325581395",
        "s10_r40_d20": "0.909156976744186, 0.9084302325581395, 0.9084302325581395, 0.9074612403100775, 0.9084302325581395, 0.9084302325581395",
        "s20_r20_d20": "0.9079457364341085, 0.909156976744186, 0.908672480620155, 0.905281007751938, 0.9074612403100775, 0.908672480620155",
        "s20_r40_d20": "0.906734496124031, 0.906734496124031, 0.906734496124031, 0.9074612403100775, 0.906734496124031, 0.906734496124031",
        "s10_r20_d0": "0.908672480620155, 0.908187984496124, 0.908187984496124, 0.907218992248062, 0.908187984496124, 0.908187984496124",
        "s10_r40_d0": "0.908672480620155, 0.908187984496124, 0.908187984496124, 0.907218992248062, 0.908187984496124, 0.908187984496124",
        "s20_r20_d0": "0.9089147286821705, 0.9079457364341085, 0.9084302325581395, 0.9084302325581395, 0.9050387596899225, 0.9084302325581395",
        "s20_r40_d0": "0.90625, 0.9064922480620154, 0.9069767441860465, 0.9060077519379846, 0.9064922480620154, 0.9069767441860465"
    },
    "opt_ens": [
        "0.9074612403100775",
        "0.9064922480620154",
        "0.9060077519379846",
        "0.90625",
        "0.905765503875969",
        "0.905765503875969",
        "0.9064922480620154",
        "0.905765503875969",
        "0.9060077519379846",
        "0.907218992248062",
        "0.907218992248062",
        "0.908187984496124",
        "0.907218992248062",
        "0.908187984496124",
        "0.908187984496124",
        "0.9050387596899225",
        "0.904796511627907",
        "0.904312015503876",
        "0.9074612403100775",
        "0.9084302325581395",
        "0.9016472868217055",
        "0.905281007751938",
        "0.903827519379845",
        "0.9074612403100775",
        "0.905765503875969",
        "0.904796511627907",
        "0.9089147286821705",
        "0.9055232558139535",
        "0.9084302325581395",
        "0.908187984496124"
    ],
    "opt_ens_d0": [
        "0.906734496124031",
        "0.906734496124031",
        "0.907218992248062",
        "0.9089147286821705",
        "0.909156976744186",
        "0.9084302325581395",
        "0.907703488372093",
        "0.9079457364341085",
        "0.907703488372093",
        "0.9074612403100775",
        "0.9074612403100775",
        "0.908187984496124",
        "0.9050387596899225",
        "0.904796511627907",
        "0.904312015503876",
        "0.9055232558139535",
        "0.903827519379845",
        "0.9055232558139535",
        "0.907218992248062",
        "0.908187984496124",
        "0.9026162790697675",
        "0.9069767441860465",
        "0.9069767441860465",
        "0.908187984496124"
    ],
    "opt_ens_d0-20": [
        "0.907703488372093",
        "0.907703488372093",
        "0.9084302325581395",
        "0.9079457364341085",
        "0.908187984496124",
        "0.9064922480620154",
        "0.90625",
        "0.905765503875969",
        "0.90625",
        "0.9069767441860465",
        "0.905281007751938",
        "0.9055232558139535",
        "0.907218992248062",
        "0.9079457364341085",
        "0.908187984496124",
        "0.9060077519379846",
        "0.9055232558139535",
        "0.9045542635658915",
        "0.9050387596899225",
        "0.907218992248062",
        "0.908187984496124",
        "0.9096414728682171",
        "0.9074612403100775",
        "0.905765503875969",
        "0.9089147286821705",
        "0.9050387596899225",
        "0.9050387596899225",
        "0.9050387596899225",
        "0.9064922480620154",
        "0.908187984496124"
    ],
    "retain_exp": {
        "stacking10_0.4_L1_weighted_retainFalse": [
            [
                {
                    "train": [
                        0.8827623610232306,
                        0.8827623610232306,
                        0.8824007954442737,
                        0.8783331826810088,
                        0.8899032812076291,
                        0.8868299737864955,
                        0.8894513242339329,
                        0.8905360209708035,
                        0.891530326312935,
                        0.8896321070234113
                    ],
                    "train_2": [
                        -0.1709003804259428,
                        -0.1709003804259428,
                        -0.1775062996352005,
                        -0.17965319736053315,
                        -0.1651401866315276,
                        -0.16248891879347588,
                        -0.18660545768165546,
                        -0.18094595756901471,
                        -0.17785685153042935,
                        -0.15836770047086332
                    ],
                    "test": [
                        0.8912306201550387,
                        0.8912306201550387,
                        0.8900193798449613,
                        0.8912306201550387,
                        0.8938953488372093,
                        0.8980135658914729,
                        0.8987403100775194,
                        0.9001937984496124,
                        0.8972868217054264,
                        0.8992248062015504
                    ],
                    "test_2": [
                        -0.15734986979575435,
                        -0.15734986979575435,
                        -0.16461133525630167,
                        -0.15742745638690106,
                        -0.15681390437044837,
                        -0.14689636781604412,
                        -0.16083159740325292,
                        -0.15561461917934624,
                        -0.15442500304638296,
                        -0.14460924728767036
                    ],
                    "val": [
                        0.8902550926775555,
                        0.8902550926775555,
                        0.8920902917966599,
                        0.8922738117085703,
                        0.8891539732060929,
                        0.8979629289777941,
                        0.8988805285373463,
                        0.8996146081849881,
                        0.8992475683611671,
                        0.9018168471279133
                    ],
                    "val_2": [
                        -0.15418423088734878,
                        -0.15418423088734878,
                        -0.16078569770272558,
                        -0.15392701914542864,
                        -0.15631437343990154,
                        -0.1440539118074869,
                        -0.1542828847549355,
                        -0.15054474265240075,
                        -0.14943560970406372,
                        -0.140957598435687
                    ]
                },
                {
                    "train": [
                        0.8912591521287173,
                        0.8912591521287173,
                        0.8944228509445901,
                        0.8880050619181054,
                        0.894784416523547,
                        0.8850221458917111,
                        0.8878242791286269,
                        0.8896321070234113,
                        0.8864684082075387,
                        0.883756666365362
                    ],
                    "train_2": [
                        -0.1735739326028015,
                        -0.1735739326028015,
                        -0.16518858373767006,
                        -0.1799925480263572,
                        -0.15026854296376257,
                        -0.16336545541050618,
                        -0.19659691371119245,
                        -0.18963529962965267,
                        -0.1912500468331315,
                        -0.17056646933953146
                    ],
                    "test": [
                        0.9006782945736435,
                        0.9006782945736435,
                        0.9023740310077519,
                        0.8999515503875969,
                        0.903827519379845,
                        0.9006782945736435,
                        0.8970445736434108,
                        0.8968023255813954,
                        0.8968023255813954,
                        0.8926841085271318
                    ],
                    "test_2": [
                        -0.15382980281624126,
                        -0.15382980281624126,
                        -0.14924153718195474,
                        -0.15329344631717978,
                        -0.1403798681451369,
                        -0.13997770902914997,
                        -0.16835481125803264,
                        -0.1642198408636879,
                        -0.164016758844188,
                        -0.1484420950400601
                    ],
                    "val": [
                        0.9020003670398238,
                        0.9020003670398238,
                        0.9038355661589282,
                        0.9069554046614058,
                        0.9042026059827492,
                        0.9130115617544503,
                        0.9038355661589282,
                        0.9034685263351073,
                        0.9040190860708387,
                        0.9031014865112865
                    ],
                    "val_2": [
                        -0.14508516044942088,
                        -0.14508516044942088,
                        -0.1407083333620347,
                        -0.1425757193617537,
                        -0.13530122417772686,
                        -0.12859682977307765,
                        -0.15476245558132726,
                        -0.1508844943279738,
                        -0.1517066545250883,
                        -0.1360446479310234
                    ]
                },
                {
                    "train": [
                        0.8893609328391937,
                        0.8893609328391937,
                        0.8887281930760191,
                        0.8846605803127542,
                        0.8919822832866311,
                        0.884570188918015,
                        0.8848413631022327,
                        0.8868299737864955,
                        0.885383711470668,
                        0.880864141733707
                    ],
                    "train_2": [
                        -0.17684116488714927,
                        -0.17684116488714927,
                        -0.1737421357580514,
                        -0.1825103987356584,
                        -0.1534556809788876,
                        -0.16557010126506103,
                        -0.2007423888242559,
                        -0.19189495741760593,
                        -0.19429283867042887,
                        -0.1747307107254263
                    ],
                    "test": [
                        0.8943798449612403,
                        0.8943798449612403,
                        0.8997093023255814,
                        0.8946220930232558,
                        0.9014050387596899,
                        0.9006782945736435,
                        0.8963178294573644,
                        0.8955910852713178,
                        0.8943798449612403,
                        0.8890503875968992
                    ],
                    "test_2": [
                        -0.15219886752832712,
                        -0.15219886752832712,
                        -0.14772234751769894,
                        -0.15020149561753016,
                        -0.14264158921648365,
                        -0.14120454027577983,
                        -0.1670436427060669,
                        -0.16336678056317472,
                        -0.16316015341080176,
                        -0.15061960503776084
                    ],
                    "val": [
                        0.9018168471279133,
                        0.9018168471279133,
                        0.9025509267755552,
                        0.9043861258946596,
                        0.9054872453661222,
                        0.9069554046614058,
                        0.901633327216003,
                        0.9010827674802716,
                        0.9023674068636447,
                        0.8997981280968985
                    ],
                    "val_2": [
                        -0.14523730791150397,
                        -0.14523730791150397,
                        -0.14298110482874557,
                        -0.14295649615746542,
                        -0.13696826096827186,
                        -0.1324297650108333,
                        -0.15821640826381092,
                        -0.15533985262382896,
                        -0.1544177494309233,
                        -0.14075884129573826
                    ]
                },
                {
                    "train": [
                        0.8878242791286269,
                        0.8878242791286269,
                        0.8887281930760191,
                        0.8846605803127542,
                        0.8901744553918467,
                        0.8826719696284914,
                        0.8842086233390581,
                        0.8838470577601012,
                        0.8857452770496249,
                        0.8803217933652716
                    ],
                    "train_2": [
                        -0.17893371590563326,
                        -0.17893371590563326,
                        -0.17537702595833551,
                        -0.18412797248672236,
                        -0.15798471039268,
                        -0.17182253369094624,
                        -0.20462171761510475,
                        -0.1997268643217842,
                        -0.19632291496994578,
                        -0.17750862170838091
                    ],
                    "test": [
                        0.8946220930232558,
                        0.8946220930232558,
                        0.8989825581395349,
                        0.8948643410852714,
                        0.8970445736434108,
                        0.8968023255813954,
                        0.8968023255813954,
                        0.8960755813953488,
                        0.8972868217054264,
                        0.8892926356589147
                    ],
                    "test_2": [
                        -0.15285904157287417,
                        -0.15285904157287417,
                        -0.1492555741770666,
                        -0.15174434315292232,
                        -0.14486010884129727,
                        -0.1438932407466417,
                        -0.16706531632829985,
                        -0.16170829792334868,
                        -0.16179585408521124,
                        -0.15173758248450311
                    ],
                    "val": [
                        0.8977794090658836,
                        0.8977794090658836,
                        0.8997981280968985,
                        0.8961277298586897,
                        0.9010827674802716,
                        0.9034685263351073,
                        0.9005322077445402,
                        0.9014498073040925,
                        0.9010827674802716,
                        0.8988805285373463
                    ],
                    "val_2": [
                        -0.14983929568412993,
                        -0.14983929568412993,
                        -0.14675745747319288,
                        -0.14935271078788723,
                        -0.13914013276473822,
                        -0.13622897570844905,
                        -0.16018341423672056,
                        -0.15528958364015868,
                        -0.1560518670420341,
                        -0.1451651038600747
                    ]
                },
                {
                    "train": [
                        0.8847509717074934,
                        0.8847509717074934,
                        0.8849317544969719,
                        0.8826719696284914,
                        0.8867395823917563,
                        0.8833047093916659,
                        0.8833047093916659,
                        0.8827623610232306,
                        0.8835758835758836,
                        0.8814968814968815
                    ],
                    "train_2": [
                        -0.18433348741953867,
                        -0.18433348741953867,
                        -0.18003015430527172,
                        -0.1905022473660124,
                        -0.16266382019655362,
                        -0.1724904432412818,
                        -0.20845877851063147,
                        -0.2016997837360365,
                        -0.20229431843899717,
                        -0.17830449584397173
                    ],
                    "test": [
                        0.8912306201550387,
                        0.8912306201550387,
                        0.8931686046511628,
                        0.8902616279069767,
                        0.8921996124031008,
                        0.8948643410852714,
                        0.8924418604651163,
                        0.8948643410852714,
                        0.8924418604651163,
                        0.8875968992248062
                    ],
                    "test_2": [
                        -0.1532081784589236,
                        -0.1532081784589236,
                        -0.15208364210771091,
                        -0.15136976861725948,
                        -0.1456140220257663,
                        -0.14339599791485277,
                        -0.1731736565663022,
                        -0.1673249779115089,
                        -0.16926629399606216,
                        -0.15383552572505582
                    ],
                    "val": [
                        0.8959442099467793,
                        0.8959442099467793,
                        0.8964947696825105,
                        0.8944760506514957,
                        0.8964947696825105,
                        0.8997981280968985,
                        0.8933749311800331,
                        0.8964947696825105,
                        0.8972288493301523,
                        0.8922738117085703
                    ],
                    "val_2": [
                        -0.1505910873866806,
                        -0.15059108738668062,
                        -0.1471100198549342,
                        -0.14910808183069035,
                        -0.14415678329873813,
                        -0.13954414466533208,
                        -0.1657382882795061,
                        -0.16106243525504815,
                        -0.16086428632754746,
                        -0.14981930378200892
                    ]
                }
            ],
            [
                "best_idx5-L2: train-0.88502, train_2--0.16337, test-0.90068, test_2--0.13998, val-0.91301, val_2--0.12860",
                "best_idx5-L3: train-0.88457, train_2--0.16557, test-0.90068, test_2--0.14120, val-0.90696, val_2--0.13243",
                "linear-L2: train-0.89243, train_2--0.15311, test-0.90383, test_2--0.14036, val-0.90585, val_2--0.13472",
                "weighted-L2: train-0.89506, train_2--0.15227, test-0.90480, test_2--0.14167, val-0.90512, val_2--0.13428",
                "linear-L3: train-0.89144, train_2--0.15639, test-0.90165, test_2--0.14321, val-0.90475, val_2--0.13611",
                "linear-L1: train-0.89596, train_2--0.15115, test-0.90262, test_2--0.14037, val-0.90475, val_2--0.13770",
                "weighted-L3: train-0.88990, train_2--0.15551, test-0.89922, test_2--0.14232, val-0.90365, val_2--0.13617",
                "weighted-L1: train-0.89587, train_2--0.14940, test-0.90237, test_2--0.13940, val-0.90347, val_2--0.13603",
                "best_idx5-L4: train-0.88267, train_2--0.17182, test-0.89680, test_2--0.14389, val-0.90347, val_2--0.13623",
                "weighted-L4: train-0.89008, train_2--0.16060, test-0.89922, test_2--0.14285, val-0.90218, val_2--0.13756",
                "linear-L4: train-0.88963, train_2--0.16166, test-0.89608, test_2--0.14635, val-0.90053, val_2--0.13937",
                "best_idx5-L5: train-0.88330, train_2--0.17249, test-0.89486, test_2--0.14340, val-0.89980, val_2--0.13954",
                "linear-L5: train-0.88575, train_2--0.16588, test-0.89535, test_2--0.14549, val-0.89888, val_2--0.14262",
                "weighted-L5: train-0.88692, train_2--0.16662, test-0.89559, test_2--0.14406, val-0.89851, val_2--0.14068"
            ]
        ],
        "stacking10_0.4_L1_weighted_retainTrue": [
            [
                {
                    "train": [
                        0.8827623610232306,
                        0.8827623610232306,
                        0.8824007954442737,
                        0.8783331826810088,
                        0.8899032812076291,
                        0.8868299737864955,
                        0.8894513242339329,
                        0.8905360209708035,
                        0.891530326312935,
                        0.8896321070234113
                    ],
                    "train_2": [
                        -0.1709003804259428,
                        -0.1709003804259428,
                        -0.1775062996352005,
                        -0.17965319736053315,
                        -0.1651401866315276,
                        -0.16248891879347588,
                        -0.18660545768165546,
                        -0.18094595756901471,
                        -0.17785685153042935,
                        -0.15836770047086332
                    ],
                    "test": [
                        0.8912306201550387,
                        0.8912306201550387,
                        0.8900193798449613,
                        0.8912306201550387,
                        0.8938953488372093,
                        0.8980135658914729,
                        0.8987403100775194,
                        0.9001937984496124,
                        0.8972868217054264,
                        0.8992248062015504
                    ],
                    "test_2": [
                        -0.15734986979575435,
                        -0.15734986979575435,
                        -0.16461133525630167,
                        -0.15742745638690106,
                        -0.15681390437044837,
                        -0.14689636781604412,
                        -0.16083159740325292,
                        -0.15561461917934624,
                        -0.15442500304638296,
                        -0.14460924728767036
                    ],
                    "val": [
                        0.8902550926775555,
                        0.8902550926775555,
                        0.8920902917966599,
                        0.8922738117085703,
                        0.8891539732060929,
                        0.8979629289777941,
                        0.8988805285373463,
                        0.8996146081849881,
                        0.8992475683611671,
                        0.9018168471279133
                    ],
                    "val_2": [
                        -0.15418423088734878,
                        -0.15418423088734878,
                        -0.16078569770272558,
                        -0.15392701914542864,
                        -0.15631437343990154,
                        -0.1440539118074869,
                        -0.1542828847549355,
                        -0.15054474265240075,
                        -0.14943560970406372,
                        -0.140957598435687
                    ]
                },
                {
                    "train": [
                        0.8912591521287173,
                        0.8912591521287173,
                        0.8944228509445901,
                        0.8880050619181054,
                        0.894784416523547,
                        0.8850221458917111,
                        0.8878242791286269,
                        0.8896321070234113,
                        0.8864684082075387,
                        0.883756666365362
                    ],
                    "train_2": [
                        -0.1735739326028015,
                        -0.1735739326028015,
                        -0.16518858373767006,
                        -0.1799925480263572,
                        -0.15026854296376257,
                        -0.16336545541050618,
                        -0.19659691371119245,
                        -0.18963529962965267,
                        -0.1912500468331315,
                        -0.17056646933953146
                    ],
                    "test": [
                        0.9006782945736435,
                        0.9006782945736435,
                        0.9023740310077519,
                        0.8999515503875969,
                        0.903827519379845,
                        0.9006782945736435,
                        0.8970445736434108,
                        0.8968023255813954,
                        0.8968023255813954,
                        0.8926841085271318
                    ],
                    "test_2": [
                        -0.15382980281624126,
                        -0.15382980281624126,
                        -0.14924153718195474,
                        -0.15329344631717978,
                        -0.1403798681451369,
                        -0.13997770902915,
                        -0.16835481125803264,
                        -0.1642198408636879,
                        -0.164016758844188,
                        -0.1484420950400601
                    ],
                    "val": [
                        0.9020003670398238,
                        0.9020003670398238,
                        0.9038355661589282,
                        0.9069554046614058,
                        0.9042026059827492,
                        0.9130115617544503,
                        0.9038355661589282,
                        0.9034685263351073,
                        0.9040190860708387,
                        0.9031014865112865
                    ],
                    "val_2": [
                        -0.1450851604494209,
                        -0.1450851604494209,
                        -0.1407083333620347,
                        -0.1425757193617537,
                        -0.13530122417772686,
                        -0.12859682977307765,
                        -0.15476245558132726,
                        -0.1508844943279738,
                        -0.1517066545250883,
                        -0.1360446479310234
                    ]
                },
                {
                    "train": [
                        0.8912591521287173,
                        0.8912591521287173,
                        0.8944228509445901,
                        0.8880050619181054,
                        0.8919822832866311,
                        0.8850221458917111,
                        0.8878242791286269,
                        0.8896321070234113,
                        0.8864684082075387,
                        0.883756666365362
                    ],
                    "train_2": [
                        -0.1735739326028015,
                        -0.1735739326028015,
                        -0.16518858373767006,
                        -0.1799925480263572,
                        -0.1534556809788876,
                        -0.16336545541050618,
                        -0.19659691371119245,
                        -0.18963529962965267,
                        -0.1912500468331315,
                        -0.17056646933953146
                    ],
                    "test": [
                        0.9006782945736435,
                        0.9006782945736435,
                        0.9023740310077519,
                        0.8999515503875969,
                        0.9014050387596899,
                        0.9006782945736435,
                        0.8970445736434108,
                        0.8968023255813954,
                        0.8968023255813954,
                        0.8926841085271318
                    ],
                    "test_2": [
                        -0.15382980281624126,
                        -0.15382980281624126,
                        -0.14924153718195474,
                        -0.15329344631717978,
                        -0.14264158921648365,
                        -0.13997770902915,
                        -0.16835481125803264,
                        -0.1642198408636879,
                        -0.164016758844188,
                        -0.1484420950400601
                    ],
                    "val": [
                        0.9020003670398238,
                        0.9020003670398238,
                        0.9038355661589282,
                        0.9069554046614058,
                        0.9054872453661222,
                        0.9130115617544503,
                        0.9038355661589282,
                        0.9034685263351073,
                        0.9040190860708387,
                        0.9031014865112865
                    ],
                    "val_2": [
                        -0.1450851604494209,
                        -0.1450851604494209,
                        -0.1407083333620347,
                        -0.1425757193617537,
                        -0.13696826096827186,
                        -0.12859682977307765,
                        -0.15476245558132726,
                        -0.1508844943279738,
                        -0.1517066545250883,
                        -0.1360446479310234
                    ]
                },
                {
                    "train": [
                        0.8912591521287173,
                        0.8912591521287173,
                        0.8944228509445901,
                        0.8880050619181054,
                        0.8919822832866311,
                        0.8850221458917111,
                        0.8878242791286269,
                        0.8896321070234113,
                        0.8864684082075387,
                        0.883756666365362
                    ],
                    "train_2": [
                        -0.1735739326028015,
                        -0.1735739326028015,
                        -0.16518858373767006,
                        -0.1799925480263572,
                        -0.1534556809788876,
                        -0.16336545541050618,
                        -0.19659691371119245,
                        -0.18963529962965267,
                        -0.1912500468331315,
                        -0.17056646933953146
                    ],
                    "test": [
                        0.9006782945736435,
                        0.9006782945736435,
                        0.9023740310077519,
                        0.8999515503875969,
                        0.9014050387596899,
                        0.9006782945736435,
                        0.8970445736434108,
                        0.8968023255813954,
                        0.8968023255813954,
                        0.8926841085271318
                    ],
                    "test_2": [
                        -0.15382980281624126,
                        -0.15382980281624126,
                        -0.14924153718195474,
                        -0.15329344631717978,
                        -0.14264158921648365,
                        -0.13997770902915,
                        -0.16835481125803264,
                        -0.1642198408636879,
                        -0.164016758844188,
                        -0.1484420950400601
                    ],
                    "val": [
                        0.9020003670398238,
                        0.9020003670398238,
                        0.9038355661589282,
                        0.9069554046614058,
                        0.9054872453661222,
                        0.9130115617544503,
                        0.9038355661589282,
                        0.9034685263351073,
                        0.9040190860708387,
                        0.9031014865112865
                    ],
                    "val_2": [
                        -0.1450851604494209,
                        -0.1450851604494209,
                        -0.1407083333620347,
                        -0.1425757193617537,
                        -0.13696826096827186,
                        -0.12859682977307765,
                        -0.15476245558132726,
                        -0.1508844943279738,
                        -0.1517066545250883,
                        -0.1360446479310234
                    ]
                }
            ],
            [
                "best_idx5-L2: train-0.88502, train_2--0.16337, test-0.90068, test_2--0.13998, val-0.91301, val_2--0.12860",
                "best_idx5-L4: train-0.88457, train_2--0.16868, test-0.89729, test_2--0.14200, val-0.90732, val_2--0.13400",
                "linear-L3: train-0.89036, train_2--0.15718, test-0.90189, test_2--0.14203, val-0.90732, val_2--0.13414",
                "best_idx5-L3: train-0.88457, train_2--0.16557, test-0.90068, test_2--0.14120, val-0.90696, val_2--0.13243",
                "linear-L2: train-0.89243, train_2--0.15311, test-0.90383, test_2--0.14036, val-0.90585, val_2--0.13472",
                "weighted-L2: train-0.89506, train_2--0.15227, test-0.90480, test_2--0.14167, val-0.90512, val_2--0.13428",
                "linear-L1: train-0.89596, train_2--0.15115, test-0.90262, test_2--0.14037, val-0.90475, val_2--0.13770",
                "weighted-L3: train-0.89433, train_2--0.15741, test-0.90310, test_2--0.14315, val-0.90402, val_2--0.13582",
                "weighted-L1: train-0.89587, train_2--0.14940, test-0.90237, test_2--0.13940, val-0.90347, val_2--0.13603"
            ]
        ]
    },
    "size_exp": {
        "stacking5_-1_L1_linear": [
            "linear-L1: train-0.89370, train_2--0.15442, test-0.90116, test_2--0.14240, val-0.90347, val_2--0.14025"
        ],
        "stacking5_0_L1_linear": [
            "linear-L1: train-0.89045, train_2--0.15911, test-0.89850, test_2--0.14914, val-0.90090, val_2--0.14516"
        ],
        "stacking5_0.1_L1_linear": [
            "linear-L1: train-0.89189, train_2--0.16218, test-0.90044, test_2--0.14769, val-0.90090, val_2--0.14417"
        ],
        "stacking5_0.2_L1_linear": [
            "linear-L1: train-0.89334, train_2--0.15644, test-0.90165, test_2--0.14388, val-0.90402, val_2--0.13984"
        ],
        "stacking5_0.3_L1_linear": [
            "linear-L1: train-0.89451, train_2--0.15308, test-0.90359, test_2--0.14265, val-0.90072, val_2--0.14068"
        ],
        "stacking5_0.4_L1_linear": [
            "linear-L1: train-0.89451, train_2--0.15308, test-0.90359, test_2--0.14265, val-0.90072, val_2--0.14068"
        ],
        "stacking10_-1_L1_linear": [
            "linear-L1: train-0.89506, train_2--0.15194, test-0.90431, test_2--0.14223, val-0.90604, val_2--0.13783"
        ],
        "stacking10_0_L1_linear": [
            "linear-L1: train-0.89099, train_2--0.15898, test-0.89898, test_2--0.14860, val-0.90127, val_2--0.14501"
        ],
        "stacking10_0.1_L1_linear": [
            "linear-L1: train-0.89487, train_2--0.15375, test-0.90044, test_2--0.14366, val-0.90549, val_2--0.13908"
        ],
        "stacking10_0.2_L1_linear": [
            "linear-L1: train-0.89677, train_2--0.15051, test-0.90262, test_2--0.14037, val-0.90475, val_2--0.13770"
        ],
        "stacking10_0.3_L1_linear": [
            "linear-L1: train-0.89515, train_2--0.15212, test-0.90407, test_2--0.14132, val-0.90218, val_2--0.13919"
        ],
        "stacking10_0.4_L1_linear": [
            "linear-L1: train-0.89677, train_2--0.15051, test-0.90262, test_2--0.14037, val-0.90475, val_2--0.13770"
        ],
        "stacking20_-1_L1_linear": [
            "linear-L1: train-0.89451, train_2--0.15351, test-0.90068, test_2--0.14472, val-0.90402, val_2--0.14098"
        ],
        "stacking20_0_L1_linear": [
            "linear-L1: train-0.89198, train_2--0.15842, test-0.89801, test_2--0.14836, val-0.90108, val_2--0.14486"
        ],
        "stacking20_0.1_L1_linear": [
            "linear-L1: train-0.89650, train_2--0.14988, test-0.90165, test_2--0.14056, val-0.90402, val_2--0.13799"
        ],
        "stacking20_0.2_L1_linear": [
            "linear-L1: train-0.89704, train_2--0.14984, test-0.90237, test_2--0.14046, val-0.90439, val_2--0.13787"
        ],
        "stacking20_0.3_L1_linear": [
            "linear-L1: train-0.89596, train_2--0.14989, test-0.90237, test_2--0.14035, val-0.90402, val_2--0.13775"
        ],
        "stacking20_0.4_L1_linear": [
            "linear-L1: train-0.89641, train_2--0.14990, test-0.90116, test_2--0.14114, val-0.90384, val_2--0.13790"
        ],
        "stacking30_-1_L1_linear": [
            "linear-L1: train-0.89759, train_2--0.14863, test-0.89850, test_2--0.14371, val-0.90604, val_2--0.13612"
        ],
        "stacking30_0_L1_linear": [
            "linear-L1: train-0.89343, train_2--0.15697, test-0.90044, test_2--0.14785, val-0.90163, val_2--0.14451"
        ],
        "stacking30_0.1_L1_linear": [
            "linear-L1: train-0.89831, train_2--0.14919, test-0.90189, test_2--0.14066, val-0.90420, val_2--0.13806"
        ],
        "stacking30_0.2_L1_linear": [
            "linear-L1: train-0.89686, train_2--0.14920, test-0.90189, test_2--0.14055, val-0.90457, val_2--0.13797"
        ],
        "stacking30_0.3_L1_linear": [
            "linear-L1: train-0.89641, train_2--0.14943, test-0.90213, test_2--0.14089, val-0.90457, val_2--0.13794"
        ],
        "stacking30_0.4_L1_linear": [
            "linear-L1: train-0.89677, train_2--0.14946, test-0.90165, test_2--0.14104, val-0.90384, val_2--0.13802"
        ],
        "stacking40_-1_L1_linear": [
            "linear-L1: train-0.89994, train_2--0.14443, test-0.90189, test_2--0.13950, val-0.90751, val_2--0.13384"
        ],
        "stacking40_0_L1_linear": [
            "linear-L1: train-0.89478, train_2--0.15590, test-0.89922, test_2--0.14755, val-0.90365, val_2--0.14358"
        ],
        "stacking40_0.1_L1_linear": [
            "linear-L1: train-0.89795, train_2--0.14887, test-0.90213, test_2--0.14106, val-0.90365, val_2--0.13831"
        ],
        "stacking40_0.2_L1_linear": [
            "linear-L1: train-0.89750, train_2--0.14811, test-0.90286, test_2--0.14030, val-0.90365, val_2--0.13783"
        ],
        "stacking40_0.3_L1_linear": [
            "linear-L1: train-0.89750, train_2--0.14811, test-0.90286, test_2--0.14030, val-0.90365, val_2--0.13783"
        ],
        "stacking40_0.4_L1_linear": [
            "linear-L1: train-0.89750, train_2--0.14811, test-0.90286, test_2--0.14030, val-0.90365, val_2--0.13783"
        ],
        "stacking-1_0.4_L1_linear": [
            "linear-L1: train-0.89623, train_2--0.15061, test-0.90116, test_2--0.14299, val-0.90310, val_2--0.13957"
        ],
        "stacking1000_0.4_L1_linear": [
            "linear-L1: train-0.90717, train_2--0.13195, test-0.90601, test_2--0.13488, val-0.91228, val_2--0.12741"
        ],
        "stacking5_0.49_L1_linear": [
            "linear-L1: train-0.89551, train_2--0.15083, test-0.90237, test_2--0.14156, val-0.90273, val_2--0.13888"
        ],
        "stacking10_0.49_L1_linear": [
            "linear-L1: train-0.89578, train_2--0.15081, test-0.90141, test_2--0.14205, val-0.90347, val_2--0.13906"
        ],
        "stacking20_0.49_L1_linear": [
            "linear-L1: train-0.89614, train_2--0.14997, test-0.90213, test_2--0.14087, val-0.90347, val_2--0.13794"
        ],
        "stacking30_0.49_L1_linear": [
            "linear-L1: train-0.89732, train_2--0.14933, test-0.90383, test_2--0.14107, val-0.90457, val_2--0.13820"
        ],
        "stacking40_0.49_L1_linear": [
            "linear-L1: train-0.89732, train_2--0.14687, test-0.90165, test_2--0.14053, val-0.90585, val_2--0.13764"
        ],
        "stacking50_-1_L1_linear": [
            "linear-L1: train-0.89939, train_2--0.14533, test-0.90116, test_2--0.14031, val-0.90567, val_2--0.13223"
        ],
        "stacking50_0_L1_linear": [
            "linear-L1: train-0.89596, train_2--0.15350, test-0.89947, test_2--0.14587, val-0.90255, val_2--0.14177"
        ],
        "stacking50_0.1_L1_linear": [
            "linear-L1: train-0.89795, train_2--0.14789, test-0.90189, test_2--0.14054, val-0.90329, val_2--0.13761"
        ],
        "stacking50_0.2_L1_linear": [
            "linear-L1: train-0.89768, train_2--0.14789, test-0.90189, test_2--0.14053, val-0.90310, val_2--0.13759"
        ],
        "stacking50_0.3_L1_linear": [
            "linear-L1: train-0.89768, train_2--0.14789, test-0.90189, test_2--0.14053, val-0.90310, val_2--0.13759"
        ],
        "stacking50_0.4_L1_linear": [
            "linear-L1: train-0.89804, train_2--0.14668, test-0.90165, test_2--0.14059, val-0.90549, val_2--0.13741"
        ],
        "stacking50_0.49_L1_linear": [
            "linear-L1: train-0.89795, train_2--0.14667, test-0.90189, test_2--0.14059, val-0.90530, val_2--0.13744"
        ]
    },
    "dropoutreg_exp": {
        "stacking30_0.3_L1_lineardropout0": [
            [
                [
                    0.382365948292103,
                    0.382365948292103,
                    -1.4064949278652308,
                    0.0425810985328873,
                    0.1380779563542847,
                    3.586813812938168,
                    -0.37823481678915666,
                    -0.19039710957110045,
                    0.5687564966680972,
                    0.45629575711104575,
                    0.5283375195789031,
                    0.13163664636722053,
                    0.23092963194092797,
                    0.12630865666515817,
                    0.009489941275243371,
                    -0.6389096888770003,
                    0.10549086290766414,
                    0.4419924242432164,
                    0.945169469589644,
                    0.29689966631176384,
                    0.3631671779016107,
                    0.8341611315424673,
                    0.1871207849746436,
                    -0.5161211169223404,
                    0.8047490772036151,
                    0.4247101258180409,
                    0.3478824244240932,
                    0.462880488243611,
                    -0.27978005327274447,
                    -0.7946925238996297
                ]
            ],
            [
                "linear-L1: train-0.89433, train_2--0.15151, test-0.90213, test_2--0.14089, val-0.90457, val_2--0.13794"
            ]
        ],
        "stacking30_0.3_L1_lineardropout0.1": [
            [
                [
                    0.45184857051192406,
                    0.5597277774383702,
                    -0.9950815029778447,
                    -0.11056267652931803,
                    0.09661348959434644,
                    3.1307040176116105,
                    -0.21415767030022442,
                    -0.2144467508222153,
                    0.5546663796971565,
                    0.286019574621389,
                    0.35765247109243276,
                    0.15332388355288087,
                    0.17130008692945942,
                    0.11854434138856534,
                    0.09081315714104397,
                    -0.5285542539468221,
                    -0.12414083802321205,
                    0.3170918182467008,
                    1.0687539669287733,
                    0.5241243891270704,
                    0.3937880981646766,
                    1.0327500913514935,
                    0.3950393565517145,
                    -0.4817007254651976,
                    0.8327725279247389,
                    -0.038976503724575486,
                    0.4826027942556324,
                    0.3523138054827899,
                    -0.5980298273796744,
                    -0.5981040368741484
                ]
            ],
            [
                "linear-L1: train-0.89614, train_2--0.15206, test-0.90262, test_2--0.14128, val-0.90457, val_2--0.13830"
            ]
        ],
        "stacking30_0.3_L1_lineardropout0.2": [
            [
                [
                    0.3547712754342642,
                    0.7503800848867573,
                    -1.1720869066033475,
                    0.030643664974094147,
                    0.361177886124641,
                    2.1135368349258625,
                    -0.281817349076278,
                    0.03276309245850069,
                    0.7506745866895512,
                    0.4502679889766737,
                    0.5023563838460696,
                    0.03305318863274199,
                    -0.2178149552138614,
                    0.14152226629779982,
                    -0.3290073996484939,
                    -0.39274776941429806,
                    0.246799303881201,
                    0.8190249713988065,
                    0.9490246658174932,
                    0.45354940592120957,
                    0.6823179057502534,
                    0.2775642856077976,
                    0.5757734762340936,
                    -0.44014998744388706,
                    1.0703282621654395,
                    0.4331521909862169,
                    0.38785288751358354,
                    0.21646559461124643,
                    -0.5732944221002824,
                    -0.9516634468912536
                ]
            ],
            [
                "linear-L1: train-0.89551, train_2--0.15286, test-0.90262, test_2--0.14163, val-0.90512, val_2--0.13817"
            ]
        ],
        "stacking30_0.3_L1_lineardropout0.3": [
            [
                [
                    1.0877439130480018,
                    0.4818046014683645,
                    -0.5286639076871289,
                    0.00037956422809165384,
                    -0.1753917763311744,
                    2.25249413755414,
                    0.04845146955060522,
                    -0.024707557994993887,
                    0.721115045125124,
                    0.44722940590156407,
                    0.4300517980121903,
                    0.17293629133018165,
                    -0.2835699942802434,
                    -0.047399871926762156,
                    -0.044076991048289174,
                    -0.6482157442933655,
                    0.019285228109599883,
                    0.3702782043367516,
                    1.4429080910210526,
                    -0.10638911887262957,
                    -0.5639743504654852,
                    0.3072308944074201,
                    0.20618374500472053,
                    -0.8119321759625902,
                    0.7244705769743106,
                    0.8781465894285801,
                    0.7277670080555272,
                    0.6323458823459432,
                    -0.2781227719883324,
                    -0.17356870207270397
                ]
            ],
            [
                "linear-L1: train-0.89406, train_2--0.15329, test-0.89995, test_2--0.14282, val-0.90347, val_2--0.13939"
            ]
        ],
        "stacking30_0.3_L1_lineardropout0.4": [
            [
                [
                    0.15513479881556708,
                    0.59386461049716,
                    -0.2665034920025584,
                    0.2606387110990513,
                    -0.037049811140364354,
                    1.9154536932298385,
                    -0.42483027762070863,
                    -0.150529147670423,
                    0.9010320926340185,
                    0.5001328966512957,
                    0.40367566957541745,
                    0.15453423286452084,
                    -0.20734515401490702,
                    -0.13187918780462818,
                    0.06965029443224244,
                    -0.8938637790509968,
                    0.08420099305196636,
                    0.9122787658605497,
                    1.0787476328106331,
                    0.21964448429068406,
                    0.2301796989300116,
                    1.507700627839533,
                    0.30354037540952916,
                    0.09501789940292774,
                    0.0599905865483965,
                    -0.04958623250432482,
                    0.07161296134082498,
                    -0.2656509123251379,
                    -0.030678601035500734,
                    0.12296998695786315
                ]
            ],
            [
                "linear-L1: train-0.89551, train_2--0.15381, test-0.89995, test_2--0.14371, val-0.90402, val_2--0.13976"
            ]
        ],
        "stacking30_0.3_L1_lineardropout0.5": [
            [
                [
                    0.40121102135090975,
                    0.8217402134451119,
                    0.12163219491352718,
                    0.3407660477562323,
                    -0.11985435364241652,
                    1.770681002162826,
                    -0.6142822978811472,
                    -0.42987490217215135,
                    0.6999702642285329,
                    0.5982517777618949,
                    -0.24362320839513157,
                    -0.09499321798449561,
                    -0.15451478380691422,
                    -0.6013543309300666,
                    -0.16948473035422365,
                    0.09395908422932836,
                    -0.4597701373420816,
                    0.6925650704501907,
                    0.9392951920229897,
                    0.08379476845249176,
                    0.6383041925587714,
                    1.1193780516332015,
                    0.2173736746392369,
                    0.3808990342263674,
                    0.7438258422051134,
                    -0.2775113745653689,
                    0.9644812517258645,
                    0.23025287438344666,
                    -0.33885463051790754,
                    -0.24423931650486416
                ]
            ],
            [
                "linear-L1: train-0.89370, train_2--0.15434, test-0.89777, test_2--0.14471, val-0.90273, val_2--0.14124"
            ]
        ]
    },
    "diversity_exp": {
        "stacking30_0": [
            27.01743439163149,
            4.268067385868187,
            121.01045092712101
        ],
        "stacking30_0.05": [
            26.961644338410714,
            4.46962302008646,
            118.16815861148622
        ],
        "stacking30_0.1": [
            26.922554597173786,
            4.54555766835853,
            116.76213108343191
        ],
        "stacking30_0.15": [
            26.887318774086985,
            4.6088416413466975,
            116.5042263226221
        ],
        "stacking30_0.2": [
            26.87814277849146,
            4.6157317810009895,
            116.49067018006699
        ],
        "stacking30_0.25": [
            26.88676821435125,
            4.611339676246774,
            116.41445639086258
        ],
        "stacking30_0.3": [
            26.88676821435125,
            4.611339676246773,
            116.41445639086258
        ],
        "stacking30_0.35": [
            26.889337493118,
            4.579791193671859,
            116.278963457207
        ],
        "stacking30_0.4": [
            26.889337493118,
            4.579791193671859,
            116.278963457207
        ],
        "stacking30_0.45": [
            26.89410901082767,
            4.546865724075588,
            116.29127318830406
        ],
        "stacking30_0.49": [
            26.890805652413277,
            4.579898481868394,
            116.26417853033232
        ]
    },
    "diversityavg_exp": {
        "stacking30_0": [
            27.01743439163149,
            4.268067385868187,
            121.01045092712101
        ],
        "stacking30_0.05": [
            27.018168471279125,
            4.268190306370444,
            121.01950969404545
        ],
        "stacking30_0.1": [
            27.01394751330519,
            4.269727651949186,
            120.98521648356271
        ],
        "stacking30_0.15": [
            27.01394751330519,
            4.269727651949186,
            120.98521648356271
        ],
        "stacking30_0.2": [
            27.01229583409799,
            4.271399816070243,
            120.68364379475878
        ],
        "stacking30_0.25": [
            27.011745274362262,
            4.2728853844231685,
            120.69105852287008
        ],
        "stacking30_0.3": [
            27.01101119471462,
            4.275807072543314,
            120.51881685730432
        ],
        "stacking30_0.35": [
            27.010644154890798,
            4.280909312078454,
            120.30753961516434
        ],
        "stacking30_0.4": [
            27.004220957973935,
            4.312453160827463,
            119.72239698133423
        ],
        "stacking30_0.45": [
            27.004220957973935,
            4.312453160827463,
            119.72239698133421
        ],
        "stacking30_0.49": [
            27.002018719031007,
            4.343024080837987,
            119.40957073440758
        ]
    },
    "struc_exp": {
        "stacking30_0.3_dropout0_retainTrue": [
            "best_idx9-L2: train-8.90897587e-01, train_2--1.60457355e-01, test-9.03585271e-01, test_2--1.39103228e-01, val-9.10075243e-01, val_2--1.30397916e-01",
            "lightgbm-L2: train-8.94061285e-01, train_2--1.51062698e-01, test-9.01647287e-01, test_2--1.39442745e-01, val-9.10075243e-01, val_2--1.35542713e-01",
            "linear-L3: train-8.91168761e-01, train_2--1.54652964e-01, test-9.02374031e-01, test_2--1.40173999e-01, val-9.08790604e-01, val_2--1.35927695e-01",
            "lightgbm-L3: train-8.94965199e-01, train_2--1.51803416e-01, test-9.00436047e-01, test_2--1.39981132e-01, val-9.08790604e-01, val_2--1.36135179e-01",
            "weighted-L3: train-8.95507548e-01, train_2--1.52644774e-01, test-9.00436047e-01, test_2--1.38930182e-01, val-9.07505964e-01, val_2--1.32066940e-01",
            "weighted-L2: train-8.95597939e-01, train_2--1.50812870e-01, test-9.02374031e-01, test_2--1.38016653e-01, val-9.07322444e-01, val_2--1.32650070e-01",
            "best_idx9-L3: train-8.86378017e-01, train_2--1.65600054e-01, test-9.01405039e-01, test_2--1.40431790e-01, val-9.06955405e-01, val_2--1.34852924e-01",
            "linear-L2: train-8.92163066e-01, train_2--1.53753902e-01, test-9.03100775e-01, test_2--1.38962400e-01, val-9.04753166e-01, val_2--1.36595913e-01",
            "linear-L1: train-8.94332460e-01, train_2--1.51507747e-01, test-9.02131783e-01, test_2--1.40894310e-01, val-9.04569646e-01, val_2--1.37941063e-01",
            "weighted-L1: train-8.95688330e-01, train_2--1.48435290e-01, test-9.02374031e-01, test_2--1.39176135e-01, val-9.03468526e-01, val_2--1.35602677e-01",
            "lightgbm-L1: train-8.93699720e-01, train_2--1.48857039e-01, test-9.03585271e-01, test_2--1.40713178e-01, val-9.03285006e-01, val_2--1.37101458e-01"
        ],
        "stacking30_0.3_dropout0.1_retainTrue": [
            "best_idx7-L2: train-8.82491187e-01, train_2--1.74883290e-01, test-9.02374031e-01, test_2--1.45473163e-01, val-9.08607084e-01, val_2--1.36219773e-01",
            "best_idx8-L3: train-8.84570189e-01, train_2--1.63948411e-01, test-9.00920543e-01, test_2--1.40141681e-01, val-9.07505964e-01, val_2--1.33776056e-01",
            "lightgbm-L3: train-8.95417156e-01, train_2--1.49908473e-01, test-9.01647287e-01, test_2--1.40285619e-01, val-9.07505964e-01, val_2--1.36057694e-01",
            "weighted-L3: train-8.95145982e-01, train_2--1.50498461e-01, test-9.01889535e-01, test_2--1.38587683e-01, val-9.06771885e-01, val_2--1.33064554e-01",
            "weighted-L2: train-8.95145982e-01, train_2--1.49847533e-01, test-9.02374031e-01, test_2--1.39178472e-01, val-9.06771885e-01, val_2--1.33136355e-01",
            "lightgbm-L2: train-8.95778722e-01, train_2--1.50098186e-01, test-9.00920543e-01, test_2--1.40050234e-01, val-9.06771885e-01, val_2--1.35554743e-01",
            "linear-L1: train-8.94332460e-01, train_2--1.51507747e-01, test-9.02131783e-01, test_2--1.40894310e-01, val-9.04569646e-01, val_2--1.37941063e-01",
            "linear-L2: train-8.92524632e-01, train_2--1.52712724e-01, test-9.02131783e-01, test_2--1.39453534e-01, val-9.04019086e-01, val_2--1.37239656e-01",
            "weighted-L1: train-8.95688330e-01, train_2--1.48435290e-01, test-9.02374031e-01, test_2--1.39176135e-01, val-9.03468526e-01, val_2--1.35602677e-01",
            "lightgbm-L1: train-8.93699720e-01, train_2--1.48857039e-01, test-9.03585271e-01, test_2--1.40713178e-01, val-9.03285006e-01, val_2--1.37101458e-01",
            "linear-L3: train-8.92705414e-01, train_2--1.52457809e-01, test-9.01889535e-01, test_2--1.39929260e-01, val-9.03285006e-01, val_2--1.37923422e-01"
        ],
        "stacking30_0.3_dropout0.2_retainFalse": [
            "best_idx9-L2: train-8.90264847e-01, train_2--1.60292515e-01, test-9.00678295e-01, test_2--1.38865258e-01, val-9.09708203e-01, val_2--1.29391531e-01",
            "lightgbm-L3: train-8.90807195e-01, train_2--1.54427493e-01, test-8.99224806e-01, test_2--1.42175941e-01, val-9.07689484e-01, val_2--1.36694442e-01",
            "best_idx9-L3: train-8.85293320e-01, train_2--1.66756726e-01, test-9.04554264e-01, test_2--1.39331998e-01, val-9.06955405e-01, val_2--1.32422840e-01",
            "weighted-L2: train-8.94784417e-01, train_2--1.51052129e-01, test-9.02374031e-01, test_2--1.39420076e-01, val-9.06037805e-01, val_2--1.32643160e-01",
            "linear-L2: train-8.92253457e-01, train_2--1.54305774e-01, test-9.02131783e-01, test_2--1.40276755e-01, val-9.06037805e-01, val_2--1.36034142e-01",
            "linear-L3: train-8.92343849e-01, train_2--1.54107846e-01, test-8.97771318e-01, test_2--1.42712786e-01, val-9.05670765e-01, val_2--1.34767629e-01",
            "weighted-L3: train-8.90987978e-01, train_2--1.56659241e-01, test-9.02616279e-01, test_2--1.39429116e-01, val-9.05120206e-01, val_2--1.34936646e-01",
            "lightgbm-L2: train-8.94151677e-01, train_2--1.51960727e-01, test-9.00920543e-01, test_2--1.40608183e-01, val-9.04753166e-01, val_2--1.35755437e-01",
            "linear-L1: train-8.94332460e-01, train_2--1.51507747e-01, test-9.02131783e-01, test_2--1.40894310e-01, val-9.04569646e-01, val_2--1.37941063e-01",
            "weighted-L1: train-8.95688330e-01, train_2--1.48435290e-01, test-9.02374031e-01, test_2--1.39176135e-01, val-9.03468526e-01, val_2--1.35602677e-01",
            "lightgbm-L1: train-8.93699720e-01, train_2--1.48857039e-01, test-9.03585271e-01, test_2--1.40713178e-01, val-9.03285006e-01, val_2--1.37101458e-01"
        ],
        "stacking30_0.3_dropout0.2_retainTrue": [
            "best_idx9-L2: train-8.90264847e-01, train_2--1.60292515e-01, test-9.00678295e-01, test_2--1.38865258e-01, val-9.09708203e-01, val_2--1.29391531e-01",
            "weighted-L4: train-8.92976589e-01, train_2--1.51514449e-01, test-9.03100775e-01, test_2--1.38292562e-01, val-9.09341164e-01, val_2--1.31458060e-01",
            "best_idx9-L3: train-8.87733888e-01, train_2--1.65288246e-01, test-9.03100775e-01, test_2--1.38820428e-01, val-9.09157644e-01, val_2--1.32353637e-01",
            "linear-L5: train-8.89632107e-01, train_2--1.57087641e-01, test-8.99224806e-01, test_2--1.40142127e-01, val-9.08974124e-01, val_2--1.33948352e-01",
            "lightgbm-L5: train-8.92705414e-01, train_2--1.52538407e-01, test-9.01647287e-01, test_2--1.41088870e-01, val-9.08974124e-01, val_2--1.36376103e-01",
            "weighted-L2: train-8.95417156e-01, train_2--1.49095227e-01, test-9.00920543e-01, test_2--1.39050472e-01, val-9.08607084e-01, val_2--1.33672247e-01",
            "best_idx9-L5: train-8.83485492e-01, train_2--1.68645826e-01, test-9.02131783e-01, test_2--1.40249319e-01, val-9.08423564e-01, val_2--1.33062100e-01",
            "weighted-L3: train-8.95055591e-01, train_2--1.48954436e-01, test-9.01162791e-01, test_2--1.38808901e-01, val-9.08423564e-01, val_2--1.33417108e-01",
            "best_idx9-L4: train-8.86016451e-01, train_2--1.63167606e-01, test-9.01405039e-01, test_2--1.39543359e-01, val-9.07689484e-01, val_2--1.31912365e-01",
            "weighted-L5: train-8.91259152e-01, train_2--1.53157194e-01, test-9.01889535e-01, test_2--1.38724897e-01, val-9.06771885e-01, val_2--1.31739855e-01",
            "linear-L4: train-8.89541716e-01, train_2--1.54418403e-01, test-9.02131783e-01, test_2--1.40830132e-01, val-9.06221325e-01, val_2--1.34730623e-01",
            "linear-L3: train-8.94061285e-01, train_2--1.52388934e-01, test-9.03827519e-01, test_2--1.41970643e-01, val-9.05854285e-01, val_2--1.37124559e-01",
            "lightgbm-L3: train-8.95055591e-01, train_2--1.51167605e-01, test-9.01889535e-01, test_2--1.39807505e-01, val-9.05303725e-01, val_2--1.35625335e-01",
            "lightgbm-L2: train-8.93699720e-01, train_2--1.51915932e-01, test-9.01647287e-01, test_2--1.40322550e-01, val-9.05120206e-01, val_2--1.35747113e-01",
            "lightgbm-L4: train-8.92343849e-01, train_2--1.52314910e-01, test-9.01889535e-01, test_2--1.40563181e-01, val-9.05120206e-01, val_2--1.36371860e-01",
            "linear-L2: train-8.91168761e-01, train_2--1.54425035e-01, test-9.01405039e-01, test_2--1.40472172e-01, val-9.04936686e-01, val_2--1.36144027e-01",
            "linear-L1: train-8.94332460e-01, train_2--1.51507747e-01, test-9.02131783e-01, test_2--1.40894310e-01, val-9.04569646e-01, val_2--1.37941063e-01",
            "weighted-L1: train-8.95688330e-01, train_2--1.48435290e-01, test-9.02374031e-01, test_2--1.39176135e-01, val-9.03468526e-01, val_2--1.35602677e-01",
            "lightgbm-L1: train-8.93699720e-01, train_2--1.48857039e-01, test-9.03585271e-01, test_2--1.40713178e-01, val-9.03285006e-01, val_2--1.37101458e-01"
        ],
        "stacking30_0.3_dropout0.3_retainTrue": [
            "best_idx8-L2: train-8.90084064e-01, train_2--1.60292642e-01, test-9.02858527e-01, test_2--1.38208719e-01, val-9.09708203e-01, val_2--1.30158683e-01",
            "weighted-L2: train-8.95869113e-01, train_2--1.52045963e-01, test-9.00920543e-01, test_2--1.40044114e-01, val-9.07322444e-01, val_2--1.32991366e-01",
            "best_idx1-L3: train-8.92343849e-01, train_2--1.80840715e-01, test-8.98740310e-01, test_2--1.44900225e-01, val-9.07322444e-01, val_2--1.40619222e-01",
            "linear-L3: train-8.91982283e-01, train_2--1.52426700e-01, test-9.01162791e-01, test_2--1.40627319e-01, val-9.07138925e-01, val_2--1.35628893e-01",
            "weighted-L3: train-8.93609328e-01, train_2--1.51715034e-01, test-9.01647287e-01, test_2--1.38475784e-01, val-9.06955405e-01, val_2--1.32809334e-01",
            "lightgbm-L3: train-8.95417156e-01, train_2--1.49770689e-01, test-9.01647287e-01, test_2--1.39450739e-01, val-9.06771885e-01, val_2--1.34689967e-01",
            "lightgbm-L2: train-8.92886197e-01, train_2--1.50807323e-01, test-9.01889535e-01, test_2--1.39733762e-01, val-9.06588365e-01, val_2--1.35083096e-01",
            "linear-L2: train-8.91801500e-01, train_2--1.53002886e-01, test-9.00678295e-01, test_2--1.39373328e-01, val-9.06588365e-01, val_2--1.35890648e-01",
            "linear-L1: train-8.94332460e-01, train_2--1.51507747e-01, test-9.02131783e-01, test_2--1.40894310e-01, val-9.04569646e-01, val_2--1.37941063e-01",
            "weighted-L1: train-8.95688330e-01, train_2--1.48435290e-01, test-9.02374031e-01, test_2--1.39176135e-01, val-9.03468526e-01, val_2--1.35602677e-01",
            "lightgbm-L1: train-8.93699720e-01, train_2--1.48857039e-01, test-9.03585271e-01, test_2--1.40713178e-01, val-9.03285006e-01, val_2--1.37101458e-01"
        ],
        "stacking30_0.3_dropout0.4_retainTrue": [
            "best_idx8-L2: train-8.86197234e-01, train_2--1.63290382e-01, test-9.03585271e-01, test_2--1.39005571e-01, val-9.09341164e-01, val_2--1.30418510e-01",
            "best_idx1-L3: train-8.93066980e-01, train_2--1.81164541e-01, test-8.98982558e-01, test_2--1.48345522e-01, val-9.06955405e-01, val_2--1.39296345e-01",
            "linear-L3: train-8.91620718e-01, train_2--1.53212931e-01, test-9.05038760e-01, test_2--1.41376146e-01, val-9.06404845e-01, val_2--1.37128749e-01",
            "weighted-L2: train-8.96501853e-01, train_2--1.51942463e-01, test-9.00678295e-01, test_2--1.40452140e-01, val-9.06037805e-01, val_2--1.33282668e-01",
            "lightgbm-L3: train-8.91078369e-01, train_2--1.51464571e-01, test-9.02131783e-01, test_2--1.40526932e-01, val-9.06037805e-01, val_2--1.34771507e-01",
            "weighted-L3: train-8.93609328e-01, train_2--1.51143760e-01, test-9.02616279e-01, test_2--1.38696590e-01, val-9.05854285e-01, val_2--1.32358233e-01",
            "linear-L2: train-8.90264847e-01, train_2--1.53440637e-01, test-9.00920543e-01, test_2--1.40368034e-01, val-9.05854285e-01, val_2--1.36522080e-01",
            "linear-L1: train-8.94332460e-01, train_2--1.51507747e-01, test-9.02131783e-01, test_2--1.40894310e-01, val-9.04569646e-01, val_2--1.37941063e-01",
            "lightgbm-L2: train-8.94422851e-01, train_2--1.51790912e-01, test-8.98498062e-01, test_2--1.41280414e-01, val-9.03652046e-01, val_2--1.35655215e-01",
            "weighted-L1: train-8.95688330e-01, train_2--1.48435290e-01, test-9.02374031e-01, test_2--1.39176135e-01, val-9.03468526e-01, val_2--1.35602677e-01",
            "lightgbm-L1: train-8.93699720e-01, train_2--1.48857039e-01, test-9.03585271e-01, test_2--1.40713178e-01, val-9.03285006e-01, val_2--1.37101458e-01"
        ]
    }
}