{
    "task_type": "CLS",
    "dataset": "dna",
    "refit": "full",
    "filter": "m6_p6",
    "time_limit": 3600,
    "best": 0.9529780564263323,
    "fixed_ens": {
        "ensemble_selection10": 0.9608150470219435,
        "cma_es": 0.9529780564263323,
        "qdo_es": 0.95141065830721,
        "OptDivBO": 0.9529780564263323,
        "EnsOpt": 0.957680250783699,
        "stacking-1_0.4_L1_linear": 0.9561128526645768,
        "stacking-1_0.4_L2_linear": 0.9592476489028213,
        "stacking1000_0.4_L1_linear": 0.9561128526645768,
        "stacking1000_0.4_L2_linear": 0.9639498432601881,
        "ensemble_selection25": 0.9529780564263323,
        "stacking1000_0.4_L1_weighted": 0.9655172413793104,
        "stacking-1_0.4_L1_weighted": 0.9561128526645768,
        "stacking1000_0.4_L2_weighted": 0.9639498432601881,
        "stacking-1_0.4_L2_weighted": 0.9608150470219435,
        "autogluon-": 0.9657568305456159
    },
    "defopt_ens": {
        "s10_r20_d20": "0.9623824451410659, 0.9623824451410659, 0.9623824451410659, 0.957680250783699, 0.9623824451410659, 0.9623824451410659",
        "s10_r40_d20": "0.9623824451410659, 0.9623824451410659, 0.9623824451410659, 0.957680250783699, 0.9623824451410659, 0.9623824451410659",
        "s20_r20_d20": "0.9655172413793104, 0.9639498432601881, 0.9592476489028213, 0.9655172413793104, 0.9623824451410659, 0.9592476489028213",
        "s20_r40_d20": "0.9608150470219435, 0.9623824451410659, 0.9670846394984326, 0.9639498432601881, 0.957680250783699, 0.9670846394984326",
        "s10_r20_d0": "0.9608150470219435, 0.9608150470219435, 0.9623824451410659, 0.9608150470219435, 0.957680250783699, 0.9623824451410659",
        "s10_r40_d0": "0.9608150470219435, 0.9608150470219435, 0.9623824451410659, 0.9608150470219435, 0.957680250783699, 0.9623824451410659",
        "s20_r20_d0": "0.9608150470219435, 0.9623824451410659, 0.9623824451410659, 0.9592476489028213, 0.9592476489028213, 0.9623824451410659",
        "s20_r40_d0": "0.9639498432601881, 0.9623824451410659, 0.9670846394984326, 0.9639498432601881, 0.9592476489028213, 0.9670846394984326"
    },
    "opt_ens": [
        "0.9623824451410659",
        "0.9623824451410659",
        "0.9623824451410659",
        "0.9623824451410659",
        "0.9623824451410659",
        "0.9608150470219435",
        "0.9623824451410659",
        "0.9623824451410659",
        "0.9623824451410659",
        "0.9623824451410659",
        "0.9623824451410659",
        "0.9655172413793104",
        "0.9655172413793104",
        "0.9623824451410659",
        "0.9639498432601881",
        "0.9623824451410659",
        "0.9592476489028213",
        "0.9608150470219435",
        "0.9670846394984326",
        "0.9608150470219435",
        "0.9623824451410659",
        "0.9623824451410659",
        "0.957680250783699",
        "0.9592476489028213",
        "0.9608150470219435",
        "0.9623824451410659",
        "0.9623824451410659",
        "0.9561128526645768",
        "0.9623824451410659",
        "0.9639498432601881"
    ],
    "opt_ens_d0": [
        "0.9623824451410659",
        "0.9623824451410659",
        "0.9608150470219435",
        "0.9608150470219435",
        "0.9608150470219435",
        "0.9608150470219435",
        "0.9608150470219435",
        "0.9608150470219435",
        "0.9608150470219435",
        "0.9608150470219435",
        "0.9592476489028213",
        "0.9608150470219435",
        "0.9608150470219435",
        "0.9608150470219435",
        "0.9592476489028213",
        "0.9561128526645768",
        "0.957680250783699",
        "0.9623824451410659",
        "0.9639498432601881",
        "0.9592476489028213",
        "0.9608150470219435",
        "0.9608150470219435",
        "0.957680250783699",
        "0.9623824451410659",
        "0.9608150470219435",
        "0.9623824451410659",
        "0.9670846394984326",
        "0.957680250783699",
        "0.9608150470219435",
        "0.9592476489028213"
    ],
    "opt_ens_d0-20": [
        "0.9608150470219435",
        "0.9608150470219435",
        "0.9592476489028213",
        "0.9592476489028213",
        "0.9592476489028213",
        "0.9608150470219435",
        "0.9592476489028213",
        "0.9623824451410659",
        "0.9623824451410659",
        "0.9623824451410659",
        "0.9623824451410659",
        "0.9639498432601881",
        "0.9623824451410659",
        "0.9655172413793104",
        "0.9639498432601881",
        "0.9623824451410659",
        "0.9639498432601881",
        "0.9608150470219435",
        "0.9608150470219435",
        "0.9623824451410659",
        "0.9623824451410659",
        "0.957680250783699",
        "0.9623824451410659",
        "0.9623824451410659",
        "0.9623824451410659",
        "0.9608150470219435",
        "0.9545454545454546",
        "0.9608150470219435",
        "0.9623824451410659",
        "0.9639498432601881"
    ],
    "size_exp": {
        "stacking5_-1_L1_linear": [
            "linear-L1: train-9.61335677e-01, train_2--6.40975797e-02, test-9.45141066e-01, test_2--8.46350054e-02, val-9.71462545e-01, val_2--4.86613642e-02"
        ],
        "stacking5_0_L1_linear": [
            "linear-L1: train-9.67193907e-01, train_2--5.55102619e-02, test-9.54545455e-01, test_2--7.11570296e-02, val-9.71462545e-01, val_2--4.90033616e-02"
        ],
        "stacking5_0.1_L1_linear": [
            "linear-L1: train-9.65436438e-01, train_2--5.51451041e-02, test-9.60815047e-01, test_2--6.75825839e-02, val-9.72651605e-01, val_2--4.44010743e-02"
        ],
        "stacking5_0.2_L1_linear": [
            "linear-L1: train-9.66022261e-01, train_2--5.61771868e-02, test-9.59247649e-01, test_2--6.89134703e-02, val-9.73840666e-01, val_2--4.46415163e-02"
        ],
        "stacking5_0.3_L1_linear": [
            "linear-L1: train-9.66022261e-01, train_2--5.61771868e-02, test-9.59247649e-01, test_2--6.89134703e-02, val-9.73840666e-01, val_2--4.46415163e-02"
        ],
        "stacking5_0.4_L1_linear": [
            "linear-L1: train-9.66022261e-01, train_2--5.61771868e-02, test-9.59247649e-01, test_2--6.89134703e-02, val-9.73840666e-01, val_2--4.46415163e-02"
        ],
        "stacking10_-1_L1_linear": [
            "linear-L1: train-9.68365554e-01, train_2--5.22572509e-02, test-9.57680251e-01, test_2--6.89847422e-02, val-9.73840666e-01, val_2--4.45504820e-02"
        ],
        "stacking10_0_L1_linear": [
            "linear-L1: train-9.67193907e-01, train_2--5.43488300e-02, test-9.52978056e-01, test_2--7.14305103e-02, val-9.69084423e-01, val_2--4.91239775e-02"
        ],
        "stacking10_0.1_L1_linear": [
            "linear-L1: train-9.70123023e-01, train_2--5.24235699e-02, test-9.54545455e-01, test_2--7.11639425e-02, val-9.73840666e-01, val_2--4.58410236e-02"
        ],
        "stacking10_0.2_L1_linear": [
            "linear-L1: train-9.70123023e-01, train_2--5.24235699e-02, test-9.54545455e-01, test_2--7.11639425e-02, val-9.73840666e-01, val_2--4.58410236e-02"
        ],
        "stacking10_0.3_L1_linear": [
            "linear-L1: train-9.70123023e-01, train_2--5.24235699e-02, test-9.54545455e-01, test_2--7.11639425e-02, val-9.73840666e-01, val_2--4.58410236e-02"
        ],
        "stacking10_0.4_L1_linear": [
            "linear-L1: train-9.70123023e-01, train_2--5.24235699e-02, test-9.54545455e-01, test_2--7.11639425e-02, val-9.73840666e-01, val_2--4.58410236e-02"
        ],
        "stacking20_-1_L1_linear": [
            "linear-L1: train-9.68951377e-01, train_2--4.90155664e-02, test-9.52978056e-01, test_2--7.37187967e-02, val-9.69084423e-01, val_2--4.87020871e-02"
        ],
        "stacking20_0_L1_linear": [
            "linear-L1: train-9.72466315e-01, train_2--4.90544721e-02, test-9.56112853e-01, test_2--7.20135669e-02, val-9.70273484e-01, val_2--4.95932989e-02"
        ],
        "stacking20_0.1_L1_linear": [
            "linear-L1: train-9.73637961e-01, train_2--4.61232415e-02, test-9.59247649e-01, test_2--6.94619949e-02, val-9.73840666e-01, val_2--4.68864307e-02"
        ],
        "stacking20_0.2_L1_linear": [
            "linear-L1: train-9.74223784e-01, train_2--4.42004133e-02, test-9.57680251e-01, test_2--6.84722271e-02, val-9.73840666e-01, val_2--4.41894545e-02"
        ],
        "stacking20_0.3_L1_linear": [
            "linear-L1: train-9.73637961e-01, train_2--4.33905621e-02, test-9.59247649e-01, test_2--6.59568332e-02, val-9.71462545e-01, val_2--4.40400598e-02"
        ],
        "stacking20_0.4_L1_linear": [
            "linear-L1: train-9.75395431e-01, train_2--4.17718460e-02, test-9.57680251e-01, test_2--6.49882946e-02, val-9.71462545e-01, val_2--4.33788018e-02"
        ],
        "stacking30_-1_L1_linear": [
            "linear-L1: train-9.72466315e-01, train_2--4.47285117e-02, test-9.56112853e-01, test_2--6.96917492e-02, val-9.73840666e-01, val_2--4.55437650e-02"
        ],
        "stacking30_0_L1_linear": [
            "linear-L1: train-9.75981254e-01, train_2--4.48733125e-02, test-9.51410658e-01, test_2--7.39585441e-02, val-9.69084423e-01, val_2--4.92566375e-02"
        ],
        "stacking30_0.1_L1_linear": [
            "linear-L1: train-9.74223784e-01, train_2--4.17548029e-02, test-9.56112853e-01, test_2--7.01812276e-02, val-9.72651605e-01, val_2--4.57492406e-02"
        ],
        "stacking30_0.2_L1_linear": [
            "linear-L1: train-9.73637961e-01, train_2--4.14541909e-02, test-9.54545455e-01, test_2--7.07363564e-02, val-9.71462545e-01, val_2--4.57382352e-02"
        ],
        "stacking30_0.3_L1_linear": [
            "linear-L1: train-9.78324546e-01, train_2--3.79117067e-02, test-9.57680251e-01, test_2--6.59031923e-02, val-9.73840666e-01, val_2--4.39291739e-02"
        ],
        "stacking30_0.4_L1_linear": [
            "linear-L1: train-9.77738723e-01, train_2--3.82253478e-02, test-9.57680251e-01, test_2--6.58112796e-02, val-9.75029727e-01, val_2--4.34993986e-02"
        ],
        "stacking40_-1_L1_linear": [
            "linear-L1: train-9.74809607e-01, train_2--4.21295668e-02, test-9.49843260e-01, test_2--7.27932339e-02, val-9.72651605e-01, val_2--4.46211639e-02"
        ],
        "stacking40_0_L1_linear": [
            "linear-L1: train-9.78324546e-01, train_2--4.06833409e-02, test-9.51410658e-01, test_2--7.38740502e-02, val-9.69084423e-01, val_2--4.87214069e-02"
        ],
        "stacking40_0.1_L1_linear": [
            "linear-L1: train-9.76567077e-01, train_2--3.87539221e-02, test-9.56112853e-01, test_2--7.10177765e-02, val-9.70273484e-01, val_2--4.69212244e-02"
        ],
        "stacking40_0.2_L1_linear": [
            "linear-L1: train-9.80082015e-01, train_2--3.52576533e-02, test-9.56112853e-01, test_2--6.59277478e-02, val-9.72651605e-01, val_2--4.52526015e-02"
        ],
        "stacking40_0.3_L1_linear": [
            "linear-L1: train-9.80082015e-01, train_2--3.52576533e-02, test-9.56112853e-01, test_2--6.59277478e-02, val-9.72651605e-01, val_2--4.52526015e-02"
        ],
        "stacking40_0.4_L1_linear": [
            "linear-L1: train-9.81253661e-01, train_2--3.47446827e-02, test-9.56112853e-01, test_2--6.28394425e-02, val-9.73840666e-01, val_2--4.47500367e-02"
        ],
        "stacking-1_0.4_L1_linear": [
            "linear-L1: train-0.96895, train_2--0.05304, test-0.95925, test_2--0.06826, val-0.97265, val_2--0.04490"
        ],
        "stacking1000_0.4_L1_linear": [
            "linear-L1: train-0.99121, train_2--0.01552, test-0.95611, test_2--0.06808, val-0.97027, val_2--0.04569"
        ],
        "stacking5_0.49_L1_linear": [
            "linear-L1: train-0.96485, train_2--0.05797, test-0.96238, test_2--0.06920, val-0.97265, val_2--0.04652"
        ],
        "stacking10_0.49_L1_linear": [
            "linear-L1: train-0.96954, train_2--0.05163, test-0.95298, test_2--0.07187, val-0.97146, val_2--0.04590"
        ],
        "stacking20_0.49_L1_linear": [
            "linear-L1: train-0.97422, train_2--0.04158, test-0.95611, test_2--0.06488, val-0.97265, val_2--0.04330"
        ],
        "stacking30_0.49_L1_linear": [
            "linear-L1: train-0.97774, train_2--0.03823, test-0.95768, test_2--0.06581, val-0.97503, val_2--0.04350"
        ],
        "stacking40_0.49_L1_linear": [
            "linear-L1: train-0.98125, train_2--0.03474, test-0.95611, test_2--0.06284, val-0.97384, val_2--0.04475"
        ],
        "stacking50_-1_L1_linear": [
            "linear-L1: train-0.97598, train_2--0.03911, test-0.95611, test_2--0.06547, val-0.97265, val_2--0.04542"
        ],
        "stacking50_0_L1_linear": [
            "linear-L1: train-0.97950, train_2--0.03812, test-0.95298, test_2--0.07076, val-0.97146, val_2--0.04701"
        ],
        "stacking50_0.1_L1_linear": [
            "linear-L1: train-0.97774, train_2--0.03632, test-0.95298, test_2--0.06990, val-0.97503, val_2--0.04725"
        ],
        "stacking50_0.2_L1_linear": [
            "linear-L1: train-0.98125, train_2--0.03280, test-0.95455, test_2--0.06659, val-0.97146, val_2--0.04653"
        ],
        "stacking50_0.3_L1_linear": [
            "linear-L1: train-0.98067, train_2--0.03299, test-0.95925, test_2--0.06430, val-0.97265, val_2--0.04692"
        ],
        "stacking50_0.4_L1_linear": [
            "linear-L1: train-0.98184, train_2--0.03242, test-0.95768, test_2--0.06402, val-0.97265, val_2--0.04652"
        ],
        "stacking50_0.49_L1_linear": [
            "linear-L1: train-0.98184, train_2--0.03242, test-0.95768, test_2--0.06402, val-0.97265, val_2--0.04652"
        ]
    },
    "retain_exp": {
        "stacking10_0.4_L1_weighted_retainFalse": [
            [
                {
                    "train": [
                        0.9560632688927944,
                        0.9619214997070885,
                        0.9589923842999414,
                        0.9437609841827768,
                        0.9326303456356181,
                        0.9595782073813708,
                        0.9578207381370826,
                        0.9589923842999414,
                        0.9566490919742238,
                        0.9619214997070885
                    ],
                    "train_2": [
                        -0.07378611369140883,
                        -0.06691576025418568,
                        -0.06758584817048766,
                        -0.09661797539979419,
                        -0.11169837634960127,
                        -0.06356273062891721,
                        -0.07287319547320403,
                        -0.07109826934780464,
                        -0.06546623871408565,
                        -0.06576637727308576
                    ],
                    "test": [
                        0.9545454545454546,
                        0.9529780564263323,
                        0.9529780564263323,
                        0.9388714733542319,
                        0.9373040752351097,
                        0.9435736677115988,
                        0.945141065830721,
                        0.9467084639498433,
                        0.9435736677115988,
                        0.945141065830721
                    ],
                    "test_2": [
                        -0.07231857876755568,
                        -0.07571842251165048,
                        -0.07671986529267799,
                        -0.08850048015667326,
                        -0.09140558232470046,
                        -0.07110682097410881,
                        -0.07969370488678275,
                        -0.07532975997719676,
                        -0.08032753542873047,
                        -0.08342816538942018
                    ],
                    "val": [
                        0.9655172413793104,
                        0.9690844233055886,
                        0.9631391200951248,
                        0.9619500594530321,
                        0.9607609988109393,
                        0.9678953626634959,
                        0.9690844233055886,
                        0.9678953626634959,
                        0.9702734839476813,
                        0.9655172413793104
                    ],
                    "val_2": [
                        -0.0557461406824383,
                        -0.054316024066624564,
                        -0.05538180867168505,
                        -0.061480001015572765,
                        -0.061627986881860206,
                        -0.05022561416860647,
                        -0.05172682665219934,
                        -0.0545882262164236,
                        -0.05411131461299604,
                        -0.052035232829283705
                    ]
                },
                {
                    "train": [
                        0.9607498535442296,
                        0.9636789689513767,
                        0.9607498535442296,
                        0.9543057996485061,
                        0.9578207381370826,
                        0.9595782073813708,
                        0.9607498535442296,
                        0.8951376684241359,
                        0.9595782073813708,
                        0.9589923842999414
                    ],
                    "train_2": [
                        -0.07474379276221207,
                        -0.06890491178757478,
                        -0.07717100655849349,
                        -0.0867590117871553,
                        -0.08185504010235363,
                        -0.0703927829768619,
                        -0.07435701338196922,
                        -0.20856325029592007,
                        -0.07032452652265009,
                        -0.07428673336207291
                    ],
                    "test": [
                        0.9592476489028213,
                        0.9623824451410659,
                        0.957680250783699,
                        0.9561128526645768,
                        0.957680250783699,
                        0.9592476489028213,
                        0.9608150470219435,
                        0.957680250783699,
                        0.9561128526645768,
                        0.9592476489028213
                    ],
                    "test_2": [
                        -0.07171748583098661,
                        -0.07291218975271929,
                        -0.073529283208197,
                        -0.07116683311579959,
                        -0.07467026521056416,
                        -0.0691823821414903,
                        -0.07217274849770988,
                        -0.09546314860425395,
                        -0.07237939888397824,
                        -0.07040749580741276
                    ],
                    "val": [
                        0.9702734839476813,
                        0.9726516052318668,
                        0.9714625445897741,
                        0.9726516052318668,
                        0.9690844233055886,
                        0.9690844233055886,
                        0.9678953626634959,
                        0.9702734839476813,
                        0.9643281807372176,
                        0.9655172413793104
                    ],
                    "val_2": [
                        -0.052161226977509224,
                        -0.05341366172743192,
                        -0.04948589161853835,
                        -0.049969775141481265,
                        -0.04812395530043834,
                        -0.04892244490902923,
                        -0.05572138176664526,
                        -0.07494026093150426,
                        -0.05202813109797408,
                        -0.052967266799979124
                    ]
                },
                {
                    "train": [
                        0.9595782073813708,
                        0.9595782073813708,
                        0.9619214997070885,
                        0.9636789689513767,
                        0.955477445811365,
                        0.9566490919742238,
                        0.9601640304628002,
                        0.9484475688342121,
                        0.9566490919742238,
                        0.9560632688927944
                    ],
                    "train_2": [
                        -0.07874901581349668,
                        -0.07436849134433038,
                        -0.07203391209185242,
                        -0.07197489348025851,
                        -0.08404696969741023,
                        -0.07322676848399985,
                        -0.0725451503999246,
                        -0.09870577483826765,
                        -0.07804971406761688,
                        -0.08054532895916773
                    ],
                    "test": [
                        0.9608150470219435,
                        0.9608150470219435,
                        0.957680250783699,
                        0.9608150470219435,
                        0.9529780564263323,
                        0.95141065830721,
                        0.945141065830721,
                        0.9482758620689655,
                        0.9482758620689655,
                        0.95141065830721
                    ],
                    "test_2": [
                        -0.07091687084235646,
                        -0.07477457520548907,
                        -0.07536110092064792,
                        -0.07417341377490458,
                        -0.07671451165356195,
                        -0.07826590602311617,
                        -0.08724155741609668,
                        -0.0854486907934092,
                        -0.07976388345245063,
                        -0.08052481312545218
                    ],
                    "val": [
                        0.9714625445897741,
                        0.9714625445897741,
                        0.9714625445897741,
                        0.9726516052318668,
                        0.9690844233055886,
                        0.9643281807372176,
                        0.9619500594530321,
                        0.9607609988109393,
                        0.9643281807372176,
                        0.9631391200951248
                    ],
                    "val_2": [
                        -0.04797312963265449,
                        -0.05104808450579059,
                        -0.05096622821991412,
                        -0.05006071796941434,
                        -0.04790807891873044,
                        -0.059375317947712,
                        -0.06221258869118971,
                        -0.06339339200364065,
                        -0.059587274655627145,
                        -0.05768786385232227
                    ]
                },
                {
                    "train": [
                        0.9578207381370826,
                        0.958406561218512,
                        0.958406561218512,
                        0.9478617457527827,
                        0.9531341534856473,
                        0.9572349150556532,
                        0.9578207381370826,
                        0.9560632688927944,
                        0.9566490919742238,
                        0.9543057996485061
                    ],
                    "train_2": [
                        -0.08149263906736305,
                        -0.07835069009418166,
                        -0.07971027528383744,
                        -0.09960043422757811,
                        -0.08877378108548462,
                        -0.07527530049273748,
                        -0.08116160811196656,
                        -0.08177682592648489,
                        -0.08092862475880451,
                        -0.08418503346221845
                    ],
                    "test": [
                        0.9529780564263323,
                        0.9545454545454546,
                        0.9529780564263323,
                        0.9561128526645768,
                        0.9482758620689655,
                        0.9482758620689655,
                        0.9498432601880877,
                        0.9467084639498433,
                        0.95141065830721,
                        0.95141065830721
                    ],
                    "test_2": [
                        -0.07846644559545451,
                        -0.08282310663301533,
                        -0.08131336249133893,
                        -0.07769274068861479,
                        -0.0842115748699956,
                        -0.07913682318748935,
                        -0.08365018988772191,
                        -0.08522149599043718,
                        -0.07871660234027039,
                        -0.08000323136990749
                    ],
                    "val": [
                        0.9690844233055886,
                        0.9667063020214031,
                        0.9631391200951248,
                        0.9690844233055886,
                        0.9655172413793104,
                        0.9631391200951248,
                        0.9619500594530321,
                        0.9643281807372176,
                        0.9583828775267539,
                        0.9607609988109393
                    ],
                    "val_2": [
                        -0.051172311145317624,
                        -0.05459156279611187,
                        -0.05873288135257618,
                        -0.0525780840936409,
                        -0.05587314803805739,
                        -0.05624255313558018,
                        -0.05950077876313478,
                        -0.05816020647902698,
                        -0.05967730315002291,
                        -0.057128816291704666
                    ]
                },
                {
                    "train": [
                        0.9543057996485061,
                        0.955477445811365,
                        0.9566490919742238,
                        0.9548916227299356,
                        0.9496192149970709,
                        0.9519625073227885,
                        0.955477445811365,
                        0.8711189220855302,
                        0.9560632688927944,
                        0.955477445811365
                    ],
                    "train_2": [
                        -0.08889511031479538,
                        -0.08533262570465734,
                        -0.08552806884190021,
                        -0.0871164654981529,
                        -0.09418137375733132,
                        -0.08462833826888934,
                        -0.08725736944244676,
                        -0.25580931804875434,
                        -0.08220029471015815,
                        -0.08406389225949046
                    ],
                    "test": [
                        0.9482758620689655,
                        0.95141065830721,
                        0.95141065830721,
                        0.9529780564263323,
                        0.9498432601880877,
                        0.9482758620689655,
                        0.9529780564263323,
                        0.945141065830721,
                        0.9467084639498433,
                        0.9467084639498433
                    ],
                    "test_2": [
                        -0.08213966134250118,
                        -0.08111492131510938,
                        -0.08292915274962738,
                        -0.08287559717776774,
                        -0.07876065860035841,
                        -0.07545956597381306,
                        -0.07871547335617345,
                        -0.11463253346364034,
                        -0.07928106087414039,
                        -0.07845470224202665
                    ],
                    "val": [
                        0.9690844233055886,
                        0.9643281807372176,
                        0.9678953626634959,
                        0.9690844233055886,
                        0.9678953626634959,
                        0.9619500594530321,
                        0.9631391200951248,
                        0.9560047562425684,
                        0.9631391200951248,
                        0.9619500594530321
                    ],
                    "val_2": [
                        -0.05210127296874947,
                        -0.05328126757916704,
                        -0.05318107350194735,
                        -0.051733554782438594,
                        -0.05540856025573618,
                        -0.06052595990693414,
                        -0.06052085424788214,
                        -0.09942080362001067,
                        -0.05977464513041315,
                        -0.0572807309420785
                    ]
                }
            ],
            [
                "linear-L1: train-0.96602, train_2--0.06003, test-0.95455, test_2--0.07116, val-0.97384, val_2--0.04584",
                "weighted-L1: train-0.96016, train_2--0.05936, test-0.95768, test_2--0.06741, val-0.97384, val_2--0.04608",
                "best_idx3-L2: train-0.95431, train_2--0.08676, test-0.95611, test_2--0.07117, val-0.97265, val_2--0.04997",
                "best_idx3-L3: train-0.96368, train_2--0.07197, test-0.96082, test_2--0.07417, val-0.97265, val_2--0.05006",
                "weighted-L2: train-0.96368, train_2--0.06694, test-0.96238, test_2--0.06967, val-0.97265, val_2--0.05012",
                "linear-L2: train-0.96134, train_2--0.07002, test-0.96238, test_2--0.07066, val-0.97146, val_2--0.05234",
                "weighted-L3: train-0.96251, train_2--0.06933, test-0.95768, test_2--0.07113, val-0.97027, val_2--0.04964",
                "best_idx0-L4: train-0.95782, train_2--0.08149, test-0.95298, test_2--0.07847, val-0.96908, val_2--0.05117",
                "best_idx3-L5: train-0.95489, train_2--0.08712, test-0.95298, test_2--0.08288, val-0.96908, val_2--0.05173",
                "linear-L4: train-0.95606, train_2--0.07794, test-0.95298, test_2--0.07929, val-0.96790, val_2--0.05405",
                "weighted-L5: train-0.95372, train_2--0.08369, test-0.94984, test_2--0.07594, val-0.96552, val_2--0.05280",
                "weighted-L4: train-0.95665, train_2--0.07694, test-0.95141, test_2--0.07791, val-0.96433, val_2--0.05431",
                "linear-L3: train-0.95958, train_2--0.06889, test-0.95298, test_2--0.07944, val-0.96314, val_2--0.05861",
                "linear-L5: train-0.95255, train_2--0.08588, test-0.94984, test_2--0.08020, val-0.96195, val_2--0.05804"
            ]
        ],
        "stacking10_0.4_L1_weighted_retainTrue": [
            [
                {
                    "train": [
                        0.9560632688927944,
                        0.9619214997070885,
                        0.9589923842999414,
                        0.9437609841827768,
                        0.9326303456356181,
                        0.9595782073813708,
                        0.9578207381370826,
                        0.9589923842999414,
                        0.9566490919742238,
                        0.9619214997070885
                    ],
                    "train_2": [
                        -0.07378611369140883,
                        -0.06691576025418568,
                        -0.06758584817048766,
                        -0.09661797539979419,
                        -0.11169837634960127,
                        -0.06356273062891721,
                        -0.07287319547320403,
                        -0.07109826934780464,
                        -0.06546623871408565,
                        -0.06576637727308576
                    ],
                    "test": [
                        0.9545454545454546,
                        0.9529780564263323,
                        0.9529780564263323,
                        0.9388714733542319,
                        0.9373040752351097,
                        0.9435736677115988,
                        0.945141065830721,
                        0.9467084639498433,
                        0.9435736677115988,
                        0.945141065830721
                    ],
                    "test_2": [
                        -0.07231857876755568,
                        -0.0757184225116505,
                        -0.07671986529267799,
                        -0.08850048015667326,
                        -0.09140558232470046,
                        -0.07110682097410881,
                        -0.07969370488678276,
                        -0.07532975997719675,
                        -0.08032753542873047,
                        -0.08342816538942018
                    ],
                    "val": [
                        0.9655172413793104,
                        0.9690844233055886,
                        0.9631391200951248,
                        0.9619500594530321,
                        0.9607609988109393,
                        0.9678953626634959,
                        0.9690844233055886,
                        0.9678953626634959,
                        0.9702734839476813,
                        0.9655172413793104
                    ],
                    "val_2": [
                        -0.0557461406824383,
                        -0.054316024066624564,
                        -0.05538180867168505,
                        -0.061480001015572765,
                        -0.06162798688186021,
                        -0.05022561416860647,
                        -0.05172682665219934,
                        -0.0545882262164236,
                        -0.05411131461299604,
                        -0.05203523282928371
                    ]
                },
                {
                    "train": [
                        0.9607498535442296,
                        0.9636789689513767,
                        0.9607498535442296,
                        0.9543057996485061,
                        0.9578207381370826,
                        0.9595782073813708,
                        0.9578207381370826,
                        0.8951376684241359,
                        0.9566490919742238,
                        0.9619214997070885
                    ],
                    "train_2": [
                        -0.07474379276221207,
                        -0.06890491178757478,
                        -0.07717100655849349,
                        -0.0867590117871553,
                        -0.08185504010235363,
                        -0.0703927829768619,
                        -0.07287319547320403,
                        -0.20856325029592007,
                        -0.06546623871408565,
                        -0.06576637727308576
                    ],
                    "test": [
                        0.9592476489028213,
                        0.9623824451410659,
                        0.957680250783699,
                        0.9561128526645768,
                        0.957680250783699,
                        0.9592476489028213,
                        0.945141065830721,
                        0.957680250783699,
                        0.9435736677115988,
                        0.945141065830721
                    ],
                    "test_2": [
                        -0.07171748583098662,
                        -0.07291218975271929,
                        -0.073529283208197,
                        -0.07116683311579959,
                        -0.07467026521056416,
                        -0.0691823821414903,
                        -0.07969370488678276,
                        -0.09546314860425395,
                        -0.08032753542873047,
                        -0.08342816538942018
                    ],
                    "val": [
                        0.9702734839476813,
                        0.9726516052318668,
                        0.9714625445897741,
                        0.9726516052318668,
                        0.9690844233055886,
                        0.9690844233055886,
                        0.9690844233055886,
                        0.9702734839476813,
                        0.9702734839476813,
                        0.9655172413793104
                    ],
                    "val_2": [
                        -0.05216122697750923,
                        -0.0534136617274319,
                        -0.04948589161853835,
                        -0.049969775141481265,
                        -0.04812395530043834,
                        -0.048922444909029236,
                        -0.05172682665219934,
                        -0.07494026093150426,
                        -0.05411131461299604,
                        -0.05203523282928371
                    ]
                },
                {
                    "train": [
                        0.9625073227885179,
                        0.9636789689513767,
                        0.9607498535442296,
                        0.9543057996485061,
                        0.9578207381370826,
                        0.9595782073813708,
                        0.9578207381370826,
                        0.8951376684241359,
                        0.9566490919742238,
                        0.9619214997070885
                    ],
                    "train_2": [
                        -0.07289238630329974,
                        -0.06890491178757478,
                        -0.07717100655849349,
                        -0.0867590117871553,
                        -0.08185504010235363,
                        -0.0703927829768619,
                        -0.07287319547320403,
                        -0.20856325029592007,
                        -0.06546623871408565,
                        -0.06576637727308576
                    ],
                    "test": [
                        0.957680250783699,
                        0.9623824451410659,
                        0.957680250783699,
                        0.9561128526645768,
                        0.957680250783699,
                        0.9592476489028213,
                        0.945141065830721,
                        0.957680250783699,
                        0.9435736677115988,
                        0.945141065830721
                    ],
                    "test_2": [
                        -0.07401431367122534,
                        -0.07291218975271929,
                        -0.073529283208197,
                        -0.07116683311579959,
                        -0.07467026521056416,
                        -0.0691823821414903,
                        -0.07969370488678276,
                        -0.09546314860425395,
                        -0.08032753542873047,
                        -0.08342816538942018
                    ],
                    "val": [
                        0.9726516052318668,
                        0.9726516052318668,
                        0.9714625445897741,
                        0.9726516052318668,
                        0.9690844233055886,
                        0.9690844233055886,
                        0.9690844233055886,
                        0.9702734839476813,
                        0.9702734839476813,
                        0.9655172413793104
                    ],
                    "val_2": [
                        -0.0490554366523195,
                        -0.0534136617274319,
                        -0.04948589161853835,
                        -0.049969775141481265,
                        -0.04812395530043834,
                        -0.048922444909029236,
                        -0.05172682665219934,
                        -0.07494026093150426,
                        -0.05411131461299604,
                        -0.05203523282928371
                    ]
                },
                {
                    "train": [
                        0.9625073227885179,
                        0.9636789689513767,
                        0.9607498535442296,
                        0.9543057996485061,
                        0.9578207381370826,
                        0.9595782073813708,
                        0.9578207381370826,
                        0.8951376684241359,
                        0.9566490919742238,
                        0.9619214997070885
                    ],
                    "train_2": [
                        -0.07289238630329974,
                        -0.06890491178757478,
                        -0.07717100655849349,
                        -0.0867590117871553,
                        -0.08185504010235363,
                        -0.0703927829768619,
                        -0.07287319547320403,
                        -0.20856325029592007,
                        -0.06546623871408565,
                        -0.06576637727308576
                    ],
                    "test": [
                        0.957680250783699,
                        0.9623824451410659,
                        0.957680250783699,
                        0.9561128526645768,
                        0.957680250783699,
                        0.9592476489028213,
                        0.945141065830721,
                        0.957680250783699,
                        0.9435736677115988,
                        0.945141065830721
                    ],
                    "test_2": [
                        -0.07401431367122534,
                        -0.07291218975271929,
                        -0.073529283208197,
                        -0.07116683311579959,
                        -0.07467026521056416,
                        -0.0691823821414903,
                        -0.07969370488678276,
                        -0.09546314860425395,
                        -0.08032753542873047,
                        -0.08342816538942018
                    ],
                    "val": [
                        0.9726516052318668,
                        0.9726516052318668,
                        0.9714625445897741,
                        0.9726516052318668,
                        0.9690844233055886,
                        0.9690844233055886,
                        0.9690844233055886,
                        0.9702734839476813,
                        0.9702734839476813,
                        0.9655172413793104
                    ],
                    "val_2": [
                        -0.0490554366523195,
                        -0.0534136617274319,
                        -0.04948589161853835,
                        -0.049969775141481265,
                        -0.04812395530043834,
                        -0.048922444909029236,
                        -0.05172682665219934,
                        -0.07494026093150426,
                        -0.05411131461299604,
                        -0.05203523282928371
                    ]
                }
            ],
            [
                "linear-L1: train-0.96602, train_2--0.06003, test-0.95455, test_2--0.07116, val-0.97384, val_2--0.04584",
                "weighted-L1: train-0.96016, train_2--0.05936, test-0.95768, test_2--0.06741, val-0.97384, val_2--0.04608",
                "best_idx3-L3: train-0.95431, train_2--0.08241, test-0.95298, test_2--0.06920, val-0.97265, val_2--0.04903",
                "best_idx3-L2: train-0.95431, train_2--0.08676, test-0.95611, test_2--0.07117, val-0.97265, val_2--0.04997",
                "weighted-L3: train-0.96368, train_2--0.06425, test-0.95611, test_2--0.06886, val-0.97146, val_2--0.04703",
                "weighted-L2: train-0.96251, train_2--0.06341, test-0.95611, test_2--0.06886, val-0.97146, val_2--0.04703",
                "best_idx2-L4: train-0.96251, train_2--0.07333, test-0.95611, test_2--0.07378, val-0.97146, val_2--0.04804",
                "linear-L3: train-0.96016, train_2--0.06430, test-0.95455, test_2--0.07611, val-0.97027, val_2--0.05246",
                "linear-L2: train-0.96192, train_2--0.06325, test-0.95298, test_2--0.07896, val-0.96908, val_2--0.05291"
            ]
        ]
    },
    "dropoutreg_exp": {
        "stacking30_0.3_L1_lineardropout0": [
            [
                [
                    0.3480251748579994,
                    0.038998346352389524,
                    -0.3869933088382128,
                    0.1969824661598275,
                    0.3148455464770691,
                    -0.511797800264718,
                    -0.013004921194846784,
                    0.03693005697314738,
                    -0.02389492340612187,
                    -0.1471558950933691,
                    0.49640147613643654,
                    -0.34921536867089203,
                    -0.18983362488121402,
                    -0.0756654713569635,
                    0.26552930861035495,
                    0.25410293705808557,
                    0.08983673726056102,
                    -0.34390946194646377,
                    0.6008189272249804,
                    -0.4168532644179321,
                    -0.1839354504348701,
                    -0.25335207631273343,
                    0.27407705632330986,
                    -0.020694767638397792,
                    0.36372652482846696,
                    -0.22038792087859452,
                    -0.1433083915776915,
                    0.055785040035951326,
                    0.14282569020336452,
                    -0.19858051786713787,
                    0.19279338915480082,
                    0.10458497098298643,
                    -0.29734814776560864,
                    -0.18428111581664566,
                    0.06738455198210355,
                    0.11692677620671878,
                    0.13448505662515514,
                    0.02869420165615676,
                    -0.16314904590913304,
                    -0.4443851317974284,
                    0.28571537777391137,
                    0.1586999663956913,
                    -0.011858262991450094,
                    -0.20604035508862426,
                    0.21792883045225164,
                    0.2972648299764412,
                    -0.2687009057826011,
                    -0.028533711821661128,
                    -0.06906603931195344,
                    0.01223657885767831,
                    0.05685967282645382,
                    0.554297595061102,
                    -0.39801645926956264,
                    -0.15625092341936272,
                    -0.4091524654849288,
                    0.27097545531906736,
                    0.13820722253803785,
                    0.20144803147682405,
                    -0.5583978931830441,
                    0.3569800740783978,
                    0.7214524331910837,
                    -0.08800225228690371,
                    -0.6334199685320027,
                    0.67023315965894,
                    -1.1252687772575976,
                    0.45506582997083483,
                    0.30401808112796547,
                    -0.26491545650852655,
                    -0.03907241224726277,
                    0.284417960546412,
                    -0.3370771749707788,
                    0.05268942679654628,
                    -0.03891011712641468,
                    -0.013496941477821591,
                    0.05243727097641297,
                    -0.39477925292257526,
                    0.5493063406837619,
                    -0.15449687538900952,
                    0.13546645066157678,
                    -0.03646737121532032,
                    -0.09896886707407812,
                    0.2567846924794703,
                    -0.28360969969257815,
                    0.026855219585283124,
                    0.34859625519422793,
                    -0.2949956929593734,
                    -0.05357034986267682,
                    0.7007559138927925,
                    -0.5815800288567111,
                    -0.11914567266390243
                ],
                [
                    -0.06871816791051684,
                    0.0017968208628601273,
                    0.06694688911866503,
                    0.046170580199464434,
                    0.5068943493713737,
                    -0.5530393874998318,
                    -0.200112079833912,
                    0.2745129159965412,
                    -0.07437529409162238,
                    0.3111781082641768,
                    -0.38506122019218286,
                    0.07390865399901612,
                    0.30205231058022036,
                    -0.052038865875463934,
                    -0.24998790263374895,
                    -0.0147946616703794,
                    0.02065327788854826,
                    -0.0058330741471557665,
                    -0.2596921383811052,
                    -0.23216552345778182,
                    0.4918832039098934,
                    0.5157956155521944,
                    -0.34586012752231465,
                    -0.16990994595886932,
                    -0.49768980514056715,
                    0.5072502493200376,
                    -0.009534902108457382,
                    0.3234120855795221,
                    -0.31221058226792425,
                    -0.011175961240591063,
                    -0.29445155336636064,
                    0.09846680787102646,
                    0.19601028756634126,
                    0.1561170230467898,
                    -0.028236644579971885,
                    -0.12785483639581122,
                    -0.09556394930910053,
                    0.2203625703696408,
                    -0.1247730789895303,
                    0.3498390957780535,
                    -0.5670249558292618,
                    0.2172114021222174,
                    -0.043136687546181086,
                    0.5950394017886304,
                    -0.5518771721714412,
                    -0.3163506207941986,
                    0.1587478866590651,
                    0.15762827620614708,
                    -0.36499579088268846,
                    0.5969890603855845,
                    -0.2319677274318801,
                    -0.4947377907804764,
                    0.5738192848884862,
                    -0.07905595203700304,
                    0.34655913001299893,
                    -0.5803007665196005,
                    0.2337671785776161,
                    -0.4263115976042752,
                    0.6091138826160905,
                    -0.18277674294080534,
                    -0.5200740517025764,
                    0.6710942664297036,
                    -0.15099467265611938,
                    -0.43593607755932134,
                    0.9912112222941036,
                    -0.5552496026637704,
                    -0.033643766754638184,
                    0.10756777748936487,
                    -0.0738984686637191,
                    -0.06375466307164868,
                    -0.1054324789211381,
                    0.16921268406379214,
                    0.1411323015755263,
                    0.11131061814777032,
                    -0.25241737765228817,
                    0.6664729864457574,
                    -0.6732211496509434,
                    0.006773705276194355,
                    -0.003598905335123879,
                    -0.2314320195421476,
                    0.23505646694827975,
                    -0.18433598664343426,
                    0.14104981173537787,
                    0.04331171697906475,
                    -0.23543436497924874,
                    0.5405685230751085,
                    -0.3051086160248531,
                    -0.6363603384889579,
                    0.59036311744613,
                    0.04602276311383269
                ],
                [
                    -0.27930700694748084,
                    -0.040795167215249346,
                    0.32004641971954767,
                    -0.24315304635929214,
                    -0.8217398958484406,
                    1.0648371877645466,
                    0.21311700102875858,
                    -0.3114429729696856,
                    0.09827021749774478,
                    -0.16402221317080662,
                    -0.1113402559442538,
                    0.27530671467187584,
                    -0.1122186856990074,
                    0.12770433723242947,
                    -0.015541405976605601,
                    -0.23930827538770683,
                    -0.11049001514909708,
                    0.34974253609362,
                    -0.34112678884387226,
                    0.649018787875714,
                    -0.3079477534750237,
                    -0.2624435392394601,
                    0.07178307119900834,
                    0.19060471359726763,
                    0.13396328031210333,
                    -0.28686232844143533,
                    0.15284329368614832,
                    -0.37919712561547086,
                    0.1693848920645599,
                    0.20975647910772793,
                    0.10165816421156088,
                    -0.20305177885401116,
                    0.10133786019926834,
                    0.028164092769854578,
                    -0.03914790740212981,
                    0.010928060189093087,
                    -0.0389211073160541,
                    -0.24905677202579352,
                    0.2879221248986639,
                    0.09454603601937711,
                    0.2813095780553518,
                    -0.37591136851790813,
                    0.05499495053763137,
                    -0.3889990467000013,
                    0.3339483417191868,
                    0.019085790817754533,
                    0.10995301912354184,
                    -0.1290945643844846,
                    0.4340618301946401,
                    -0.6092256392432593,
                    0.17510805460542625,
                    -0.05955980428062598,
                    -0.17580282561892444,
                    0.2353068754563662,
                    0.06259333547192861,
                    0.3093253112005327,
                    -0.3719744011156559,
                    0.22486356612745242,
                    -0.05071598943304236,
                    -0.17420333113759168,
                    -0.20137838148850437,
                    -0.5830920141428002,
                    0.7844146411881208,
                    -0.23429708209961672,
                    0.13405755496349542,
                    0.10018377269293613,
                    -0.2703743143733291,
                    0.1573476790191637,
                    0.11297088091098187,
                    -0.22066329747476315,
                    0.44250965389192254,
                    -0.22190211086033945,
                    -0.10222218444911114,
                    -0.09781367666994789,
                    0.19998010667587543,
                    -0.27169373352318116,
                    0.1239148089671825,
                    0.1477231701128152,
                    -0.1318675453264544,
                    0.26789939075747,
                    -0.13608759987420094,
                    -0.07244870583603476,
                    0.14255988795720104,
                    -0.0701669365643497,
                    -0.11316189021497933,
                    -0.24557283011573333,
                    0.3586789658875302,
                    -0.06439557540383632,
                    -0.008783088589417346,
                    0.07312290955006892
                ]
            ],
            [
                "linear-L1: train-0.96309, train_2--0.06009, test-0.95768, test_2--0.06590, val-0.97384, val_2--0.04393"
            ]
        ],
        "stacking30_0.3_L1_lineardropout0.1": [
            [
                [
                    0.4766049871306488,
                    -0.19478810722618228,
                    -0.2818279369818504,
                    0.20081432974458938,
                    0.24246504406644218,
                    -0.4432904308884142,
                    -0.031007568156644235,
                    0.11060930456408903,
                    -0.07961279348482543,
                    -0.11344186232400351,
                    0.5395652533328681,
                    -0.42613444808624984,
                    -0.21539645758491685,
                    0.0580356403381602,
                    0.157349760169373,
                    0.04003073309607072,
                    0.2539052117322249,
                    -0.2939470019056746,
                    0.479599646221618,
                    -0.3138106667047637,
                    -0.16580003659423465,
                    -0.17264555446898106,
                    0.22031802359732272,
                    -0.047683526205723484,
                    0.24376425561607273,
                    -0.10000912797556806,
                    -0.1437661847178848,
                    0.04908988581194777,
                    -0.05620752672824111,
                    0.00710658383891022,
                    0.2999453598380979,
                    0.12326426766847011,
                    -0.42322068458395196,
                    -0.263700297455976,
                    0.0886612447276224,
                    0.17502799565097138,
                    -0.21560128817364038,
                    0.19207394072271897,
                    0.02351629037354215,
                    -0.8106800354973882,
                    0.705902299140507,
                    0.10476667927949634,
                    0.006326629281777959,
                    -0.2874914968605943,
                    0.28115381050143734,
                    0.2966382636610001,
                    -0.30285488176327746,
                    0.006205561024896434,
                    0.08722666741023678,
                    -0.15616744368534272,
                    0.0689297191977258,
                    0.42115190587354645,
                    -0.3527060226296471,
                    -0.06845694032128358,
                    -0.2697191244200455,
                    0.16472190631803585,
                    0.1049861610246269,
                    0.4642570638245515,
                    -0.6717259706626383,
                    0.20745784976070433,
                    0.747992308368999,
                    -0.09109389861179229,
                    -0.6569094668345917,
                    0.6224666742118665,
                    -1.0105369976913088,
                    0.388059266402061,
                    0.3841978641600118,
                    -0.24772067969185585,
                    -0.13648824154553915,
                    0.24978610323472308,
                    -0.32456210175287464,
                    0.07476494144077027,
                    0.12765369631364698,
                    -0.10879029550968906,
                    -0.018874457881341105,
                    -0.3109059754454267,
                    0.44150655861590593,
                    -0.13061164024785743,
                    0.033504482622125034,
                    0.07885032123243625,
                    -0.1123658609319442,
                    0.3576297182586093,
                    -0.34708801727835437,
                    -0.010552758057638275,
                    0.6378507994908865,
                    -0.6084528607230484,
                    -0.029408995845219405,
                    0.47212858302317573,
                    -0.3631845482864266,
                    -0.10895509181413121
                ],
                [
                    -0.16483199724637873,
                    0.38553510937114427,
                    -0.2207109718238546,
                    0.0010322212058539333,
                    0.38570357839537955,
                    -0.38674365930031934,
                    -0.20878135616322466,
                    0.21350098787884206,
                    -0.004727491414703265,
                    0.34836616045073215,
                    -0.5273294285775633,
                    0.17895540842774368,
                    0.43897824315471684,
                    -0.3316702281926091,
                    -0.10731587466119583,
                    0.13460366751629488,
                    -0.0027943369540926128,
                    -0.13181719026128455,
                    -0.17813031620443903,
                    -0.16937273877027864,
                    0.347495195275629,
                    0.45613589099415847,
                    -0.2629496214778621,
                    -0.1931941292153822,
                    -0.3984506197985116,
                    0.4237038911774785,
                    -0.025261131078050305,
                    0.08177030609260098,
                    0.01401601297805117,
                    -0.0957941787697392,
                    -0.11900136403131115,
                    -0.10805202667991685,
                    0.2270455310121403,
                    0.11578639901177486,
                    0.046608683041268466,
                    -0.16240294175213105,
                    0.017710989865799,
                    0.17588121347301608,
                    -0.19360006303790234,
                    0.5543309722640679,
                    -0.7030520208217969,
                    0.14871318885864446,
                    -0.06221756441542907,
                    0.4663199006605736,
                    -0.40411019594422853,
                    -0.328647331242539,
                    0.23026688495417777,
                    0.09837258658927793,
                    -0.42122227939674595,
                    0.6336564468158015,
                    -0.21244202711813404,
                    -0.5129740668179518,
                    0.8037670423559417,
                    -0.29080083523707684,
                    0.29280831970940513,
                    -0.5756999782594098,
                    0.28288379885092824,
                    -0.4433916991444177,
                    0.7188399957846857,
                    -0.27545615633935366,
                    -0.4640236083126383,
                    0.7225241741975232,
                    -0.2585084255839723,
                    -0.36282275563707045,
                    0.43844441959722696,
                    -0.07562952365924444,
                    -0.13071639631610993,
                    0.22131144094304084,
                    -0.09060290432601734,
                    -0.16279833232570162,
                    -0.05758399233496199,
                    0.2203744649615762,
                    0.1240137564055432,
                    0.13708875407779597,
                    -0.26111037018242655,
                    0.5545399451771506,
                    -0.5729113231581432,
                    0.01836351828190537,
                    0.0034933749671657074,
                    -0.19113649951481737,
                    0.1876352648485671,
                    -0.110036414173189,
                    -0.000678844991398078,
                    0.11070739946550141,
                    -0.4823640647728743,
                    0.7553608064096387,
                    -0.27300460133585003,
                    -0.4649690224439341,
                    0.4482376805026281,
                    0.016723482242219957
                ],
                [
                    -0.3117729898842727,
                    -0.19074700214496423,
                    0.5025389088057037,
                    -0.2018465509504462,
                    -0.628168622461825,
                    0.8300340901887341,
                    0.23978892431986704,
                    -0.3241102924429317,
                    0.08434028489952941,
                    -0.2349242981267309,
                    -0.01223582475530603,
                    0.24717903965850452,
                    -0.22358178556980227,
                    0.2736345878544465,
                    -0.05003388550817796,
                    -0.17463440061236593,
                    -0.2511108747781244,
                    0.4257641921669594,
                    -0.30146933001718046,
                    0.48318340547504174,
                    -0.18169515868139552,
                    -0.2834903365251792,
                    0.04263159788053873,
                    0.24087765542110576,
                    0.15468636418243878,
                    -0.3236947632019091,
                    0.16902731579593372,
                    -0.1308601919045503,
                    0.04219151375018847,
                    0.08868759493082799,
                    -0.1809439958067899,
                    -0.015212240988556737,
                    0.19617515357181126,
                    0.1479138984442005,
                    -0.13526992776889177,
                    -0.01262505389884134,
                    0.19789029830783897,
                    -0.36795515419573255,
                    0.17008377266435915,
                    0.25634906323331386,
                    -0.002850278318709569,
                    -0.25347986813814144,
                    0.05589093513365084,
                    -0.17882840379997555,
                    0.12295638544279217,
                    0.0320090675815369,
                    0.07258799680910337,
                    -0.1045781476141743,
                    0.3339956119865084,
                    -0.47748900313045217,
                    0.14351230792040875,
                    0.09182216094440249,
                    -0.4510610197262961,
                    0.3592577755583621,
                    -0.02308919528936062,
                    0.41097807194137687,
                    -0.3878699598755567,
                    -0.020865364680132188,
                    -0.04711402512204694,
                    0.06799830657864843,
                    -0.28396870005636243,
                    -0.6314302755857348,
                    0.9154178924185626,
                    -0.25964391857479874,
                    0.5720925780940798,
                    -0.3124297427428159,
                    -0.2534814678439053,
                    0.026409238748814647,
                    0.22709114587155682,
                    -0.08698777090902182,
                    0.3821460940878373,
                    -0.29513940640234554,
                    -0.25166745271919355,
                    -0.02829845856810774,
                    0.27998482806376873,
                    -0.24363396973172502,
                    0.13140476454224,
                    0.11224812196595196,
                    -0.036997857589292506,
                    0.11228617828238203,
                    -0.0752694039166226,
                    -0.24759330408541994,
                    0.34776686226974934,
                    -0.10015464140786315,
                    -0.15548673471801655,
                    -0.14690794568659,
                    0.30241359718107014,
                    -0.007159560579241619,
                    -0.0850531322162014,
                    0.09223160957191036
                ]
            ],
            [
                "linear-L1: train-0.96485, train_2--0.05772, test-0.95611, test_2--0.06778, val-0.97146, val_2--0.04478"
            ]
        ],
        "stacking30_0.3_L1_lineardropout0.2": [
            [
                [
                    0.37805546622456704,
                    0.17949981692070305,
                    -0.557595165302175,
                    0.325760967092412,
                    -0.11129564506819772,
                    -0.21450520418111887,
                    0.29094672663752885,
                    -0.2895387193743506,
                    -0.0014478894200867416,
                    0.024323953206405423,
                    0.37368697082023034,
                    -0.3980508061835423,
                    -0.07003530447327823,
                    -0.2304429875242746,
                    0.30043840984065023,
                    0.1012185936670068,
                    0.21722415912697945,
                    -0.3184826349508897,
                    0.5043866822874701,
                    -0.6246477075862766,
                    0.12022114314189984,
                    -0.2191830403577394,
                    0.09857607414450836,
                    0.12056708405632653,
                    0.290249368375754,
                    -0.05677255004511876,
                    -0.23351670048753656,
                    0.2623371062791708,
                    -0.006373022438677897,
                    -0.25600396599739994,
                    -0.21118726354148215,
                    0.25529594725177507,
                    -0.04414856586719399,
                    -0.3315068960736758,
                    0.223252391391819,
                    0.10821462252495252,
                    0.11385691220780533,
                    0.018475606909071195,
                    -0.1323724012737801,
                    -0.1541197741621315,
                    0.3245986717489132,
                    -0.17051877974368626,
                    0.3196622256962796,
                    -0.31147434429308435,
                    -0.008227763560099265,
                    0.05128279621630887,
                    0.18899028842998045,
                    -0.24031296680319286,
                    0.031149073732174265,
                    -0.1280517301331541,
                    0.09686277424408302,
                    0.4210128599668296,
                    -0.41086398879972963,
                    -0.010188753324004422,
                    -0.5281045205533855,
                    -0.08866503729895098,
                    0.6167296756954261,
                    0.2766405634705153,
                    -0.6998536473827847,
                    0.42317320175536505,
                    0.6960045720977447,
                    -0.15315179262521916,
                    -0.5428926616294402,
                    0.6121993234585608,
                    -0.8605568275976209,
                    0.24831762198215568,
                    0.41548451548862203,
                    -0.27921506081229064,
                    -0.13630933683323346,
                    0.5123612689156137,
                    -0.6144888993898471,
                    0.10208774831732896,
                    -0.0741956951915694,
                    0.045737105325547395,
                    0.028418707709117016,
                    -0.6387259262892917,
                    0.7916287192427176,
                    -0.1529426751103342,
                    0.05352658174092214,
                    0.16112527349616734,
                    -0.21469173739399444,
                    0.30966088065921704,
                    -0.2998318361988352,
                    -0.009868926617284482,
                    0.20382199151270505,
                    -0.172578719947965,
                    -0.031283153721643045,
                    0.1802868046005388,
                    0.13914977231588785,
                    -0.3194764590733319
                ],
                [
                    -0.030867768905082114,
                    -0.18388024026473662,
                    0.21474437147236625,
                    -0.016415767645661914,
                    0.8413639567583763,
                    -0.8249518268101647,
                    -0.28385687967604883,
                    0.47722925558585216,
                    -0.19337601360725623,
                    0.19700652231610408,
                    -0.20738781763178338,
                    0.010377657618221061,
                    0.15711129914869176,
                    0.19032575211991654,
                    -0.34744068896607205,
                    0.28758954305111645,
                    -0.18020057709035803,
                    -0.10739260365821651,
                    -0.3651457345105205,
                    -0.08054177751367537,
                    0.44568387432673745,
                    0.26772303475545806,
                    -0.31736882013542655,
                    0.049642147682510344,
                    -0.3012850628380011,
                    0.07602191643759842,
                    0.2252595087029502,
                    0.19240619884507495,
                    0.010022989217149794,
                    -0.20243282575968288,
                    -0.12247454101240657,
                    -0.10164800841317287,
                    0.22411891172812198,
                    0.4565430825591888,
                    -0.10840617863196791,
                    -0.3481405416246874,
                    -0.03865424413339236,
                    0.3071274395763022,
                    -0.26847683314036713,
                    0.2591882008998623,
                    -0.7324017335662795,
                    0.4732098949689571,
                    -0.1709708213572114,
                    0.6068543202140679,
                    -0.4358871365543123,
                    -0.06238328244211408,
                    -0.028235013906645106,
                    0.09061465865130457,
                    -0.43904502485028235,
                    0.5367981644756465,
                    -0.09775677732281421,
                    -0.3723140455811995,
                    0.6066508237572379,
                    -0.2343404158735039,
                    0.09447229215846575,
                    -0.17592824830665219,
                    0.08145231845073607,
                    -0.5325858001779228,
                    0.717274237967384,
                    -0.1846920754869203,
                    -0.4322118834367562,
                    0.738525877770637,
                    -0.3063176320313387,
                    -0.4298641796221117,
                    0.8646807749614338,
                    -0.43482023303677964,
                    -0.04756698527481408,
                    0.2818120516191899,
                    -0.2342487040418273,
                    -0.27633520450950433,
                    0.05708336328555548,
                    0.2192482035264919,
                    0.10343332645398871,
                    -0.010945581125875122,
                    -0.09249138302557341,
                    0.9222053171505317,
                    -1.1909627292332783,
                    0.2687537743852923,
                    0.07968802549234326,
                    -0.1846806749533682,
                    0.10498901176357037,
                    -0.2529616707946846,
                    0.2151574120333135,
                    0.03780062106390739,
                    -0.15549845808425375,
                    0.39861126238356265,
                    -0.243116441996772,
                    -0.3295669815527171,
                    0.15089987862154552,
                    0.17866346523371623
                ],
                [
                    -0.3471876973194811,
                    0.004380423344032414,
                    0.3428507938298095,
                    -0.30934519944674516,
                    -0.7300683116901734,
                    1.0394570309912845,
                    -0.007089846961477184,
                    -0.1876905362114986,
                    0.19482390302734068,
                    -0.2213304755225072,
                    -0.16629915318845007,
                    0.3876731485653205,
                    -0.08707599467541877,
                    0.04011723540435544,
                    0.04700227912541971,
                    -0.3888081367181195,
                    -0.03702358203661641,
                    0.4258752386091082,
                    -0.13924094777695023,
                    0.7051894850999555,
                    -0.565905017468641,
                    -0.04853999439771659,
                    0.21879274599091963,
                    -0.1702092317388364,
                    0.01103569446224729,
                    -0.019249366392470622,
                    0.008257191784586351,
                    -0.45474330512424394,
                    -0.0036499667784688967,
                    0.4584367917570813,
                    0.33366180455387984,
                    -0.15364793883859068,
                    -0.1799703458609261,
                    -0.1250361864855192,
                    -0.11484621275984938,
                    0.23992591909973524,
                    -0.07520266807440948,
                    -0.3256030464853706,
                    0.40084923441414977,
                    -0.10506842673772732,
                    0.4078030618173612,
                    -0.3026911152252705,
                    -0.1486914043390753,
                    -0.2953799759209722,
                    0.44411490011441485,
                    0.011100486225809551,
                    -0.1607552745233296,
                    0.1496983081518883,
                    0.4078959511181109,
                    -0.4087464343424821,
                    0.0008940030787299479,
                    -0.04869881438563032,
                    -0.1957868349575103,
                    0.24452916919750717,
                    0.4336322283949162,
                    0.2645932856056112,
                    -0.6981819941461606,
                    0.2559452367074072,
                    -0.017420590584590945,
                    -0.23848112626844856,
                    -0.2637926886609886,
                    -0.5853740851454222,
                    0.8492102936607737,
                    -0.1823351438364454,
                    -0.004123947363814125,
                    0.1865026110546284,
                    -0.36791753021380486,
                    -0.002596990806897356,
                    0.3705580408750628,
                    -0.23602606440610654,
                    0.5574055361042941,
                    -0.3213359518438206,
                    -0.02923763126241812,
                    -0.034791524199669605,
                    0.06407267531645816,
                    -0.2834793908612424,
                    0.399334009990566,
                    -0.11581109927495664,
                    -0.13321460723326628,
                    0.02355540145720432,
                    0.1097027256304265,
                    -0.056699209864536915,
                    0.08467442416552041,
                    -0.02793169444662238,
                    -0.048323533428452706,
                    -0.22603254243559662,
                    0.27439959571841416,
                    0.1492801769521739,
                    -0.29004965093742496,
                    0.14081299383961632
                ]
            ],
            [
                "linear-L1: train-0.96485, train_2--0.06042, test-0.95925, test_2--0.06619, val-0.97503, val_2--0.04497"
            ]
        ],
        "stacking30_0.3_L1_lineardropout0.3": [
            [
                [
                    0.4162656787304288,
                    0.20280650896653568,
                    -0.6189300237212214,
                    0.24345826067086465,
                    -0.0858724054755597,
                    -0.1574436912195619,
                    0.008190808849570285,
                    0.04111260474102244,
                    -0.04916124961485095,
                    -0.14594375542730573,
                    0.6434775289415378,
                    -0.4973916095384901,
                    -0.2651707055674467,
                    0.09974868461701844,
                    0.1655641849261693,
                    0.21845236923194775,
                    -0.0776239170276533,
                    -0.1406862882285533,
                    0.6329856489652197,
                    -0.3662029451726748,
                    -0.26664053981680236,
                    -0.004569641082738019,
                    -0.15794389103130574,
                    0.16265569608978672,
                    0.4614453395023455,
                    -0.12275092197681839,
                    -0.33855225354978474,
                    -0.40252489801885893,
                    0.22561686084234778,
                    0.1770502011522561,
                    0.04197287335220855,
                    -0.00598374214053498,
                    -0.03584696723593067,
                    -0.14727027074744922,
                    -0.20356075275921115,
                    0.350973187482403,
                    -0.3489998461225142,
                    0.2999976943860685,
                    0.04914431571218614,
                    -0.1374159384765056,
                    0.19110708521956393,
                    -0.05354898276731509,
                    -0.0693453908038587,
                    0.005390824776343964,
                    0.06409673000325643,
                    0.3369815720875984,
                    -0.19059920702550578,
                    -0.14624020108634772,
                    -0.11568930496784575,
                    -0.09692723959992045,
                    0.21275870854350676,
                    0.5239853198394356,
                    -0.39174915969437124,
                    -0.13209399616932196,
                    -0.5459787411471602,
                    0.37103946338233684,
                    0.1750814417405678,
                    0.2855762104364561,
                    -0.3917768110585141,
                    0.10634276459780147,
                    0.7705712889643654,
                    -0.3703958913336876,
                    -0.4000332336549345,
                    0.9532166096470461,
                    -1.0850529619055835,
                    0.13197851623427803,
                    0.5889155796895571,
                    -0.4579529806296012,
                    -0.13082043508421476,
                    0.5821108833660692,
                    -0.6872248619566255,
                    0.1052561425663012,
                    -0.1948150527821375,
                    0.1141613307210695,
                    0.08079588603680923,
                    -0.19115624127518085,
                    0.3620186593820432,
                    -0.17072025413111966,
                    0.06863565731800253,
                    -0.14915877814648637,
                    0.08066528480422437,
                    0.02397424080666509,
                    -0.05396361916507257,
                    0.030131542334148248,
                    0.06881843326860829,
                    0.048516982501509445,
                    -0.11719325179437737,
                    0.6638264768791023,
                    -0.26710007170871763,
                    -0.3965842411946407
                ],
                [
                    0.10351686027463754,
                    -0.17444331925358542,
                    0.07094747067443868,
                    -0.10184730055487215,
                    0.4994659043155214,
                    -0.3975975920651598,
                    -0.1794506810478638,
                    -0.00640126357094516,
                    0.18587295631429746,
                    0.22994048706422546,
                    -0.35096462307848264,
                    0.12104514770974568,
                    0.43480628462486653,
                    -0.19673752291326804,
                    -0.2380477500161043,
                    -0.17457367009423366,
                    0.02212570644410708,
                    0.15246897534561757,
                    -0.22954242658613874,
                    0.019781018808234817,
                    0.2097824194733921,
                    0.36962592671746486,
                    -0.02884164508590535,
                    -0.3407632699360669,
                    -0.5361905141481264,
                    0.2212415169959737,
                    0.31497000884764953,
                    0.22288389789605342,
                    -0.1984473150869639,
                    -0.024415571113600168,
                    -0.15307713424787725,
                    0.30031110241745473,
                    -0.14721295647408988,
                    -0.13676610588648283,
                    0.027661807223481816,
                    0.10912531035848941,
                    0.11124931886008721,
                    0.027019481824153972,
                    -0.1382477889887502,
                    0.13005775876033226,
                    -0.25849466098274826,
                    0.1284579139179108,
                    0.0038101549009501856,
                    0.16791556309342776,
                    -0.17170470629888576,
                    -0.1680848748117269,
                    -0.007513127866976665,
                    0.17561901437419888,
                    -0.1667592313840322,
                    0.8100745031378844,
                    -0.6432942600583601,
                    -0.3722789132165211,
                    0.41275024907363417,
                    -0.040450324161624265,
                    0.3238909320339927,
                    -0.6541709638413546,
                    0.3303010435028565,
                    -0.13611410559758594,
                    0.34641852876090695,
                    -0.21028341146783108,
                    -0.4670976584136659,
                    0.882137800118268,
                    -0.4150191300091145,
                    -0.44120969726335835,
                    1.075574866963533,
                    -0.6343441580046859,
                    -0.20816818161058387,
                    0.5267168163216158,
                    -0.3185276230155425,
                    -0.4169045295160358,
                    0.33534439420818785,
                    0.08158114700333777,
                    0.3595910823128538,
                    -0.23334449724706888,
                    -0.12622557337029439,
                    0.33416935108735224,
                    -0.5964220574992709,
                    0.26227371810741057,
                    0.004701304312632091,
                    0.09886481567563382,
                    -0.10354510829277801,
                    -0.04512136475037482,
                    0.18704023687070198,
                    -0.14189786042483934,
                    -0.02511514923543838,
                    0.1616845876020026,
                    -0.13654842667107606,
                    -0.4145620862832947,
                    0.2959098986015103,
                    0.1186731993772728
                ],
                [
                    -0.5197825390050673,
                    -0.028363189712952847,
                    0.5479825530467832,
                    -0.14161096011599372,
                    -0.4135934988399618,
                    0.5550412832847208,
                    0.17125987219829353,
                    -0.034711341170079395,
                    -0.13671170669944568,
                    -0.08399673163692305,
                    -0.2925129058630557,
                    0.37634646182874687,
                    -0.16963557905742052,
                    0.09698883829625153,
                    0.0724835650899368,
                    -0.043878699137712425,
                    0.055498210583543095,
                    -0.011782687117063305,
                    -0.4034432223790823,
                    0.34642192636443914,
                    0.05685812034341127,
                    -0.3650562856347253,
                    0.1867855361172122,
                    0.17810757384628154,
                    0.07474517464578234,
                    -0.09849059501915376,
                    0.02358224470213582,
                    0.17964100012280254,
                    -0.02716954575538263,
                    -0.15263463003865566,
                    0.11110426089566604,
                    -0.2943273602769249,
                    0.18305992371002133,
                    0.28403637663393033,
                    0.17589894553572974,
                    -0.4600984978408916,
                    0.23775052726242238,
                    -0.3270171762102241,
                    0.08910347327656569,
                    0.00735817971617338,
                    0.06738757576318863,
                    -0.07490893115059487,
                    0.06553523590290951,
                    -0.17330638786977096,
                    0.10760797629563192,
                    -0.16889669727587067,
                    0.19811233489248736,
                    -0.029378813287850032,
                    0.28244853635187406,
                    -0.7131472635379612,
                    0.4305355515148552,
                    -0.1517064066229159,
                    -0.021001089379264884,
                    0.17254432033094808,
                    0.22208780911316903,
                    0.2831315004590231,
                    -0.5053824852434251,
                    -0.14946210483887046,
                    0.04535828229760727,
                    0.10394064687003003,
                    -0.3034736305506976,
                    -0.5117419087845804,
                    0.8150523636640539,
                    -0.5120069123836926,
                    0.009478094942047906,
                    0.5023656417704091,
                    -0.38074739807897584,
                    -0.06876383569201508,
                    0.44934805809975903,
                    -0.16520635385003282,
                    0.3518804677484389,
                    -0.18683728956963686,
                    -0.1647760295307163,
                    0.11918316652600076,
                    0.04542968733348521,
                    -0.1430131098121716,
                    0.2344033981172297,
                    -0.09155346397629019,
                    -0.07333696163063615,
                    0.05029396247085149,
                    0.022879823488555065,
                    0.02114712394370902,
                    -0.13307661770563134,
                    0.11176631809069125,
                    -0.04370328403317164,
                    -0.2102015701035138,
                    0.2537416784654537,
                    -0.249264390595807,
                    -0.02880982689279172,
                    0.2779110418173668
                ]
            ],
            [
                "linear-L1: train-0.96134, train_2--0.06178, test-0.95611, test_2--0.06544, val-0.97503, val_2--0.04286"
            ]
        ],
        "stacking30_0.3_L1_lineardropout0.4": [
            [
                [
                    0.43550182804310944,
                    -0.3181482893043938,
                    -0.1173059688486143,
                    0.35436722147047295,
                    0.08795084405336372,
                    -0.44227049563373316,
                    0.31696529047459576,
                    -0.3018120389022224,
                    -0.015105681682267506,
                    -0.2438411238844165,
                    0.2149927682127608,
                    0.02889592556175614,
                    -0.08090333520675484,
                    0.1523728684524928,
                    -0.07142196335563615,
                    -0.059920520881641584,
                    0.21350414969928913,
                    -0.15353605892753885,
                    0.6143458025670409,
                    -0.45468763855085703,
                    -0.15961059412607717,
                    0.3158473452458862,
                    0.13984012203215468,
                    -0.45563989738793476,
                    0.2334943825487608,
                    -0.0680317122401845,
                    -0.16541510041846752,
                    0.16145868592067222,
                    -0.31882598782778676,
                    0.15741487179721902,
                    0.4065160194283726,
                    -0.14228528652922795,
                    -0.2641831630090387,
                    -0.2678826314875506,
                    0.07428675297543176,
                    0.19364344840222555,
                    -0.20035030505809845,
                    0.059041020617554306,
                    0.1413568543306501,
                    -0.24941419271521773,
                    0.12772455791964366,
                    0.12173720468567989,
                    0.015279274479224227,
                    0.15702523942329463,
                    -0.17225694401241118,
                    0.1697468695840525,
                    -0.12897994288316383,
                    -0.04071935681078517,
                    -0.17430734565415656,
                    0.10561489075803754,
                    0.06874002478622701,
                    0.6634426465886003,
                    -0.572273954477697,
                    -0.09112112222079229,
                    -0.7915018459800189,
                    0.8729195313263554,
                    -0.08137011545622791,
                    0.055592176264000114,
                    -0.40747222307880154,
                    0.3519276167049118,
                    0.5453758655827091,
                    0.008286148911240876,
                    -0.5536144446038391,
                    0.8434936582430501,
                    -1.1910158065459742,
                    0.3475697181930281,
                    0.39319863374301334,
                    -0.31383427520399,
                    -0.07931678864891857,
                    0.13921423475132766,
                    -0.32170533559548414,
                    0.18253867073426377,
                    -0.25189976948190945,
                    0.33321885224316544,
                    -0.0812715128711504,
                    -0.519766494521276,
                    0.3673136017643555,
                    0.1525004626470291,
                    0.4304704418034597,
                    0.14037126293209745,
                    -0.5707941348454528,
                    0.18682411344924016,
                    -0.13131216545196428,
                    -0.055464378107169546,
                    0.3333513498958833,
                    -0.2777325141789311,
                    -0.055571265826844504,
                    0.2671021097323625,
                    -0.28880580657056637,
                    0.021751266728308797
                ],
                [
                    -0.20675457009940562,
                    0.21549957687156857,
                    -0.008691397689247989,
                    -0.035870141077478754,
                    0.4899982067785806,
                    -0.4540744566181871,
                    -0.44256639151489996,
                    0.5899265174317325,
                    -0.14730651683391843,
                    0.09861648280389691,
                    -0.15203885021854685,
                    0.05347597649756357,
                    0.6102310767916056,
                    -0.1627557445180961,
                    -0.44742172319059414,
                    0.0029306307102462364,
                    -0.2584406595718926,
                    0.2555636379445628,
                    -0.5450215353329464,
                    0.10138322052223382,
                    0.44369192389362755,
                    0.2495870961832365,
                    -0.26537825976493795,
                    0.015844772664614974,
                    -0.09779748121239418,
                    0.34595229436022656,
                    -0.24810120406491293,
                    -0.32900798485060173,
                    -0.06773061901104133,
                    0.39679221294455824,
                    -0.3399800513957347,
                    0.27548455697450225,
                    0.06454910350414877,
                    0.020460024626642294,
                    -0.35035373083356863,
                    0.3299473152898449,
                    -0.09524971940722633,
                    0.2507860629310204,
                    -0.1554827344408798,
                    0.055144345015866396,
                    -0.20924095683870136,
                    0.15415022090575264,
                    0.18547818703405142,
                    0.22471311076916478,
                    -0.41013768872030126,
                    0.09416678458223599,
                    -0.3799492476219501,
                    0.2858360721226286,
                    -0.1201414378069297,
                    0.2457873741211772,
                    -0.12559232723132652,
                    -0.5680891614412305,
                    0.9689899362910097,
                    -0.4008471657668619,
                    0.6927817278275888,
                    -0.41268085959247386,
                    -0.28004725915219614,
                    -0.23996589777815722,
                    0.05656169338403034,
                    0.18345781347703743,
                    0.10807604246678769,
                    0.170679512376812,
                    -0.278701945760683,
                    -0.5273740434643324,
                    0.7392456294480946,
                    -0.21181797690084445,
                    -0.2019033148841363,
                    0.41278761562036304,
                    -0.21083069165330803,
                    -0.17348101387678544,
                    0.10741564958627094,
                    0.06611897337342464,
                    0.4226784975393729,
                    0.016802934320979655,
                    -0.4394278227774362,
                    0.4910057108773804,
                    -0.493289636059579,
                    0.0023375342651123458,
                    0.33576538096099146,
                    -0.1391368930644193,
                    -0.19657487881365796,
                    -0.4515699198656384,
                    0.026950621785586954,
                    0.42467290716296924,
                    -0.19610438755681847,
                    0.5358566563627737,
                    -0.33969865972304253,
                    -0.4142332562110278,
                    0.5160173408652001,
                    -0.10173047557125746
                ],
                [
                    -0.22874725794369968,
                    0.10264871243281949,
                    0.12599736653786278,
                    -0.3184970803929933,
                    -0.5779490508319476,
                    0.8963449522519156,
                    0.12560110104030303,
                    -0.28811447852950933,
                    0.16241219851618716,
                    0.14522464108051977,
                    -0.06295391799421707,
                    -0.08237190205932031,
                    -0.5293277415848533,
                    0.010382876065605274,
                    0.5188436865462273,
                    0.05698989017139461,
                    0.044936509872607895,
                    -0.10202757901702378,
                    -0.06932426723409116,
                    0.35330441802862145,
                    -0.2840813297675516,
                    -0.5654344414291217,
                    0.12553813773278522,
                    0.4397951247233202,
                    -0.13569690133636503,
                    -0.2779205821200451,
                    0.4135163044833807,
                    0.1675492989299321,
                    0.38655660683882515,
                    -0.5542070847417739,
                    -0.0665359680326373,
                    -0.1331992704452715,
                    0.199634059504888,
                    0.24742260686091053,
                    0.2760669778581371,
                    -0.5235907636920687,
                    0.29560002446532074,
                    -0.3098270835485752,
                    0.014125880110227595,
                    0.1942698476993524,
                    0.0815163989190592,
                    -0.2758874255914321,
                    -0.20075746151327387,
                    -0.3817383501924569,
                    0.5823946327327125,
                    -0.26391365416629187,
                    0.5089291905051085,
                    -0.24511671531184268,
                    0.29444878346108827,
                    -0.3514022648792126,
                    0.056852302445100276,
                    -0.09535348514736713,
                    -0.39671598181330703,
                    0.4919682879876541,
                    0.09872011815243181,
                    -0.46023867173387784,
                    0.36141737460842194,
                    0.18437372151415501,
                    0.35091052969477554,
                    -0.535385430181949,
                    -0.6534519080494936,
                    -0.17896566128805122,
