{
    "task_type": "CLS",
    "dataset": "fri_c3_1000_50",
    "refit": "full",
    "filter": "m6_p6",
    "time_limit": 3600,
    "best": 0.905,
    "fixed_ens": {
        "ensemble_selection10": 0.91,
        "cma_es": 0.905,
        "qdo_es": 0.9,
        "OptDivBO": 0.9,
        "EnsOpt": 0.895,
        "stacking-1_0.4_L1_linear": 0.91,
        "stacking-1_0.4_L2_linear": 0.935,
        "stacking1000_0.4_L1_linear": 0.925,
        "stacking1000_0.4_L2_linear": 0.945,
        "ensemble_selection25": 0.9,
        "stacking1000_0.4_L1_weighted": 0.895,
        "stacking-1_0.4_L1_weighted": 0.895,
        "stacking1000_0.4_L2_weighted": 0.935,
        "stacking-1_0.4_L2_weighted": 0.93,
        "autogluon-": 0.9000630618362233
    },
    "defopt_ens": {
        "s10_r20_d20": "0.925, 0.92, 0.925, 0.92, 0.93, 0.925",
        "s10_r40_d20": "0.93, 0.91, 0.925, 0.93, 0.93, 0.925",
        "s20_r20_d20": "0.92, 0.92, 0.92, 0.915, 0.92, 0.92",
        "s20_r40_d20": "0.92, 0.92, 0.905, 0.92, 0.925, 0.905",
        "s10_r20_d0": "0.915, 0.92, 0.915, 0.92, 0.91, 0.915",
        "s10_r40_d0": "0.92, 0.91, 0.91, 0.92, 0.91, 0.91",
        "s20_r20_d0": "0.92, 0.93, 0.925, 0.92, 0.92, 0.925",
        "s20_r40_d0": "0.925, 0.92, 0.915, 0.925, 0.915, 0.915"
    },
    "opt_ens": [
        "0.925",
        "0.92",
        "0.925",
        "0.925",
        "0.925",
        "0.92",
        "0.92",
        "0.925",
        "0.925",
        "0.925",
        "0.925",
        "0.925",
        "0.925",
        "0.925",
        "0.92",
        "0.915",
        "0.905",
        "0.935",
        "0.915",
        "0.92",
        "0.91",
        "0.925",
        "0.925",
        "0.93",
        "0.925",
        "0.92",
        "0.92",
        "0.93",
        "0.925",
        "0.92"
    ],
    "opt_ens_d0": [
        "0.92",
        "0.92",
        "0.92",
        "0.92",
        "0.92",
        "0.92",
        "0.92",
        "0.92",
        "0.92",
        "0.92",
        "0.92",
        "0.915",
        "0.93",
        "0.93",
        "0.925",
        "0.94",
        "0.93",
        "0.91",
        "0.93",
        "0.925",
        "0.92",
        "0.925",
        "0.925",
        "0.92",
        "0.915",
        "0.915",
        "0.915",
        "0.93",
        "0.925",
        "0.925"
    ],
    "opt_ens_d0-20": [
        "0.92",
        "0.92",
        "0.925",
        "0.92",
        "0.92",
        "0.92",
        "0.92",
        "0.92",
        "0.92",
        "0.92",
        "0.92",
        "0.92",
        "0.92",
        "0.925",
        "0.92",
        "0.925",
        "0.91",
        "0.925",
        "0.925",
        "0.92",
        "0.925",
        "0.93",
        "0.93",
        "0.91",
        "0.92",
        "0.92",
        "0.92",
        "0.915",
        "0.92",
        "0.92"
    ],
    "size_exp": {
        "stacking5_-1_L1_linear": [
            "linear-L1: train-8.97388060e-01, train_2--1.47872112e-01, test-8.85000000e-01, test_2--1.57613341e-01, val-9.24242424e-01, val_2--1.36239336e-01"
        ],
        "stacking5_0_L1_linear": [
            "linear-L1: train-8.88059701e-01, train_2--1.66611377e-01, test-9.15000000e-01, test_2--1.19048725e-01, val-9.24242424e-01, val_2--1.16030138e-01"
        ],
        "stacking5_0.1_L1_linear": [
            "linear-L1: train-8.91791045e-01, train_2--1.73278078e-01, test-9.25000000e-01, test_2--1.20423644e-01, val-9.24242424e-01, val_2--1.18409365e-01"
        ],
        "stacking5_0.2_L1_linear": [
            "linear-L1: train-8.95522388e-01, train_2--1.54999577e-01, test-9.20000000e-01, test_2--1.21477941e-01, val-9.28030303e-01, val_2--1.13153872e-01"
        ],
        "stacking5_0.3_L1_linear": [
            "linear-L1: train-8.95522388e-01, train_2--1.54999577e-01, test-9.20000000e-01, test_2--1.21477941e-01, val-9.28030303e-01, val_2--1.13153872e-01"
        ],
        "stacking5_0.4_L1_linear": [
            "linear-L1: train-8.95522388e-01, train_2--1.54999577e-01, test-9.20000000e-01, test_2--1.21477941e-01, val-9.28030303e-01, val_2--1.13153872e-01"
        ],
        "stacking10_-1_L1_linear": [
            "linear-L1: train-9.08582090e-01, train_2--1.32498532e-01, test-9.00000000e-01, test_2--1.47069984e-01, val-9.16666667e-01, val_2--1.26751389e-01"
        ],
        "stacking10_0_L1_linear": [
            "linear-L1: train-8.89925373e-01, train_2--1.65037221e-01, test-9.15000000e-01, test_2--1.18534296e-01, val-9.24242424e-01, val_2--1.16275294e-01"
        ],
        "stacking10_0.1_L1_linear": [
            "linear-L1: train-8.99253731e-01, train_2--1.50686935e-01, test-9.35000000e-01, test_2--1.18536959e-01, val-9.31818182e-01, val_2--1.13263058e-01"
        ],
        "stacking10_0.2_L1_linear": [
            "linear-L1: train-9.02985075e-01, train_2--1.38417267e-01, test-9.15000000e-01, test_2--1.30293500e-01, val-9.20454545e-01, val_2--1.14758372e-01"
        ],
        "stacking10_0.3_L1_linear": [
            "linear-L1: train-9.02985075e-01, train_2--1.38417267e-01, test-9.15000000e-01, test_2--1.30293500e-01, val-9.20454545e-01, val_2--1.14758372e-01"
        ],
        "stacking10_0.4_L1_linear": [
            "linear-L1: train-9.02985075e-01, train_2--1.38986136e-01, test-9.10000000e-01, test_2--1.35321186e-01, val-9.20454545e-01, val_2--1.17320670e-01"
        ],
        "stacking20_-1_L1_linear": [
            "linear-L1: train-9.08582090e-01, train_2--1.30408231e-01, test-8.85000000e-01, test_2--1.51368442e-01, val-9.12878788e-01, val_2--1.27418740e-01"
        ],
        "stacking20_0_L1_linear": [
            "linear-L1: train-8.95522388e-01, train_2--1.60323897e-01, test-9.10000000e-01, test_2--1.19904015e-01, val-9.24242424e-01, val_2--1.16390435e-01"
        ],
        "stacking20_0.1_L1_linear": [
            "linear-L1: train-9.10447761e-01, train_2--1.34426259e-01, test-9.00000000e-01, test_2--1.35160534e-01, val-9.20454545e-01, val_2--1.16535762e-01"
        ],
        "stacking20_0.2_L1_linear": [
            "linear-L1: train-9.14179104e-01, train_2--1.30159157e-01, test-9.05000000e-01, test_2--1.34361063e-01, val-9.16666667e-01, val_2--1.19599515e-01"
        ],
        "stacking20_0.3_L1_linear": [
            "linear-L1: train-9.12313433e-01, train_2--1.27318631e-01, test-9.10000000e-01, test_2--1.34703443e-01, val-9.20454545e-01, val_2--1.20117419e-01"
        ],
        "stacking20_0.4_L1_linear": [
            "linear-L1: train-9.06716418e-01, train_2--1.30040799e-01, test-9.15000000e-01, test_2--1.33393842e-01, val-9.16666667e-01, val_2--1.18960181e-01"
        ],
        "stacking30_-1_L1_linear": [
            "linear-L1: train-9.10447761e-01, train_2--1.31067279e-01, test-8.90000000e-01, test_2--1.39619456e-01, val-9.16666667e-01, val_2--1.20936875e-01"
        ],
        "stacking30_0_L1_linear": [
            "linear-L1: train-9.08582090e-01, train_2--1.41305660e-01, test-9.30000000e-01, test_2--1.21400766e-01, val-9.24242424e-01, val_2--1.12848441e-01"
        ],
        "stacking30_0.1_L1_linear": [
            "linear-L1: train-9.25373134e-01, train_2--1.25565899e-01, test-9.15000000e-01, test_2--1.35686859e-01, val-9.12878788e-01, val_2--1.18015630e-01"
        ],
        "stacking30_0.2_L1_linear": [
            "linear-L1: train-9.17910448e-01, train_2--1.24001393e-01, test-9.10000000e-01, test_2--1.34004269e-01, val-9.24242424e-01, val_2--1.17986665e-01"
        ],
        "stacking30_0.3_L1_linear": [
            "linear-L1: train-9.12313433e-01, train_2--1.26149605e-01, test-9.15000000e-01, test_2--1.34059364e-01, val-9.20454545e-01, val_2--1.18908730e-01"
        ],
        "stacking30_0.4_L1_linear": [
            "linear-L1: train-9.16044776e-01, train_2--1.24904832e-01, test-9.05000000e-01, test_2--1.32823809e-01, val-9.20454545e-01, val_2--1.18694017e-01"
        ],
        "stacking40_-1_L1_linear": [
            "linear-L1: train-9.14179104e-01, train_2--1.24645490e-01, test-9.05000000e-01, test_2--1.39068253e-01, val-9.09090909e-01, val_2--1.26508243e-01"
        ],
        "stacking40_0_L1_linear": [
            "linear-L1: train-9.17910448e-01, train_2--1.27732220e-01, test-9.25000000e-01, test_2--1.19676414e-01, val-9.20454545e-01, val_2--1.20344783e-01"
        ],
        "stacking40_0.1_L1_linear": [
            "linear-L1: train-9.23507463e-01, train_2--1.19582401e-01, test-9.15000000e-01, test_2--1.33897521e-01, val-9.16666667e-01, val_2--1.18028922e-01"
        ],
        "stacking40_0.2_L1_linear": [
            "linear-L1: train-9.19776119e-01, train_2--1.20540606e-01, test-9.10000000e-01, test_2--1.37716026e-01, val-9.12878788e-01, val_2--1.21875900e-01"
        ],
        "stacking40_0.3_L1_linear": [
            "linear-L1: train-9.21641791e-01, train_2--1.18150579e-01, test-9.15000000e-01, test_2--1.36170097e-01, val-9.12878788e-01, val_2--1.20928791e-01"
        ],
        "stacking40_0.4_L1_linear": [
            "linear-L1: train-9.25373134e-01, train_2--1.17207283e-01, test-9.10000000e-01, test_2--1.36565005e-01, val-9.12878788e-01, val_2--1.21375080e-01"
        ],
        "stacking-1_0.4_L1_linear": [
            "linear-L1: train-0.89925, train_2--0.13940, test-0.90500, test_2--0.12712, val-0.92045, val_2--0.11814"
        ],
        "stacking1000_0.4_L1_linear": [
            "linear-L1: train-0.94776, train_2--0.07319, test-0.92500, test_2--0.13052, val-0.91667, val_2--0.11648"
        ],
        "stacking5_0.49_L1_linear": [
            "linear-L1: train-0.89925, train_2--0.13941, test-0.90500, test_2--0.13252, val-0.91667, val_2--0.11537"
        ],
        "stacking10_0.49_L1_linear": [
            "linear-L1: train-0.90485, train_2--0.13847, test-0.91000, test_2--0.13011, val-0.92045, val_2--0.11461"
        ],
        "stacking20_0.49_L1_linear": [
            "linear-L1: train-0.91045, train_2--0.13018, test-0.90500, test_2--0.13240, val-0.91667, val_2--0.11812"
        ],
        "stacking30_0.49_L1_linear": [
            "linear-L1: train-0.91604, train_2--0.12589, test-0.91500, test_2--0.13414, val-0.92045, val_2--0.11833"
        ],
        "stacking40_0.49_L1_linear": [
            "linear-L1: train-0.92537, train_2--0.11721, test-0.91000, test_2--0.13657, val-0.91288, val_2--0.12138"
        ],
        "stacking50_-1_L1_linear": [
            "linear-L1: train-0.91604, train_2--0.11833, test-0.91500, test_2--0.12474, val-0.92045, val_2--0.11579"
        ],
        "stacking50_0_L1_linear": [
            "linear-L1: train-0.92351, train_2--0.11743, test-0.91500, test_2--0.12130, val-0.91288, val_2--0.12418"
        ],
        "stacking50_0.1_L1_linear": [
            "linear-L1: train-0.92164, train_2--0.11606, test-0.92000, test_2--0.13545, val-0.91288, val_2--0.12344"
        ],
        "stacking50_0.2_L1_linear": [
            "linear-L1: train-0.92164, train_2--0.11353, test-0.91500, test_2--0.13626, val-0.91288, val_2--0.12296"
        ],
        "stacking50_0.3_L1_linear": [
            "linear-L1: train-0.92724, train_2--0.11140, test-0.91500, test_2--0.13329, val-0.90530, val_2--0.12413"
        ],
        "stacking50_0.4_L1_linear": [
            "linear-L1: train-0.92724, train_2--0.11138, test-0.91500, test_2--0.13290, val-0.91288, val_2--0.12374"
        ],
        "stacking50_0.49_L1_linear": [
            "linear-L1: train-0.91978, train_2--0.11399, test-0.91500, test_2--0.13585, val-0.91667, val_2--0.12405"
        ]
    },
    "retain_exp": {
        "stacking10_0.4_L1_weighted_retainFalse": [
            [
                {
                    "train": [
                        0.8656716417910447,
                        0.8861940298507462,
                        0.878731343283582,
                        0.8824626865671642,
                        0.8899253731343284,
                        0.8917910447761194,
                        0.878731343283582,
                        0.8731343283582089,
                        0.8768656716417911,
                        0.8936567164179104
                    ],
                    "train_2": [
                        -0.20528565181611946,
                        -0.21267250483198902,
                        -0.21585991375683558,
                        -0.1913954007945315,
                        -0.18352199959819324,
                        -0.20253085512393804,
                        -0.18650392141516117,
                        -0.19008879469745107,
                        -0.1804799287482137,
                        -0.18116806348593886
                    ],
                    "test": [
                        0.905,
                        0.915,
                        0.92,
                        0.905,
                        0.92,
                        0.915,
                        0.865,
                        0.87,
                        0.865,
                        0.88
                    ],
                    "test_2": [
                        -0.13358061410201091,
                        -0.12717385663735356,
                        -0.1232324245959313,
                        -0.12787185140314009,
                        -0.12064482555763271,
                        -0.11864942087077751,
                        -0.1704748186625732,
                        -0.16787314613001791,
                        -0.1814005297434468,
                        -0.1850935675210477
                    ],
                    "val": [
                        0.9318181818181818,
                        0.9242424242424242,
                        0.9204545454545454,
                        0.928030303030303,
                        0.9242424242424242,
                        0.928030303030303,
                        0.9166666666666666,
                        0.9090909090909091,
                        0.8939393939393939,
                        0.9090909090909091
                    ],
                    "val_2": [
                        -0.12023988040526713,
                        -0.1255121705991565,
                        -0.12561659230413513,
                        -0.1100008538089267,
                        -0.11646191353491815,
                        -0.1269236814104499,
                        -0.1400009756104376,
                        -0.1402368941127608,
                        -0.15350598687044514,
                        -0.14996801774538338
                    ]
                },
                {
                    "train": [
                        0.8973880597014925,
                        0.8843283582089553,
                        0.8917910447761194,
                        0.8955223880597015,
                        0.8899253731343284,
                        0.8973880597014925,
                        0.9011194029850746,
                        0.9104477611940298,
                        0.8973880597014925,
                        0.8880597014925373
                    ],
                    "train_2": [
                        -0.17155330222818926,
                        -0.2163049825867146,
                        -0.19744343820543753,
                        -0.19223835160979053,
                        -0.19902431932247713,
                        -0.195029783466087,
                        -0.1537536024090565,
                        -0.1519707502334335,
                        -0.14741088331666954,
                        -0.1816760926419551
                    ],
                    "test": [
                        0.935,
                        0.92,
                        0.94,
                        0.925,
                        0.93,
                        0.925,
                        0.935,
                        0.93,
                        0.925,
                        0.945
                    ],
                    "test_2": [
                        -0.11514829741498385,
                        -0.13421937806720266,
                        -0.12273911017955376,
                        -0.1267366032504802,
                        -0.12281591063755919,
                        -0.1347784784150897,
                        -0.10194200908506686,
                        -0.10341437810134141,
                        -0.10268851568303437,
                        -0.10646211673995117
                    ],
                    "val": [
                        0.9242424242424242,
                        0.9318181818181818,
                        0.928030303030303,
                        0.928030303030303,
                        0.9318181818181818,
                        0.928030303030303,
                        0.9242424242424242,
                        0.9166666666666666,
                        0.9166666666666666,
                        0.9356060606060606
                    ],
                    "val_2": [
                        -0.10959208406041734,
                        -0.12083305846398797,
                        -0.11642568499847404,
                        -0.11861260154560582,
                        -0.11802378157747931,
                        -0.12563763490120006,
                        -0.12420083370895463,
                        -0.12654527436730628,
                        -0.12087233091396017,
                        -0.11074624300446176
                    ]
                },
                {
                    "train": [
                        0.8824626865671642,
                        0.8843283582089553,
                        0.8861940298507462,
                        0.8805970149253731,
                        0.8768656716417911,
                        0.8824626865671642,
                        0.8805970149253731,
                        0.8731343283582089,
                        0.8936567164179104,
                        0.8936567164179104
                    ],
                    "train_2": [
                        -0.20246251165221715,
                        -0.21865567232651203,
                        -0.2073185316695204,
                        -0.21024888581424653,
                        -0.21074135044616948,
                        -0.22221214646990411,
                        -0.18600319356039674,
                        -0.18101944701428854,
                        -0.16296609442846757,
                        -0.1989491026252459
                    ],
                    "test": [
                        0.925,
                        0.915,
                        0.925,
                        0.915,
                        0.92,
                        0.91,
                        0.91,
                        0.91,
                        0.91,
                        0.91
                    ],
                    "test_2": [
                        -0.10623367829437637,
                        -0.12802749428363253,
                        -0.11420194450321663,
                        -0.119834974629427,
                        -0.11897164283710142,
                        -0.13388067760018535,
                        -0.12397538588893822,
                        -0.12363532923971177,
                        -0.12697956660469384,
                        -0.1300021754827889
                    ],
                    "val": [
                        0.9318181818181818,
                        0.9318181818181818,
                        0.9393939393939394,
                        0.9393939393939394,
                        0.9356060606060606,
                        0.9356060606060606,
                        0.8977272727272727,
                        0.9053030303030303,
                        0.9242424242424242,
                        0.9166666666666666
                    ],
                    "val_2": [
                        -0.1171163572630664,
                        -0.10749964339829823,
                        -0.11692105581116337,
                        -0.10684967922193837,
                        -0.11062361895511325,
                        -0.11467603455392249,
                        -0.13035544864995338,
                        -0.1254559597605288,
                        -0.10877097943240169,
                        -0.121832024681364
                    ]
                },
                {
                    "train": [
                        0.8880597014925373,
                        0.8824626865671642,
                        0.8805970149253731,
                        0.8805970149253731,
                        0.8824626865671642,
                        0.8805970149253731,
                        0.8768656716417911,
                        0.8768656716417911,
                        0.8955223880597015,
                        0.8675373134328358
                    ],
                    "train_2": [
                        -0.19491792496809607,
                        -0.22784252476992,
                        -0.2190497745142296,
                        -0.21457110598722548,
                        -0.21172873040142792,
                        -0.2173377983752598,
                        -0.18367920798508802,
                        -0.1806803175362273,
                        -0.16691945798202462,
                        -0.23321379046833707
                    ],
                    "test": [
                        0.905,
                        0.905,
                        0.9,
                        0.9,
                        0.91,
                        0.905,
                        0.87,
                        0.87,
                        0.895,
                        0.895
                    ],
                    "test_2": [
                        -0.1308380111455546,
                        -0.14099656458609003,
                        -0.14315546219197553,
                        -0.14428517480046466,
                        -0.13058046142482746,
                        -0.14346793721530932,
                        -0.16051573075422718,
                        -0.1630860307986611,
                        -0.15298325090222417,
                        -0.16467817867738346
                    ],
                    "val": [
                        0.9204545454545454,
                        0.9128787878787878,
                        0.9242424242424242,
                        0.9053030303030303,
                        0.9204545454545454,
                        0.9204545454545454,
                        0.8939393939393939,
                        0.8901515151515151,
                        0.8939393939393939,
                        0.9053030303030303
                    ],
                    "val_2": [
                        -0.12460647436120115,
                        -0.12629250092754613,
                        -0.12807371337807935,
                        -0.12608649675906985,
                        -0.11855049937955411,
                        -0.12503853069715085,
                        -0.14380754238399412,
                        -0.15104454304390535,
                        -0.1399257601811506,
                        -0.1529719099956161
                    ]
                },
                {
                    "train": [
                        0.8656716417910447,
                        0.8638059701492538,
                        0.8694029850746269,
                        0.8619402985074627,
                        0.8656716417910447,
                        0.8675373134328358,
                        0.875,
                        0.8768656716417911,
                        0.8768656716417911,
                        0.8768656716417911
                    ],
                    "train_2": [
                        -0.21626131686045158,
                        -0.2603084533236051,
                        -0.24949350908948542,
                        -0.24712015284166308,
                        -0.24163260787904486,
                        -0.24828801715629653,
                        -0.19242989999362367,
                        -0.18935183553332202,
                        -0.18131746867938753,
                        -0.22170680032885054
                    ],
                    "test": [
                        0.885,
                        0.895,
                        0.885,
                        0.885,
                        0.89,
                        0.885,
                        0.89,
                        0.895,
                        0.88,
                        0.875
                    ],
                    "test_2": [
                        -0.14966809669066344,
                        -0.1641162591033647,
                        -0.16795431348970816,
                        -0.14727136775321947,
                        -0.1562390923233625,
                        -0.16481219089078747,
                        -0.14706788592651088,
                        -0.1476561670174185,
                        -0.1522949575673344,
                        -0.20343426516441032
                    ],
                    "val": [
                        0.8977272727272727,
                        0.9015151515151515,
                        0.8977272727272727,
                        0.9128787878787878,
                        0.9090909090909091,
                        0.9015151515151515,
                        0.8939393939393939,
                        0.8901515151515151,
                        0.9015151515151515,
                        0.8939393939393939
                    ],
                    "val_2": [
                        -0.14692780288545776,
                        -0.14140548753638818,
                        -0.15149441007254136,
                        -0.1338383518069688,
                        -0.14633166110692242,
                        -0.14258234945320664,
                        -0.14756422440096753,
                        -0.15152561379434706,
                        -0.14862490872569195,
                        -0.16511878787654355
                    ]
                }
            ],
            [
                "best_idx3-L3: train-0.88060, train_2--0.21025, test-0.91500, test_2--0.11983, val-0.93939, val_2--0.10685",
                "best_idx9-L2: train-0.88806, train_2--0.18168, test-0.94500, test_2--0.10646, val-0.93561, val_2--0.11075",
                "linear-L2: train-0.90485, train_2--0.14878, test-0.94000, test_2--0.10084, val-0.93182, val_2--0.11695",
                "weighted-L1: train-0.89179, train_2--0.14528, test-0.91000, test_2--0.13150, val-0.92424, val_2--0.11314",
                "weighted-L2: train-0.89925, train_2--0.15032, test-0.93500, test_2--0.10099, val-0.92424, val_2--0.12136",
                "best_idx2-L4: train-0.88060, train_2--0.21905, test-0.90000, test_2--0.14316, val-0.92424, val_2--0.12807",
                "weighted-L3: train-0.88993, train_2--0.17720, test-0.91000, test_2--0.11286, val-0.92045, val_2--0.10550",
                "linear-L1: train-0.89925, train_2--0.14458, test-0.91000, test_2--0.13532, val-0.92045, val_2--0.11732",
                "linear-L3: train-0.88619, train_2--0.17357, test-0.90500, test_2--0.12159, val-0.91667, val_2--0.11509",
                "linear-L4: train-0.88433, train_2--0.17854, test-0.89500, test_2--0.14950, val-0.91667, val_2--0.13412",
                "best_idx3-L5: train-0.86194, train_2--0.24712, test-0.88500, test_2--0.14727, val-0.91288, val_2--0.13384",
                "linear-L5: train-0.88060, train_2--0.18957, test-0.88500, test_2--0.15965, val-0.90530, val_2--0.15267",
                "weighted-L5: train-0.87687, train_2--0.19239, test-0.89000, test_2--0.14799, val-0.90152, val_2--0.14772",
                "weighted-L4: train-0.87500, train_2--0.17481, test-0.89500, test_2--0.15298, val-0.89394, val_2--0.13993"
            ]
        ],
        "stacking10_0.4_L1_weighted_retainTrue": [
            [
                {
                    "train": [
                        0.8656716417910447,
                        0.8861940298507462,
                        0.878731343283582,
                        0.8824626865671642,
                        0.8899253731343284,
                        0.8917910447761194,
                        0.878731343283582,
                        0.8731343283582089,
                        0.8768656716417911,
                        0.8936567164179104
                    ],
                    "train_2": [
                        -0.20528565181611946,
                        -0.21267250483198902,
                        -0.21585991375683558,
                        -0.1913954007945315,
                        -0.18352199959819324,
                        -0.20253085512393804,
                        -0.18650392141516117,
                        -0.19008879469745107,
                        -0.1804799287482137,
                        -0.18116806348593886
                    ],
                    "test": [
                        0.905,
                        0.915,
                        0.92,
                        0.905,
                        0.92,
                        0.915,
                        0.865,
                        0.87,
                        0.865,
                        0.88
                    ],
                    "test_2": [
                        -0.13358061410201094,
                        -0.12717385663735356,
                        -0.1232324245959313,
                        -0.12787185140314009,
                        -0.12064482555763271,
                        -0.11864942087077751,
                        -0.1704748186625732,
                        -0.16787314613001791,
                        -0.18140052974344678,
                        -0.1850935675210477
                    ],
                    "val": [
                        0.9318181818181818,
                        0.9242424242424242,
                        0.9204545454545454,
                        0.928030303030303,
                        0.9242424242424242,
                        0.928030303030303,
                        0.9166666666666666,
                        0.9090909090909091,
                        0.8939393939393939,
                        0.9090909090909091
                    ],
                    "val_2": [
                        -0.12023988040526713,
                        -0.1255121705991565,
                        -0.12561659230413513,
                        -0.1100008538089267,
                        -0.11646191353491815,
                        -0.1269236814104499,
                        -0.1400009756104376,
                        -0.1402368941127608,
                        -0.15350598687044514,
                        -0.1499680177453834
                    ]
                },
                {
                    "train": [
                        0.8656716417910447,
                        0.8843283582089553,
                        0.8917910447761194,
                        0.8824626865671642,
                        0.8899253731343284,
                        0.8917910447761194,
                        0.9011194029850746,
                        0.9104477611940298,
                        0.8973880597014925,
                        0.8880597014925373
                    ],
                    "train_2": [
                        -0.20528565181611946,
                        -0.2163049825867146,
                        -0.19744343820543753,
                        -0.1913954007945315,
                        -0.19902431932247713,
                        -0.20253085512393804,
                        -0.1537536024090565,
                        -0.1519707502334335,
                        -0.14741088331666954,
                        -0.1816760926419551
                    ],
                    "test": [
                        0.905,
                        0.92,
                        0.94,
                        0.905,
                        0.93,
                        0.915,
                        0.935,
                        0.93,
                        0.925,
                        0.945
                    ],
                    "test_2": [
                        -0.13358061410201094,
                        -0.13421937806720266,
                        -0.12273911017955376,
                        -0.12787185140314009,
                        -0.12281591063755919,
                        -0.11864942087077751,
                        -0.10194200908506686,
                        -0.10341437810134141,
                        -0.10268851568303437,
                        -0.10646211673995117
                    ],
                    "val": [
                        0.9318181818181818,
                        0.9318181818181818,
                        0.928030303030303,
                        0.928030303030303,
                        0.9318181818181818,
                        0.928030303030303,
                        0.9242424242424242,
                        0.9166666666666666,
                        0.9166666666666666,
                        0.9356060606060606
                    ],
                    "val_2": [
                        -0.12023988040526713,
                        -0.12083305846398797,
                        -0.11642568499847404,
                        -0.1100008538089267,
                        -0.11802378157747931,
                        -0.1269236814104499,
                        -0.12420083370895463,
                        -0.12654527436730628,
                        -0.12087233091396017,
                        -0.11074624300446176
                    ]
                },
                {
                    "train": [
                        0.8656716417910447,
                        0.8843283582089553,
                        0.8917910447761194,
                        0.8917910447761194,
                        0.8805970149253731,
                        0.8824626865671642,
                        0.9011194029850746,
                        0.9104477611940298,
                        0.8973880597014925,
                        0.8880597014925373
                    ],
                    "train_2": [
                        -0.20528565181611946,
                        -0.2163049825867146,
                        -0.19744343820543753,
                        -0.20472291430036887,
                        -0.21167400503689546,
                        -0.22208667687966438,
                        -0.1537536024090565,
                        -0.1519707502334335,
                        -0.14741088331666954,
                        -0.1816760926419551
                    ],
                    "test": [
                        0.905,
                        0.92,
                        0.94,
                        0.925,
                        0.93,
                        0.925,
                        0.935,
                        0.93,
                        0.925,
                        0.945
                    ],
                    "test_2": [
                        -0.13358061410201094,
                        -0.13421937806720266,
                        -0.12273911017955376,
                        -0.116137233454294,
                        -0.10676049541282862,
                        -0.11927651077473003,
                        -0.10194200908506686,
                        -0.10341437810134141,
                        -0.10268851568303437,
                        -0.10646211673995117
                    ],
                    "val": [
                        0.9318181818181818,
                        0.9318181818181818,
                        0.928030303030303,
                        0.9356060606060606,
                        0.9393939393939394,
                        0.9356060606060606,
                        0.9242424242424242,
                        0.9166666666666666,
                        0.9166666666666666,
                        0.9356060606060606
                    ],
                    "val_2": [
                        -0.12023988040526713,
                        -0.12083305846398797,
                        -0.11642568499847404,
                        -0.12449756454987229,
                        -0.11655142644316095,
                        -0.12829547916152817,
                        -0.12420083370895463,
                        -0.12654527436730628,
                        -0.12087233091396017,
                        -0.11074624300446176
                    ]
                },
                {
                    "train": [
                        0.8656716417910447,
                        0.8843283582089553,
                        0.8917910447761194,
                        0.8917910447761194,
                        0.8805970149253731,
                        0.8805970149253731,
                        0.9011194029850746,
                        0.9104477611940298,
                        0.8880597014925373,
                        0.8880597014925373
                    ],
                    "train_2": [
                        -0.20528565181611946,
                        -0.2163049825867146,
                        -0.19744343820543753,
                        -0.20472291430036887,
                        -0.21167400503689546,
                        -0.21961923965218116,
                        -0.1537536024090565,
                        -0.1519707502334335,
                        -0.16370957170145586,
                        -0.1816760926419551
                    ],
                    "test": [
                        0.905,
                        0.92,
                        0.94,
                        0.925,
                        0.93,
                        0.94,
                        0.935,
                        0.93,
                        0.91,
                        0.945
                    ],
                    "test_2": [
                        -0.13358061410201094,
                        -0.13421937806720266,
                        -0.12273911017955376,
                        -0.116137233454294,
                        -0.10676049541282862,
                        -0.11064855395836602,
                        -0.10194200908506686,
                        -0.10341437810134141,
                        -0.11676047507428666,
                        -0.10646211673995117
                    ],
                    "val": [
                        0.9318181818181818,
                        0.9318181818181818,
                        0.928030303030303,
                        0.9356060606060606,
                        0.9393939393939394,
                        0.9393939393939394,
                        0.9242424242424242,
                        0.9166666666666666,
                        0.9204545454545454,
                        0.9356060606060606
                    ],
                    "val_2": [
                        -0.12023988040526713,
                        -0.12083305846398797,
                        -0.11642568499847404,
                        -0.12449756454987229,
                        -0.11655142644316095,
                        -0.12090673548307117,
                        -0.12420083370895463,
                        -0.12654527436730628,
                        -0.1172809289062466,
                        -0.11074624300446176
                    ]
                },
                {
                    "train": [
                        0.8656716417910447,
                        0.8843283582089553,
                        0.8917910447761194,
                        0.8917910447761194,
                        0.8805970149253731,
                        0.8805970149253731,
                        0.9011194029850746,
                        0.9104477611940298,
                        0.8880597014925373,
                        0.8880597014925373
                    ],
                    "train_2": [
                        -0.20528565181611946,
                        -0.2163049825867146,
                        -0.19744343820543753,
                        -0.20472291430036887,
                        -0.21167400503689546,
                        -0.21961923965218116,
                        -0.1537536024090565,
                        -0.1519707502334335,
                        -0.16370957170145586,
                        -0.1816760926419551
                    ],
                    "test": [
                        0.905,
                        0.92,
                        0.94,
                        0.925,
                        0.93,
                        0.94,
                        0.935,
                        0.93,
                        0.91,
                        0.945
                    ],
                    "test_2": [
                        -0.13358061410201094,
                        -0.13421937806720266,
                        -0.12273911017955376,
                        -0.116137233454294,
                        -0.10676049541282862,
                        -0.11064855395836602,
                        -0.10194200908506686,
                        -0.10341437810134141,
                        -0.11676047507428666,
                        -0.10646211673995117
                    ],
                    "val": [
                        0.9318181818181818,
                        0.9318181818181818,
                        0.928030303030303,
                        0.9356060606060606,
                        0.9393939393939394,
                        0.9393939393939394,
                        0.9242424242424242,
                        0.9166666666666666,
                        0.9204545454545454,
                        0.9356060606060606
                    ],
                    "val_2": [
                        -0.12023988040526713,
                        -0.12083305846398797,
                        -0.11642568499847404,
                        -0.12449756454987229,
                        -0.11655142644316095,
                        -0.12090673548307117,
                        -0.12420083370895463,
                        -0.12654527436730628,
                        -0.1172809289062466,
                        -0.11074624300446176
                    ]
                }
            ],
            [
                "best_idx4-L3: train-0.88060, train_2--0.21167, test-0.93000, test_2--0.10676, val-0.93939, val_2--0.11655",
                "best_idx5-L4: train-0.88060, train_2--0.21962, test-0.94000, test_2--0.11065, val-0.93939, val_2--0.12091",
                "best_idx9-L2: train-0.88806, train_2--0.18168, test-0.94500, test_2--0.10646, val-0.93561, val_2--0.11075",
                "weighted-L2: train-0.90485, train_2--0.14820, test-0.93000, test_2--0.09976, val-0.93182, val_2--0.11160",
                "linear-L2: train-0.89739, train_2--0.15146, test-0.92000, test_2--0.10139, val-0.93182, val_2--0.11393",
                "linear-L4: train-0.90858, train_2--0.14837, test-0.92000, test_2--0.10636, val-0.92803, val_2--0.11541",
                "best_idx4-L5: train-0.89179, train_2--0.20043, test-0.93500, test_2--0.10234, val-0.92803, val_2--0.11862",
                "weighted-L1: train-0.89179, train_2--0.14528, test-0.91000, test_2--0.13150, val-0.92424, val_2--0.11314",
                "linear-L3: train-0.90485, train_2--0.14617, test-0.92000, test_2--0.10529, val-0.92424, val_2--0.11730",
                "weighted-L4: train-0.90858, train_2--0.14727, test-0.93500, test_2--0.09941, val-0.92045, val_2--0.11512",
                "linear-L1: train-0.89925, train_2--0.14458, test-0.91000, test_2--0.13532, val-0.92045, val_2--0.11732",
                "weighted-L3: train-0.90112, train_2--0.14933, test-0.93500, test_2--0.10180, val-0.92045, val_2--0.12340"
            ]
        ]
    },
    "dropoutreg_exp": {
        "stacking30_0.3_L1_lineardropout0": [
            [
                [
                    0.4960321478631677,
                    -0.4369722049242624,
                    -0.27008188860464594,
                    1.0252208189627792,
                    -0.3307220904059639,
                    0.3065526572168784,
                    0.3403976073958424,
                    0.1611386167109487,
                    1.2368121240122874,
                    -0.3376270722172423,
                    0.3923915877494528,
                    -0.19200979229959525,
                    0.09337256524306482,
                    -0.6079796292772034,
                    -0.2791516656516848,
                    0.7016198378396097,
                    -0.4331569909830548,
                    0.19964661827027025,
                    0.13385883718671598,
                    1.8268260913191445,
                    0.5194247782032084,
                    0.11979936554758545,
                    0.6640347833544146,
                    -0.0022444911615085513,
                    0.6364127557069269,
                    0.2613620850569321,
                    0.8965044950709911,
                    0.6483410079537788,
                    0.648341007953779,
                    -0.18906040898911666
                ]
            ],
            [
                "linear-L1: train-0.89739, train_2--0.14296, test-0.91500, test_2--0.13406, val-0.92045, val_2--0.11891"
            ]
        ],
        "stacking30_0.3_L1_lineardropout0.1": [
            [
                [
                    0.3671477291980042,
                    -0.3490102342438989,
                    -0.41389785101168153,
                    0.8369341762215787,
                    -0.25171435807990356,
                    0.21142617094988983,
                    0.6315758521287805,
                    0.27089701157522195,
                    1.0827178873508982,
                    -0.8273460796892783,
                    0.1349976220710669,
                    0.1723166690631112,
                    0.02082653840754778,
                    -0.10073658916335855,
                    -0.544727735600644,
                    0.7237455598761305,
                    -0.1782797960404907,
                    0.14294051579980455,
                    -0.1913272354215446,
                    2.1562093998560043,
                    0.1700829427834802,
                    0.1446205413031117,
                    0.9013262179693131,
                    0.44514882704427794,
                    0.42696588836473176,
                    0.33421548925664746,
                    0.6689234484487275,
                    0.4300650164952815,
                    1.109906092721933,
                    -0.35832512625980795
                ]
            ],
            [
                "linear-L1: train-0.89179, train_2--0.14359, test-0.91500, test_2--0.13626, val-0.92045, val_2--0.11947"
            ]
        ],
        "stacking30_0.3_L1_lineardropout0.2": [
            [
                [
                    0.35627392395594243,
                    -0.3106353533371989,
                    0.22143999741884732,
                    0.24699393052460303,
                    -0.8947836606855019,
                    -0.2586653341992614,
                    0.03926541953762903,
                    0.6135528011785865,
                    1.1439091106895425,
                    0.0442525115039498,
                    0.664107326010957,
                    -0.5242383951124234,
                    0.30979552867758053,
                    -0.35400384667254164,
                    -0.3919369594784835,
                    0.6006139699343563,
                    -0.6005958891544912,
                    0.10089175178098503,
                    0.3210836870036812,
                    1.6664955713633272,
                    0.07229338836394096,
                    0.3007520274243812,
                    0.687618834878845,
                    -0.06100933515545319,
                    1.0603209806018639,
                    0.6057203538929983,
                    0.7800447109922886,
                    0.2571444812883565,
                    0.8693372383887239,
                    -0.047715878708507374
                ]
            ],
            [
                "linear-L1: train-0.90299, train_2--0.15005, test-0.90500, test_2--0.13855, val-0.92045, val_2--0.11938"
            ]
        ],
        "stacking30_0.3_L1_lineardropout0.3": [
            [
                [
                    0.4997417891376456,
                    -0.5462364621414048,
                    -0.5158506069187996,
                    0.08141967695732939,
                    0.05412222631148434,
                    0.1622104913444089,
                    -0.19824432466994474,
                    0.16480216503922188,
                    1.0362258972770044,
                    0.06502082513775735,
                    0.19364149577496045,
                    -0.4249743809563931,
                    0.5805646937882057,
                    -0.5144032892501901,
                    -0.1713312397990977,
                    0.7183251134915878,
                    -0.47046640168949594,
                    0.5114389581782192,
                    -0.16252616913988516,
                    0.6994034300595462,
                    0.0820779084962419,
                    0.30201772445784336,
                    0.3495413976908767,
                    0.07709807740562184,
                    1.5900961455049292,
                    0.8910390385358296,
                    0.33598606261105923,
                    1.289475160931787,
                    0.5018929595868769,
                    0.27002889785617856
                ]
            ],
            [
                "linear-L1: train-0.90112, train_2--0.14740, test-0.91000, test_2--0.14395, val-0.92045, val_2--0.12221"
            ]
        ],
        "stacking30_0.3_L1_lineardropout0.4": [
            [
                [
                    0.5297763654249228,
                    -0.7367041165288495,
                    -0.6129438026156376,
                    0.8181412912662923,
                    -0.7284052977494881,
                    0.1014867860635376,
                    0.6873614602027234,
                    0.09073251563416034,
                    1.4088522777865358,
                    -0.44151616804341215,
                    0.1662386508585406,
                    -0.22593016758576004,
                    0.2839498363830645,
                    0.284744276559502,
                    0.04628728604162879,
                    0.38004923197529245,
                    -0.5297564192251156,
                    -0.5572613195976521,
                    0.24601539214410564,
                    0.5606226710591412,
                    1.3243817556797874,
                    0.092385505105846,
                    0.9365381410739619,
                    -0.3505958954831623,
                    0.7627989101457051,
                    0.37321439381424193,
                    1.002246808084137,
                    1.086132352734993,
                    0.3428021202512983,
                    -0.2156137426559531
                ]
            ],
            [
                "linear-L1: train-0.89552, train_2--0.15171, test-0.90500, test_2--0.14276, val-0.91667, val_2--0.12215"
            ]
        ],
        "stacking30_0.3_L1_lineardropout0.5": [
            [
                [
                    -0.3233869368805216,
                    0.21084291974423616,
                    -0.39751954481353413,
                    0.8513661090863519,
                    -0.9100406598451555,
                    0.4223369098106803,
                    -0.22220539250884822,
                    -0.07413543110988993,
                    1.2096427116691242,
                    -0.013984197019329889,
                    0.3847296914747692,
                    0.25293327523927567,
                    0.9102733608473461,
                    -1.3411592113904625,
                    -0.4744411538930962,
                    0.021794550731694534,
                    0.18553462501719953,
                    0.5569432105185042,
                    -0.41422599467400484,
                    1.3271406214787005,
                    0.29125241388887313,
                    1.4086532809942443,
                    0.4568268034747223,
                    0.13743733906875705,
                    0.5162533325412023,
                    -0.30672833407407896,
                    0.6481934777377208,
                    0.29120188600529956,
                    1.6395127536300647,
                    -0.007814130723914885
                ]
            ],
            [
                "linear-L1: train-0.90672, train_2--0.14756, test-0.89500, test_2--0.15033, val-0.91288, val_2--0.13308"
            ]
        ]
    },
    "diversity_exp": {
        "stacking30_0": [
            27.905303030303035,
            3.8261116715643264,
            99.09506792230765
        ],
        "stacking30_0.05": [
            27.840909090909097,
            3.8702634707619374,
            94.70262763623664
        ],
        "stacking30_0.1": [
            27.750000000000004,
            3.9536447420305665,
            91.94037442781566
        ],
        "stacking30_0.15": [
            27.734848484848488,
            3.957177494445368,
            90.90515896418898
        ],
        "stacking30_0.2": [
            27.704545454545457,
            3.9880788315585045,
            89.98847693538792
        ],
        "stacking30_0.25": [
            27.708333333333336,
            4.047726376626789,
            89.09276247057515
        ],
        "stacking30_0.3": [
            27.609848484848484,
            4.1284268456386854,
            88.404062056313
        ],
        "stacking30_0.35": [
            27.666666666666668,
            4.131006250258303,
            88.31168588623969
        ],
        "stacking30_0.4": [
            27.62878787878788,
            4.169681510831062,
            88.2050774434484
        ],
        "stacking30_0.45": [
            27.575757575757574,
            4.221973252884311,
            88.16584513037174
        ],
        "stacking30_0.49": [
            27.613636363636363,
            4.181127938079254,
            88.18449723712303
        ]
    },
    "diversityavg_exp": {
        "stacking30_0": [
            27.905303030303035,
            3.8261116715643264,
            99.09506792230765
        ],
        "stacking30_0.05": [
            27.92803030303031,
            3.827532809645618,
            102.0310848831495
        ],
        "stacking30_0.1": [
            27.92424242424243,
            3.8276710608707547,
            101.99434319073248
        ],
        "stacking30_0.15": [
            27.92424242424243,
            3.828392193958974,
            102.0062837356708
        ],
        "stacking30_0.2": [
            27.92424242424243,
            3.828392193958974,
            102.0062837356708
        ],
        "stacking30_0.25": [
            27.92424242424243,
            3.831912366240336,
            102.08355799631107
        ],
        "stacking30_0.3": [
            27.920454545454554,
            3.8392984529179865,
            101.97637591705912
        ],
        "stacking30_0.35": [
            27.931818181818187,
            3.8400640507561326,
            100.4439811358462
        ],
        "stacking30_0.4": [
            27.931818181818187,
            3.8400640507561326,
            100.4439811358462
        ],
        "stacking30_0.45": [
            27.931818181818187,
            3.840064050756133,
            100.4439811358462
        ],
        "stacking30_0.49": [
            27.931818181818187,
            3.8400640507561326,
            100.4439811358462
        ]
    },
    "struc_exp": {
        "stacking30_0.3_dropout0_retainTrue": [
            "best_idx27-L2: train-8.97388060e-01, train_2--1.83155160e-01, test-9.15000000e-01, test_2--1.27390648e-01, val-9.46969697e-01, val_2--9.72154860e-02",
            "best_idx3-L3: train-8.93656716e-01, train_2--1.57903467e-01, test-9.20000000e-01, test_2--1.05810967e-01, val-9.46969697e-01, val_2--1.01795073e-01",
            "linear-L2: train-8.99253731e-01, train_2--1.50752372e-01, test-9.30000000e-01, test_2--1.12203751e-01, val-9.39393939e-01, val_2--1.02079936e-01",
            "weighted-L3: train-8.88059701e-01, train_2--1.52168288e-01, test-9.30000000e-01, test_2--1.12651175e-01, val-9.35606061e-01, val_2--1.01090138e-01",
            "weighted-L2: train-8.97388060e-01, train_2--1.60328389e-01, test-9.35000000e-01, test_2--1.10835460e-01, val-9.31818182e-01, val_2--1.00033878e-01",
            "weighted-L1: train-9.02985075e-01, train_2--1.45721867e-01, test-9.10000000e-01, test_2--1.27687047e-01, val-9.31818182e-01, val_2--1.14448540e-01",
            "linear-L3: train-9.02985075e-01, train_2--1.47681418e-01, test-9.30000000e-01, test_2--1.20433077e-01, val-9.20454545e-01, val_2--1.08304030e-01",
            "linear-L1: train-8.97388060e-01, train_2--1.42956976e-01, test-9.15000000e-01, test_2--1.34059364e-01, val-9.20454545e-01, val_2--1.18908730e-01",
            "lightgbm-L1: train-8.99253731e-01, train_2--1.58650949e-01, test-9.20000000e-01, test_2--1.20193298e-01, val-9.05303030e-01, val_2--1.27701198e-01",
            "lightgbm-L3: train-8.97388060e-01, train_2--1.47931860e-01, test-9.05000000e-01, test_2--1.30078665e-01, val-8.90151515e-01, val_2--1.37730775e-01",
            "lightgbm-L2: train-8.91791045e-01, train_2--1.58992329e-01, test-9.10000000e-01, test_2--1.20443387e-01, val-8.90151515e-01, val_2--1.43466468e-01"
        ],
        "stacking30_0.3_dropout0.1_retainTrue": [
            "best_idx17-L3: train-8.89925373e-01, train_2--2.05072496e-01, test-9.20000000e-01, test_2--1.18911866e-01, val-9.50757576e-01, val_2--1.05466706e-01",
            "best_idx13-L2: train-8.82462687e-01, train_2--2.28840168e-01, test-9.40000000e-01, test_2--1.06881281e-01, val-9.43181818e-01, val_2--1.20656650e-01",
            "weighted-L3: train-8.95522388e-01, train_2--1.53466481e-01, test-9.25000000e-01, test_2--1.09562793e-01, val-9.39393939e-01, val_2--1.01218652e-01",
            "weighted-L2: train-8.91791045e-01, train_2--1.46744096e-01, test-9.25000000e-01, test_2--1.09737541e-01, val-9.35606061e-01, val_2--1.00348156e-01",
            "linear-L2: train-8.82462687e-01, train_2--1.54676576e-01, test-9.30000000e-01, test_2--1.11860178e-01, val-9.35606061e-01, val_2--1.07072913e-01",
            "weighted-L1: train-9.02985075e-01, train_2--1.45721867e-01, test-9.10000000e-01, test_2--1.27687047e-01, val-9.31818182e-01, val_2--1.14448540e-01",
            "linear-L3: train-8.95522388e-01, train_2--1.54966833e-01, test-9.25000000e-01, test_2--1.17270646e-01, val-9.24242424e-01, val_2--1.18504975e-01",
            "linear-L1: train-8.97388060e-01, train_2--1.42956976e-01, test-9.15000000e-01, test_2--1.34059364e-01, val-9.20454545e-01, val_2--1.18908730e-01",
            "lightgbm-L2: train-8.86194030e-01, train_2--1.62773196e-01, test-9.20000000e-01, test_2--1.27003500e-01, val-9.09090909e-01, val_2--1.34519404e-01",
            "lightgbm-L1: train-8.99253731e-01, train_2--1.58650949e-01, test-9.20000000e-01, test_2--1.20193298e-01, val-9.05303030e-01, val_2--1.27701198e-01",
            "lightgbm-L3: train-8.89925373e-01, train_2--1.54154963e-01, test-9.05000000e-01, test_2--1.31832871e-01, val-8.90151515e-01, val_2--1.48891044e-01"
        ],
        "stacking30_0.3_dropout0.2_retainFalse": [
            "best_idx27-L2: train-8.89925373e-01, train_2--1.88622279e-01, test-9.15000000e-01, test_2--1.32472213e-01, val-9.43181818e-01, val_2--1.05153600e-01",
            "best_idx19-L3: train-8.88059701e-01, train_2--1.50539760e-01, test-9.20000000e-01, test_2--1.09041885e-01, val-9.43181818e-01, val_2--1.11307917e-01",
            "linear-L2: train-8.89925373e-01, train_2--1.60217720e-01, test-9.25000000e-01, test_2--1.11810873e-01, val-9.35606061e-01, val_2--1.10799856e-01",
            "weighted-L2: train-8.93656716e-01, train_2--1.57330076e-01, test-9.25000000e-01, test_2--1.12386033e-01, val-9.31818182e-01, val_2--1.08880614e-01",
            "weighted-L1: train-9.02985075e-01, train_2--1.45721867e-01, test-9.10000000e-01, test_2--1.27687047e-01, val-9.31818182e-01, val_2--1.14448540e-01",
            "weighted-L3: train-8.86194030e-01, train_2--1.74082382e-01, test-9.05000000e-01, test_2--1.12289056e-01, val-9.28030303e-01, val_2--1.12612639e-01",
            "linear-L3: train-8.86194030e-01, train_2--1.69358445e-01, test-9.30000000e-01, test_2--1.07258229e-01, val-9.28030303e-01, val_2--1.14923279e-01",
            "linear-L1: train-8.97388060e-01, train_2--1.42956976e-01, test-9.15000000e-01, test_2--1.34059364e-01, val-9.20454545e-01, val_2--1.18908730e-01",
            "lightgbm-L1: train-8.99253731e-01, train_2--1.58650949e-01, test-9.20000000e-01, test_2--1.20193298e-01, val-9.05303030e-01, val_2--1.27701198e-01",
            "lightgbm-L3: train-8.73134328e-01, train_2--1.72985564e-01, test-8.70000000e-01, test_2--1.56239544e-01, val-8.82575758e-01, val_2--1.58663080e-01",
            "lightgbm-L2: train-8.80597015e-01, train_2--1.67145586e-01, test-9.05000000e-01, test_2--1.30817556e-01, val-8.78787879e-01, val_2--1.53181208e-01"
        ],
        "stacking30_0.3_dropout0.2_retainTrue": [
            "best_idx27-L2: train-8.89925373e-01, train_2--1.88622279e-01, test-9.15000000e-01, test_2--1.32472213e-01, val-9.43181818e-01, val_2--1.05153600e-01",
            "best_idx3-L3: train-8.89925373e-01, train_2--1.69440890e-01, test-9.35000000e-01, test_2--1.04316135e-01, val-9.39393939e-01, val_2--1.03022393e-01",
            "weighted-L3: train-8.89925373e-01, train_2--1.55066866e-01, test-9.25000000e-01, test_2--1.07979073e-01, val-9.39393939e-01, val_2--1.04037217e-01",
            "linear-L5: train-8.84328358e-01, train_2--1.61207589e-01, test-9.30000000e-01, test_2--1.08682633e-01, val-9.39393939e-01, val_2--1.09502935e-01",
            "best_idx19-L4: train-8.95522388e-01, train_2--1.50609292e-01, test-9.30000000e-01, test_2--1.08492499e-01, val-9.39393939e-01, val_2--1.11015614e-01",
            "weighted-L4: train-8.91791045e-01, train_2--1.57704425e-01, test-9.20000000e-01, test_2--1.08255130e-01, val-9.35606061e-01, val_2--1.04197984e-01",
            "weighted-L5: train-8.86194030e-01, train_2--1.65440820e-01, test-9.20000000e-01, test_2--1.08158987e-01, val-9.35606061e-01, val_2--1.04238280e-01",
            "linear-L4: train-8.89925373e-01, train_2--1.57990243e-01, test-9.30000000e-01, test_2--1.05549300e-01, val-9.35606061e-01, val_2--1.08287613e-01",
            "best_idx27-L5: train-8.86194030e-01, train_2--2.15195807e-01, test-9.20000000e-01, test_2--1.27102047e-01, val-9.35606061e-01, val_2--1.09340633e-01",
            "linear-L2: train-8.91791045e-01, train_2--1.54841919e-01, test-9.35000000e-01, test_2--1.14492621e-01, val-9.31818182e-01, val_2--1.09714664e-01",
            "weighted-L1: train-9.02985075e-01, train_2--1.45721867e-01, test-9.10000000e-01, test_2--1.27687047e-01, val-9.31818182e-01, val_2--1.14448540e-01",
            "weighted-L2: train-8.80597015e-01, train_2--1.53271539e-01, test-9.25000000e-01, test_2--1.13770997e-01, val-9.28030303e-01, val_2--1.04622483e-01",
            "linear-L3: train-8.88059701e-01, train_2--1.58325448e-01, test-9.30000000e-01, test_2--1.07191800e-01, val-9.28030303e-01, val_2--1.12091020e-01",
            "linear-L1: train-8.97388060e-01, train_2--1.42956976e-01, test-9.15000000e-01, test_2--1.34059364e-01, val-9.20454545e-01, val_2--1.18908730e-01",
            "lightgbm-L1: train-8.99253731e-01, train_2--1.58650949e-01, test-9.20000000e-01, test_2--1.20193298e-01, val-9.05303030e-01, val_2--1.27701198e-01",
            "lightgbm-L2: train-8.93656716e-01, train_2--1.59458350e-01, test-9.05000000e-01, test_2--1.30540173e-01, val-8.97727273e-01, val_2--1.29156917e-01",
            "lightgbm-L5: train-8.89925373e-01, train_2--1.60182807e-01, test-9.00000000e-01, test_2--1.43977648e-01, val-8.78787879e-01, val_2--1.49592062e-01",
            "lightgbm-L3: train-8.99253731e-01, train_2--1.50910487e-01, test-8.85000000e-01, test_2--1.43471320e-01, val-8.78787879e-01, val_2--1.50937420e-01",
            "lightgbm-L4: train-8.95522388e-01, train_2--1.55519226e-01, test-9.05000000e-01, test_2--1.36896653e-01, val-8.71212121e-01, val_2--1.49928512e-01"
        ],
        "stacking30_0.3_dropout0.3_retainTrue": [
            "best_idx13-L3: train-8.91791045e-01, train_2--2.09492522e-01, test-9.20000000e-01, test_2--1.22917469e-01, val-9.54545455e-01, val_2--1.02994663e-01",
            "weighted-L3: train-8.86194030e-01, train_2--1.70914305e-01, test-9.30000000e-01, test_2--1.05037669e-01, val-9.46969697e-01, val_2--1.00569970e-01",
            "best_idx25-L2: train-8.88059701e-01, train_2--1.90298283e-01, test-9.25000000e-01, test_2--1.20628908e-01, val-9.46969697e-01, val_2--1.10416798e-01",
            "linear-L3: train-8.89925373e-01, train_2--1.65595022e-01, test-9.30000000e-01, test_2--1.14659377e-01, val-9.31818182e-01, val_2--1.10311296e-01",
            "weighted-L1: train-9.02985075e-01, train_2--1.45721867e-01, test-9.10000000e-01, test_2--1.27687047e-01, val-9.31818182e-01, val_2--1.14448540e-01",
            "linear-L2: train-8.95522388e-01, train_2--1.48209325e-01, test-9.30000000e-01, test_2--1.12829685e-01, val-9.28030303e-01, val_2--1.06798604e-01",
            "weighted-L2: train-9.01119403e-01, train_2--1.44289440e-01, test-9.30000000e-01, test_2--1.11731238e-01, val-9.28030303e-01, val_2--1.06964902e-01",
            "linear-L1: train-8.97388060e-01, train_2--1.42956976e-01, test-9.15000000e-01, test_2--1.34059364e-01, val-9.20454545e-01, val_2--1.18908730e-01",
            "lightgbm-L1: train-8.99253731e-01, train_2--1.58650949e-01, test-9.20000000e-01, test_2--1.20193298e-01, val-9.05303030e-01, val_2--1.27701198e-01",
            "lightgbm-L2: train-8.93656716e-01, train_2--1.61991302e-01, test-8.95000000e-01, test_2--1.31799457e-01, val-9.01515152e-01, val_2--1.38194929e-01",
            "lightgbm-L3: train-8.75000000e-01, train_2--1.81276870e-01, test-8.60000000e-01, test_2--1.78151230e-01, val-8.67424242e-01, val_2--1.71181486e-01"
        ],
        "stacking30_0.3_dropout0.4_retainTrue": [
            "best_idx18-L3: train-8.91791045e-01, train_2--2.02781891e-01, test-9.25000000e-01, test_2--1.23230975e-01, val-9.46969697e-01, val_2--1.01179333e-01",
            "weighted-L3: train-8.91791045e-01, train_2--1.59512332e-01, test-9.25000000e-01, test_2--1.21788596e-01, val-9.43181818e-01, val_2--9.82482617e-02",
            "best_idx28-L2: train-9.04850746e-01, train_2--1.77970881e-01, test-9.15000000e-01, test_2--1.37807923e-01, val-9.43181818e-01, val_2--1.01540179e-01",
            "linear-L3: train-9.04850746e-01, train_2--1.46872865e-01, test-9.30000000e-01, test_2--1.18021119e-01, val-9.31818182e-01, val_2--1.07105192e-01",
            "weighted-L1: train-9.02985075e-01, train_2--1.45721867e-01, test-9.10000000e-01, test_2--1.27687047e-01, val-9.31818182e-01, val_2--1.14448540e-01",
            "weighted-L2: train-8.89925373e-01, train_2--1.47999627e-01, test-9.30000000e-01, test_2--1.15174660e-01, val-9.28030303e-01, val_2--1.08864262e-01",
            "linear-L2: train-9.02985075e-01, train_2--1.46617345e-01, test-9.25000000e-01, test_2--1.14356155e-01, val-9.20454545e-01, val_2--1.16465746e-01",
            "linear-L1: train-8.97388060e-01, train_2--1.42956976e-01, test-9.15000000e-01, test_2--1.34059364e-01, val-9.20454545e-01, val_2--1.18908730e-01",
            "lightgbm-L3: train-8.82462687e-01, train_2--1.70296170e-01, test-9.10000000e-01, test_2--1.32884713e-01, val-9.16666667e-01, val_2--1.21349727e-01",
            "lightgbm-L2: train-8.84328358e-01, train_2--1.75625521e-01, test-8.80000000e-01, test_2--1.37358438e-01, val-9.16666667e-01, val_2--1.23333836e-01",
            "lightgbm-L1: train-8.99253731e-01, train_2--1.58650949e-01, test-9.20000000e-01, test_2--1.20193298e-01, val-9.05303030e-01, val_2--1.27701198e-01"
        ]
    }
}