{
    "task_type": "CLS",
    "dataset": "fri_c3_1000_10",
    "refit": "full",
    "filter": "m6_p6",
    "time_limit": 3600,
    "best": 0.87,
    "fixed_ens": {
        "ensemble_selection10": 0.87,
        "cma_es": 0.89,
        "qdo_es": 0.875,
        "OptDivBO": 0.9,
        "EnsOpt": 0.91,
        "stacking-1_0.4_L1_linear": 0.895,
        "stacking-1_0.4_L2_linear": 0.89,
        "stacking1000_0.4_L1_linear": 0.91,
        "stacking1000_0.4_L2_linear": 0.885,
        "ensemble_selection25": 0.895,
        "stacking1000_0.4_L1_weighted": 0.895,
        "stacking-1_0.4_L1_weighted": 0.88,
        "stacking1000_0.4_L2_weighted": 0.925,
        "stacking-1_0.4_L2_weighted": 0.9,
        "autogluon-": 0.903614917649861
    },
    "defopt_ens": {
        "s10_r20_d20": "0.915, 0.91, 0.9, 0.915, 0.915, 0.9",
        "s10_r40_d20": "0.915, 0.905, 0.88, 0.905, 0.92, 0.88",
        "s20_r20_d20": "0.91, 0.9, 0.895, 0.915, 0.88, 0.895",
        "s20_r40_d20": "0.92, 0.92, 0.92, 0.905, 0.905, 0.92",
        "s10_r20_d0": "0.915, 0.92, 0.915, 0.915, 0.915, 0.915",
        "s10_r40_d0": "0.905, 0.91, 0.91, 0.905, 0.915, 0.91",
        "s20_r20_d0": "0.91, 0.91, 0.88, 0.905, 0.92, 0.88",
        "s20_r40_d0": "0.915, 0.91, 0.915, 0.91, 0.915, 0.915"
    },
    "opt_ens": [
        "0.9",
        "0.9",
        "0.895",
        "0.9",
        "0.905",
        "0.905",
        "0.9",
        "0.9",
        "0.89",
        "0.885",
        "0.885",
        "0.885",
        "0.895",
        "0.9",
        "0.91",
        "0.905",
        "0.91",
        "0.89",
        "0.92",
        "0.89",
        "0.91",
        "0.89",
        "0.885",
        "0.885",
        "0.875",
        "0.895",
        "0.855",
        "0.875",
        "0.89",
        "0.91"
    ],
    "opt_ens_d0": [
        "0.91",
        "0.91",
        "0.91",
        "0.905",
        "0.91",
        "0.91",
        "0.91",
        "0.905",
        "0.91",
        "0.91",
        "0.91",
        "0.93",
        "0.92",
        "0.925",
        "0.92",
        "0.9",
        "0.895",
        "0.895",
        "0.91",
        "0.885",
        "0.905",
        "0.9",
        "0.885",
        "0.89",
        "0.885",
        "0.89",
        "0.925",
        "0.905",
        "0.9",
        "0.92"
    ],
    "opt_ens_d0-20": [
        "0.91",
        "0.91",
        "0.915",
        "0.91",
        "0.91",
        "0.91",
        "0.91",
        "0.91",
        "0.91",
        "0.91",
        "0.91",
        "0.91",
        "0.915",
        "0.915",
        "0.915",
        "0.9",
        "0.875",
        "0.89",
        "0.92",
        "0.905",
        "0.91",
        "0.91",
        "0.875",
        "0.905",
        "0.9",
        "0.905",
        "0.905",
        "0.9",
        "0.885",
        "0.915"
    ],
    "size_exp": {
        "stacking5_-1_L1_linear": [
            "linear-L1: train-9.08582090e-01, train_2--1.40759524e-01, test-8.65000000e-01, test_2--1.86613418e-01, val-9.39393939e-01, val_2--1.14462017e-01"
        ],
        "stacking5_0_L1_linear": [
            "linear-L1: train-9.06716418e-01, train_2--1.48340409e-01, test-8.85000000e-01, test_2--1.74611864e-01, val-9.28030303e-01, val_2--1.06987885e-01"
        ],
        "stacking5_0.1_L1_linear": [
            "linear-L1: train-8.99253731e-01, train_2--1.58866772e-01, test-9.15000000e-01, test_2--1.48840792e-01, val-9.31818182e-01, val_2--1.10559211e-01"
        ],
        "stacking5_0.2_L1_linear": [
            "linear-L1: train-8.93656716e-01, train_2--1.59914842e-01, test-9.05000000e-01, test_2--1.50942170e-01, val-9.28030303e-01, val_2--1.11343124e-01"
        ],
        "stacking5_0.3_L1_linear": [
            "linear-L1: train-8.99253731e-01, train_2--1.59434867e-01, test-9.00000000e-01, test_2--1.55462976e-01, val-9.28030303e-01, val_2--1.10411932e-01"
        ],
        "stacking5_0.4_L1_linear": [
            "linear-L1: train-8.95522388e-01, train_2--1.46034511e-01, test-9.00000000e-01, test_2--1.68686274e-01, val-9.39393939e-01, val_2--1.04158527e-01"
        ],
        "stacking10_-1_L1_linear": [
            "linear-L1: train-9.02985075e-01, train_2--1.52799517e-01, test-9.00000000e-01, test_2--1.63544515e-01, val-9.39393939e-01, val_2--1.15370346e-01"
        ],
        "stacking10_0_L1_linear": [
            "linear-L1: train-9.16044776e-01, train_2--1.36135278e-01, test-8.80000000e-01, test_2--1.65629133e-01, val-9.39393939e-01, val_2--1.01763195e-01"
        ],
        "stacking10_0.1_L1_linear": [
            "linear-L1: train-8.93656716e-01, train_2--1.55838324e-01, test-9.05000000e-01, test_2--1.51400726e-01, val-9.28030303e-01, val_2--1.09089101e-01"
        ],
        "stacking10_0.2_L1_linear": [
            "linear-L1: train-9.01119403e-01, train_2--1.45004195e-01, test-9.05000000e-01, test_2--1.62860646e-01, val-9.43181818e-01, val_2--1.03169697e-01"
        ],
        "stacking10_0.3_L1_linear": [
            "linear-L1: train-8.99253731e-01, train_2--1.44618495e-01, test-9.00000000e-01, test_2--1.61375321e-01, val-9.39393939e-01, val_2--1.02460927e-01"
        ],
        "stacking10_0.4_L1_linear": [
            "linear-L1: train-9.08582090e-01, train_2--1.44129189e-01, test-9.00000000e-01, test_2--1.63208966e-01, val-9.35606061e-01, val_2--1.04303245e-01"
        ],
        "stacking20_-1_L1_linear": [
            "linear-L1: train-9.16044776e-01, train_2--1.29074612e-01, test-8.90000000e-01, test_2--1.59761653e-01, val-9.43181818e-01, val_2--1.07909917e-01"
        ],
        "stacking20_0_L1_linear": [
            "linear-L1: train-9.17910448e-01, train_2--1.26391308e-01, test-8.90000000e-01, test_2--1.61785173e-01, val-9.39393939e-01, val_2--1.03478880e-01"
        ],
        "stacking20_0.1_L1_linear": [
            "linear-L1: train-9.19776119e-01, train_2--1.33116660e-01, test-9.00000000e-01, test_2--1.63081999e-01, val-9.39393939e-01, val_2--1.02589284e-01"
        ],
        "stacking20_0.2_L1_linear": [
            "linear-L1: train-9.19776119e-01, train_2--1.33230240e-01, test-9.00000000e-01, test_2--1.65388284e-01, val-9.43181818e-01, val_2--1.01608522e-01"
        ],
        "stacking20_0.3_L1_linear": [
            "linear-L1: train-9.10447761e-01, train_2--1.32112093e-01, test-9.05000000e-01, test_2--1.62834720e-01, val-9.43181818e-01, val_2--9.93446859e-02"
        ],
        "stacking20_0.4_L1_linear": [
            "linear-L1: train-9.19776119e-01, train_2--1.25818656e-01, test-9.10000000e-01, test_2--1.64344607e-01, val-9.43181818e-01, val_2--9.82601264e-02"
        ],
        "stacking30_-1_L1_linear": [
            "linear-L1: train-9.17910448e-01, train_2--1.25438780e-01, test-8.95000000e-01, test_2--1.69503587e-01, val-9.46969697e-01, val_2--1.03409023e-01"
        ],
        "stacking30_0_L1_linear": [
            "linear-L1: train-9.21641791e-01, train_2--1.21860136e-01, test-8.85000000e-01, test_2--1.64384497e-01, val-9.43181818e-01, val_2--1.02315364e-01"
        ],
        "stacking30_0.1_L1_linear": [
            "linear-L1: train-9.19776119e-01, train_2--1.28516338e-01, test-9.10000000e-01, test_2--1.69071877e-01, val-9.39393939e-01, val_2--1.03832081e-01"
        ],
        "stacking30_0.2_L1_linear": [
            "linear-L1: train-9.14179104e-01, train_2--1.26410445e-01, test-8.90000000e-01, test_2--1.68715508e-01, val-9.43181818e-01, val_2--1.01725364e-01"
        ],
        "stacking30_0.3_L1_linear": [
            "linear-L1: train-9.19776119e-01, train_2--1.20729817e-01, test-9.05000000e-01, test_2--1.68486912e-01, val-9.39393939e-01, val_2--1.01376843e-01"
        ],
        "stacking30_0.4_L1_linear": [
            "linear-L1: train-9.17910448e-01, train_2--1.21316793e-01, test-9.05000000e-01, test_2--1.69082703e-01, val-9.39393939e-01, val_2--1.01494486e-01"
        ],
        "stacking40_-1_L1_linear": [
            "linear-L1: train-9.23507463e-01, train_2--1.20668614e-01, test-8.95000000e-01, test_2--1.56507898e-01, val-9.39393939e-01, val_2--1.07980035e-01"
        ],
        "stacking40_0_L1_linear": [
            "linear-L1: train-9.21641791e-01, train_2--1.19700270e-01, test-8.85000000e-01, test_2--1.64386147e-01, val-9.46969697e-01, val_2--1.02383752e-01"
        ],
        "stacking40_0.1_L1_linear": [
            "linear-L1: train-9.25373134e-01, train_2--1.15208410e-01, test-8.90000000e-01, test_2--1.69337550e-01, val-9.43181818e-01, val_2--1.02871628e-01"
        ],
        "stacking40_0.2_L1_linear": [
            "linear-L1: train-9.23507463e-01, train_2--1.12796401e-01, test-8.95000000e-01, test_2--1.69384165e-01, val-9.43181818e-01, val_2--1.01640939e-01"
        ],
        "stacking40_0.3_L1_linear": [
            "linear-L1: train-9.19776119e-01, train_2--1.16004801e-01, test-8.90000000e-01, test_2--1.68082506e-01, val-9.43181818e-01, val_2--1.00946722e-01"
        ],
        "stacking40_0.4_L1_linear": [
            "linear-L1: train-9.19776119e-01, train_2--1.16004801e-01, test-8.90000000e-01, test_2--1.68082506e-01, val-9.43181818e-01, val_2--1.00946722e-01"
        ],
        "stacking-1_0.4_L1_linear": [
            "linear-L1: train-0.91231, train_2--0.13758, test-0.89500, test_2--0.16190, val-0.93561, val_2--0.10470"
        ],
        "stacking1000_0.4_L1_linear": [
            "linear-L1: train-0.95896, train_2--0.06472, test-0.89500, test_2--0.15343, val-0.92803, val_2--0.10750"
        ],
        "stacking5_0.49_L1_linear": [
            "linear-L1: train-0.90858, train_2--0.14766, test-0.90000, test_2--0.16387, val-0.93561, val_2--0.10469"
        ],
        "stacking10_0.49_L1_linear": [
            "linear-L1: train-0.91604, train_2--0.13511, test-0.90000, test_2--0.16320, val-0.92803, val_2--0.10311"
        ],
        "stacking20_0.49_L1_linear": [
            "linear-L1: train-0.91978, train_2--0.12582, test-0.91000, test_2--0.16434, val-0.94318, val_2--0.09826"
        ],
        "stacking30_0.49_L1_linear": [
            "linear-L1: train-0.91791, train_2--0.12132, test-0.90500, test_2--0.16908, val-0.93939, val_2--0.10149"
        ],
        "stacking40_0.49_L1_linear": [
            "linear-L1: train-0.91604, train_2--0.11541, test-0.89500, test_2--0.16764, val-0.93939, val_2--0.10221"
        ],
        "stacking50_-1_L1_linear": [
            "linear-L1: train-0.92351, train_2--0.11837, test-0.88500, test_2--0.16376, val-0.94318, val_2--0.10308"
        ],
        "stacking50_0_L1_linear": [
            "linear-L1: train-0.92724, train_2--0.11459, test-0.88500, test_2--0.16825, val-0.94697, val_2--0.10208"
        ],
        "stacking50_0.1_L1_linear": [
            "linear-L1: train-0.92537, train_2--0.10959, test-0.89000, test_2--0.16812, val-0.94318, val_2--0.10399"
        ],
        "stacking50_0.2_L1_linear": [
            "linear-L1: train-0.93097, train_2--0.10528, test-0.88500, test_2--0.16922, val-0.94318, val_2--0.10344"
        ],
        "stacking50_0.3_L1_linear": [
            "linear-L1: train-0.93470, train_2--0.10570, test-0.88500, test_2--0.16903, val-0.94318, val_2--0.10301"
        ],
        "stacking50_0.4_L1_linear": [
            "linear-L1: train-0.93470, train_2--0.10417, test-0.89500, test_2--0.16774, val-0.94697, val_2--0.10193"
        ],
        "stacking50_0.49_L1_linear": [
            "linear-L1: train-0.93470, train_2--0.10417, test-0.89500, test_2--0.16774, val-0.94697, val_2--0.10193"
        ]
    },
    "retain_exp": {
        "stacking10_0.4_L1_weighted_retainFalse": [
            [
                {
                    "train": [
                        0.871268656716418,
                        0.8470149253731343,
                        0.8656716417910447,
                        0.8638059701492538,
                        0.8470149253731343,
                        0.8936567164179104,
                        0.8731343283582089,
                        0.8917910447761194,
                        0.878731343283582,
                        0.878731343283582
                    ],
                    "train_2": [
                        -0.24363268030597585,
                        -0.2773772247352382,
                        -0.2511256621935944,
                        -0.2635341922917388,
                        -0.2676425929342805,
                        -0.17581056887418908,
                        -0.1884166187652611,
                        -0.1940548829265998,
                        -0.21236798663073508,
                        -0.18798956554839014
                    ],
                    "test": [
                        0.9,
                        0.9,
                        0.88,
                        0.895,
                        0.905,
                        0.895,
                        0.885,
                        0.89,
                        0.89,
                        0.835
                    ],
                    "test_2": [
                        -0.15698981737452777,
                        -0.1644454542968211,
                        -0.18072801842918357,
                        -0.16885072189306136,
                        -0.15201869175057547,
                        -0.16960485794829394,
                        -0.16162354147050373,
                        -0.1797943902944931,
                        -0.16037798354253394,
                        -0.22680074239974707
                    ],
                    "val": [
                        0.9204545454545454,
                        0.9242424242424242,
                        0.9166666666666666,
                        0.9128787878787878,
                        0.9166666666666666,
                        0.9242424242424242,
                        0.9090909090909091,
                        0.9166666666666666,
                        0.9242424242424242,
                        0.9128787878787878
                    ],
                    "val_2": [
                        -0.1282875488436696,
                        -0.126756987781449,
                        -0.1115194070684546,
                        -0.12212276593640325,
                        -0.11224915461017382,
                        -0.12529417269028964,
                        -0.13755700102314722,
                        -0.13104006102206,
                        -0.11426427403316805,
                        -0.14299987109184767
                    ]
                },
                {
                    "train": [
                        0.8917910447761194,
                        0.871268656716418,
                        0.8694029850746269,
                        0.8507462686567164,
                        0.8638059701492538,
                        0.8768656716417911,
                        0.8638059701492538,
                        0.875,
                        0.875,
                        0.8638059701492538
                    ],
                    "train_2": [
                        -0.21568825306397665,
                        -0.21932325488255908,
                        -0.2539151963522542,
                        -0.29597350886706864,
                        -0.2566379981826039,
                        -0.20836233071339666,
                        -0.22429980817629047,
                        -0.2408090172281555,
                        -0.22766137082757462,
                        -0.21824777824674588
                    ],
                    "test": [
                        0.875,
                        0.9,
                        0.885,
                        0.88,
                        0.885,
                        0.9,
                        0.9,
                        0.895,
                        0.895,
                        0.89
                    ],
                    "test_2": [
                        -0.17988694447671644,
                        -0.16337489111916162,
                        -0.19595669738897556,
                        -0.19183582507899835,
                        -0.17471989909551733,
                        -0.15476749980403137,
                        -0.15333393857034117,
                        -0.1616920418471536,
                        -0.17479735034721341,
                        -0.14174778598882776
                    ],
                    "val": [
                        0.9318181818181818,
                        0.9431818181818182,
                        0.9356060606060606,
                        0.9318181818181818,
                        0.9128787878787878,
                        0.9393939393939394,
                        0.9204545454545454,
                        0.9166666666666666,
                        0.9393939393939394,
                        0.9128787878787878
                    ],
                    "val_2": [
                        -0.11519528862395886,
                        -0.10504004543036216,
                        -0.11891530716959203,
                        -0.11040076482065511,
                        -0.12656545803376998,
                        -0.11513617619510536,
                        -0.12255842961353881,
                        -0.12817002235498692,
                        -0.10361278988791996,
                        -0.12798533035681897
                    ]
                },
                {
                    "train": [
                        0.8563432835820896,
                        0.8619402985074627,
                        0.8339552238805971,
                        0.8470149253731343,
                        0.8451492537313433,
                        0.8656716417910447,
                        0.8507462686567164,
                        0.8526119402985075,
                        0.8731343283582089,
                        0.8582089552238806
                    ],
                    "train_2": [
                        -0.27577804543138307,
                        -0.25121298398837066,
                        -0.32000149036270814,
                        -0.3031784912220563,
                        -0.2847855907095087,
                        -0.23971213774149616,
                        -0.2576264553436284,
                        -0.26762198057481945,
                        -0.24015905351097772,
                        -0.23067042575651722
                    ],
                    "test": [
                        0.885,
                        0.9,
                        0.85,
                        0.865,
                        0.895,
                        0.885,
                        0.895,
                        0.885,
                        0.895,
                        0.88
                    ],
                    "test_2": [
                        -0.1726945102092917,
                        -0.16190653727858334,
                        -0.19129650391209196,
                        -0.20292671854295796,
                        -0.14299052135075663,
                        -0.17549485102648096,
                        -0.1541485338276377,
                        -0.18703422808693337,
                        -0.17451393789577088,
                        -0.1722996608433585
                    ],
                    "val": [
                        0.9242424242424242,
                        0.9356060606060606,
                        0.8825757575757576,
                        0.8825757575757576,
                        0.9318181818181818,
                        0.9242424242424242,
                        0.9090909090909091,
                        0.9090909090909091,
                        0.8977272727272727,
                        0.9090909090909091
                    ],
                    "val_2": [
                        -0.11777740033049072,
                        -0.09783394185488462,
                        -0.14690225100778878,
                        -0.163223495521334,
                        -0.0973567429433245,
                        -0.12482470271455692,
                        -0.13153486990000846,
                        -0.13177402653158835,
                        -0.12698497399722156,
                        -0.13583258592736494
                    ]
                },
                {
                    "train": [
                        0.8526119402985075,
                        0.8246268656716418,
                        0.8451492537313433,
                        0.8264925373134329,
                        0.8507462686567164,
                        0.8582089552238806,
                        0.8563432835820896,
                        0.8619402985074627,
                        0.8619402985074627,
                        0.8805970149253731
                    ],
                    "train_2": [
                        -0.2757756008678723,
                        -0.32001141016231305,
                        -0.30293030273521976,
                        -0.3380916811510308,
                        -0.2815863399444934,
                        -0.248860232153763,
                        -0.2525757495142295,
                        -0.2656081022085262,
                        -0.2566701184279064,
                        -0.20558178195673898
                    ],
                    "test": [
                        0.86,
                        0.86,
                        0.85,
                        0.86,
                        0.885,
                        0.86,
                        0.875,
                        0.875,
                        0.865,
                        0.865
                    ],
                    "test_2": [
                        -0.20246726077531654,
                        -0.1935327363714186,
                        -0.21091677033716094,
                        -0.23225580992691072,
                        -0.19636331960218065,
                        -0.2139691078306822,
                        -0.198792983421366,
                        -0.20887269157788552,
                        -0.20899810613774875,
                        -0.1859785627595336
                    ],
                    "val": [
                        0.9090909090909091,
                        0.8863636363636364,
                        0.8787878787878788,
                        0.8787878787878788,
                        0.9128787878787878,
                        0.8901515151515151,
                        0.8825757575757576,
                        0.875,
                        0.8977272727272727,
                        0.9128787878787878
                    ],
                    "val_2": [
                        -0.13215880118084605,
                        -0.15396436052915338,
                        -0.16393062689763216,
                        -0.15933139573782634,
                        -0.14403035803446118,
                        -0.14484176260805734,
                        -0.1489128619049791,
                        -0.17768168424745268,
                        -0.15610510076180892,
                        -0.14397140554959134
                    ]
                },
                {
                    "train": [
                        0.8376865671641791,
                        0.8190298507462687,
                        0.8246268656716418,
                        0.8171641791044776,
                        0.8544776119402985,
                        0.8619402985074627,
                        0.8563432835820896,
                        0.8582089552238806,
                        0.8582089552238806,
                        0.8563432835820896
                    ],
                    "train_2": [
                        -0.30416543753915926,
                        -0.3267658398226554,
                        -0.34093918743772633,
                        -0.3557096077141776,
                        -0.2701891851336601,
                        -0.2520598246226599,
                        -0.2574572147610466,
                        -0.256390835677368,
                        -0.2625695191310922,
                        -0.2364387927792114
                    ],
                    "test": [
                        0.865,
                        0.86,
                        0.885,
                        0.88,
                        0.85,
                        0.875,
                        0.865,
                        0.885,
                        0.875,
                        0.855
                    ],
                    "test_2": [
                        -0.1914162461909665,
                        -0.1933700080064174,
                        -0.21136675294228077,
                        -0.19608216900174166,
                        -0.1969402773355788,
                        -0.2019858788696629,
                        -0.19346665826045226,
                        -0.1879614497318158,
                        -0.22851586543216582,
                        -0.20560084980851648
                    ],
                    "val": [
                        0.9015151515151515,
                        0.9015151515151515,
                        0.9053030303030303,
                        0.8787878787878788,
                        0.9015151515151515,
                        0.8901515151515151,
                        0.8825757575757576,
                        0.8939393939393939,
                        0.8977272727272727,
                        0.9053030303030303
                    ],
                    "val_2": [
                        -0.14324982239073158,
                        -0.14345806733929492,
                        -0.15928077189133083,
                        -0.17510772502918284,
                        -0.13857698041295113,
                        -0.1430517451036768,
                        -0.1600470245128165,
                        -0.1562553866133009,
                        -0.16819745645462686,
                        -0.1587411824288325
                    ]
                }
            ],
            [
                "linear-L2: train-0.87873, train_2--0.18775, test-0.90000, test_2--0.15885, val-0.94318, val_2--0.10358",
                "best_idx1-L2: train-0.87127, train_2--0.21932, test-0.90000, test_2--0.16337, val-0.94318, val_2--0.10504",
                "best_idx1-L3: train-0.86194, train_2--0.25121, test-0.90000, test_2--0.16191, val-0.93561, val_2--0.09783",
                "linear-L1: train-0.89366, train_2--0.15456, test-0.90000, test_2--0.16321, val-0.93561, val_2--0.10430",
                "weighted-L1: train-0.89366, train_2--0.15876, test-0.90000, test_2--0.16507, val-0.93561, val_2--0.11221",
                "weighted-L2: train-0.88619, train_2--0.18364, test-0.88500, test_2--0.16782, val-0.92803, val_2--0.10903",
                "linear-L3: train-0.86007, train_2--0.21426, test-0.90000, test_2--0.16111, val-0.92424, val_2--0.11590",
                "weighted-L3: train-0.87127, train_2--0.22081, test-0.90000, test_2--0.15799, val-0.92045, val_2--0.10567",
                "linear-L4: train-0.86381, train_2--0.21357, test-0.87000, test_2--0.18081, val-0.91288, val_2--0.13297",
                "best_idx9-L4: train-0.88060, train_2--0.20558, test-0.86500, test_2--0.18598, val-0.91288, val_2--0.14397",
                "weighted-L4: train-0.87127, train_2--0.21547, test-0.87000, test_2--0.17675, val-0.90530, val_2--0.13494",
                "linear-L5: train-0.85634, train_2--0.22304, test-0.87000, test_2--0.18889, val-0.90530, val_2--0.14364",
                "best_idx9-L5: train-0.85634, train_2--0.23644, test-0.85500, test_2--0.20560, val-0.90530, val_2--0.15874",
                "weighted-L5: train-0.85261, train_2--0.23246, test-0.87000, test_2--0.19093, val-0.89773, val_2--0.13452"
            ]
        ],
        "stacking10_0.4_L1_weighted_retainTrue": [
            [
                {
                    "train": [
                        0.871268656716418,
                        0.8470149253731343,
                        0.8656716417910447,
                        0.8638059701492538,
                        0.8470149253731343,
                        0.8936567164179104,
                        0.8731343283582089,
                        0.8917910447761194,
                        0.878731343283582,
                        0.878731343283582
                    ],
                    "train_2": [
                        -0.24363268030597585,
                        -0.2773772247352382,
                        -0.2511256621935944,
                        -0.2635341922917388,
                        -0.2676425929342805,
                        -0.17581056887418908,
                        -0.1884166187652611,
                        -0.1940548829265998,
                        -0.21236798663073508,
                        -0.18798956554839014
                    ],
                    "test": [
                        0.9,
                        0.9,
                        0.88,
                        0.895,
                        0.905,
                        0.895,
                        0.885,
                        0.89,
                        0.89,
                        0.835
                    ],
                    "test_2": [
                        -0.15698981737452777,
                        -0.1644454542968211,
                        -0.18072801842918357,
                        -0.16885072189306138,
                        -0.15201869175057545,
                        -0.16960485794829394,
                        -0.16162354147050373,
                        -0.1797943902944931,
                        -0.16037798354253394,
                        -0.22680074239974704
                    ],
                    "val": [
                        0.9204545454545454,
                        0.9242424242424242,
                        0.9166666666666666,
                        0.9128787878787878,
                        0.9166666666666666,
                        0.9242424242424242,
                        0.9090909090909091,
                        0.9166666666666666,
                        0.9242424242424242,
                        0.9128787878787878
                    ],
                    "val_2": [
                        -0.1282875488436696,
                        -0.126756987781449,
                        -0.11151940706845462,
                        -0.12212276593640325,
                        -0.11224915461017382,
                        -0.1252941726902896,
                        -0.13755700102314722,
                        -0.13104006102206003,
                        -0.11426427403316805,
                        -0.14299987109184767
                    ]
                },
                {
                    "train": [
                        0.8917910447761194,
                        0.871268656716418,
                        0.8694029850746269,
                        0.8507462686567164,
                        0.8470149253731343,
                        0.8768656716417911,
                        0.8638059701492538,
                        0.8917910447761194,
                        0.875,
                        0.878731343283582
                    ],
                    "train_2": [
                        -0.21568825306397665,
                        -0.21932325488255908,
                        -0.2539151963522542,
                        -0.29597350886706864,
                        -0.2676425929342805,
                        -0.20836233071339666,
                        -0.22429980817629047,
                        -0.1940548829265998,
                        -0.22766137082757462,
                        -0.18798956554839014
                    ],
                    "test": [
                        0.875,
                        0.9,
                        0.885,
                        0.88,
                        0.905,
                        0.9,
                        0.9,
                        0.89,
                        0.895,
                        0.835
                    ],
                    "test_2": [
                        -0.1798869444767165,
                        -0.16337489111916167,
                        -0.19595669738897556,
                        -0.19183582507899835,
                        -0.15201869175057545,
                        -0.15476749980403137,
                        -0.1533339385703412,
                        -0.1797943902944931,
                        -0.17479735034721344,
                        -0.22680074239974704
                    ],
                    "val": [
                        0.9318181818181818,
                        0.9431818181818182,
                        0.9356060606060606,
                        0.9318181818181818,
                        0.9166666666666666,
                        0.9393939393939394,
                        0.9204545454545454,
                        0.9166666666666666,
                        0.9393939393939394,
                        0.9128787878787878
                    ],
                    "val_2": [
                        -0.11519528862395886,
                        -0.10504004543036216,
                        -0.11891530716959203,
                        -0.11040076482065511,
                        -0.11224915461017382,
                        -0.11513617619510536,
                        -0.12255842961353879,
                        -0.13104006102206003,
                        -0.10361278988791996,
                        -0.14299987109184767
                    ]
                },
                {
                    "train": [
                        0.8917910447761194,
                        0.871268656716418,
                        0.8694029850746269,
                        0.8507462686567164,
                        0.8619402985074627,
                        0.8768656716417911,
                        0.8638059701492538,
                        0.8656716417910447,
                        0.875,
                        0.878731343283582
                    ],
                    "train_2": [
                        -0.21568825306397665,
                        -0.21932325488255908,
                        -0.2539151963522542,
                        -0.29597350886706864,
                        -0.2561489778600414,
                        -0.20836233071339666,
                        -0.22429980817629047,
                        -0.2436366025582008,
                        -0.22766137082757462,
                        -0.18798956554839014
                    ],
                    "test": [
                        0.875,
                        0.9,
                        0.885,
                        0.88,
                        0.9,
                        0.9,
                        0.9,
                        0.885,
                        0.895,
                        0.835
                    ],
                    "test_2": [
                        -0.1798869444767165,
                        -0.16337489111916167,
                        -0.19595669738897556,
                        -0.19183582507899835,
                        -0.16375601580045476,
                        -0.15476749980403137,
                        -0.1533339385703412,
                        -0.16724277776226684,
                        -0.17479735034721344,
                        -0.22680074239974704
                    ],
                    "val": [
                        0.9318181818181818,
                        0.9431818181818182,
                        0.9356060606060606,
                        0.9318181818181818,
                        0.9318181818181818,
                        0.9393939393939394,
                        0.9204545454545454,
                        0.9204545454545454,
                        0.9393939393939394,
                        0.9128787878787878
                    ],
                    "val_2": [
                        -0.11519528862395886,
                        -0.10504004543036216,
                        -0.11891530716959203,
                        -0.11040076482065511,
                        -0.1087347686825377,
                        -0.11513617619510536,
                        -0.12255842961353879,
                        -0.13131639569018486,
                        -0.10361278988791996,
                        -0.14299987109184767
                    ]
                },
                {
                    "train": [
                        0.8638059701492538,
                        0.871268656716418,
                        0.8694029850746269,
                        0.8507462686567164,
                        0.871268656716418,
                        0.8768656716417911,
                        0.8638059701492538,
                        0.8656716417910447,
                        0.875,
                        0.878731343283582
                    ],
                    "train_2": [
                        -0.2641630577569716,
                        -0.21932325488255908,
                        -0.2539151963522542,
                        -0.29597350886706864,
                        -0.2486465746480008,
                        -0.20836233071339666,
                        -0.22429980817629047,
                        -0.2436366025582008,
                        -0.22766137082757462,
                        -0.18798956554839014
                    ],
                    "test": [
                        0.9,
                        0.9,
                        0.885,
                        0.88,
                        0.91,
                        0.9,
                        0.9,
                        0.885,
                        0.895,
                        0.835
                    ],
                    "test_2": [
                        -0.1670252289800665,
                        -0.16337489111916167,
                        -0.19595669738897556,
                        -0.19183582507899835,
                        -0.15364695298833592,
                        -0.15476749980403137,
                        -0.1533339385703412,
                        -0.16724277776226684,
                        -0.17479735034721344,
                        -0.22680074239974704
                    ],
                    "val": [
                        0.9356060606060606,
                        0.9431818181818182,
                        0.9356060606060606,
                        0.9318181818181818,
                        0.9356060606060606,
                        0.9393939393939394,
                        0.9204545454545454,
                        0.9204545454545454,
                        0.9393939393939394,
                        0.9128787878787878
                    ],
                    "val_2": [
                        -0.10772165482202166,
                        -0.10504004543036216,
                        -0.11891530716959203,
                        -0.11040076482065511,
                        -0.09650025649817284,
                        -0.11513617619510536,
                        -0.12255842961353879,
                        -0.13131639569018486,
                        -0.10361278988791996,
                        -0.14299987109184767
                    ]
                },
                {
                    "train": [
                        0.8638059701492538,
                        0.871268656716418,
                        0.8694029850746269,
                        0.8507462686567164,
                        0.871268656716418,
                        0.8768656716417911,
                        0.8638059701492538,
                        0.8656716417910447,
                        0.875,
                        0.878731343283582
                    ],
                    "train_2": [
                        -0.2641630577569716,
                        -0.21932325488255908,
                        -0.2539151963522542,
                        -0.29597350886706864,
                        -0.2486465746480008,
                        -0.20836233071339666,
                        -0.22429980817629047,
                        -0.2436366025582008,
                        -0.22766137082757462,
                        -0.18798956554839014
                    ],
                    "test": [
                        0.9,
                        0.9,
                        0.885,
                        0.88,
                        0.91,
                        0.9,
                        0.9,
                        0.885,
                        0.895,
                        0.835
                    ],
                    "test_2": [
                        -0.1670252289800665,
                        -0.16337489111916167,
                        -0.19595669738897556,
                        -0.19183582507899835,
                        -0.15364695298833592,
                        -0.15476749980403137,
                        -0.1533339385703412,
                        -0.16724277776226684,
                        -0.17479735034721344,
                        -0.22680074239974704
                    ],
                    "val": [
                        0.9356060606060606,
                        0.9431818181818182,
                        0.9356060606060606,
                        0.9318181818181818,
                        0.9356060606060606,
                        0.9393939393939394,
                        0.9204545454545454,
                        0.9204545454545454,
                        0.9393939393939394,
                        0.9128787878787878
                    ],
                    "val_2": [
                        -0.10772165482202166,
                        -0.10504004543036216,
                        -0.11891530716959203,
                        -0.11040076482065511,
                        -0.09650025649817284,
                        -0.11513617619510536,
                        -0.12255842961353879,
                        -0.13131639569018486,
                        -0.10361278988791996,
                        -0.14299987109184767
                    ]
                }
            ],
            [
                "best_idx1-L2: train-0.87127, train_2--0.21932, test-0.90000, test_2--0.16337, val-0.94318, val_2--0.10504",
                "weighted-L2: train-0.88993, train_2--0.17013, test-0.89500, test_2--0.16699, val-0.94318, val_2--0.10801",
                "linear-L3: train-0.89179, train_2--0.17291, test-0.90500, test_2--0.17105, val-0.93939, val_2--0.10440",
                "linear-L2: train-0.89552, train_2--0.15886, test-0.88000, test_2--0.17548, val-0.93939, val_2--0.10484",
                "linear-L4: train-0.88619, train_2--0.17237, test-0.90500, test_2--0.17050, val-0.93939, val_2--0.10551",
                "weighted-L4: train-0.87127, train_2--0.17878, test-0.90000, test_2--0.16814, val-0.93939, val_2--0.10922",
                "best_idx4-L4: train-0.87127, train_2--0.24865, test-0.91000, test_2--0.15365, val-0.93561, val_2--0.09650",
                "weighted-L3: train-0.88246, train_2--0.18208, test-0.90000, test_2--0.15825, val-0.93561, val_2--0.10409",
                "linear-L1: train-0.89366, train_2--0.15456, test-0.90000, test_2--0.16321, val-0.93561, val_2--0.10430",
                "best_idx1-L3: train-0.86754, train_2--0.24804, test-0.89000, test_2--0.17902, val-0.93561, val_2--0.10530",
                "weighted-L1: train-0.89366, train_2--0.15876, test-0.90000, test_2--0.16507, val-0.93561, val_2--0.11221",
                "best_idx0-L5: train-0.86007, train_2--0.26005, test-0.88000, test_2--0.17997, val-0.93182, val_2--0.10027"
            ]
        ]
    },
    "dropoutreg_exp": {
        "stacking30_0.3_L1_lineardropout0": [
            [
                [
                    -0.3311533368054639,
                    -0.6026555065232231,
                    0.30344885676820943,
                    0.43898001564930145,
                    0.5736165812124279,
                    0.4960052238578891,
                    -0.5610388353175937,
                    -0.27360120266714505,
                    0.06956518645719595,
                    0.5984153232438112,
                    -0.9488972718608774,
                    1.8132673588254813,
                    0.967797269176507,
                    -0.23987178699962225,
                    -0.23044323917693013,
                    0.5517429463033997,
                    0.2537890405090528,
                    0.9648020199761013,
                    -0.27769221453414045,
                    1.2007517752293486,
                    0.8432535980305741,
                    -0.6184475668985153,
                    1.2216761772904488,
                    0.7513789165819021,
                    -0.10924144631304482,
                    0.256373065594606,
                    0.1452149336395412,
                    0.5266083251253594,
                    0.38527535717673506,
                    0.14306490285567147
                ]
            ],
            [
                "linear-L1: train-0.90672, train_2--0.14218, test-0.90500, test_2--0.16849, val-0.93939, val_2--0.10138"
            ]
        ],
        "stacking30_0.3_L1_lineardropout0.1": [
            [
                [
                    -0.20641665589905347,
                    -0.816271421174065,
                    0.1949903570999438,
                    0.4936304688211226,
                    0.4196980156998512,
                    0.4672835101181039,
                    -0.46590215396656254,
                    -0.4254738679474754,
                    0.005212596445110621,
                    0.6305263764907793,
                    -0.7209040207568562,
                    1.8211388484633562,
                    1.0025334674771678,
                    0.03236674112456654,
                    0.03614700515360207,
                    0.5194721565645589,
                    0.45039370902949843,
                    0.6386622099634426,
                    -0.30156564073813447,
                    0.6050829454628412,
                    1.0384205572644496,
                    -0.612901977161634,
                    1.4255894714034987,
                    1.005787425821347,
                    0.31701335561764876,
                    0.12330133575218288,
                    0.21211539168478555,
                    -0.4446541791405898,
                    0.2131139317209024,
                    0.5283821060213236
                ]
            ],
            [
                "linear-L1: train-0.91231, train_2--0.14185, test-0.90000, test_2--0.16813, val-0.94318, val_2--0.10260"
            ]
        ],
        "stacking30_0.3_L1_lineardropout0.2": [
            [
                [
                    -0.4851123035593205,
                    -1.2344820968264463,
                    0.30658369865323326,
                    0.24399876031467255,
                    0.3373784604273821,
                    0.543427206977128,
                    0.0026540030626426192,
                    -0.4269964104176705,
                    0.4073858103281509,
                    0.45050718972965753,
                    -1.1787075438369883,
                    2.159713182659932,
                    0.9474753348054956,
                    0.12108131885764631,
                    -0.03367780700699701,
                    0.34678170819885706,
                    0.11867642425418393,
                    0.7918969399935452,
                    0.12261396557889269,
                    0.5688711133734732,
                    0.12453608455563714,
                    -0.23358780093961523,
                    1.336637186194829,
                    0.6351918492239904,
                    0.26370422882760736,
                    -0.2640280062884051,
                    0.3895764764767906,
                    0.6166403314931617,
                    0.44711115463921697,
                    0.5643786907008286
                ]
            ],
            [
                "linear-L1: train-0.89925, train_2--0.14712, test-0.90500, test_2--0.17180, val-0.93939, val_2--0.10642"
            ]
        ],
        "stacking30_0.3_L1_lineardropout0.3": [
            [
                [
                    0.13842989097444755,
                    -0.659574390495556,
                    -0.4201261347832273,
                    0.07176132679717802,
                    0.10585715037710121,
                    0.2483745025743344,
                    -0.867692230212645,
                    -0.029393560365796243,
                    0.44717646579141923,
                    0.13602889179316627,
                    0.07392430732999,
                    2.1106966107154106,
                    0.6409578227927643,
                    0.21984566385532983,
                    -0.4160085336878233,
                    -0.3095664831159169,
                    0.8813195096914981,
                    0.7392542003421294,
                    -0.03416903024114295,
                    0.8830315036726906,
                    0.7901586447092223,
                    -0.45623712586010523,
                    1.378549160356164,
                    0.024051092815478868,
                    0.4814269721276796,
                    -0.002216900503363685,
                    -0.10797807258584032,
                    0.8982478134479547,
                    0.39501323328791355,
                    0.6110551878154492
                ]
            ],
            [
                "linear-L1: train-0.89739, train_2--0.14966, test-0.89500, test_2--0.17025, val-0.93939, val_2--0.10697"
            ]
        ],
        "stacking30_0.3_L1_lineardropout0.4": [
            [
                [
                    0.36281683808924364,
                    -0.8356996658165948,
                    0.2706341882308508,
                    -0.9201532874682561,
                    0.12381091983968796,
                    0.4981174566554732,
                    -0.4059449974858887,
                    0.3447839952533175,
                    -0.02724350262914346,
                    -0.04686157757408186,
                    -0.19315974003820155,
                    1.0694874707050277,
                    1.235999214125322,
                    0.5070761275935677,
                    -0.07388910701108017,
                    -0.20745687416053218,
                    0.5730896425845847,
                    1.2228072815160924,
                    -0.7751272456275978,
                    1.0881625659084508,
                    0.40722284670691966,
                    -0.24922261401428572,
                    0.7953484247403887,
                    0.12479047759096375,
                    0.14332100845854995,
                    1.0757989044744996,
                    0.3094831537817445,
                    0.5339441293637707,
                    0.493289901799068,
                    -0.008027902190811783
                ]
            ],
            [
                "linear-L1: train-0.90112, train_2--0.14840, test-0.87500, test_2--0.17854, val-0.92803, val_2--0.11313"
            ]
        ],
        "stacking30_0.3_L1_lineardropout0.5": [
            [
                [
                    0.6568698278664091,
                    -0.820983338557422,
                    0.020617277739906487,
                    -0.14050425954206217,
                    0.8273348011211784,
                    -0.14074789359898546,
                    -0.3383958436132294,
                    -0.7437613814019951,
                    0.24896852133517097,
                    0.12014742976494783,
                    -0.49043622621471555,
                    0.9103587485227767,
                    0.5066517204465814,
                    0.37050053884518247,
                    0.5471655393900273,
                    0.2811740741015061,
                    0.5811934684068383,
                    0.7585320192165854,
                    -0.635890631884071,
                    0.8245365870460294,
                    1.3394523431914647,
                    -0.9762393503365008,
                    0.34317899726959966,
                    1.360812210882163,
                    0.00885964574274112,
                    -0.010560709991182969,
                    0.16142948363656978,
                    0.7773430788582041,
                    0.5425138238266843,
                    0.2677416729525028
                ]
            ],
            [
                "linear-L1: train-0.89179, train_2--0.16480, test-0.89000, test_2--0.17326, val-0.93561, val_2--0.11134"
            ]
        ]
    },
    "diversity_exp": {
        "stacking30_0": [
            27.696969696969706,
            3.880258158098892,
            93.55743550286459
        ],
        "stacking30_0.05": [
            27.57575757575758,
            4.2088135312640125,
            90.30640168590375
        ],
        "stacking30_0.1": [
            27.575757575757574,
            4.18955791738102,
            86.97309321283018
        ],
        "stacking30_0.15": [
            27.58333333333334,
            4.176567980671077,
            86.02385019211718
        ],
        "stacking30_0.2": [
            27.530303030303035,
            4.211966902313982,
            84.6709645106084
        ],
        "stacking30_0.25": [
            27.51515151515152,
            4.222273004334461,
            84.52399421672814
        ],
        "stacking30_0.3": [
            27.5189393939394,
            4.267336547220179,
            84.24965233540686
        ],
        "stacking30_0.35": [
            27.52651515151516,
            4.266491630474583,
            84.22499447799001
        ],
        "stacking30_0.4": [
            27.52651515151516,
            4.266491630474583,
            84.22499447799001
        ],
        "stacking30_0.45": [
            27.52651515151516,
            4.266491630474583,
            84.22499447799001
        ],
        "stacking30_0.49": [
            27.52651515151516,
            4.266491630474583,
            84.22499447798998
        ]
    },
    "diversityavg_exp": {
        "stacking30_0": [
            27.696969696969706,
            3.880258158098892,
            93.55743550286459
        ],
        "stacking30_0.05": [
            27.693181818181824,
            3.89461067277635,
            90.4563827340707
        ],
        "stacking30_0.1": [
            27.678030303030308,
            3.914350148487783,
            89.35820795953825
        ],
        "stacking30_0.15": [
            27.65151515151516,
            3.9564228547461724,
            88.8800453823799
        ],
        "stacking30_0.2": [
            27.60984848484849,
            4.006393046582218,
            88.82129054639933
        ],
        "stacking30_0.25": [
            27.60984848484849,
            4.006393046582218,
            88.82129054639933
        ],
        "stacking30_0.3": [
            27.60984848484849,
            4.088813564273517,
            88.8552049211242
        ],
        "stacking30_0.35": [
            27.61742424242425,
            4.107154253508656,
            89.7158338511887
        ],
        "stacking30_0.4": [
            27.61742424242425,
            4.107154253508656,
            89.71583385118869
        ],
        "stacking30_0.45": [
            27.602272727272734,
            4.13408188339037,
            90.76919753203558
        ],
        "stacking30_0.49": [
            27.606060606060613,
            4.151476006784724,
            90.30475935587228
        ]
    },
    "struc_exp": {
        "stacking30_0.3_dropout0_retainTrue": [
            "best_idx4-L3: train-8.86194030e-01, train_2--1.96207858e-01, test-9.00000000e-01, test_2--1.60633714e-01, val-9.43181818e-01, val_2--9.49163098e-02",
            "linear-L2: train-9.01119403e-01, train_2--1.55870179e-01, test-8.85000000e-01, test_2--1.70447087e-01, val-9.43181818e-01, val_2--1.03617674e-01",
            "lightgbm-L1: train-8.80597015e-01, train_2--1.70787174e-01, test-8.90000000e-01, test_2--1.52498205e-01, val-9.43181818e-01, val_2--1.04110396e-01",
            "linear-L1: train-9.06716418e-01, train_2--1.42176600e-01, test-9.05000000e-01, test_2--1.68486912e-01, val-9.39393939e-01, val_2--1.01376843e-01",
            "best_idx25-L2: train-8.93656716e-01, train_2--1.64043123e-01, test-8.90000000e-01, test_2--1.55877451e-01, val-9.39393939e-01, val_2--1.03574351e-01",
            "weighted-L2: train-8.95522388e-01, train_2--1.59619747e-01, test-8.95000000e-01, test_2--1.52553858e-01, val-9.39393939e-01, val_2--1.05240130e-01",
            "weighted-L1: train-9.02985075e-01, train_2--1.52138370e-01, test-8.90000000e-01, test_2--1.72594885e-01, val-9.39393939e-01, val_2--1.20860989e-01",
            "weighted-L3: train-8.99253731e-01, train_2--1.56176546e-01, test-9.00000000e-01, test_2--1.48003498e-01, val-9.31818182e-01, val_2--1.05673720e-01",
            "linear-L3: train-8.95522388e-01, train_2--1.56708444e-01, test-8.85000000e-01, test_2--1.81605810e-01, val-9.31818182e-01, val_2--1.12193198e-01",
            "lightgbm-L2: train-8.88059701e-01, train_2--1.83283170e-01, test-8.60000000e-01, test_2--1.78101524e-01, val-9.24242424e-01, val_2--1.12247189e-01",
            "lightgbm-L3: train-8.80597015e-01, train_2--1.77273181e-01, test-8.25000000e-01, test_2--1.97715608e-01, val-9.09090909e-01, val_2--1.35317295e-01"
        ],
        "stacking30_0.3_dropout0.1_retainTrue": [
            "best_idx4-L3: train-8.95522388e-01, train_2--1.90940848e-01, test-9.10000000e-01, test_2--1.64405821e-01, val-9.50757576e-01, val_2--9.97386147e-02",
            "best_idx25-L2: train-8.88059701e-01, train_2--1.71183251e-01, test-8.95000000e-01, test_2--1.55301647e-01, val-9.46969697e-01, val_2--1.04143699e-01",
            "weighted-L2: train-9.02985075e-01, train_2--1.57126998e-01, test-8.95000000e-01, test_2--1.45739633e-01, val-9.43181818e-01, val_2--1.02103235e-01",
            "lightgbm-L1: train-8.80597015e-01, train_2--1.70787174e-01, test-8.90000000e-01, test_2--1.52498205e-01, val-9.43181818e-01, val_2--1.04107789e-01",
            "linear-L1: train-9.06716418e-01, train_2--1.42176600e-01, test-9.05000000e-01, test_2--1.68486912e-01, val-9.39393939e-01, val_2--1.01376843e-01",
            "weighted-L1: train-9.02985075e-01, train_2--1.52138370e-01, test-8.90000000e-01, test_2--1.72594885e-01, val-9.39393939e-01, val_2--1.20860989e-01",
            "weighted-L3: train-8.89925373e-01, train_2--1.56149084e-01, test-9.00000000e-01, test_2--1.50331147e-01, val-9.31818182e-01, val_2--1.02200725e-01",
            "linear-L3: train-9.06716418e-01, train_2--1.52494413e-01, test-8.85000000e-01, test_2--1.65998766e-01, val-9.28030303e-01, val_2--1.09252784e-01",
            "linear-L2: train-9.06716418e-01, train_2--1.54130540e-01, test-8.95000000e-01, test_2--1.58850610e-01, val-9.24242424e-01, val_2--1.04986194e-01",
            "lightgbm-L3: train-8.91791045e-01, train_2--1.76902564e-01, test-8.80000000e-01, test_2--1.69441057e-01, val-9.16666667e-01, val_2--1.28756438e-01",
            "lightgbm-L2: train-8.93656716e-01, train_2--1.72906482e-01, test-8.85000000e-01, test_2--1.88004469e-01, val-9.05303030e-01, val_2--1.40233595e-01"
        ],
        "stacking30_0.3_dropout0.2_retainFalse": [
            "best_idx29-L3: train-8.78731343e-01, train_2--1.89590410e-01, test-8.90000000e-01, test_2--1.52118886e-01, val-9.43181818e-01, val_2--1.01018867e-01",
            "weighted-L2: train-8.91791045e-01, train_2--1.62509891e-01, test-8.95000000e-01, test_2--1.60869035e-01, val-9.43181818e-01, val_2--1.02543920e-01",
            "lightgbm-L1: train-8.80597015e-01, train_2--1.70787174e-01, test-8.90000000e-01, test_2--1.52498205e-01, val-9.43181818e-01, val_2--1.04110396e-01",
            "best_idx25-L2: train-8.95522388e-01, train_2--1.64110269e-01, test-9.00000000e-01, test_2--1.62698658e-01, val-9.43181818e-01, val_2--1.06295693e-01",
            "linear-L1: train-9.06716418e-01, train_2--1.42176600e-01, test-9.05000000e-01, test_2--1.68486912e-01, val-9.39393939e-01, val_2--1.01376843e-01",
            "weighted-L1: train-9.02985075e-01, train_2--1.52138370e-01, test-8.90000000e-01, test_2--1.72594885e-01, val-9.39393939e-01, val_2--1.20860989e-01",
            "linear-L2: train-8.91791045e-01, train_2--1.64936220e-01, test-8.90000000e-01, test_2--1.64004078e-01, val-9.31818182e-01, val_2--1.07876056e-01",
            "weighted-L3: train-8.95522388e-01, train_2--1.68302250e-01, test-9.00000000e-01, test_2--1.43460448e-01, val-9.28030303e-01, val_2--1.04668343e-01",
            "linear-L3: train-9.01119403e-01, train_2--1.66919752e-01, test-8.85000000e-01, test_2--1.60098462e-01, val-9.24242424e-01, val_2--1.09119728e-01",
            "lightgbm-L2: train-8.91791045e-01, train_2--1.69710636e-01, test-8.95000000e-01, test_2--1.64937520e-01, val-9.24242424e-01, val_2--1.18369919e-01",
            "lightgbm-L3: train-8.91791045e-01, train_2--1.77141094e-01, test-8.80000000e-01, test_2--1.76256818e-01, val-9.16666667e-01, val_2--1.19840468e-01"
        ],
        "stacking30_0.3_dropout0.2_retainTrue": [
            "best_idx29-L3: train-8.80597015e-01, train_2--1.81394398e-01, test-9.00000000e-01, test_2--1.52785764e-01, val-9.46969697e-01, val_2--9.71959014e-02",
            "best_idx12-L5: train-8.76865672e-01, train_2--2.43317631e-01, test-8.90000000e-01, test_2--1.73206510e-01, val-9.46969697e-01, val_2--1.09306704e-01",
            "lightgbm-L1: train-8.80597015e-01, train_2--1.70787174e-01, test-8.90000000e-01, test_2--1.52498205e-01, val-9.43181818e-01, val_2--1.04110396e-01",
            "linear-L5: train-9.06716418e-01, train_2--1.44192714e-01, test-8.95000000e-01, test_2--1.64649760e-01, val-9.43181818e-01, val_2--1.04727093e-01",
            "linear-L4: train-8.91791045e-01, train_2--1.54511796e-01, test-8.95000000e-01, test_2--1.66789969e-01, val-9.43181818e-01, val_2--1.05148416e-01",
            "best_idx25-L2: train-8.95522388e-01, train_2--1.64110269e-01, test-9.00000000e-01, test_2--1.62698658e-01, val-9.43181818e-01, val_2--1.06295693e-01",
            "lightgbm-L3: train-9.01119403e-01, train_2--1.57814223e-01, test-8.95000000e-01, test_2--1.60494012e-01, val-9.43181818e-01, val_2--1.10449030e-01",
            "best_idx2-L4: train-8.69402985e-01, train_2--2.42758695e-01, test-9.10000000e-01, test_2--1.60403943e-01, val-9.43181818e-01, val_2--1.14203952e-01",
            "linear-L1: train-9.06716418e-01, train_2--1.42176600e-01, test-9.05000000e-01, test_2--1.68486912e-01, val-9.39393939e-01, val_2--1.01376843e-01",
            "lightgbm-L4: train-8.76865672e-01, train_2--1.76750981e-01, test-8.90000000e-01, test_2--1.68818320e-01, val-9.39393939e-01, val_2--1.03820958e-01",
            "weighted-L1: train-9.02985075e-01, train_2--1.52138370e-01, test-8.90000000e-01, test_2--1.72594885e-01, val-9.39393939e-01, val_2--1.20860989e-01",
            "weighted-L4: train-8.97388060e-01, train_2--1.50514581e-01, test-9.00000000e-01, test_2--1.54597869e-01, val-9.35606061e-01, val_2--1.01856012e-01",
            "linear-L3: train-9.04850746e-01, train_2--1.41056710e-01, test-8.90000000e-01, test_2--1.65114170e-01, val-9.35606061e-01, val_2--1.04468563e-01",
            "weighted-L3: train-8.91791045e-01, train_2--1.48954380e-01, test-8.90000000e-01, test_2--1.61255724e-01, val-9.35606061e-01, val_2--1.04969463e-01",
            "weighted-L2: train-8.95522388e-01, train_2--1.51298984e-01, test-8.95000000e-01, test_2--1.61654345e-01, val-9.35606061e-01, val_2--1.08176901e-01",
            "weighted-L5: train-9.01119403e-01, train_2--1.49018347e-01, test-9.05000000e-01, test_2--1.59870483e-01, val-9.35606061e-01, val_2--1.12911986e-01",
            "lightgbm-L2: train-8.82462687e-01, train_2--1.74595227e-01, test-9.05000000e-01, test_2--1.64237723e-01, val-9.35606061e-01, val_2--1.20805745e-01",
            "linear-L2: train-8.89925373e-01, train_2--1.53248024e-01, test-8.95000000e-01, test_2--1.66381616e-01, val-9.31818182e-01, val_2--1.01230552e-01",
            "lightgbm-L5: train-8.86194030e-01, train_2--1.68103716e-01, test-8.95000000e-01, test_2--1.80749959e-01, val-9.31818182e-01, val_2--1.06010563e-01"
        ],
        "stacking30_0.3_dropout0.3_retainTrue": [
            "best_idx19-L2: train-8.76865672e-01, train_2--2.06944680e-01, test-9.05000000e-01, test_2--1.55690945e-01, val-9.46969697e-01, val_2--9.84682940e-02",
            "linear-L3: train-8.97388060e-01, train_2--1.58007274e-01, test-8.85000000e-01, test_2--1.73013587e-01, val-9.43181818e-01, val_2--1.01011187e-01",
            "lightgbm-L1: train-8.80597015e-01, train_2--1.70787174e-01, test-8.90000000e-01, test_2--1.52498205e-01, val-9.43181818e-01, val_2--1.04110396e-01",
            "best_idx15-L3: train-8.91791045e-01, train_2--1.97421046e-01, test-9.05000000e-01, test_2--1.72808527e-01, val-9.43181818e-01, val_2--1.07676354e-01",
            "linear-L1: train-9.06716418e-01, train_2--1.42176600e-01, test-9.05000000e-01, test_2--1.68486912e-01, val-9.39393939e-01, val_2--1.01376843e-01",
            "weighted-L2: train-8.93656716e-01, train_2--1.53503333e-01, test-8.95000000e-01, test_2--1.64431689e-01, val-9.39393939e-01, val_2--1.18090658e-01",
            "weighted-L1: train-9.02985075e-01, train_2--1.52138370e-01, test-8.90000000e-01, test_2--1.72594885e-01, val-9.39393939e-01, val_2--1.20860989e-01",
            "linear-L2: train-9.06716418e-01, train_2--1.43627824e-01, test-8.80000000e-01, test_2--1.69357412e-01, val-9.35606061e-01, val_2--1.03885337e-01",
            "weighted-L3: train-9.04850746e-01, train_2--1.55703796e-01, test-9.10000000e-01, test_2--1.67113952e-01, val-9.35606061e-01, val_2--1.25401725e-01",
            "lightgbm-L3: train-8.89925373e-01, train_2--1.61442630e-01, test-8.95000000e-01, test_2--1.66804984e-01, val-9.31818182e-01, val_2--1.18184171e-01",
            "lightgbm-L2: train-8.89925373e-01, train_2--1.69321141e-01, test-8.95000000e-01, test_2--1.56031118e-01, val-9.24242424e-01, val_2--1.18831699e-01"
        ],
        "stacking30_0.3_dropout0.4_retainTrue": [
            "linear-L3: train-9.10447761e-01, train_2--1.45026029e-01, test-8.85000000e-01, test_2--1.79259490e-01, val-9.43181818e-01, val_2--1.01521979e-01",
            "lightgbm-L1: train-8.80597015e-01, train_2--1.70787174e-01, test-8.90000000e-01, test_2--1.52498205e-01, val-9.43181818e-01, val_2--1.04110396e-01",
            "best_idx5-L3: train-8.71268657e-01, train_2--2.47192959e-01, test-8.95000000e-01, test_2--1.80516830e-01, val-9.43181818e-01, val_2--1.07288616e-01",
            "lightgbm-L3: train-8.99253731e-01, train_2--1.55921429e-01, test-8.75000000e-01, test_2--1.87474449e-01, val-9.43181818e-01, val_2--1.07722112e-01",
            "best_idx4-L2: train-9.06716418e-01, train_2--1.62696768e-01, test-8.95000000e-01, test_2--1.81571222e-01, val-9.43181818e-01, val_2--1.08422449e-01",
            "weighted-L3: train-8.95522388e-01, train_2--1.56287401e-01, test-8.85000000e-01, test_2--1.70097316e-01, val-9.39393939e-01, val_2--9.85879569e-02",
            "weighted-L2: train-8.86194030e-01, train_2--1.58233469e-01, test-9.00000000e-01, test_2--1.51267833e-01, val-9.39393939e-01, val_2--9.92044779e-02",
            "linear-L1: train-9.06716418e-01, train_2--1.42176600e-01, test-9.05000000e-01, test_2--1.68486912e-01, val-9.39393939e-01, val_2--1.01376843e-01",
            "linear-L2: train-8.89925373e-01, train_2--1.68846229e-01, test-8.90000000e-01, test_2--1.70603076e-01, val-9.39393939e-01, val_2--1.01470291e-01",
            "weighted-L1: train-9.02985075e-01, train_2--1.52138370e-01, test-8.90000000e-01, test_2--1.72594885e-01, val-9.39393939e-01, val_2--1.20860989e-01",
            "lightgbm-L2: train-8.93656716e-01, train_2--1.76448546e-01, test-8.80000000e-01, test_2--1.62182774e-01, val-9.24242424e-01, val_2--1.12940046e-01"
        ]
    }
}