{
    "task_type": "CLS",
    "dataset": "fri_c2_1000_50",
    "refit": "full",
    "filter": "m6_p6",
    "time_limit": 3600,
    "best": 0.92,
    "fixed_ens": {
        "ensemble_selection10": 0.905,
        "cma_es": 0.92,
        "qdo_es": 0.91,
        "OptDivBO": 0.87,
        "EnsOpt": 0.91,
        "stacking-1_0.4_L1_linear": 0.935,
        "stacking-1_0.4_L2_linear": 0.94,
        "stacking1000_0.4_L1_linear": 0.95,
        "stacking1000_0.4_L2_linear": 0.95,
        "ensemble_selection25": 0.915,
        "stacking1000_0.4_L1_weighted": 0.935,
        "stacking-1_0.4_L1_weighted": 0.93,
        "stacking1000_0.4_L2_weighted": 0.95,
        "stacking-1_0.4_L2_weighted": 0.94,
        "autogluon-": 0.9385643571396334
    },
    "defopt_ens": {
        "s10_r20_d20": "0.915, 0.905, 0.92, 0.925, 0.925, 0.92",
        "s10_r40_d20": "0.925, 0.93, 0.93, 0.94, 0.93, 0.93",
        "s20_r20_d20": "0.91, 0.91, 0.905, 0.92, 0.905, 0.905",
        "s20_r40_d20": "0.925, 0.92, 0.91, 0.915, 0.935, 0.91",
        "s10_r20_d0": "0.92, 0.92, 0.92, 0.925, 0.91, 0.92",
        "s10_r40_d0": "0.92, 0.925, 0.92, 0.93, 0.93, 0.92",
        "s20_r20_d0": "0.92, 0.91, 0.92, 0.925, 0.905, 0.92",
        "s20_r40_d0": "0.915, 0.91, 0.905, 0.93, 0.945, 0.905"
    },
    "opt_ens": [
        "0.93",
        "0.92",
        "0.925",
        "0.925",
        "0.925",
        "0.93",
        "0.935",
        "0.935",
        "0.935",
        "0.93",
        "0.94",
        "0.94",
        "0.94",
        "0.935",
        "0.945",
        "0.925",
        "0.91",
        "0.94",
        "0.945",
        "0.915",
        "0.915",
        "0.91",
        "0.94",
        "0.925",
        "0.905",
        "0.915",
        "0.945",
        "0.94",
        "0.92",
        "0.945"
    ],
    "opt_ens_d0": [
        "0.905",
        "0.905",
        "0.905",
        "0.905",
        "0.905",
        "0.905",
        "0.905",
        "0.905",
        "0.905",
        "0.905",
        "0.905",
        "0.905",
        "0.905",
        "0.905",
        "0.91",
        "0.945",
        "0.935",
        "0.91",
        "0.935",
        "0.915",
        "0.925",
        "0.925",
        "0.925",
        "0.905",
        "0.935",
        "0.925",
        "0.925",
        "0.915",
        "0.915",
        "0.91"
    ],
    "opt_ens_d0-20": [
        "0.92",
        "0.92",
        "0.925",
        "0.925",
        "0.925",
        "0.925",
        "0.925",
        "0.92",
        "0.935",
        "0.93",
        "0.925",
        "0.935",
        "0.94",
        "0.935",
        "0.945",
        "0.925",
        "0.91",
        "0.945",
        "0.925",
        "0.915",
        "0.915",
        "0.915",
        "0.91",
        "0.94",
        "0.925",
        "0.905",
        "0.915",
        "0.945",
        "0.92",
        "0.945"
    ],
    "size_exp": {
        "stacking5_-1_L1_linear": [
            "linear-L1: train-9.08582090e-01, train_2--1.33349228e-01, test-9.25000000e-01, test_2--1.17107423e-01, val-9.24242424e-01, val_2--1.15074939e-01"
        ],
        "stacking5_0_L1_linear": [
            "linear-L1: train-8.99253731e-01, train_2--1.51470532e-01, test-9.45000000e-01, test_2--9.41911971e-02, val-9.43181818e-01, val_2--9.16049424e-02"
        ],
        "stacking5_0.1_L1_linear": [
            "linear-L1: train-9.06716418e-01, train_2--1.51782983e-01, test-9.45000000e-01, test_2--9.61011834e-02, val-9.35606061e-01, val_2--9.06330263e-02"
        ],
        "stacking5_0.2_L1_linear": [
            "linear-L1: train-9.04850746e-01, train_2--1.43586406e-01, test-9.40000000e-01, test_2--9.27849617e-02, val-9.50757576e-01, val_2--8.76761712e-02"
        ],
        "stacking5_0.3_L1_linear": [
            "linear-L1: train-9.06716418e-01, train_2--1.35269758e-01, test-9.30000000e-01, test_2--9.76219572e-02, val-9.46969697e-01, val_2--8.96509029e-02"
        ],
        "stacking5_0.4_L1_linear": [
            "linear-L1: train-9.06716418e-01, train_2--1.35269758e-01, test-9.30000000e-01, test_2--9.76219572e-02, val-9.46969697e-01, val_2--8.96509029e-02"
        ],
        "stacking10_-1_L1_linear": [
            "linear-L1: train-9.29104478e-01, train_2--1.18994967e-01, test-9.45000000e-01, test_2--9.44150845e-02, val-9.43181818e-01, val_2--8.82563119e-02"
        ],
        "stacking10_0_L1_linear": [
            "linear-L1: train-9.01119403e-01, train_2--1.50709865e-01, test-9.45000000e-01, test_2--9.44498874e-02, val-9.43181818e-01, val_2--9.05321101e-02"
        ],
        "stacking10_0.1_L1_linear": [
            "linear-L1: train-9.08582090e-01, train_2--1.43583960e-01, test-9.45000000e-01, test_2--9.13923394e-02, val-9.50757576e-01, val_2--8.76130846e-02"
        ],
        "stacking10_0.2_L1_linear": [
            "linear-L1: train-9.12313433e-01, train_2--1.34782561e-01, test-9.40000000e-01, test_2--9.48830740e-02, val-9.43181818e-01, val_2--8.91915499e-02"
        ],
        "stacking10_0.3_L1_linear": [
            "linear-L1: train-9.12313433e-01, train_2--1.34782561e-01, test-9.40000000e-01, test_2--9.48830740e-02, val-9.43181818e-01, val_2--8.91915499e-02"
        ],
        "stacking10_0.4_L1_linear": [
            "linear-L1: train-9.23507463e-01, train_2--1.21897321e-01, test-9.40000000e-01, test_2--9.22557586e-02, val-9.43181818e-01, val_2--8.23828523e-02"
        ],
        "stacking20_-1_L1_linear": [
            "linear-L1: train-9.23507463e-01, train_2--1.18776495e-01, test-9.40000000e-01, test_2--1.02367882e-01, val-9.31818182e-01, val_2--9.96577806e-02"
        ],
        "stacking20_0_L1_linear": [
            "linear-L1: train-9.06716418e-01, train_2--1.49513933e-01, test-9.45000000e-01, test_2--9.52475398e-02, val-9.39393939e-01, val_2--9.17428004e-02"
        ],
        "stacking20_0.1_L1_linear": [
            "linear-L1: train-9.06716418e-01, train_2--1.34549856e-01, test-9.45000000e-01, test_2--9.35949191e-02, val-9.39393939e-01, val_2--8.86450523e-02"
        ],
        "stacking20_0.2_L1_linear": [
            "linear-L1: train-9.19776119e-01, train_2--1.19170473e-01, test-9.35000000e-01, test_2--9.38779180e-02, val-9.43181818e-01, val_2--8.27139740e-02"
        ],
        "stacking20_0.3_L1_linear": [
            "linear-L1: train-9.25373134e-01, train_2--1.15595805e-01, test-9.40000000e-01, test_2--9.35459420e-02, val-9.46969697e-01, val_2--7.87888148e-02"
        ],
        "stacking20_0.4_L1_linear": [
            "linear-L1: train-9.25373134e-01, train_2--1.11604695e-01, test-9.40000000e-01, test_2--9.40627231e-02, val-9.50757576e-01, val_2--7.78605149e-02"
        ],
        "stacking30_-1_L1_linear": [
            "linear-L1: train-9.34701493e-01, train_2--1.04418835e-01, test-9.55000000e-01, test_2--8.40684748e-02, val-9.43181818e-01, val_2--8.40670745e-02"
        ],
        "stacking30_0_L1_linear": [
            "linear-L1: train-9.10447761e-01, train_2--1.34821469e-01, test-9.50000000e-01, test_2--9.64555598e-02, val-9.39393939e-01, val_2--9.08344765e-02"
        ],
        "stacking30_0.1_L1_linear": [
            "linear-L1: train-9.14179104e-01, train_2--1.28083893e-01, test-9.35000000e-01, test_2--9.67035991e-02, val-9.43181818e-01, val_2--9.12030869e-02"
        ],
        "stacking30_0.2_L1_linear": [
            "linear-L1: train-9.27238806e-01, train_2--1.13842323e-01, test-9.35000000e-01, test_2--9.29961966e-02, val-9.46969697e-01, val_2--8.18694946e-02"
        ],
        "stacking30_0.3_L1_linear": [
            "linear-L1: train-9.30970149e-01, train_2--1.09418247e-01, test-9.35000000e-01, test_2--9.48475985e-02, val-9.46969697e-01, val_2--7.89855292e-02"
        ],
        "stacking30_0.4_L1_linear": [
            "linear-L1: train-9.30970149e-01, train_2--1.09418247e-01, test-9.35000000e-01, test_2--9.48475985e-02, val-9.46969697e-01, val_2--7.89855292e-02"
        ],
        "stacking40_-1_L1_linear": [
            "linear-L1: train-9.29104478e-01, train_2--1.08345313e-01, test-9.40000000e-01, test_2--9.73803817e-02, val-9.43181818e-01, val_2--9.04742470e-02"
        ],
        "stacking40_0_L1_linear": [
            "linear-L1: train-9.12313433e-01, train_2--1.31870724e-01, test-9.50000000e-01, test_2--9.77905416e-02, val-9.39393939e-01, val_2--9.22011747e-02"
        ],
        "stacking40_0.1_L1_linear": [
            "linear-L1: train-9.30970149e-01, train_2--1.14015071e-01, test-9.35000000e-01, test_2--9.43880716e-02, val-9.46969697e-01, val_2--8.00065152e-02"
        ],
        "stacking40_0.2_L1_linear": [
            "linear-L1: train-9.30970149e-01, train_2--1.09870601e-01, test-9.30000000e-01, test_2--9.46253329e-02, val-9.43181818e-01, val_2--8.35692577e-02"
        ],
        "stacking40_0.3_L1_linear": [
            "linear-L1: train-9.32835821e-01, train_2--1.08403538e-01, test-9.40000000e-01, test_2--9.44219743e-02, val-9.50757576e-01, val_2--7.79373194e-02"
        ],
        "stacking40_0.4_L1_linear": [
            "linear-L1: train-9.30970149e-01, train_2--1.08589100e-01, test-9.40000000e-01, test_2--9.47430419e-02, val-9.46969697e-01, val_2--7.81095745e-02"
        ],
        "stacking-1_0.4_L1_linear": [
            "linear-L1: train-0.92351, train_2--0.11717, test-0.94000, test_2--0.09370, val-0.93939, val_2--0.08938"
        ],
        "stacking1000_0.4_L1_linear": [
            "linear-L1: train-0.95336, train_2--0.06483, test-0.92500, test_2--0.09861, val-0.93561, val_2--0.08180"
        ],
        "stacking5_0.49_L1_linear": [
            "linear-L1: train-0.90485, train_2--0.13420, test-0.93500, test_2--0.09587, val-0.93939, val_2--0.09017"
        ],
        "stacking10_0.49_L1_linear": [
            "linear-L1: train-0.92351, train_2--0.12190, test-0.94000, test_2--0.09226, val-0.94318, val_2--0.08238"
        ],
        "stacking20_0.49_L1_linear": [
            "linear-L1: train-0.92537, train_2--0.11160, test-0.94000, test_2--0.09406, val-0.95076, val_2--0.07786"
        ],
        "stacking30_0.49_L1_linear": [
            "linear-L1: train-0.93097, train_2--0.10942, test-0.93500, test_2--0.09485, val-0.94697, val_2--0.07899"
        ],
        "stacking40_0.49_L1_linear": [
            "linear-L1: train-0.93097, train_2--0.10859, test-0.94000, test_2--0.09474, val-0.94697, val_2--0.07811"
        ],
        "stacking50_-1_L1_linear": [
            "linear-L1: train-0.93284, train_2--0.10114, test-0.94000, test_2--0.09618, val-0.93939, val_2--0.08427"
        ],
        "stacking50_0_L1_linear": [
            "linear-L1: train-0.91791, train_2--0.12822, test-0.94500, test_2--0.09893, val-0.93939, val_2--0.09632"
        ],
        "stacking50_0.1_L1_linear": [
            "linear-L1: train-0.93657, train_2--0.10893, test-0.93500, test_2--0.09405, val-0.94318, val_2--0.08347"
        ],
        "stacking50_0.2_L1_linear": [
            "linear-L1: train-0.93470, train_2--0.10755, test-0.94000, test_2--0.09258, val-0.94697, val_2--0.07875"
        ],
        "stacking50_0.3_L1_linear": [
            "linear-L1: train-0.93284, train_2--0.10772, test-0.94000, test_2--0.09309, val-0.94318, val_2--0.07877"
        ],
        "stacking50_0.4_L1_linear": [
            "linear-L1: train-0.93284, train_2--0.10775, test-0.94000, test_2--0.09320, val-0.94318, val_2--0.07873"
        ],
        "stacking50_0.49_L1_linear": [
            "linear-L1: train-0.93284, train_2--0.10775, test-0.94000, test_2--0.09320, val-0.94318, val_2--0.07873"
        ]
    },
    "retain_exp": {
        "stacking10_0.4_L1_weighted_retainFalse": [
            [
                {
                    "train": [
                        0.8694029850746269,
                        0.8805970149253731,
                        0.8880597014925373,
                        0.8880597014925373,
                        0.8973880597014925,
                        0.9011194029850746,
                        0.8936567164179104,
                        0.8936567164179104,
                        0.9067164179104478,
                        0.9011194029850746
                    ],
                    "train_2": [
                        -0.22903998741979056,
                        -0.22026708876062007,
                        -0.1718621007438571,
                        -0.15286270778757044,
                        -0.1498897769846071,
                        -0.14810276313214626,
                        -0.1672176964288376,
                        -0.15282361863889932,
                        -0.14963699934727695,
                        -0.15261496772089436
                    ],
                    "test": [
                        0.9,
                        0.86,
                        0.885,
                        0.945,
                        0.945,
                        0.945,
                        0.94,
                        0.94,
                        0.94,
                        0.945
                    ],
                    "test_2": [
                        -0.14229037976401987,
                        -0.15684134641084024,
                        -0.15975497329442345,
                        -0.0920866196114235,
                        -0.09558176108408446,
                        -0.09374106746554847,
                        -0.09898215155626548,
                        -0.10140359309728612,
                        -0.09586901316701368,
                        -0.09785033817093865
                    ],
                    "val": [
                        0.8977272727272727,
                        0.9090909090909091,
                        0.9166666666666666,
                        0.9393939393939394,
                        0.9431818181818182,
                        0.9393939393939394,
                        0.9431818181818182,
                        0.928030303030303,
                        0.946969696969697,
                        0.946969696969697
                    ],
                    "val_2": [
                        -0.14547933387290532,
                        -0.14874824504460127,
                        -0.13755893012527826,
                        -0.09446472066800829,
                        -0.08749689407443048,
                        -0.09083352333730761,
                        -0.08692824394215254,
                        -0.11285612734221596,
                        -0.08502022016354828,
                        -0.08560200887382052
                    ]
                },
                {
                    "train": [
                        0.9011194029850746,
                        0.8936567164179104,
                        0.8731343283582089,
                        0.8880597014925373,
                        0.8824626865671642,
                        0.8861940298507462,
                        0.8824626865671642,
                        0.8805970149253731,
                        0.8843283582089553,
                        0.8824626865671642
                    ],
                    "train_2": [
                        -0.18572671069743393,
                        -0.19665425301010894,
                        -0.17967853319708826,
                        -0.19231293715145828,
                        -0.20148284392802424,
                        -0.19045340093091329,
                        -0.2138142747704646,
                        -0.18762589087220283,
                        -0.20256720137187517,
                        -0.20684503732049417
                    ],
                    "test": [
                        0.91,
                        0.915,
                        0.915,
                        0.92,
                        0.935,
                        0.93,
                        0.93,
                        0.93,
                        0.93,
                        0.94
                    ],
                    "test_2": [
                        -0.13765291852693082,
                        -0.139222919375943,
                        -0.14367717797325422,
                        -0.10487089971103089,
                        -0.10187522588567326,
                        -0.10135759744908127,
                        -0.11256803228222999,
                        -0.1080060320636543,
                        -0.10647796138502201,
                        -0.10204498510503043
                    ],
                    "val": [
                        0.9507575757575758,
                        0.9318181818181818,
                        0.9166666666666666,
                        0.9431818181818182,
                        0.9356060606060606,
                        0.9393939393939394,
                        0.9318181818181818,
                        0.9318181818181818,
                        0.9356060606060606,
                        0.9318181818181818
                    ],
                    "val_2": [
                        -0.09403938536652437,
                        -0.1108138651951433,
                        -0.12938158392239374,
                        -0.08980788849750551,
                        -0.09713165969406275,
                        -0.09141991988522963,
                        -0.09484759737402225,
                        -0.0930953228608058,
                        -0.0982028366981523,
                        -0.10304186623160662
                    ]
                },
                {
                    "train": [
                        0.8656716417910447,
                        0.8824626865671642,
                        0.8619402985074627,
                        0.875,
                        0.8917910447761194,
                        0.8899253731343284,
                        0.878731343283582,
                        0.8824626865671642,
                        0.8899253731343284,
                        0.8992537313432836
                    ],
                    "train_2": [
                        -0.24430551332194536,
                        -0.21291264952049982,
                        -0.18827472652684726,
                        -0.1993364610460627,
                        -0.17710236072895766,
                        -0.17755417148817573,
                        -0.2197046103342047,
                        -0.19997611539030752,
                        -0.18340036674135055,
                        -0.1843065879913711
                    ],
                    "test": [
                        0.91,
                        0.89,
                        0.895,
                        0.93,
                        0.91,
                        0.915,
                        0.925,
                        0.93,
                        0.92,
                        0.92
                    ],
                    "test_2": [
                        -0.13548029520904156,
                        -0.14621095089161615,
                        -0.16450100837760878,
                        -0.10903131791018911,
                        -0.11382487192994283,
                        -0.1109001122798015,
                        -0.11620548293805562,
                        -0.11011018878382947,
                        -0.11559013996519045,
                        -0.11646153610342372
                    ],
                    "val": [
                        0.9393939393939394,
                        0.9204545454545454,
                        0.8977272727272727,
                        0.9128787878787878,
                        0.9090909090909091,
                        0.9090909090909091,
                        0.9053030303030303,
                        0.9128787878787878,
                        0.9128787878787878,
                        0.9090909090909091
                    ],
                    "val_2": [
                        -0.10479837889464923,
                        -0.11162318280189423,
                        -0.15814602601082267,
                        -0.10393585390029995,
                        -0.10900714076331279,
                        -0.11200972383550957,
                        -0.1123931307539567,
                        -0.11312874065678033,
                        -0.11168519422836788,
                        -0.11578415815670445
                    ]
                },
                {
                    "train": [
                        0.8731343283582089,
                        0.8768656716417911,
                        0.8600746268656716,
                        0.8731343283582089,
                        0.8768656716417911,
                        0.875,
                        0.875,
                        0.8805970149253731,
                        0.8768656716417911,
                        0.8768656716417911
                    ],
                    "train_2": [
                        -0.24035830321649226,
                        -0.2404185164023616,
                        -0.216339073858061,
                        -0.204710491006473,
                        -0.20648160659714257,
                        -0.2018374297995432,
                        -0.2229530545017096,
                        -0.19034417630654288,
                        -0.20739810643619963,
                        -0.21601637470970983
                    ],
                    "test": [
                        0.9,
                        0.905,
                        0.885,
                        0.91,
                        0.93,
                        0.93,
                        0.915,
                        0.915,
                        0.93,
                        0.92
                    ],
                    "test_2": [
                        -0.14200453699848758,
                        -0.14890767807204763,
                        -0.18576447090278086,
                        -0.12105478789153634,
                        -0.12416898498359007,
                        -0.12254606610911159,
                        -0.12686987542080475,
                        -0.12343902580773362,
                        -0.12695027385606475,
                        -0.12897170944336056
                    ],
                    "val": [
                        0.9053030303030303,
                        0.9090909090909091,
                        0.8825757575757576,
                        0.9204545454545454,
                        0.9128787878787878,
                        0.9166666666666666,
                        0.9015151515151515,
                        0.9053030303030303,
                        0.9128787878787878,
                        0.9053030303030303
                    ],
                    "val_2": [
                        -0.14220939810159722,
                        -0.1377635943665134,
                        -0.17773864099555614,
                        -0.13160902539772218,
                        -0.13256013723976118,
                        -0.1312983418554765,
                        -0.15045882705751687,
                        -0.13808561546329198,
                        -0.13490582350612387,
                        -0.1377658687429932
                    ]
                },
                {
                    "train": [
                        0.8526119402985075,
                        0.8824626865671642,
                        0.8731343283582089,
                        0.8582089552238806,
                        0.8582089552238806,
                        0.8656716417910447,
                        0.8675373134328358,
                        0.8582089552238806,
                        0.8526119402985075,
                        0.8563432835820896
                    ],
                    "train_2": [
                        -0.2707408411192139,
                        -0.22877687149292417,
                        -0.19641269860492525,
                        -0.22417991118489966,
                        -0.21882534781273308,
                        -0.21172840888800495,
                        -0.24226186597940463,
                        -0.21190080121903218,
                        -0.22652588361014633,
                        -0.23418179369406839
                    ],
                    "test": [
                        0.895,
                        0.9,
                        0.9,
                        0.93,
                        0.92,
                        0.925,
                        0.925,
                        0.93,
                        0.925,
                        0.925
                    ],
                    "test_2": [
                        -0.14607377609198935,
                        -0.14783743676997532,
                        -0.14793903794123078,
                        -0.10412575506175063,
                        -0.11027359745714432,
                        -0.10898895302329414,
                        -0.10657318249219866,
                        -0.1130629183683458,
                        -0.11099497756741904,
                        -0.10919822892537459
                    ],
                    "val": [
                        0.9166666666666666,
                        0.9242424242424242,
                        0.8939393939393939,
                        0.9053030303030303,
                        0.9053030303030303,
                        0.8977272727272727,
                        0.8977272727272727,
                        0.9015151515151515,
                        0.9053030303030303,
                        0.9053030303030303
                    ],
                    "val_2": [
                        -0.12425528117050982,
                        -0.11625018157899313,
                        -0.15783836180497787,
                        -0.12214765455084066,
                        -0.1202244484792384,
                        -0.11945284438292605,
                        -0.13573501886073078,
                        -0.1270169973775434,
                        -0.11982268656825189,
                        -0.12567435142972008
                    ]
                }
            ],
            [
                "best_idx0-L2: train-0.90112, train_2--0.18573, test-0.91000, test_2--0.13765, val-0.95076, val_2--0.09404",
                "weighted-L2: train-0.89179, train_2--0.16367, test-0.92500, test_2--0.11139, val-0.94697, val_2--0.08775",
                "weighted-L1: train-0.92351, train_2--0.13055, test-0.94500, test_2--0.09783, val-0.94697, val_2--0.09422",
                "linear-L1: train-0.92164, train_2--0.12832, test-0.94000, test_2--0.09226, val-0.94318, val_2--0.08238",
                "linear-L2: train-0.89739, train_2--0.15982, test-0.90500, test_2--0.11927, val-0.93939, val_2--0.08998",
                "best_idx0-L3: train-0.86567, train_2--0.24431, test-0.91000, test_2--0.13548, val-0.93939, val_2--0.10480",
                "best_idx1-L5: train-0.88246, train_2--0.22878, test-0.90000, test_2--0.14784, val-0.92424, val_2--0.11625",
                "linear-L5: train-0.86567, train_2--0.18160, test-0.90500, test_2--0.11500, val-0.92045, val_2--0.11756",
                "best_idx3-L4: train-0.87313, train_2--0.20471, test-0.91000, test_2--0.12105, val-0.92045, val_2--0.13161",
                "weighted-L4: train-0.86940, train_2--0.18887, test-0.91000, test_2--0.12800, val-0.91667, val_2--0.13043",
                "linear-L3: train-0.88806, train_2--0.16398, test-0.93000, test_2--0.11448, val-0.91288, val_2--0.11246",
                "linear-L4: train-0.87500, train_2--0.19098, test-0.91000, test_2--0.12761, val-0.91288, val_2--0.13302",
                "weighted-L5: train-0.86940, train_2--0.18737, test-0.91500, test_2--0.12954, val-0.90909, val_2--0.11163",
                "weighted-L3: train-0.88993, train_2--0.18754, test-0.92000, test_2--0.11500, val-0.90909, val_2--0.11476"
            ]
        ],
        "stacking10_0.4_L1_weighted_retainTrue": [
            [
                {
                    "train": [
                        0.8694029850746269,
                        0.8805970149253731,
                        0.8880597014925373,
                        0.8880597014925373,
                        0.8973880597014925,
                        0.9011194029850746,
                        0.8936567164179104,
                        0.8936567164179104,
                        0.9067164179104478,
                        0.9011194029850746
                    ],
                    "train_2": [
                        -0.22903998741979056,
                        -0.22026708876062007,
                        -0.1718621007438571,
                        -0.15286270778757044,
                        -0.1498897769846071,
                        -0.14810276313214626,
                        -0.1672176964288376,
                        -0.15282361863889932,
                        -0.14963699934727695,
                        -0.15261496772089436
                    ],
                    "test": [
                        0.9,
                        0.86,
                        0.885,
                        0.945,
                        0.945,
                        0.945,
                        0.94,
                        0.94,
                        0.94,
                        0.945
                    ],
                    "test_2": [
                        -0.14229037976401987,
                        -0.15684134641084024,
                        -0.15975497329442345,
                        -0.0920866196114235,
                        -0.09558176108408448,
                        -0.09374106746554847,
                        -0.09898215155626548,
                        -0.10140359309728612,
                        -0.09586901316701368,
                        -0.09785033817093865
                    ],
                    "val": [
                        0.8977272727272727,
                        0.9090909090909091,
                        0.9166666666666666,
                        0.9393939393939394,
                        0.9431818181818182,
                        0.9393939393939394,
                        0.9431818181818182,
                        0.928030303030303,
                        0.946969696969697,
                        0.946969696969697
                    ],
                    "val_2": [
                        -0.1454793338729053,
                        -0.14874824504460127,
                        -0.13755893012527826,
                        -0.09446472066800829,
                        -0.08749689407443047,
                        -0.09083352333730763,
                        -0.08692824394215255,
                        -0.11285612734221598,
                        -0.08502022016354828,
                        -0.08560200887382052
                    ]
                },
                {
                    "train": [
                        0.9011194029850746,
                        0.8936567164179104,
                        0.8880597014925373,
                        0.8880597014925373,
                        0.8973880597014925,
                        0.9011194029850746,
                        0.8936567164179104,
                        0.8805970149253731,
                        0.9067164179104478,
                        0.9011194029850746
                    ],
                    "train_2": [
                        -0.18572671069743393,
                        -0.19665425301010894,
                        -0.1718621007438571,
                        -0.19231293715145828,
                        -0.1498897769846071,
                        -0.14810276313214626,
                        -0.1672176964288376,
                        -0.18762589087220283,
                        -0.14963699934727695,
                        -0.15261496772089436
                    ],
                    "test": [
                        0.91,
                        0.915,
                        0.885,
                        0.92,
                        0.945,
                        0.945,
                        0.94,
                        0.93,
                        0.94,
                        0.945
                    ],
                    "test_2": [
                        -0.13765291852693085,
                        -0.139222919375943,
                        -0.15975497329442345,
                        -0.10487089971103089,
                        -0.09558176108408448,
                        -0.09374106746554847,
                        -0.09898215155626548,
                        -0.1080060320636543,
                        -0.09586901316701368,
                        -0.09785033817093865
                    ],
                    "val": [
                        0.9507575757575758,
                        0.9318181818181818,
                        0.9166666666666666,
                        0.9431818181818182,
                        0.9431818181818182,
                        0.9393939393939394,
                        0.9431818181818182,
                        0.9318181818181818,
                        0.946969696969697,
                        0.946969696969697
                    ],
                    "val_2": [
                        -0.09403938536652436,
                        -0.1108138651951433,
                        -0.13755893012527826,
                        -0.08980788849750551,
                        -0.08749689407443047,
                        -0.09083352333730763,
                        -0.08692824394215255,
                        -0.0930953228608058,
                        -0.08502022016354828,
                        -0.08560200887382052
                    ]
                },
                {
                    "train": [
                        0.9011194029850746,
                        0.8936567164179104,
                        0.8880597014925373,
                        0.8880597014925373,
                        0.8973880597014925,
                        0.9011194029850746,
                        0.8936567164179104,
                        0.8805970149253731,
                        0.9067164179104478,
                        0.9011194029850746
                    ],
                    "train_2": [
                        -0.18572671069743393,
                        -0.2045133072904177,
                        -0.1718621007438571,
                        -0.19231293715145828,
                        -0.1498897769846071,
                        -0.14810276313214626,
                        -0.1672176964288376,
                        -0.18762589087220283,
                        -0.14963699934727695,
                        -0.15261496772089436
                    ],
                    "test": [
                        0.91,
                        0.91,
                        0.885,
                        0.92,
                        0.945,
                        0.945,
                        0.94,
                        0.93,
                        0.94,
                        0.945
                    ],
                    "test_2": [
                        -0.13765291852693085,
                        -0.13498492467773898,
                        -0.15975497329442345,
                        -0.10487089971103089,
                        -0.09558176108408448,
                        -0.09374106746554847,
                        -0.09898215155626548,
                        -0.1080060320636543,
                        -0.09586901316701368,
                        -0.09785033817093865
                    ],
                    "val": [
                        0.9507575757575758,
                        0.9356060606060606,
                        0.9166666666666666,
                        0.9431818181818182,
                        0.9431818181818182,
                        0.9393939393939394,
                        0.9431818181818182,
                        0.9318181818181818,
                        0.946969696969697,
                        0.946969696969697
                    ],
                    "val_2": [
                        -0.09403938536652436,
                        -0.11361057816954742,
                        -0.13755893012527826,
                        -0.08980788849750551,
                        -0.08749689407443047,
                        -0.09083352333730763,
                        -0.08692824394215255,
                        -0.0930953228608058,
                        -0.08502022016354828,
                        -0.08560200887382052
                    ]
                },
                {
                    "train": [
                        0.9011194029850746,
                        0.8936567164179104,
                        0.8880597014925373,
                        0.8880597014925373,
                        0.8973880597014925,
                        0.9011194029850746,
                        0.8936567164179104,
                        0.8805970149253731,
                        0.9067164179104478,
                        0.9011194029850746
                    ],
                    "train_2": [
                        -0.18572671069743393,
                        -0.2045133072904177,
                        -0.1718621007438571,
                        -0.19231293715145828,
                        -0.1498897769846071,
                        -0.14810276313214626,
                        -0.1672176964288376,
                        -0.18762589087220283,
                        -0.14963699934727695,
                        -0.15261496772089436
                    ],
                    "test": [
                        0.91,
                        0.91,
                        0.885,
                        0.92,
                        0.945,
                        0.945,
                        0.94,
                        0.93,
                        0.94,
                        0.945
                    ],
                    "test_2": [
                        -0.13765291852693085,
                        -0.13498492467773898,
                        -0.15975497329442345,
                        -0.10487089971103089,
                        -0.09558176108408448,
                        -0.09374106746554847,
                        -0.09898215155626548,
                        -0.1080060320636543,
                        -0.09586901316701368,
                        -0.09785033817093865
                    ],
                    "val": [
                        0.9507575757575758,
                        0.9356060606060606,
                        0.9166666666666666,
                        0.9431818181818182,
                        0.9431818181818182,
                        0.9393939393939394,
                        0.9431818181818182,
                        0.9318181818181818,
                        0.946969696969697,
                        0.946969696969697
                    ],
                    "val_2": [
                        -0.09403938536652436,
                        -0.11361057816954742,
                        -0.13755893012527826,
                        -0.08980788849750551,
                        -0.08749689407443047,
                        -0.09083352333730763,
                        -0.08692824394215255,
                        -0.0930953228608058,
                        -0.08502022016354828,
                        -0.08560200887382052
                    ]
                }
            ],
            [
                "best_idx0-L2: train-0.90112, train_2--0.18573, test-0.91000, test_2--0.13765, val-0.95076, val_2--0.09404",
                "weighted-L1: train-0.92351, train_2--0.13055, test-0.94500, test_2--0.09783, val-0.94697, val_2--0.09422",
                "linear-L1: train-0.92164, train_2--0.12832, test-0.94000, test_2--0.09226, val-0.94318, val_2--0.08238",
                "weighted-L2: train-0.89179, train_2--0.15835, test-0.92500, test_2--0.09857, val-0.93939, val_2--0.08216",
                "best_idx0-L3: train-0.90112, train_2--0.18850, test-0.91000, test_2--0.15151, val-0.93939, val_2--0.09263",
                "linear-L2: train-0.89925, train_2--0.14044, test-0.93000, test_2--0.09788, val-0.93561, val_2--0.08177",
                "best_idx0-L4: train-0.89179, train_2--0.20051, test-0.91000, test_2--0.14361, val-0.93561, val_2--0.09860",
                "linear-L3: train-0.89925, train_2--0.14306, test-0.94000, test_2--0.09486, val-0.93182, val_2--0.07923",
                "weighted-L3: train-0.89179, train_2--0.15553, test-0.92000, test_2--0.10124, val-0.93182, val_2--0.08548"
            ]
        ]
    },
    "dropoutreg_exp": {
        "stacking30_0.3_L1_lineardropout0": [
            [
                [
                    -0.7391460606586819,
                    0.44014594643359556,
                    0.44752678838676024,
                    1.1124272917419615,
                    0.36264014633427577,
                    1.3562505889197203,
                    1.0946872659109168,
                    1.7411506511813613,
                    0.06495172829329206,
                    -0.2047408158748346,
                    0.09178647580795485,
                    0.016574860413307076,
                    0.08501127030607741,
                    0.08501127030607741,
                    0.08501127030607741,
                    0.08501127030607741,
                    -0.07512090530948697,
                    0.06269172547921263,
                    -0.051862478252873635,
                    -0.23142285611602212,
                    -0.23722092095385552,
                    0.27616628773990576,
                    -0.04838405964641781,
                    0.3095527851850272,
                    0.5368204176835646,
                    -0.07529384569983845,
                    -0.07529384569983845,
                    0.4589132875479345,
                    0.08724765550459376,
                    1.2499360073684258
                ]
            ],
            [
                "linear-L1: train-0.91978, train_2--0.12150, test-0.93500, test_2--0.09485, val-0.94697, val_2--0.07899"
            ]
        ],
        "stacking30_0.3_L1_lineardropout0.1": [
            [
                [
                    -0.7487994722443375,
                    0.468744319902732,
                    0.4100415768732078,
                    1.3387847315102879,
                    0.3368272759866949,
                    1.572142587414012,
                    0.6629002436767508,
                    1.8814293648098772,
                    0.23175947395617102,
                    0.21745576394420502,
                    0.021175479102994964,
                    -0.27134709095799886,
                    -0.2299104518575263,
                    0.2612462507166925,
                    0.020709760654704968,
                    -0.037050375761205005,
                    -0.14679687268870595,
                    0.018554396830466616,
                    0.12207860802387202,
                    -0.2053848594195294,
                    -0.14351469097705866,
                    0.5091450157852261,
                    -0.12971191231525894,
                    0.4542311289082964,
                    0.6468921504044366,
                    0.2109784728266653,
                    -0.16569335237758148,
                    0.3593625421098424,
                    -0.1979096127746964,
                    0.7458662507228122
                ]
            ],
            [
                "linear-L1: train-0.91978, train_2--0.12561, test-0.93000, test_2--0.09521, val-0.95076, val_2--0.08057"
            ]
        ],
        "stacking30_0.3_L1_lineardropout0.2": [
            [
                [
                    -0.7103749172563399,
                    0.5622050464547366,
                    0.01604838796506172,
                    1.2440803286652848,
                    0.30459856802189855,
                    0.887617849679161,
                    0.839039783409739,
                    2.1697996509713064,
                    0.34615867457434585,
                    -0.01779251078630684,
                    -0.25829251267768866,
                    0.13295816547403713,
                    -0.26602817004741897,
                    0.06151324172241182,
                    0.07156975577670648,
                    -0.06689165530914493,
                    -0.04662095550674398,
                    0.051155335101377535,
                    0.006953957451545561,
                    -0.35739698837656075,
                    -0.043941923897495946,
                    0.20406493767247494,
                    -0.06976374763333176,
                    0.4774995061590646,
                    0.29549496459645613,
                    0.1607139502237298,
                    -0.13504859258405133,
                    0.2565818505963398,
                    0.3380505347578504,
                    1.6019373509196653
                ]
            ],
            [
                "linear-L1: train-0.92537, train_2--0.12518, test-0.93500, test_2--0.09566, val-0.95076, val_2--0.07857"
            ]
        ],
        "stacking30_0.3_L1_lineardropout0.3": [
            [
                [
                    -0.5284882192133278,
                    1.311407949446859,
                    0.2628021527496549,
                    0.37100913158691506,
                    0.47501901621198284,
                    1.3630426814815102,
                    0.8933903069960332,
                    1.7775254805807286,
                    0.16622469570414605,
                    -0.24133549005014152,
                    0.37811350555022344,
                    0.04521781474693389,
                    0.13251265484237046,
                    0.1662519708466531,
                    0.08895600743501603,
                    -0.5230034102743221,
                    -0.11979709822044741,
                    -0.3921085192209362,
                    0.15717497831988114,
                    -0.32079350329442524,
                    -0.1610337969411222,
                    0.08151229740630389,
                    0.4904714174754508,
                    0.14934570210737674,
                    0.663543030210842,
                    -0.17552188360594007,
                    0.15969050961994893,
                    0.08487312652295971,
                    -0.03179709709999665,
                    1.1253474091016888
                ]
            ],
            [
                "linear-L1: train-0.92164, train_2--0.12559, test-0.92000, test_2--0.09623, val-0.94318, val_2--0.08274"
            ]
        ],
        "stacking30_0.3_L1_lineardropout0.4": [
            [
                [
                    -0.6279786442632851,
                    0.2980681418383796,
                    0.3536319515013687,
                    1.666265265262894,
                    0.06999811140928683,
                    1.5409971192150265,
                    0.9343977407041137,
                    1.3013021356801882,
                    0.31908234330374297,
                    0.16177462701310721,
                    -0.5935391559262951,
                    -0.2759408136593804,
                    -0.24324676960448036,
                    -0.5853336772924094,
                    0.2636087018009063,
                    -0.23339302326004646,
                    0.06272851112377135,
                    0.39544782877222595,
                    -0.02664179665618689,
                    -0.572289370244776,
                    0.02795862975637466,
                    0.10619988038307344,
                    0.03997680990808259,
                    0.6136233808726157,
                    0.6378460722946002,
                    0.117543237057007,
                    0.09573730024612441,
                    0.5146579491477892,
                    0.18843367459898977,
                    1.1259621344147026
                ]
            ],
            [
                "linear-L1: train-0.92724, train_2--0.12284, test-0.93500, test_2--0.09507, val-0.93939, val_2--0.08206"
            ]
        ],
        "stacking30_0.3_L1_lineardropout0.5": [
            [
                [
                    -0.10586426510493507,
                    1.169400888103543,
                    -0.5386771284061896,
                    1.045255693759387,
                    0.5658874679108018,
                    1.5776920418556388,
                    1.3902832386783406,
                    -0.026512073295102887,
                    -0.0227006006189355,
                    -0.08265621550820522,
                    -0.2935769781904044,
                    0.012226668940045109,
                    -0.1754843922746203,
                    0.02406343900080472,
                    0.23125687226593497,
                    -0.3674884918099074,
                    0.09555768192053347,
                    -0.22636609216014397,
                    -0.03752716943124237,
                    0.08098100170901232,
                    0.3054574319796188,
                    0.8124796742036265,
                    0.9368965937231166,
                    -0.30024742569183305,
                    -0.278360500878659,
                    -0.10574976842312665,
                    -0.18862192154994334,
                    0.4090014726288851,
                    0.17223921142537485,
                    1.339826409475773
                ]
            ],
            [
                "linear-L1: train-0.92164, train_2--0.12154, test-0.93000, test_2--0.09772, val-0.94697, val_2--0.08324"
            ]
        ]
    },
    "diversity_exp": {
        "stacking30_0": [
            28.556818181818176,
            2.594908705522764,
            71.65331180966085
        ],
        "stacking30_0.05": [
            28.52651515151514,
            2.6132103360848875,
            71.54891484306573
        ],
        "stacking30_0.1": [
            28.44318181818181,
            2.7414544978585065,
            68.91068381516007
        ],
        "stacking30_0.15": [
            28.38257575757575,
            2.8385075547569483,
            67.4238505690976
        ],
        "stacking30_0.2": [
            28.35227272727272,
            2.9019460450593826,
            66.81851844274522
        ],
        "stacking30_0.25": [
            28.31439393939393,
            2.95252072242488,
            66.44637230682369
        ],
        "stacking30_0.3": [
            28.215909090909083,
            3.1082220070797204,
            65.79687710146439
        ],
        "stacking30_0.35": [
            28.215909090909083,
            3.10822200707972,
            65.79687710146439
        ],
        "stacking30_0.4": [
            28.215909090909083,
            3.108222007079721,
            65.79687710146439
        ],
        "stacking30_0.45": [
            28.215909090909083,
            3.108222007079721,
            65.79687710146437
        ],
        "stacking30_0.49": [
            28.215909090909083,
            3.1082220070797204,
            65.79687710146439
        ]
    },
    "diversityavg_exp": {
        "stacking30_0": [
            28.556818181818176,
            2.594908705522764,
            71.65331180966085
        ],
        "stacking30_0.05": [
            28.553030303030294,
            2.5952552788674352,
            71.6891580806826
        ],
        "stacking30_0.1": [
            28.553030303030294,
            2.5952552788674352,
            71.68915808068259
        ],
        "stacking30_0.15": [
            28.553030303030294,
            2.595255278867435,
            71.68915808068259
        ],
        "stacking30_0.2": [
            28.553030303030294,
            2.595255278867435,
            71.68915808068259
        ],
        "stacking30_0.25": [
            28.54166666666666,
            2.6063160308781708,
            71.6010774526645
        ],
        "stacking30_0.3": [
            28.54166666666666,
            2.6063160308781708,
            71.6010774526645
        ],
        "stacking30_0.35": [
            28.53787878787878,
            2.6081914931754415,
            71.7219488222971
        ],
        "stacking30_0.4": [
            28.53787878787878,
            2.6081914931754415,
            71.7219488222971
        ],
        "stacking30_0.45": [
            28.53787878787878,
            2.6081914931754415,
            71.7219488222971
        ],
        "stacking30_0.49": [
            28.53787878787878,
            2.6081914931754415,
            71.7219488222971
        ]
    },
    "struc_exp": {
        "stacking30_0.3_dropout0_retainTrue": [
            "best_idx3-L2: train-9.06716418e-01, train_2--1.67069936e-01, test-9.25000000e-01, test_2--1.15842890e-01, val-9.58333333e-01, val_2--7.43521633e-02",
            "linear-L2: train-9.16044776e-01, train_2--1.32175838e-01, test-9.35000000e-01, test_2--1.00382793e-01, val-9.54545455e-01, val_2--7.27160484e-02",
            "weighted-L2: train-9.10447761e-01, train_2--1.32620809e-01, test-9.30000000e-01, test_2--1.13781672e-01, val-9.54545455e-01, val_2--9.37378020e-02",
            "weighted-L1: train-9.21641791e-01, train_2--1.25084258e-01, test-9.45000000e-01, test_2--1.07428589e-01, val-9.50757576e-01, val_2--9.58043967e-02",
            "linear-L1: train-9.19776119e-01, train_2--1.21503612e-01, test-9.35000000e-01, test_2--9.48475985e-02, val-9.46969697e-01, val_2--7.89855292e-02",
            "lightgbm-L1: train-9.06716418e-01, train_2--1.43236391e-01, test-9.35000000e-01, test_2--1.00884765e-01, val-9.46969697e-01, val_2--8.20490376e-02",
            "best_idx2-L3: train-8.84328358e-01, train_2--2.01318573e-01, test-9.15000000e-01, test_2--1.32131622e-01, val-9.46969697e-01, val_2--9.27303100e-02",
            "lightgbm-L2: train-9.08582090e-01, train_2--1.32395269e-01, test-9.15000000e-01, test_2--1.17809865e-01, val-9.16666667e-01, val_2--1.21693968e-01"
        ],
        "stacking30_0.3_dropout0.1_retainTrue": [
            "linear-L2: train-9.23507463e-01, train_2--1.20260191e-01, test-9.25000000e-01, test_2--1.03895541e-01, val-9.62121212e-01, val_2--6.70727332e-02",
            "best_idx23-L3: train-8.95522388e-01, train_2--1.78006710e-01, test-9.30000000e-01, test_2--1.10456174e-01, val-9.62121212e-01, val_2--7.34105530e-02",
            "best_idx4-L2: train-9.01119403e-01, train_2--1.79354602e-01, test-9.25000000e-01, test_2--1.17596536e-01, val-9.62121212e-01, val_2--7.65975985e-02",
            "linear-L3: train-9.17910448e-01, train_2--1.31014130e-01, test-9.25000000e-01, test_2--1.07748818e-01, val-9.54545455e-01, val_2--7.60304909e-02",
            "weighted-L2: train-9.12313433e-01, train_2--1.31923994e-01, test-9.40000000e-01, test_2--9.74498577e-02, val-9.54545455e-01, val_2--8.11165852e-02",
            "weighted-L3: train-9.08582090e-01, train_2--1.32969987e-01, test-9.15000000e-01, test_2--1.11458941e-01, val-9.50757576e-01, val_2--8.34421682e-02",
            "weighted-L1: train-9.21641791e-01, train_2--1.25084258e-01, test-9.45000000e-01, test_2--1.07428589e-01, val-9.50757576e-01, val_2--9.58043967e-02",
            "linear-L1: train-9.19776119e-01, train_2--1.21503612e-01, test-9.35000000e-01, test_2--9.48475985e-02, val-9.46969697e-01, val_2--7.89855292e-02",
            "lightgbm-L1: train-9.06716418e-01, train_2--1.43236391e-01, test-9.35000000e-01, test_2--1.00884765e-01, val-9.46969697e-01, val_2--8.20490376e-02",
            "lightgbm-L3: train-9.04850746e-01, train_2--1.38240266e-01, test-8.90000000e-01, test_2--1.36658979e-01, val-9.39393939e-01, val_2--9.25725388e-02",
            "lightgbm-L2: train-9.04850746e-01, train_2--1.40573034e-01, test-9.30000000e-01, test_2--1.06092456e-01, val-9.31818182e-01, val_2--1.01397723e-01"
        ],
        "stacking30_0.3_dropout0.2_retainFalse": [
            "best_idx3-L2: train-9.02985075e-01, train_2--1.67249351e-01, test-9.25000000e-01, test_2--1.12616196e-01, val-9.58333333e-01, val_2--7.46506701e-02",
            "linear-L3: train-8.97388060e-01, train_2--1.43299004e-01, test-9.15000000e-01, test_2--1.16066060e-01, val-9.58333333e-01, val_2--8.50909536e-02",
            "linear-L2: train-8.99253731e-01, train_2--1.53432306e-01, test-9.25000000e-01, test_2--1.02895643e-01, val-9.50757576e-01, val_2--7.72206995e-02",
            "best_idx21-L3: train-8.78731343e-01, train_2--2.06932716e-01, test-8.90000000e-01, test_2--1.28838850e-01, val-9.50757576e-01, val_2--8.97417427e-02",
            "weighted-L1: train-9.21641791e-01, train_2--1.25084258e-01, test-9.45000000e-01, test_2--1.07428589e-01, val-9.50757576e-01, val_2--9.58043967e-02",
            "weighted-L2: train-8.93656716e-01, train_2--1.57921969e-01, test-9.25000000e-01, test_2--1.19555705e-01, val-9.50757576e-01, val_2--9.59918493e-02",
            "weighted-L3: train-8.97388060e-01, train_2--1.47741733e-01, test-9.20000000e-01, test_2--1.32719980e-01, val-9.50757576e-01, val_2--1.17379429e-01",
            "linear-L1: train-9.19776119e-01, train_2--1.21503612e-01, test-9.35000000e-01, test_2--9.48475985e-02, val-9.46969697e-01, val_2--7.89855292e-02",
            "lightgbm-L1: train-9.06716418e-01, train_2--1.43236391e-01, test-9.35000000e-01, test_2--1.00884765e-01, val-9.46969697e-01, val_2--8.20490376e-02",
            "lightgbm-L2: train-8.93656716e-01, train_2--1.54820473e-01, test-8.75000000e-01, test_2--1.43452928e-01, val-9.35606061e-01, val_2--9.97806050e-02",
            "lightgbm-L3: train-8.84328358e-01, train_2--1.50000774e-01, test-8.50000000e-01, test_2--1.75463266e-01, val-9.01515152e-01, val_2--1.39670920e-01"
        ],
        "stacking30_0.3_dropout0.2_retainTrue": [
            "best_idx20-L5: train-8.93656716e-01, train_2--1.72273925e-01, test-9.25000000e-01, test_2--1.14196886e-01, val-9.62121212e-01, val_2--7.94245283e-02",
            "best_idx3-L2: train-9.02985075e-01, train_2--1.67249351e-01, test-9.25000000e-01, test_2--1.12616196e-01, val-9.58333333e-01, val_2--7.46506701e-02",
            "best_idx8-L4: train-8.93656716e-01, train_2--1.92222423e-01, test-9.30000000e-01, test_2--1.08842884e-01, val-9.58333333e-01, val_2--7.51731459e-02",
            "linear-L5: train-9.08582090e-01, train_2--1.38545146e-01, test-9.35000000e-01, test_2--1.08703292e-01, val-9.58333333e-01, val_2--7.64709193e-02",
            "best_idx29-L3: train-8.86194030e-01, train_2--1.94929967e-01, test-9.20000000e-01, test_2--1.11421676e-01, val-9.58333333e-01, val_2--8.01639002e-02",
            "linear-L3: train-9.04850746e-01, train_2--1.34585297e-01, test-9.35000000e-01, test_2--1.00562872e-01, val-9.54545455e-01, val_2--7.42763788e-02",
            "weighted-L5: train-8.99253731e-01, train_2--1.40259336e-01, test-9.20000000e-01, test_2--1.20307755e-01, val-9.54545455e-01, val_2--9.41611408e-02",
            "linear-L2: train-9.04850746e-01, train_2--1.37605362e-01, test-9.40000000e-01, test_2--1.01718948e-01, val-9.50757576e-01, val_2--7.24208621e-02",
            "weighted-L2: train-9.02985075e-01, train_2--1.41744161e-01, test-9.30000000e-01, test_2--1.03403974e-01, val-9.50757576e-01, val_2--8.03901988e-02",
            "weighted-L3: train-9.06716418e-01, train_2--1.38436377e-01, test-9.35000000e-01, test_2--1.10237636e-01, val-9.50757576e-01, val_2--9.17775931e-02",
            "weighted-L4: train-8.99253731e-01, train_2--1.46378104e-01, test-9.35000000e-01, test_2--1.14129244e-01, val-9.50757576e-01, val_2--9.41727495e-02",
            "weighted-L1: train-9.21641791e-01, train_2--1.25084258e-01, test-9.45000000e-01, test_2--1.07428589e-01, val-9.50757576e-01, val_2--9.58043967e-02",
            "lightgbm-L4: train-8.97388060e-01, train_2--1.41474520e-01, test-8.75000000e-01, test_2--1.41505184e-01, val-9.50757576e-01, val_2--9.69150918e-02",
            "linear-L4: train-9.12313433e-01, train_2--1.34842088e-01, test-9.25000000e-01, test_2--1.04449972e-01, val-9.46969697e-01, val_2--7.38236942e-02",
            "linear-L1: train-9.19776119e-01, train_2--1.21503612e-01, test-9.35000000e-01, test_2--9.48475985e-02, val-9.46969697e-01, val_2--7.89855292e-02",
            "lightgbm-L1: train-9.06716418e-01, train_2--1.43236391e-01, test-9.35000000e-01, test_2--1.00884765e-01, val-9.46969697e-01, val_2--8.20490376e-02",
            "lightgbm-L3: train-9.08582090e-01, train_2--1.39519450e-01, test-8.95000000e-01, test_2--1.25803016e-01, val-9.35606061e-01, val_2--9.91119346e-02",
            "lightgbm-L5: train-8.93656716e-01, train_2--1.55836159e-01, test-8.85000000e-01, test_2--1.55885222e-01, val-9.16666667e-01, val_2--1.20041120e-01",
            "lightgbm-L2: train-9.06716418e-01, train_2--1.44414640e-01, test-8.95000000e-01, test_2--1.25559407e-01, val-9.12878788e-01, val_2--1.14131179e-01"
        ],
        "stacking30_0.3_dropout0.3_retainTrue": [
            "best_idx1-L3: train-9.10447761e-01, train_2--1.70600056e-01, test-9.00000000e-01, test_2--1.31878511e-01, val-9.58333333e-01, val_2--7.10388040e-02",
            "best_idx1-L2: train-9.12313433e-01, train_2--1.55991682e-01, test-9.10000000e-01, test_2--1.37693090e-01, val-9.58333333e-01, val_2--7.64895956e-02",
            "weighted-L2: train-9.16044776e-01, train_2--1.27266807e-01, test-9.35000000e-01, test_2--1.10772031e-01, val-9.58333333e-01, val_2--8.80382313e-02",
            "linear-L2: train-9.14179104e-01, train_2--1.27272911e-01, test-9.30000000e-01, test_2--1.04729705e-01, val-9.54545455e-01, val_2--7.28332252e-02",
            "weighted-L3: train-9.06716418e-01, train_2--1.34129753e-01, test-9.40000000e-01, test_2--1.05002495e-01, val-9.54545455e-01, val_2--8.91612121e-02",
            "lightgbm-L2: train-9.06716418e-01, train_2--1.34759701e-01, test-9.40000000e-01, test_2--9.85532002e-02, val-9.50757576e-01, val_2--8.43062606e-02",
            "weighted-L1: train-9.21641791e-01, train_2--1.25084258e-01, test-9.45000000e-01, test_2--1.07428589e-01, val-9.50757576e-01, val_2--9.58043967e-02",
            "linear-L1: train-9.19776119e-01, train_2--1.21503612e-01, test-9.35000000e-01, test_2--9.48475985e-02, val-9.46969697e-01, val_2--7.89855292e-02",
            "lightgbm-L1: train-9.06716418e-01, train_2--1.43236391e-01, test-9.35000000e-01, test_2--1.00884765e-01, val-9.46969697e-01, val_2--8.20490376e-02",
            "lightgbm-L3: train-8.97388060e-01, train_2--1.39466457e-01, test-9.40000000e-01, test_2--1.02419119e-01, val-9.46969697e-01, val_2--8.72288508e-02",
            "linear-L3: train-9.16044776e-01, train_2--1.23806257e-01, test-9.30000000e-01, test_2--1.04794563e-01, val-9.43181818e-01, val_2--7.42899949e-02"
        ],
        "stacking30_0.3_dropout0.4_retainTrue": [
            "best_idx9-L3: train-8.95522388e-01, train_2--1.75907607e-01, test-9.20000000e-01, test_2--1.15553426e-01, val-9.65909091e-01, val_2--7.19343955e-02",
            "best_idx3-L2: train-9.17910448e-01, train_2--1.48607993e-01, test-9.15000000e-01, test_2--1.23866195e-01, val-9.58333333e-01, val_2--7.40070374e-02",
            "linear-L2: train-9.23507463e-01, train_2--1.24213281e-01, test-9.30000000e-01, test_2--1.04735363e-01, val-9.54545455e-01, val_2--6.72488843e-02",
            "linear-L3: train-9.27238806e-01, train_2--1.15100191e-01, test-9.15000000e-01, test_2--1.16000523e-01, val-9.54545455e-01, val_2--7.24228437e-02",
            "weighted-L2: train-9.14179104e-01, train_2--1.32595703e-01, test-9.35000000e-01, test_2--1.03334152e-01, val-9.54545455e-01, val_2--8.78280403e-02",
            "weighted-L3: train-9.06716418e-01, train_2--1.36521124e-01, test-9.35000000e-01, test_2--1.12564106e-01, val-9.54545455e-01, val_2--9.47592551e-02",
            "weighted-L1: train-9.21641791e-01, train_2--1.25084258e-01, test-9.45000000e-01, test_2--1.07428589e-01, val-9.50757576e-01, val_2--9.58043967e-02",
            "linear-L1: train-9.19776119e-01, train_2--1.21503612e-01, test-9.35000000e-01, test_2--9.48475985e-02, val-9.46969697e-01, val_2--7.89855292e-02",
            "lightgbm-L1: train-9.06716418e-01, train_2--1.43236391e-01, test-9.35000000e-01, test_2--1.00884765e-01, val-9.46969697e-01, val_2--8.20490376e-02",
            "lightgbm-L2: train-8.97388060e-01, train_2--1.50007323e-01, test-9.05000000e-01, test_2--1.24011605e-01, val-9.16666667e-01, val_2--1.07966463e-01",
            "lightgbm-L3: train-9.17910448e-01, train_2--1.42583631e-01, test-9.25000000e-01, test_2--1.06359236e-01, val-9.01515152e-01, val_2--1.19636837e-01"
        ]
    }
}