{
    "task_type": "CLS",
    "dataset": "glass",
    "refit": "full",
    "filter": "m6_p6",
    "time_limit": 3600,
    "best": 0.6511627906976745,
    "fixed_ens": {
        "ensemble_selection10": 0.6511627906976745,
        "cma_es": 0.6511627906976745,
        "qdo_es": 0.6511627906976745,
        "OptDivBO": 0.7674418604651163,
        "EnsOpt": 0.6976744186046512,
        "stacking-1_0.4_L1_linear": 0.7674418604651163,
        "stacking-1_0.4_L2_linear": 0.7906976744186046,
        "stacking1000_0.4_L1_linear": 0.813953488372093,
        "stacking1000_0.4_L2_linear": 0.7209302325581395,
        "ensemble_selection25": 0.7674418604651163,
        "stacking1000_0.4_L1_weighted": 0.7209302325581395,
        "stacking-1_0.4_L1_weighted": 0.7441860465116279,
        "stacking1000_0.4_L2_weighted": 0.7906976744186046,
        "stacking-1_0.4_L2_weighted": 0.7674418604651163,
        "autogluon-": 0.8040026976706502
    },
    "defopt_ens": {
        "s10_r20_d20": "0.813953488372093, 0.813953488372093, 0.813953488372093, 0.7674418604651163, 0.813953488372093, 0.813953488372093",
        "s10_r40_d20": "0.7906976744186046, 0.7674418604651163, 0.813953488372093, 0.813953488372093, 0.7674418604651163, 0.813953488372093",
        "s20_r20_d20": "0.7906976744186046, 0.7906976744186046, 0.7906976744186046, 0.7674418604651163, 0.813953488372093, 0.7906976744186046",
        "s20_r40_d20": "0.7906976744186046, 0.7906976744186046, 0.7906976744186046, 0.7674418604651163, 0.813953488372093, 0.7906976744186046",
        "s10_r20_d0": "0.813953488372093, 0.813953488372093, 0.813953488372093, 0.7906976744186046, 0.7906976744186046, 0.813953488372093",
        "s10_r40_d0": "0.813953488372093, 0.8372093023255814, 0.7906976744186046, 0.813953488372093, 0.7674418604651163, 0.7906976744186046",
        "s20_r20_d0": "0.813953488372093, 0.813953488372093, 0.8372093023255814, 0.7906976744186046, 0.7906976744186046, 0.8372093023255814",
        "s20_r40_d0": "0.7906976744186046, 0.7906976744186046, 0.7906976744186046, 0.7906976744186046, 0.813953488372093, 0.7906976744186046"
    },
    "opt_ens": [
        "0.813953488372093",
        "0.813953488372093",
        "0.813953488372093",
        "0.813953488372093",
        "0.813953488372093",
        "0.813953488372093",
        "0.813953488372093",
        "0.813953488372093",
        "0.8372093023255814",
        "0.8372093023255814",
        "0.8372093023255814",
        "0.813953488372093",
        "0.813953488372093",
        "0.8372093023255814",
        "0.8372093023255814",
        "0.7674418604651163",
        "0.8372093023255814",
        "0.7906976744186046",
        "0.813953488372093",
        "0.7674418604651163",
        "0.7209302325581395",
        "0.7674418604651163",
        "0.7906976744186046",
        "0.7441860465116279",
        "0.7906976744186046",
        "0.7441860465116279",
        "0.8372093023255814",
        "0.813953488372093",
        "0.7906976744186046",
        "0.8372093023255814"
    ],
    "opt_ens_d0": [
        "0.7906976744186046",
        "0.7906976744186046",
        "0.7906976744186046",
        "0.7906976744186046",
        "0.7906976744186046",
        "0.7906976744186046",
        "0.7906976744186046",
        "0.7906976744186046",
        "0.7906976744186046",
        "0.813953488372093",
        "0.813953488372093",
        "0.813953488372093",
        "0.813953488372093",
        "0.7906976744186046",
        "0.7441860465116279",
        "0.7209302325581395",
        "0.7209302325581395",
        "0.7906976744186046",
        "0.8372093023255814",
        "0.8604651162790697",
        "0.7674418604651163",
        "0.7441860465116279",
        "0.7441860465116279",
        "0.7441860465116279",
        "0.8372093023255814",
        "0.7674418604651163",
        "0.7906976744186046",
        "0.7906976744186046",
        "0.7906976744186046",
        "0.7441860465116279"
    ],
    "opt_ens_d0-20": [
        "0.813953488372093",
        "0.813953488372093",
        "0.813953488372093",
        "0.813953488372093",
        "0.813953488372093",
        "0.813953488372093",
        "0.813953488372093",
        "0.813953488372093",
        "0.813953488372093",
        "0.813953488372093",
        "0.813953488372093",
        "0.813953488372093",
        "0.7906976744186046",
        "0.7906976744186046",
        "0.7906976744186046",
        "0.813953488372093",
        "0.7906976744186046",
        "0.813953488372093",
        "0.813953488372093",
        "0.7674418604651163",
        "0.6976744186046512",
        "0.7906976744186046",
        "0.7674418604651163",
        "0.7906976744186046",
        "0.7906976744186046",
        "0.7906976744186046",
        "0.813953488372093",
        "0.7906976744186046",
        "0.7906976744186046",
        "0.7906976744186046"
    ],
    "size_exp": {
        "stacking5_-1_L1_linear": [
            "linear-L1: train-7.71929825e-01, train_2--3.53048257e-01, test-7.44186047e-01, test_2--4.12332241e-01, val-7.54385965e-01, val_2--3.50751395e-01"
        ],
        "stacking5_0_L1_linear": [
            "linear-L1: train-7.63157895e-01, train_2--3.53385222e-01, test-7.44186047e-01, test_2--3.98602155e-01, val-7.54385965e-01, val_2--3.06642799e-01"
        ],
        "stacking5_0.1_L1_linear": [
            "linear-L1: train-7.71929825e-01, train_2--3.61861079e-01, test-7.90697674e-01, test_2--3.69098071e-01, val-7.89473684e-01, val_2--2.96819728e-01"
        ],
        "stacking5_0.2_L1_linear": [
            "linear-L1: train-8.07017544e-01, train_2--3.05690566e-01, test-7.90697674e-01, test_2--3.71080900e-01, val-8.42105263e-01, val_2--2.80635644e-01"
        ],
        "stacking5_0.3_L1_linear": [
            "linear-L1: train-8.07017544e-01, train_2--3.05690566e-01, test-7.90697674e-01, test_2--3.71080900e-01, val-8.42105263e-01, val_2--2.80635644e-01"
        ],
        "stacking5_0.4_L1_linear": [
            "linear-L1: train-8.24561404e-01, train_2--3.06013012e-01, test-7.67441860e-01, test_2--3.79911055e-01, val-8.07017544e-01, val_2--2.69133437e-01"
        ],
        "stacking10_-1_L1_linear": [
            "linear-L1: train-8.15789474e-01, train_2--2.97011565e-01, test-7.67441860e-01, test_2--3.94759336e-01, val-7.71929825e-01, val_2--3.14801033e-01"
        ],
        "stacking10_0_L1_linear": [
            "linear-L1: train-7.89473684e-01, train_2--3.01774237e-01, test-7.67441860e-01, test_2--3.66009763e-01, val-7.89473684e-01, val_2--2.70246329e-01"
        ],
        "stacking10_0.1_L1_linear": [
            "linear-L1: train-7.98245614e-01, train_2--3.07482605e-01, test-7.67441860e-01, test_2--3.68280288e-01, val-8.07017544e-01, val_2--2.85198715e-01"
        ],
        "stacking10_0.2_L1_linear": [
            "linear-L1: train-8.24561404e-01, train_2--2.77338493e-01, test-7.90697674e-01, test_2--3.70961081e-01, val-8.59649123e-01, val_2--2.61171725e-01"
        ],
        "stacking10_0.3_L1_linear": [
            "linear-L1: train-8.24561404e-01, train_2--2.77338493e-01, test-7.90697674e-01, test_2--3.70961081e-01, val-8.59649123e-01, val_2--2.61171725e-01"
        ],
        "stacking10_0.4_L1_linear": [
            "linear-L1: train-8.50877193e-01, train_2--2.67212249e-01, test-7.67441860e-01, test_2--3.74493073e-01, val-8.07017544e-01, val_2--2.58913462e-01"
        ],
        "stacking20_-1_L1_linear": [
            "linear-L1: train-8.50877193e-01, train_2--2.22297663e-01, test-7.44186047e-01, test_2--4.43975692e-01, val-7.71929825e-01, val_2--3.17940053e-01"
        ],
        "stacking20_0_L1_linear": [
            "linear-L1: train-8.59649123e-01, train_2--2.47793909e-01, test-7.67441860e-01, test_2--3.68795074e-01, val-8.07017544e-01, val_2--2.56625496e-01"
        ],
        "stacking20_0.1_L1_linear": [
            "linear-L1: train-8.77192982e-01, train_2--1.88815054e-01, test-7.90697674e-01, test_2--3.53182853e-01, val-8.07017544e-01, val_2--2.66742741e-01"
        ],
        "stacking20_0.2_L1_linear": [
            "linear-L1: train-9.12280702e-01, train_2--1.72338463e-01, test-7.90697674e-01, test_2--3.36668944e-01, val-8.07017544e-01, val_2--2.82975387e-01"
        ],
        "stacking20_0.3_L1_linear": [
            "linear-L1: train-9.29824561e-01, train_2--1.48237819e-01, test-8.13953488e-01, test_2--3.27581843e-01, val-7.89473684e-01, val_2--2.79434306e-01"
        ],
        "stacking20_0.4_L1_linear": [
            "linear-L1: train-9.47368421e-01, train_2--1.49567387e-01, test-7.67441860e-01, test_2--3.48598281e-01, val-8.07017544e-01, val_2--2.85570688e-01"
        ],
        "stacking30_-1_L1_linear": [
            "linear-L1: train-9.03508772e-01, train_2--1.98037977e-01, test-7.20930233e-01, test_2--4.45310614e-01, val-8.24561404e-01, val_2--3.12644361e-01"
        ],
        "stacking30_0_L1_linear": [
            "linear-L1: train-8.85964912e-01, train_2--2.26866764e-01, test-7.67441860e-01, test_2--3.69850767e-01, val-8.07017544e-01, val_2--2.65968212e-01"
        ],
        "stacking30_0.1_L1_linear": [
            "linear-L1: train-9.38596491e-01, train_2--1.47592639e-01, test-7.90697674e-01, test_2--3.34862302e-01, val-7.89473684e-01, val_2--2.76615778e-01"
        ],
        "stacking30_0.2_L1_linear": [
            "linear-L1: train-9.47368421e-01, train_2--1.15650924e-01, test-7.90697674e-01, test_2--3.27229032e-01, val-7.89473684e-01, val_2--2.82085901e-01"
        ],
        "stacking30_0.3_L1_linear": [
            "linear-L1: train-9.56140351e-01, train_2--1.09198633e-01, test-7.90697674e-01, test_2--3.24386139e-01, val-8.07017544e-01, val_2--2.78777168e-01"
        ],
        "stacking30_0.4_L1_linear": [
            "linear-L1: train-9.56140351e-01, train_2--1.09198633e-01, test-7.90697674e-01, test_2--3.24386139e-01, val-8.07017544e-01, val_2--2.78777168e-01"
        ],
        "stacking40_-1_L1_linear": [
            "linear-L1: train-9.12280702e-01, train_2--1.48073339e-01, test-7.67441860e-01, test_2--3.84070979e-01, val-8.07017544e-01, val_2--2.77716690e-01"
        ],
        "stacking40_0_L1_linear": [
            "linear-L1: train-8.94736842e-01, train_2--1.97987506e-01, test-7.44186047e-01, test_2--3.76791130e-01, val-8.07017544e-01, val_2--2.63189430e-01"
        ],
        "stacking40_0.1_L1_linear": [
            "linear-L1: train-9.47368421e-01, train_2--1.17565886e-01, test-7.90697674e-01, test_2--3.41104722e-01, val-8.07017544e-01, val_2--2.76943554e-01"
        ],
        "stacking40_0.2_L1_linear": [
            "linear-L1: train-9.64912281e-01, train_2--9.87951229e-02, test-7.90697674e-01, test_2--3.21956697e-01, val-8.07017544e-01, val_2--2.80575926e-01"
        ],
        "stacking40_0.3_L1_linear": [
            "linear-L1: train-9.56140351e-01, train_2--9.30825133e-02, test-7.90697674e-01, test_2--3.36674298e-01, val-8.07017544e-01, val_2--2.81604297e-01"
        ],
        "stacking40_0.4_L1_linear": [
            "linear-L1: train-9.56140351e-01, train_2--8.75908356e-02, test-7.67441860e-01, test_2--3.49953309e-01, val-8.07017544e-01, val_2--2.81888590e-01"
        ],
        "stacking-1_0.4_L1_linear": [
            "linear-L1: train-0.80702, train_2--0.31589, test-0.74419, test_2--0.40280, val-0.77193, val_2--0.30230"
        ],
        "stacking1000_0.4_L1_linear": [
            "linear-L1: train-0.98246, train_2--0.02039, test-0.74419, test_2--0.43029, val-0.78947, val_2--0.28286"
        ],
        "stacking5_0.49_L1_linear": [
            "linear-L1: train-0.82456, train_2--0.29376, test-0.79070, test_2--0.37253, val-0.84211, val_2--0.27264"
        ],
        "stacking10_0.49_L1_linear": [
            "linear-L1: train-0.85965, train_2--0.23437, test-0.79070, test_2--0.33947, val-0.82456, val_2--0.27093"
        ],
        "stacking20_0.49_L1_linear": [
            "linear-L1: train-0.93860, train_2--0.14369, test-0.79070, test_2--0.33895, val-0.82456, val_2--0.28366"
        ],
        "stacking30_0.49_L1_linear": [
            "linear-L1: train-0.95614, train_2--0.10476, test-0.79070, test_2--0.33693, val-0.80702, val_2--0.28560"
        ],
        "stacking40_0.49_L1_linear": [
            "linear-L1: train-0.96491, train_2--0.08310, test-0.79070, test_2--0.34286, val-0.78947, val_2--0.27169"
        ],
        "stacking50_-1_L1_linear": [
            "linear-L1: train-0.92105, train_2--0.16258, test-0.72093, test_2--0.44369, val-0.82456, val_2--0.27453"
        ],
        "stacking50_0_L1_linear": [
            "linear-L1: train-0.90351, train_2--0.17638, test-0.74419, test_2--0.38100, val-0.80702, val_2--0.27175"
        ],
        "stacking50_0.1_L1_linear": [
            "linear-L1: train-0.95614, train_2--0.09668, test-0.79070, test_2--0.32649, val-0.80702, val_2--0.28039"
        ],
        "stacking50_0.2_L1_linear": [
            "linear-L1: train-0.96491, train_2--0.08762, test-0.79070, test_2--0.33897, val-0.80702, val_2--0.28618"
        ],
        "stacking50_0.3_L1_linear": [
            "linear-L1: train-0.96491, train_2--0.07787, test-0.76744, test_2--0.34856, val-0.80702, val_2--0.27261"
        ],
        "stacking50_0.4_L1_linear": [
            "linear-L1: train-0.96491, train_2--0.07732, test-0.79070, test_2--0.34749, val-0.78947, val_2--0.27502"
        ],
        "stacking50_0.49_L1_linear": [
            "linear-L1: train-0.96491, train_2--0.07732, test-0.79070, test_2--0.34749, val-0.78947, val_2--0.27502"
        ]
    },
    "retain_exp": {
        "stacking10_0.4_L1_weighted_retainFalse": [
            [
                {
                    "train": [
                        0.6578947368421053,
                        0.7894736842105263,
                        0.7543859649122807,
                        0.7631578947368421,
                        0.7280701754385965,
                        0.7017543859649122,
                        0.7017543859649122,
                        0.6140350877192983,
                        0.6754385964912281,
                        0.6754385964912281
                    ],
                    "train_2": [
                        -0.5144218917088282,
                        -0.4045111414058163,
                        -0.4260817285800935,
                        -0.4354876934890805,
                        -0.47363608955146136,
                        -0.4852572783594547,
                        -0.4852572783594547,
                        -0.7719298245614035,
                        -0.5245573997155667,
                        -0.5511997888363666
                    ],
                    "test": [
                        0.6976744186046512,
                        0.7209302325581395,
                        0.6976744186046512,
                        0.7441860465116279,
                        0.7441860465116279,
                        0.7674418604651163,
                        0.7674418604651163,
                        0.5581395348837209,
                        0.8372093023255814,
                        0.8372093023255814
                    ],
                    "test_2": [
                        -0.40711626716507343,
                        -0.41726688571530257,
                        -0.4415612845360117,
                        -0.423950968956764,
                        -0.3983231573945415,
                        -0.36893888361998856,
                        -0.36893888361998867,
                        -0.7404651162790699,
                        -0.3237330939771577,
                        -0.3216529164243589
                    ],
                    "val": [
                        0.7192982456140351,
                        0.7894736842105263,
                        0.7894736842105263,
                        0.8245614035087719,
                        0.8421052631578947,
                        0.7543859649122807,
                        0.7543859649122807,
                        0.6842105263157895,
                        0.7894736842105263,
                        0.7894736842105263
                    ],
                    "val_2": [
                        -0.38244031094858655,
                        -0.28278621317122193,
                        -0.27198971161065655,
                        -0.27599438212935695,
                        -0.2415293687980105,
                        -0.32257764242467996,
                        -0.32257764242467996,
                        -0.5656140350877193,
                        -0.2878104590945847,
                        -0.29509570392161555
                    ]
                },
                {
                    "train": [
                        0.6140350877192983,
                        0.7192982456140351,
                        0.7280701754385965,
                        0.7105263157894737,
                        0.7017543859649122,
                        0.6754385964912281,
                        0.6754385964912281,
                        0.7368421052631579,
                        0.6754385964912281,
                        0.6754385964912281
                    ],
                    "train_2": [
                        -0.5936467779392735,
                        -0.5168203668050776,
                        -0.5241150290772075,
                        -0.512458771301433,
                        -0.5734475133542927,
                        -0.5324516903841467,
                        -0.5324516903841467,
                        -0.5263157894736842,
                        -0.5752018287028446,
                        -0.5836969989956335
                    ],
                    "test": [
                        0.7674418604651163,
                        0.7906976744186046,
                        0.7906976744186046,
                        0.7906976744186046,
                        0.7906976744186046,
                        0.7441860465116279,
                        0.7441860465116279,
                        0.6744186046511628,
                        0.7674418604651163,
                        0.7674418604651163
                    ],
                    "test_2": [
                        -0.3987879754542666,
                        -0.3580959036703645,
                        -0.3960703865829717,
                        -0.39235446102751204,
                        -0.39508045087528165,
                        -0.4094303996082615,
                        -0.4094303996082614,
                        -0.6102325581395349,
                        -0.37133443912461017,
                        -0.3676261630168993
                    ],
                    "val": [
                        0.7192982456140351,
                        0.8070175438596491,
                        0.8070175438596491,
                        0.7543859649122807,
                        0.7894736842105263,
                        0.7543859649122807,
                        0.7543859649122807,
                        0.7719298245614035,
                        0.7894736842105263,
                        0.8245614035087719
                    ],
                    "val_2": [
                        -0.3766436624328586,
                        -0.2842083578013139,
                        -0.2904709718370763,
                        -0.3216821736089269,
                        -0.32199988183757183,
                        -0.38388368252346433,
                        -0.38388368252346433,
                        -0.3985964912280702,
                        -0.27618368618787215,
                        -0.2578768394689496
                    ]
                },
                {
                    "train": [
                        0.6052631578947368,
                        0.6842105263157895,
                        0.7192982456140351,
                        0.6578947368421053,
                        0.5789473684210527,
                        0.631578947368421,
                        0.631578947368421,
                        0.6666666666666666,
                        0.6491228070175439,
                        0.6403508771929824
                    ],
                    "train_2": [
                        -0.6310517890375026,
                        -0.6083345108148458,
                        -0.5451242312569217,
                        -0.5733907124203602,
                        -0.7768008815009544,
                        -0.6136573544018993,
                        -0.6136573544018993,
                        -0.6666666666666666,
                        -0.6061977353469346,
                        -0.6168514910178073
                    ],
                    "test": [
                        0.627906976744186,
                        0.7209302325581395,
                        0.7209302325581395,
                        0.7441860465116279,
                        0.7209302325581395,
                        0.7441860465116279,
                        0.7441860465116279,
                        0.6511627906976745,
                        0.7906976744186046,
                        0.7674418604651163
                    ],
                    "test_2": [
                        -0.508350044436698,
                        -0.4394753547219457,
                        -0.45479963283142194,
                        -0.4361474734121067,
                        -0.39145508056071543,
                        -0.4357700538673614,
                        -0.4357700538673614,
                        -0.6139534883720931,
                        -0.39768454307088164,
                        -0.40705465718009326
                    ],
                    "val": [
                        0.7543859649122807,
                        0.7894736842105263,
                        0.7894736842105263,
                        0.8070175438596491,
                        0.8070175438596491,
                        0.7368421052631579,
                        0.7368421052631579,
                        0.8245614035087719,
                        0.7894736842105263,
                        0.8070175438596491
                    ],
                    "val_2": [
                        -0.401017433329894,
                        -0.2982935417399424,
                        -0.3157352827226078,
                        -0.2993974570140784,
                        -0.31805516827480573,
                        -0.3305966125982555,
                        -0.3305966125982555,
                        -0.3157894736842105,
                        -0.3444686420745806,
                        -0.3328878291909027
                    ]
                },
                {
                    "train": [
                        0.6403508771929824,
                        0.6754385964912281,
                        0.6491228070175439,
                        0.6578947368421053,
                        0.543859649122807,
                        0.6052631578947368,
                        0.6052631578947368,
                        0.6754385964912281,
                        0.7017543859649122,
                        0.6754385964912281
                    ],
                    "train_2": [
                        -0.5920990485703427,
                        -0.6219906736526584,
                        -0.6621132935985554,
                        -0.6199617116018887,
                        -0.8418034228131703,
                        -0.6285991118495207,
                        -0.6285991118495207,
                        -0.6491228070175439,
                        -0.5439253615520353,
                        -0.5617474161199272
                    ],
                    "test": [
                        0.5813953488372093,
                        0.627906976744186,
                        0.627906976744186,
                        0.6046511627906976,
                        0.6046511627906976,
                        0.5813953488372093,
                        0.5813953488372093,
                        0.6511627906976745,
                        0.6511627906976745,
                        0.6046511627906976
                    ],
                    "test_2": [
                        -0.5579370388928437,
                        -0.6003238390255228,
                        -0.5810266473159224,
                        -0.6302459103159849,
                        -0.5647989687265349,
                        -0.5714283506993216,
                        -0.5714283506993216,
                        -0.6120930232558139,
                        -0.5652639126729887,
                        -0.5726777937728739
                    ],
                    "val": [
                        0.631578947368421,
                        0.7192982456140351,
                        0.7543859649122807,
                        0.7017543859649122,
                        0.7192982456140351,
                        0.7017543859649122,
                        0.7017543859649122,
                        0.7719298245614035,
                        0.7192982456140351,
                        0.7192982456140351
                    ],
                    "val_2": [
                        -0.4550358876777137,
                        -0.3859641305216694,
                        -0.3924026616570824,
                        -0.39249265086841434,
                        -0.3736705492019322,
                        -0.3844222146882821,
                        -0.3844222146882821,
                        -0.40280701754385967,
                        -0.4338618838244166,
                        -0.4241362846189871
                    ]
                },
                {
                    "train": [
                        0.5877192982456141,
                        0.6140350877192983,
                        0.631578947368421,
                        0.6228070175438597,
                        0.631578947368421,
                        0.6140350877192983,
                        0.6140350877192983,
                        0.5701754385964912,
                        0.6578947368421053,
                        0.6578947368421053
                    ],
                    "train_2": [
                        -0.6839454173453926,
                        -0.7035626378194701,
                        -0.689561587673719,
                        -0.633470733940269,
                        -0.6351553837491439,
                        -0.6443877664092087,
                        -0.6443877664092087,
                        -0.8596491228070176,
                        -0.5986948382257584,
                        -0.6034676560731598
                    ],
                    "test": [
                        0.627906976744186,
                        0.6511627906976745,
                        0.6744186046511628,
                        0.5348837209302325,
                        0.5813953488372093,
                        0.6511627906976745,
                        0.6511627906976745,
                        0.5581395348837209,
                        0.6511627906976745,
                        0.6046511627906976
                    ],
                    "test_2": [
                        -0.5375574777316644,
                        -0.5193728254882846,
                        -0.5314349329760197,
                        -0.6227714249759991,
                        -0.6059242278418258,
                        -0.5588369394904767,
                        -0.5588369394904767,
                        -0.7311627906976745,
                        -0.5338719265151823,
                        -0.5375520973412502
                    ],
                    "val": [
                        0.631578947368421,
                        0.7719298245614035,
                        0.7543859649122807,
                        0.6842105263157895,
                        0.7719298245614035,
                        0.7017543859649122,
                        0.7017543859649122,
                        0.7543859649122807,
                        0.7017543859649122,
                        0.7017543859649122
                    ],
                    "val_2": [
                        -0.44894626841188967,
                        -0.37428209884834773,
                        -0.4133097142798714,
                        -0.43203843808869724,
                        -0.3828721220786185,
                        -0.41946152800775494,
                        -0.41946152800775494,
                        -0.39438596491228073,
                        -0.38340844758245224,
                        -0.40410282193699276
                    ]
                }
            ],
            [
                "best_idx9-L2: train-0.67544, train_2--0.58370, test-0.76744, test_2--0.36763, val-0.82456, val_2--0.25788",
                "weighted-L2: train-0.72807, train_2--0.45108, test-0.76744, test_2--0.40186, val-0.82456, val_2--0.30913",
                "best_idx7-L3: train-0.66667, train_2--0.66667, test-0.65116, test_2--0.61395, val-0.82456, val_2--0.31579",
                "linear-L1: train-0.73684, train_2--0.44726, test-0.76744, test_2--0.37449, val-0.80702, val_2--0.25891",
                "weighted-L3: train-0.71053, train_2--0.50209, test-0.74419, test_2--0.42570, val-0.80702, val_2--0.29145",
                "weighted-L1: train-0.75439, train_2--0.39946, test-0.74419, test_2--0.40315, val-0.78947, val_2--0.27830",
                "linear-L3: train-0.67544, train_2--0.48449, test-0.76744, test_2--0.40466, val-0.78947, val_2--0.31987",
                "linear-L2: train-0.73684, train_2--0.43531, test-0.76744, test_2--0.37196, val-0.77193, val_2--0.32990",
                "best_idx1-L5: train-0.61404, train_2--0.70356, test-0.65116, test_2--0.51937, val-0.77193, val_2--0.37428",
                "best_idx7-L4: train-0.67544, train_2--0.64912, test-0.65116, test_2--0.61209, val-0.77193, val_2--0.40281",
                "weighted-L4: train-0.68421, train_2--0.52292, test-0.65116, test_2--0.52481, val-0.73684, val_2--0.38065",
                "weighted-L5: train-0.64912, train_2--0.58695, test-0.65116, test_2--0.51464, val-0.71930, val_2--0.39105",
                "linear-L4: train-0.66667, train_2--0.51471, test-0.65116, test_2--0.50392, val-0.71930, val_2--0.39125",
                "linear-L5: train-0.64912, train_2--0.54203, test-0.69767, test_2--0.49192, val-0.66667, val_2--0.43401"
            ]
        ],
        "stacking10_0.4_L1_weighted_retainTrue": [
            [
                {
                    "train": [
                        0.6578947368421053,
                        0.7894736842105263,
                        0.7543859649122807,
                        0.7631578947368421,
                        0.7280701754385965,
                        0.7017543859649122,
                        0.7017543859649122,
                        0.6140350877192983,
                        0.6754385964912281,
                        0.6754385964912281
                    ],
                    "train_2": [
                        -0.5144218917088282,
                        -0.4045111414058163,
                        -0.4260817285800935,
                        -0.4354876934890805,
                        -0.47363608955146136,
                        -0.4852572783594547,
                        -0.4852572783594547,
                        -0.7719298245614035,
                        -0.5245573997155667,
                        -0.5511997888363666
                    ],
                    "test": [
                        0.6976744186046512,
                        0.7209302325581395,
                        0.6976744186046512,
                        0.7441860465116279,
                        0.7441860465116279,
                        0.7674418604651163,
                        0.7674418604651163,
                        0.5581395348837209,
                        0.8372093023255814,
                        0.8372093023255814
                    ],
                    "test_2": [
                        -0.40711626716507354,
                        -0.4172668857153026,
                        -0.4415612845360117,
                        -0.42395096895676404,
                        -0.3983231573945415,
                        -0.3689388836199886,
                        -0.3689388836199886,
                        -0.7404651162790699,
                        -0.3237330939771577,
                        -0.3216529164243589
                    ],
                    "val": [
                        0.7192982456140351,
                        0.7894736842105263,
                        0.7894736842105263,
                        0.8245614035087719,
                        0.8421052631578947,
                        0.7543859649122807,
                        0.7543859649122807,
                        0.6842105263157895,
                        0.7894736842105263,
                        0.7894736842105263
                    ],
                    "val_2": [
                        -0.38244031094858655,
                        -0.28278621317122193,
                        -0.2719897116106565,
                        -0.27599438212935695,
                        -0.24152936879801049,
                        -0.32257764242467996,
                        -0.32257764242467996,
                        -0.5656140350877193,
                        -0.28781045909458464,
                        -0.2950957039216156
                    ]
                },
                {
                    "train": [
                        0.6578947368421053,
                        0.7192982456140351,
                        0.7280701754385965,
                        0.7631578947368421,
                        0.7280701754385965,
                        0.7017543859649122,
                        0.7017543859649122,
                        0.7368421052631579,
                        0.6754385964912281,
                        0.6754385964912281
                    ],
                    "train_2": [
                        -0.5144218917088282,
                        -0.5168203668050776,
                        -0.5241150290772075,
                        -0.4354876934890805,
                        -0.47363608955146136,
                        -0.4852572783594547,
                        -0.4852572783594547,
                        -0.5263157894736842,
                        -0.5245573997155667,
                        -0.5836969989956335
                    ],
                    "test": [
                        0.6976744186046512,
                        0.7906976744186046,
                        0.7906976744186046,
                        0.7441860465116279,
                        0.7441860465116279,
                        0.7674418604651163,
                        0.7674418604651163,
                        0.6744186046511628,
                        0.8372093023255814,
                        0.7674418604651163
                    ],
                    "test_2": [
                        -0.40711626716507354,
                        -0.3580959036703645,
                        -0.3960703865829717,
                        -0.42395096895676404,
                        -0.3983231573945415,
                        -0.3689388836199886,
                        -0.3689388836199886,
                        -0.6102325581395349,
                        -0.3237330939771577,
                        -0.3676261630168993
                    ],
                    "val": [
                        0.7192982456140351,
                        0.8070175438596491,
                        0.8070175438596491,
                        0.8245614035087719,
                        0.8421052631578947,
                        0.7543859649122807,
                        0.7543859649122807,
                        0.7719298245614035,
                        0.7894736842105263,
                        0.8245614035087719
                    ],
                    "val_2": [
                        -0.38244031094858655,
                        -0.2842083578013139,
                        -0.2904709718370763,
                        -0.27599438212935695,
                        -0.24152936879801049,
                        -0.32257764242467996,
                        -0.32257764242467996,
                        -0.3985964912280702,
                        -0.28781045909458464,
                        -0.2578768394689496
                    ]
                },
                {
                    "train": [
                        0.6578947368421053,
                        0.7105263157894737,
                        0.7017543859649122,
                        0.7192982456140351,
                        0.7280701754385965,
                        0.6842105263157895,
                        0.6842105263157895,
                        0.7368421052631579,
                        0.7017543859649122,
                        0.6754385964912281
                    ],
                    "train_2": [
                        -0.5144218917088282,
                        -0.5598947688858786,
                        -0.5430470055151039,
                        -0.500168412113684,
                        -0.47363608955146136,
                        -0.532475746379561,
                        -0.532475746379561,
                        -0.5263157894736842,
                        -0.513597616900413,
                        -0.5836969989956335
                    ],
                    "test": [
                        0.6976744186046512,
                        0.7441860465116279,
                        0.7441860465116279,
                        0.7674418604651163,
                        0.7441860465116279,
                        0.7441860465116279,
                        0.7441860465116279,
                        0.6744186046511628,
                        0.7441860465116279,
                        0.7674418604651163
                    ],
                    "test_2": [
                        -0.40711626716507354,
                        -0.4113405206878937,
                        -0.41411499299792864,
                        -0.39936013563125033,
                        -0.3983231573945415,
                        -0.4288756767801521,
                        -0.4288756767801521,
                        -0.6102325581395349,
                        -0.4256826764477527,
                        -0.3676261630168993
                    ],
                    "val": [
                        0.7192982456140351,
                        0.8245614035087719,
                        0.8421052631578947,
                        0.8596491228070176,
                        0.8421052631578947,
                        0.7719298245614035,
                        0.7719298245614035,
                        0.7719298245614035,
                        0.8070175438596491,
                        0.8245614035087719
                    ],
                    "val_2": [
                        -0.38244031094858655,
                        -0.2597420236521104,
                        -0.2287760466829707,
                        -0.22234766353221852,
                        -0.24152936879801049,
                        -0.3355519977441881,
                        -0.3355519977441881,
                        -0.3985964912280702,
                        -0.27819435903363543,
                        -0.2578768394689496
                    ]
                },
                {
                    "train": [
                        0.6578947368421053,
                        0.7105263157894737,
                        0.7017543859649122,
                        0.7192982456140351,
                        0.7280701754385965,
                        0.6842105263157895,
                        0.6842105263157895,
                        0.7368421052631579,
                        0.7017543859649122,
                        0.6754385964912281
                    ],
                    "train_2": [
                        -0.5144218917088282,
                        -0.5598947688858786,
                        -0.5430470055151039,
                        -0.500168412113684,
                        -0.47363608955146136,
                        -0.532475746379561,
                        -0.532475746379561,
                        -0.5263157894736842,
                        -0.513597616900413,
                        -0.5836969989956335
                    ],
                    "test": [
                        0.6976744186046512,
                        0.7441860465116279,
                        0.7441860465116279,
                        0.7674418604651163,
                        0.7441860465116279,
                        0.7441860465116279,
                        0.7441860465116279,
                        0.6744186046511628,
                        0.7441860465116279,
                        0.7674418604651163
                    ],
                    "test_2": [
                        -0.40711626716507354,
                        -0.4113405206878937,
                        -0.41411499299792864,
                        -0.39936013563125033,
                        -0.3983231573945415,
                        -0.4288756767801521,
                        -0.4288756767801521,
                        -0.6102325581395349,
                        -0.4256826764477527,
                        -0.3676261630168993
                    ],
                    "val": [
                        0.7192982456140351,
                        0.8245614035087719,
                        0.8421052631578947,
                        0.8596491228070176,
                        0.8421052631578947,
                        0.7719298245614035,
                        0.7719298245614035,
                        0.7719298245614035,
                        0.8070175438596491,
                        0.8245614035087719
                    ],
                    "val_2": [
                        -0.38244031094858655,
                        -0.2597420236521104,
                        -0.2287760466829707,
                        -0.22234766353221852,
                        -0.24152936879801049,
                        -0.3355519977441881,
                        -0.3355519977441881,
                        -0.3985964912280702,
                        -0.27819435903363543,
                        -0.2578768394689496
                    ]
                }
            ],
            [
                "best_idx3-L3: train-0.71930, train_2--0.50017, test-0.76744, test_2--0.39936, val-0.85965, val_2--0.22235",
                "best_idx9-L2: train-0.67544, train_2--0.58370, test-0.76744, test_2--0.36763, val-0.82456, val_2--0.25788",
                "weighted-L2: train-0.74561, train_2--0.40992, test-0.74419, test_2--0.41045, val-0.82456, val_2--0.25816",
                "weighted-L3: train-0.74561, train_2--0.40839, test-0.76744, test_2--0.38559, val-0.82456, val_2--0.26951",
                "linear-L1: train-0.73684, train_2--0.44726, test-0.76744, test_2--0.37449, val-0.80702, val_2--0.25891",
                "best_idx1-L4: train-0.70175, train_2--0.57103, test-0.76744, test_2--0.47042, val-0.80702, val_2--0.30384",
                "linear-L3: train-0.72807, train_2--0.44707, test-0.76744, test_2--0.35400, val-0.80702, val_2--0.30595",
                "weighted-L1: train-0.75439, train_2--0.39946, test-0.74419, test_2--0.40315, val-0.78947, val_2--0.27830",
                "linear-L2: train-0.70175, train_2--0.46764, test-0.79070, test_2--0.38140, val-0.75439, val_2--0.30671"
            ]
        ]
    },
    "dropoutreg_exp": {
        "stacking30_0.3_L1_lineardropout0": [
            [
                [
                    0.04000590572734499,
                    0.08087040939539583,
                    0.07281418160941289,
                    -0.06663415391293008,
                    -0.10887687278343017,
                    -0.018272829974577288,
                    0.32515024984148966,
                    -0.13511545546931164,
                    -0.011180594360067889,
                    -0.04597202576552926,
                    -0.04044673697247877,
                    -0.09252879721288693,
                    0.30183188903010766,
                    -0.03668130010905947,
                    -0.128821826272707,
                    -0.03106775912164927,
                    -0.05844394446245363,
                    -0.04691041900302181,
                    0.20146647164335268,
                    0.069443325547556,
                    -0.062434585186804205,
                    -0.045460906518408416,
                    -0.07099295363206731,
                    -0.09211471179241335,
                    0.24377189009146497,
                    -0.44630040583119046,
                    0.1565465572470357,
                    -0.04827939698448766,
                    0.12026449415112858,
                    -0.02609649861273481,
                    0.3051348152516596,
                    -0.18255392608185173,
                    0.008870973444490967,
                    -0.04977346639576218,
                    -0.021922221833010326,
                    -0.059849534324310144,
                    0.40127334240420665,
                    0.3071191501901377,
                    -0.10505303803726618,
                    -0.03759818204612383,
                    -0.09280675587397895,
                    -0.4730278765757593,
                    -0.06085002301928911,
                    0.32394280553265486,
                    0.08323639824597004,
                    -0.08277823425579438,
                    -0.20173373967667338,
                    -0.0619105667656525,
                    -0.10216357658265103,
                    0.07903329723267577,
                    -0.0452201454701709,
                    -0.04323021278277786,
                    0.17737258453042187,
                    -0.06588530686628169,
                    0.05916657986955852,
                    -0.34379278982706235,
                    0.4847839634557568,
                    -0.07145932511899317,
                    -0.05806735875335749,
                    -0.07072442956468593,
                    0.09340222723966068,
                    -0.11079105691595334,
                    0.1837321378711027,
                    -0.02663110359274898,
                    -0.05456667512066492,
                    -0.08523888942017974,
                    0.15627906342605882,
                    -0.22307915189604954,
                    0.27825869348042187,
                    -0.057686285037419856,
                    -0.10211102461397194,
                    -0.05175465529782122,
                    0.15627906342605882,
                    -0.22307915189604954,
                    0.27825869348042187,
                    -0.057686285037419856,
                    -0.10211102461397194,
                    -0.05175465529782122,
                    -0.2777627601267502,
                    0.4228846008526433,
                    0.05308364740664839,
                    -0.06651949591718957,
                    -0.0809652908217836,
                    -0.05081406133235171,
                    -0.1272217167219376,
                    0.12313936218843226,
                    0.13736663645339584,
                    -0.029771336913864226,
                    -0.080104634434423,
                    -0.023501670510387776,
                    0.016205932965507628,
                    -0.2987544110536698,
                    0.4342394235352244,
                    -0.029317046448350887,
                    -0.07191319519334774,
                    -0.05055406374414819,
                    0.3941991795246139,
                    -0.03379181980096667,
                    -0.22456019252321505,
                    -0.06886350520393485,
                    0.03253181156872815,
                    -0.09960883350400929,
                    0.7154609186035514,
                    -0.24172014107137135,
                    -0.5205105574572593,
                    -0.0414964402106235,
                    -0.1428609117500962,
                    0.2310337719470131,
                    -0.39828245837830667,
                    0.01831203249047969,
                    0.7903464807044172,
                    -0.11333810111400672,
                    -0.15354113086796134,
                    -0.1435901827734062,
                    0.6405445707306063,
                    -0.19338245955245564,
                    -0.349075105548082,
                    -0.03955174646507395,
                    -0.028809204489006635,
                    -0.029819414614772895,
                    -0.21031616132845316,
                    0.021852099060201885,
                    0.37027962619803895,
                    -0.030987435974800585,
                    0.02185159245086304,
                    -0.17277308034463426,
                    -0.02806140139599109,
                    0.35835262132717,
                    0.19508309313951452,
                    -0.09038606927410857,
                    0.12275864607153625,
                    -0.5578402498069036,
                    0.37548763511121475,
                    -0.08309497080892686,
                    -0.17793483918838823,
                    -0.0512417331636998,
                    -0.047612355024761,
                    -0.015697096864222587,
                    0.05511680494643868,
                    0.1368427201482523,
                    -0.0002064148597482993,
                    -0.06081119103418622,
                    -0.07124541497129483,
                    -0.05978986416824575,
                    0.13002694112886343,
                    0.024640993104780577,
                    0.024235416063522214,
                    -0.07672742929552032,
                    -0.03910991567431782,
                    -0.06315936526611136,
                    0.045086034195058404,
                    0.16233674083209146,
                    -0.03322887564977949,
                    -0.0664866091504918,
                    -0.04821054653542957,
                    -0.059590103630232275,
                    0.0467361038976452,
                    0.09671038454009637,
                    0.06180681876942527,
                    -0.06456738745967898,
                    -0.08598076574434563,
                    -0.054798513941926,
                    0.03746511626926034,
                    0.18706116239342477,
                    0.05257009104490395,
                    -0.06604815014460208,
                    -0.16439417882689109,
                    -0.04674740067488052,
                    0.18381701202675857,
                    0.16863652583837116,
                    -0.16306957915952927,
                    -0.10505917130364062,
                    -0.034661239285886165,
                    -0.0497569080548576,
                    -0.058087061609984655,
                    -0.08109413348103409,
                    0.29313465006037015,
                    -0.07825378990594568,
                    0.009004702661635486,
                    -0.08479772766382492
                ],
                [
                    0.21472676846297203,
                    -0.16207762129983108,
                    -0.18580350975918344,
                    0.27244937101516914,
                    -0.15538586072329413,
                    0.016362917849835457,
                    -0.08975673407345884,
                    0.599585510628266,
                    -0.33503770360736657,
                    0.09744359461463108,
                    -0.06970603689891224,
                    -0.20225656511749285,
                    -0.00887643309156539,
                    -0.019183806778294805,
                    -0.07992495363623055,
                    0.031027375643305214,
                    -0.03555255343768822,
                    0.1127824368461412,
                    0.005675928337517331,
                    0.165916964212336,
                    -0.11383935375165156,
                    -0.025862609059671596,
                    0.12660964842950231,
                    -0.15822851262236523,
                    -0.27312529942134595,
                    0.3072376657220952,
                    -0.08810765126869836,
                    0.09292573872440736,
                    -0.04452761455847875,
                    0.005869226347687644,
                    -0.1344607706444882,
                    0.4307292249536432,
                    -0.3320189506970237,
                    0.0923127515696366,
                    -0.08189195772301294,
                    0.02560176808691152,
                    -0.06444532729936922,
                    0.020050372548652155,
                    0.28836622416078406,
                    -0.22594430912010705,
                    -0.18981108035114547,
                    0.17205618560685373,
                    0.24300969676405312,
                    -0.20059632843975939,
                    -0.02704684947882352,
                    0.08728593871927123,
                    -0.08656201231602177,
                    -0.0158183797030527,
                    0.10785665533858511,
                    -0.17490205623916671,
                    -0.15173272243356065,
                    0.11011178220416726,
                    0.03862994449229452,
                    0.07030846218334628,
                    -0.11172253451561277,
                    0.24980452711660234,
                    -0.2505218686900361,
                    0.2350546683384736,
                    -0.019601747237285767,
                    -0.10274097946647412,
                    0.2621719845744107,
                    -0.0027072012148405206,
                    -0.1689482067066491,
                    0.07420837782543888,
                    -0.04046659998592509,
                    -0.12398628894676655,
                    -0.020855197855012265,
                    0.17637829402361319,
                    -0.09463528692606142,
                    0.1381846553100265,
                    -0.21588518763446132,
                    0.01708478862756206,
                    -0.020855197855012265,
                    0.17637829402361319,
                    -0.09463528692606142,
                    0.1381846553100265,
                    -0.21588518763446132,
                    0.01708478862756206,
                    0.35536736962810367,
                    -0.32082543945661035,
                    -0.05780283407458551,
                    0.16912173852755724,
                    -0.14285723898347372,
                    -0.002731530095323727,
                    0.1684343709389782,
                    -0.7111650336369567,
                    0.2253360992388859,
                    0.23863838801901094,
                    0.11177063588674334,
                    -0.0327423949009948,
                    -0.30293384250396,
                    0.6015995110830052,
                    -0.2860642947588327,
                    0.034356153172725744,
                    -0.1259245378349065,
                    0.07923907638763612,
                    0.11897723195186527,
                    0.4125226748710856,
                    -0.1608277016550789,
                    -0.2463736117807927,
                    -0.31903208644084396,
                    0.19500555859943242,
                    -0.24506050522897802,
                    -0.005775112904774139,
                    0.7221586476080196,
                    -0.2141520564790544,
                    -0.13485610102619014,
                    -0.12204280642335517,
                    0.5264870521621103,
                    0.15967348745838628,
                    -0.6340342327637329,
                    -0.25064290371344383,
                    0.0062880703691274055,
                    0.19250059203321826,
                    -0.12721279772486646,
                    0.05283261143181759,
                    0.30682573416422854,
                    -0.43478986599423,
                    -0.08629810862408101,
                    0.288914492292798,
                    0.17143694191048225,
                    0.15177701766694998,
                    0.21832969930970278,
                    -0.3879828775865635,
                    -0.17788791504552648,
                    0.02459919929062226,
                    -0.05914613473535496,
                    0.37979822741936037,
                    0.1833883393075145,
                    -0.0834557383680997,
                    -0.2618057547149111,
                    -0.15850687336284106,
                    -0.25810047421688603,
                    0.12163089261509122,
                    -0.032833304483363475,
                    0.025879709409979492,
                    -0.11487297409830238,
                    0.2585682163191476,
                    0.008407531153698144,
                    -0.17386031040674743,
                    0.1433698074790184,
                    -0.01214895662852047,
                    -0.024094611764713322,
                    0.05859860571293174,
                    -0.26276201935917237,
                    0.06616113173942531,
                    0.4093074528204979,
                    -0.18874598331530923,
                    -0.07192647378912304,
                    0.04823795744934852,
                    -0.09531864954273998,
                    -0.10694122145787063,
                    0.31863967509411223,
                    -0.10891736565239163,
                    -0.04670971971082976,
                    0.039519346815386644,
                    0.00427309186582736,
                    -0.1553279947741136,
                    0.0770482421338765,
                    0.027263618528419045,
                    -0.012521809750785092,
                    0.05953691754244376,
                    -0.005845605017363196,
                    -0.01650775470710899,
                    -0.1275607632283422,
                    0.0017190732998484705,
                    0.060467102689255134,
                    0.08800001250937804,
                    0.019880268710291492,
                    0.1659185784497493,
                    -0.20071927106423076,
                    -0.05855214283554431,
                    -0.019456702931359898,
                    0.09320133521676141,
                    -0.03955971443312472,
                    0.2637337765477735,
                    -0.33097860191229633,
                    0.013859880862022831,
                    0.026022667416672078,
                    0.06719405706462002
                ],
                [
                    0.10383555135857654,
                    -0.11545384162421989,
                    0.2649612583644746,
                    -0.08548456639389225,
                    -0.08108057875674927,
                    -0.0868465865706071,
                    -0.10747400015642977,
                    -0.141282012223896,
                    0.4310520883262761,
                    -0.03955589026496405,
                    -0.04298406334396439,
                    -0.09982488595943849,
                    -0.18402138054391512,
                    0.03478592984254329,
                    0.3057572064119485,
                    -0.03374729077134721,
                    -0.06086192525933153,
                    -0.061981303302315396,
                    -0.055098697419260344,
                    -0.01921197040360108,
                    0.25587890718014256,
                    -0.042778492210392725,
                    -0.06899275839441124,
                    -0.06986575237489406,
                    0.1334794750785096,
                    0.036037565251941656,
                    0.026620695191308687,
                    -0.04078037501833006,
                    -0.1134207900949817,
                    -0.04200533403086551,
                    0.009871803876995797,
                    -0.2799948853308074,
                    0.41006657162201987,
                    -0.04259433917502744,
                    -0.05341966178455414,
                    -0.043998252831043104,
                    -0.2811817428998523,
                    0.019492302383437465,
                    -0.06385140083561124,
                    -0.04381949176384495,
                    -0.09735068335653602,
                    0.46664225284999034,
                    0.011968093351029998,
                    -0.2519239032089752,
                    0.12248571430046507,
                    -0.09988838509918109,
                    0.26080621935722864,
                    -0.043516502322985394,
                    0.038594162007880246,
                    -0.08012997789016743,
                    0.26681593934002346,
                    -0.035305506730768946,
                    -0.1218506257577628,
                    -0.06819275459162123,
                    0.12757887276428057,
                    0.20275937953531717,
                    -0.11625373965894044,
                    -0.08101820653624686,
                    -0.05632177960309727,
                    -0.07681329012373078,
                    0.01264966344554808,
                    0.07210901138374119,
                    0.061684129683796926,
                    -0.028680432159778557,
                    -0.05030463902982946,
                    -0.06752649694589542,
                    0.31696296523461465,
                    -0.01310909930854542,
                    -0.044551964190745544,
                    -0.06309073411647323,
                    -0.14287992406019884,
                    -0.05340000718106887,
                    0.31696296523461465,
                    -0.01310909930854542,
                    -0.044551964190745544,
                    -0.06309073411647323,
                    -0.14287992406019884,
                    -0.05340000718106887,
                    0.1971763132895913,
                    -0.09543646949108926,
                    0.11523486817949356,
                    -0.0759397608413313,
                    -0.10297892310648431,
                    -0.0381247916525967,
                    -0.18532953105225938,
                    0.3360666990681213,
                    -0.4026931541386741,
                    -0.02746830082272122,
                    0.3066575185405917,
                    -0.02730199521747477,
                    0.541346216566136,
                    -0.2437285414605577,
                    -0.07021020222299548,
                    -0.03216692889806352,
                    -0.08333886041925669,
                    -0.11197044718768075,
                    0.020800183931336043,
                    -0.07955389827085965,
                    0.19243129036439005,
                    -0.08243142542987027,
                    0.031719078848138155,
                    -0.08303399306555208,
                    -0.24790036635427803,
                    0.22793328874878002,
                    0.3103945222949901,
                    -0.02775797663408607,
                    -0.11617350239717904,
                    -0.1465647292806447,
                    -0.13704387839766644,
                    -0.5106273252771474,
                    -0.13329491579975586,
                    0.5599129245990271,
                    -0.13057576596211057,
                    0.35156019721523596,
                    -0.1430912632159921,
                    0.38287124353598245,
                    -0.1329595072722257,
                    -0.04101113651640217,
                    -0.018060240993750542,
                    -0.04781785916002845,
                    0.10579815499194847,
                    0.4616381492149654,
                    -0.4001378142903299,
                    -0.021049869781208194,
                    0.017316815283206517,
                    -0.1636341990409985,
                    -0.007388483797773695,
                    -0.01150903929525624,
                    -0.1565197438922362,
                    -0.11400273228840468,
                    -0.13658302964828892,
                    0.42593426529954237,
                    -0.12184516213149876,
                    0.01118730708626166,
                    0.2947903961165676,
                    -0.054328519112257515,
                    -0.06488269237461375,
                    -0.0649900932068768,
                    0.11200232590482058,
                    0.07203258858548951,
                    -0.042824476444116674,
                    -0.06068754985289763,
                    -0.030944772651971736,
                    -0.049646879163741484,
                    0.2465769670062789,
                    0.2208823586067957,
                    -0.32355117037558867,
                    -0.07052661507915217,
                    -0.02646200621609632,
                    -0.04698829756465357,
                    0.204832214992499,
                    0.11903405608567766,
                    -0.1804089222588024,
                    -0.06379959451605458,
                    -0.030908373393398123,
                    -0.04881814453233803,
                    0.10435773661016723,
                    0.0918699074801805,
                    -0.0349482060505793,
                    -0.06851235774766365,
                    -0.041924098646068,
                    -0.05091174526845329,
                    0.10068512524306851,
                    -0.09329839905347069,
                    0.17849001619821547,
                    -0.07527842655771319,
                    -0.054011634216317154,
                    -0.05665544523620115,
                    -0.011407566502409035,
                    -0.13275333832578443,
                    0.6110282284706744,
                    -0.13988464752897564,
                    -0.12418602303784826,
                    -0.2028654166980742,
                    0.31153066938276447,
                    -0.2337276881089679,
                    0.17931624935823087,
                    -0.0020299726387127503,
                    -0.1509661825016807,
                    -0.10419183911405094
                ],
                [
                    -0.07909563904074236,
                    0.2833505540569198,
                    -0.05855631937865648,
                    -0.03852232976765269,
                    -0.03270320314701476,
                    -0.07452765221424353,
                    -0.10945201296876249,
                    0.018623479704244432,
                    -0.015592065803578822,
                    0.0964381628417713,
                    0.09983212126528479,
                    -0.0899042745303495,
                    -0.18000331377265338,
                    0.004830736972790112,
                    -0.017271049739486562,
                    0.1220880149442902,
                    0.1184406301433341,
                    -0.04813960803966441,
                    -0.0935059561374143,
                    -0.11971343924262813,
                    -0.013310707592882796,
                    0.23971118625769552,
                    0.07443373987743683,
                    -0.08766941265359729,
                    -0.09353469495639338,
                    0.18171487625702282,
                    -0.016296379834689973,
                    0.07032837361471234,
                    -0.1230637321760162,
                    -0.01920303239602604,
                    -0.09558911673062698,
                    0.16506110370187682,
                    -0.01970081501281006,
                    0.08793370799251558,
                    -0.07825682681386212,
                    -0.05950264262848342,
                    -0.18701924175330517,
                    -0.14451467217556177,
                    -0.03621990282978173,
                    0.3718114819524419,
                    0.057419296853999165,
                    -0.061531551539182265,
                    -0.1498952457199707,
                    -0.007725295583924678,
                    -0.0509127979428076,
                    0.12007855708941576,
                    0.13641064566638936,
                    -0.048010453000491726,
                    -0.07948708084270652,
                    0.18960741290817315,
                    -0.011756448211889984,
                    0.05629814631871332,
                    -0.11480369827946352,
                    -0.039912921384216475,
                    -0.03907487767452529,
                    0.05294302414698879,
                    -0.018105627909647974,
                    0.04296847773818917,
                    0.037629236531406415,
                    -0.07641482232380135,
                    -0.12308163491021347,
                    0.04673149707111474,
                    -0.019379479401505025,
                    0.04967282750523042,
                    0.1295172888724005,
                    -0.08351508862841732,
                    -0.044408396181296585,
                    0.02363520609401962,
                    -0.048591508600380424,
                    0.07690677608007902,
                    0.022957339336490433,
                    -0.03055400622030244,
                    -0.044408396181296585,
                    0.02363520609401962,
                    -0.048591508600380424,
                    0.07690677608007902,
                    0.022957339336490433,
                    -0.03055400622030244,
                    -0.09504263238247405,
                    0.0757776243381558,
                    -0.017875417924848383,
                    0.05896035021911673,
                    -0.01871751994702813,
                    -0.003156993794312083,
                    0.2167707616827226,
                    0.21404268454534509,
                    -0.06259797900674072,
                    -0.11994263910660245,
                    -0.23118845735349627,
                    -0.01713896025261876,
                    -0.14631795404216918,
                    0.07139278932582334,
                    -0.012085046934855917,
                    0.07645973034438085,
                    0.060090013273568145,
                    -0.04959412145813736,
                    -0.10647667564024821,
                    -0.15722009967351208,
                    -0.0904844154692365,
                    0.505537854237773,
                    0.03504627036833918,
                    -0.18645752331450607,
                    -0.11916307543516862,
                    -0.15229578899095675,
                    -0.05130757257801968,
                    0.3417288145596962,
                    0.04234234200471586,
                    -0.0613593090516573,
                    0.07456782908883804,
                    0.1590106757227842,
                    -0.03899857180937568,
                    -0.10828559729746683,
                    -0.03831142677008626,
                    -0.04803749842608389,
                    -0.13787145744527998,
                    -0.5305140920210832,
                    -0.10817916660100793,
                    0.7874254857915287,
                    -0.09658884732751002,
                    0.08567348811196364,
                    -0.0044522405010021665,
                    -0.2857493544269944,
                    -0.05225658038317537,
                    0.493503439595627,
                    -0.04560749840646296,
                    -0.10549235536938241,
                    0.056092615111463635,
                    -0.4009593572831477,
                    -0.056821414103457694,
                    0.42309391185082157,
                    0.08618754259734622,
                    -0.10764788766441595,
                    -0.1433593743185702,
                    -0.06851933007846692,
                    -0.01962524306622282,
                    0.12111896701956841,
                    0.12632426841133756,
                    -0.015993877459035483,
                    -0.11554017141707747,
                    -0.1186552711357603,
                    -0.028841124046851938,
                    0.23197148683949625,
                    -0.04382255668593193,
                    0.07483304695473586,
                    -0.08548894506958399,
                    -0.16371987915244565,
                    -0.03076834268090471,
                    0.22762743267218183,
                    -0.029962227423174236,
                    0.08225737216253635,
                    -0.10968831741780369,
                    -0.1680585753610837,
                    -0.03041887090682592,
                    0.27023653510289986,
                    -0.05395061270690383,
                    0.09182525179832797,
                    -0.11023421668106602,
                    -0.06753923763734969,
                    -0.028408632220904544,
                    0.1702810680123771,
                    -0.03271598836549506,
                    0.06856241740104789,
                    -0.10335305632247539,
                    -0.03758633642356294,
                    -0.02640551039374217,
                    0.12623768951469086,
                    0.01882847750729718,
                    0.022224146626401944,
                    -0.10567937178171795,
                    -0.03134391165985364,
                    -0.10648783101114873,
                    0.038992886807270886,
                    0.04212893403458155,
                    0.1623347041194776,
                    -0.11653300642078089,
                    0.11660190782689918,
                    -0.06671820239893679,
                    0.10442936147820427,
                    -0.029808812083472098,
                    -0.008025837893304221
                ],
                [
                    -0.23070600306250819,
                    0.12420191206063716,
                    -0.03853498296144699,
                    -0.034907913289729434,
                    0.1913972923835497,
                    -0.011471332041100213,
                    0.026294631118357736,
                    0.0028705421054257543,
                    -0.03899987229315026,
                    -0.03825384599351418,
                    0.11099918730735345,
                    -0.06293166915507022,
                    0.03290999057921775,
                    -0.007582500138465489,
                    -0.04925653493766185,
                    -0.03038179261944323,
                    0.09340321811463076,
                    -0.039113407908875464,
                    0.040994627895897515,
                    0.0256630067171996,
                    -0.031661070703891146,
                    -0.03042974885482093,
                    0.044163362827355536,
                    -0.04875120479233799,
                    0.12367682875029808,
                    -0.08719226979563618,
                    -0.0353163039253882,
                    -0.017054244332037297,
                    0.03382768940317072,
                    -0.017962727011005163,
                    0.02397997252468749,
                    -0.04948464603949363,
                    -0.04116679779882581,
                    -0.038787119489858496,
                    0.145567760128066,
                    -0.040130196235173644,
                    0.060602737305937064,
                    -0.348386698380889,
                    -0.053343842740502245,
                    -0.018654930236829445,
                    0.41258561750716893,
                    -0.05282391036548273,
                    0.09250729856335684,
                    0.0877961812535002,
                    -0.06778725690411942,
                    -0.008571153151956605,
                    -0.08186849376560631,
                    -0.022097602905772503,
                    0.14460894304623875,
                    -0.06972464356468407,
                    -0.02934124250414098,
                    -0.03429408386839585,
                    0.027865030019497642,
                    -0.03913503003911294,
                    0.03157805263406969,
                    -0.04180240466648673,
                    -0.06551791654125583,
                    -0.04412772276548358,
                    0.16885676868179236,
                    -0.04900780425323402,
                    -0.14025101046402264,
                    0.1580902397445989,
                    -0.025915943186832845,
                    -0.021985226105362778,
                    0.0762833271572212,
                    -0.04624241405619951,
                    -0.329213648050577,
                    0.14677766340889964,
                    -0.04715689666605439,
                    -0.03894915732558013,
                    0.24998395335874096,
                    0.0185370583639733,
                    -0.329213648050577,
                    0.14677766340889964,
                    -0.04715689666605439,
                    -0.03894915732558013,
                    0.24998395335874096,
                    0.0185370583639733,
                    -0.11756241003138564,
                    0.0285362717121361,
                    -0.03995454239810225,
                    -0.01785859237231373,
                    0.17117416302007857,
                    -0.024355916841011044,
                    0.02310306119882918,
                    -0.06523493300303834,
                    -0.11885651828654027,
                    -0.02482116986376889,
                    0.16904272383337463,
                    0.016745809210546088,
                    0.044563900316121896,
                    -0.2203688486119587,
                    -0.04169624299662446,
                    -0.006401641641650044,
                    0.28784747446910325,
                    -0.06396566844558911,
                    -0.3115248639145501,
                    -0.32210011013078893,
                    0.3533708333759228,
                    -0.03934009043467487,
                    0.2494134359440529,
                    0.07015976824944159,
                    -0.2570515634193549,
                    0.07348793737285224,
                    -0.1841294465075147,
                    -0.023559851522240317,
                    0.45411988909763723,
                    -0.0628879919319764,
                    0.072406380188488,
                    -0.3352020328405628,
                    -0.05064636275979756,
                    -0.03626782374394695,
                    0.43905558326231214,
                    -0.08936677101709085,
                    -0.37355763052208685,
                    0.09848119913219812,
                    0.33439531403049716,
                    -0.2940449009555092,
                    0.2628922975561253,
                    -0.028187306151821946,
                    0.10340311885651426,
                    -0.24873281245694512,
                    -0.09202472761762596,
                    -0.0202107705251319,
                    0.23434913010872874,
                    0.023195034723862383,
                    0.21466648190509596,
                    -0.26796311355353175,
                    -0.09738482117835384,
                    -0.0381805545564451,
                    0.27556254853029644,
                    -0.08672156805765939,
                    0.03339419869054385,
                    -0.08180757960759731,
                    -0.03259677182053718,
                    -0.0529330187405834,
                    0.16700943611054653,
                    -0.03308729154296972,
                    0.03682046039731216,
                    -0.03165305524529919,
                    -0.037795814551491995,
                    -0.1666982934101706,
                    0.2260401682377304,
                    -0.026734492338678886,
                    0.08050730868808102,
                    -0.06921218325460232,
                    -0.04686145877146809,
                    -0.1457878156026768,
                    0.20728785476376504,
                    -0.025954732733696625,
                    0.04824658584321153,
                    -0.054056907377752816,
                    -0.03977063168822907,
                    -0.1585514283342125,
                    0.23127100425029923,
                    -0.027159649603914288,
                    0.042526638478087166,
                    -0.1024705747392858,
                    -0.04281357439523211,
                    -0.10441453886054168,
                    0.2330943199027256,
                    -0.025943297296350698,
                    0.04585639770487263,
                    -0.14232291267312436,
                    -0.04644774305655741,
                    -0.015117385154757754,
                    0.1801061843777007,
                    -0.02209556810873156,
                    0.027665175846916138,
                    -0.01490859774799024,
                    -0.02312676600965125,
                    0.012503648355534441,
                    -0.003868377536348285,
                    0.00171389018094152,
                    0.019357896320976863,
                    -0.02804627028784655,
                    -0.004930525993671113,
                    -0.047600902079160484,
                    0.014259820362990628,
                    0.04693895476611272
                ],
                [
                    -0.048766583445641866,
                    -0.21089141258890215,
                    -0.05488062787460102,
                    -0.04690040765096406,
                    0.18664922302693873,
                    0.17475548295069251,
                    -0.04476213376119778,
                    -0.34468206474472823,
                    -0.03024185226211178,
                    -0.07009999543239505,
                    -0.057694471357282874,
                    0.5474461919752374,
                    0.03815924779880936,
                    0.02383094021048685,
                    -0.0304828418258629,
                    -0.057918548075156014,
                    -0.05698542509849137,
                    0.083362301407736,
                    -0.09953237432009263,
                    -0.1220978868308624,
                    -0.03463318994491256,
                    -0.0951794296144019,
                    -0.10522103910781677,
                    0.4566295942356079,
                    -0.13426819954253377,
                    0.008502568395767499,
                    -0.043446917409568034,
                    -0.057140096004265076,
                    0.12691995327517747,
                    0.09939836570294396,
                    -0.10893670427822866,
                    -0.08375687120336653,
                    -0.026050981557850874,
                    -0.049091534501504025,
                    0.08992290802637361,
                    0.17787885793209843,
                    0.07077023224238335,
                    0.146239545434225,
                    -0.0298980397176229,
                    -0.04579456878553649,
                    -0.09003639477950705,
                    -0.05131509997641994,
                    -0.13673981993918022,
                    0.04850654044650429,
                    -0.05997520822068475,
                    -0.01612672330175491,
                    -0.0270526192653171,
                    0.19135350469795492,
                    -0.10940910296734677,
                    0.05611596755316945,
                    -0.028765380720260927,
                    -0.053580125140938115,
                    -0.007213235004987953,
                    0.142817550697886,
                    -0.06752609307777052,
                    -0.11991173630536003,
                    -0.03438481065587585,
                    -0.08141789165593911,
                    -0.07249511961945851,
                    0.37570132573192677,
                    -0.10489122988538314,
                    -0.1634324900686601,
                    -0.03117263825991214,
                    -0.04658444347277905,
                    -0.06046270189320209,
                    0.4065091779974583,
                    -0.07876478657378524,
                    -0.11060291232193774,
                    -0.04332303709718014,
                    -0.055365254910632225,
                    0.187934843613401,
                    0.10008682170765676,
                    -0.07876478657378524,
                    -0.11060291232193774,
                    -0.04332303709718014,
                    -0.055365254910632225,
                    0.187934843613401,
                    0.10008682170765676,
                    -0.06217588037708446,
                    -0.11093658795523487,
                    -0.05268572118860566,
                    -0.06776423961583924,
                    0.17434480983869136,
                    0.11918329371559483,
                    -0.09575694604633325,
                    0.10315122083809584,
                    0.22144491573967384,
                    -0.03663494131205421,
                    -0.27617778647278995,
                    0.08393921167093027,
                    -0.1528642533016357,
                    0.0898595007173583,
                    -0.024183636621915867,
                    -0.04293026652904242,
                    -0.06676089429516066,
                    0.19684522444791866,
                    -0.11597505585301528,
                    0.18014325300504144,
                    -0.0699298140927826,
                    -0.06852922138850032,
                    -0.02967851028841412,
                    0.1039350230351932,
                    0.15371459183422714,
                    0.09836981684546936,
                    -0.27660559336021673,
                    -0.0347624897136918,
                    -0.10257171592888684,
                    0.16182106474062027,
                    -0.1381349246634657,
                    0.5088331624460628,
                    0.06662760242824552,
                    -0.05137849873016499,
                    -0.12291533003128116,
                    -0.2630663370318744,
                    0.14118857817761987,
                    0.18971149747354124,
                    -0.051007268773410656,
                    0.02197216413968743,
                    -0.033135896121777274,
                    -0.26876340047813885,
                    -0.16586981392948938,
                    -0.10078509905817738,
                    -0.04419020321661025,
                    -0.033272485727923067,
                    -0.050022124390808456,
                    0.39410540074052935,
                    -0.17616307708743892,
                    -0.05771933861459465,
                    -0.06774545327298213,
                    -0.09706881736376294,
                    -0.08611995283597787,
                    0.48478231359227875,
                    0.11442317686519717,
                    0.10060368079363818,
                    -0.03180023755805643,
                    0.011504594586992701,
                    -0.06596568302420625,
                    -0.12879985724604337,
                    -0.09680695098519224,
                    0.11529332805406518,
                    -0.03370197757680891,
                    0.06837450408627863,
                    -0.05593281216381899,
                    0.0027395830029984494,
                    -0.10886025239446577,
                    -0.0787524210439542,
                    -0.032361897056057666,
                    0.2541604106204764,
                    -0.039827231661053106,
                    0.005607065952576471,
                    -0.0931578680702248,
                    0.04768590727893825,
                    -0.03481237459047438,
                    0.12751846255025076,
                    -0.05149175190373771,
                    0.004223299152769728,
                    -0.08765935417065857,
                    0.13675751513047266,
                    -0.032684648236585644,
                    0.03994959752708797,
                    -0.0599516573960317,
                    0.0035542215632379847,
                    -0.07480797787736286,
                    0.10265424046384128,
                    -0.030646090564478094,
                    0.028487199042533416,
                    -0.04099595153104464,
                    0.015274254884032876,
                    -0.11427551829983947,
                    -0.15554925655449203,
                    -0.11762478122611414,
                    0.25199942650535473,
                    0.14004340875686114,
                    -0.004627604764248672,
                    -0.11670878323985087,
                    -0.03746759249682389,
                    -0.06982356911369691,
                    0.009595422283591941,
                    0.13148780414385494,
                    0.08288239284044743
                ]
            ],
            [
                "linear-L1: train-0.73684, train_2--0.44608, test-0.79070, test_2--0.32439, val-0.80702, val_2--0.27878"
            ]
        ],
        "stacking30_0.3_L1_lineardropout0.1": [
            [
                [
                    0.021492253349823527,
                    0.0341912559833071,
                    0.09046645002221966,
                    -0.07438193579135087,
                    -0.059171818843114454,
                    -0.01258272781186082,
                    0.22419910780886723,
                    -0.08274330592963941,
                    0.0575005033775106,
                    -0.04504542162754385,
                    -0.06140281149015706,
                    -0.09249459523001347,
                    0.3228604860366559,
                    -0.15650232030007225,
                    -0.018035659189800518,
                    -0.035168435145390815,
                    -0.06853644233158555,
                    -0.044604152160782465,
                    0.1701942230122449,
                    0.07423578264139744,
                    -0.081492790998452,
                    -0.044287137507823544,
                    -0.06663212024869189,
                    -0.05200447998965144,
                    0.28104671558134003,
                    -0.3657770963316863,
                    0.13209716016687484,
                    -0.04884609789439319,
                    0.023963558884245412,
                    -0.02247076349735663,
                    0.3264138851542917,
                    -0.23576594151121533,
                    0.05393569339137469,
                    -0.04523843316625136,
                    -0.027378331068051744,
                    -0.07195339589112415,
                    0.46880898411911326,
                    0.22049849103299418,
                    -0.07034698092946687,
                    -0.043393403622680765,
                    -0.10070082869120978,
                    -0.4748527849997255,
                    -0.08214634256756302,
                    0.2611967609730681,
                    0.08178232678471689,
                    -0.06203963181090612,
                    -0.15265838033655157,
                    -0.04612125613374088,
                    -0.18358363770822264,
                    0.17047500826330458,
                    -0.024395637917287084,
                    -0.0418496103858324,
                    0.14116366758361246,
                    -0.06179631292655119,
                    0.018362472050391012,
                    -0.32628339926260747,
                    0.48831008223355765,
                    -0.0465359380440323,
                    -0.06842655780781494,
                    -0.0654131822604693,
                    0.09862256298993838,
                    -0.11681505348826375,
                    0.17885631144840744,
                    -0.028355678682638278,
                    -0.04754638394067815,
                    -0.08474828141774148,
                    0.023838633553091588,
                    -0.1284245385839331,
                    0.2704491987112579,
                    -0.053835604999078294,
                    -0.06493336957082722,
                    -0.04708084220148653,
                    0.27443223609028083,
                    -0.31988266320524844,
                    0.24698197325711121,
                    -0.051468440276899986,
                    -0.1050195702178536,
                    -0.04503005873836559,
                    -0.3572383779211544,
                    0.46385417801018836,
                    0.06022965639650629,
                    -0.05033233463051257,
                    -0.07472058146683261,
                    -0.0417790634791712,
                    0.045694310427396086,
                    0.06478233871570711,
                    0.02752795466682286,
                    -0.031984382673547064,
                    -0.08746066600931936,
                    -0.01854607821803535,
                    0.054613865525240196,
                    -0.39121041459237765,
                    0.46976200491193854,
                    -0.026495101540291683,
                    -0.06547330569238022,
                    -0.04118357170310462,
                    0.38525648889653796,
                    -0.0626048709200513,
                    -0.19512408146292362,
                    -0.03905221918444194,
                    0.008002066190626673,
                    -0.09646390661072393,
                    0.7314435682982079,
                    -0.17278820714193505,
                    -0.5420511055752214,
                    -0.042185453234588735,
                    -0.1478794136076926,
                    0.17347408817025423,
                    -0.22884855654306596,
                    0.012624683784120053,
                    0.8112006954947975,
                    -0.09292436147824555,
                    -0.15454625123346163,
                    -0.3474927331151204,
                    0.5828203132456237,
                    -0.2589782094770653,
                    -0.2018903145894626,
                    -0.0577126212206589,
                    -0.038455072605244466,
                    -0.025770618444168177,
                    -0.30404795790996575,
                    0.16685881540227365,
                    0.3460199054322161,
                    -0.038568534582449104,
                    0.0044288829244036555,
                    -0.1746776343574545,
                    0.057260469179936914,
                    0.3449150959185966,
                    0.16891100895131855,
                    -0.07271975710805796,
                    0.0737265284848473,
                    -0.5720798685176174,
                    0.35061569655751884,
                    0.0020817310326479905,
                    -0.23839232269593266,
                    -0.05282473281715103,
                    -0.03976659303414131,
                    -0.02170030213391752,
                    0.12251974759509775,
                    0.030080196068674975,
                    0.04502185832226106,
                    -0.062032151175586914,
                    -0.06597245886855815,
                    -0.06960371503286501,
                    0.11919050520570286,
                    0.09118163545560165,
                    0.012289619478712082,
                    -0.08163382106263337,
                    -0.03562993938315332,
                    -0.1053845227852057,
                    0.0035332600833077993,
                    0.21322769524759633,
                    -0.033952775353850835,
                    -0.07304611683571949,
                    -0.04416961874686455,
                    -0.065578967485445,
                    0.3034040082699903,
                    -0.1279994668207242,
                    0.062109903671286146,
                    -0.052980762932786224,
                    -0.0839297059318895,
                    -0.10059049934685252,
                    -0.010006025605466491,
                    0.2291667087884332,
                    0.07929968901407151,
                    -0.06628427316767056,
                    -0.1665117193068093,
                    -0.06565090281353485,
                    0.22701715663019,
                    0.2004236428709195,
                    -0.12046829829850969,
                    -0.10185509373476082,
                    -0.07180282085439875,
                    -0.1333011097044169,
                    -0.3402645546498009,
                    0.24738448646340888,
                    0.20784579735029607,
                    -0.06893058862515877,
                    0.013760596642848419,
                    -0.059782260272569984
                ],
                [
                    0.23464524647436658,
                    -0.1445942606449596,
                    -0.24144298112480836,
                    0.27567071925133435,
                    -0.10352711336617053,
                    -0.021062082412085063,
                    0.10380975707539133,
                    0.4557351050405772,
                    -0.4082977055542902,
                    0.1041099504758974,
                    -0.10464841557354868,
                    -0.1510191632863505,
                    -0.1715362228171193,
                    0.13346457224646402,
                    -0.11967392020674435,
                    0.055148788406464005,
                    -0.014226915206707663,
                    0.11651322575532005,
                    0.03421129627155239,
                    0.02102923603330366,
                    -0.0854477672849373,
                    -0.016662756821349222,
                    0.1378550642330333,
                    -0.0912955442539259,
                    -0.23421110829762276,
                    0.2611284660406683,
                    -0.08648633261807327,
                    0.11851191599475028,
                    -0.03560651110664045,
                    -0.023646901835404677,
                    -0.18610527838199137,
                    0.44793788444430194,
                    -0.27539201723226897,
                    0.10133545956711183,
                    -0.07110204931299,
                    -0.01698447090648679,
                    -0.11769579032611725,
                    0.018186514344950454,
                    0.2782911390763383,
                    -0.20372530437096703,
                    -0.16759035660701344,
                    0.19222332606048548,
                    0.20596247689116767,
                    -0.19363820045345065,
                    -0.0831908408148488,
                    0.16737231471996664,
                    -0.1295700018602569,
                    0.03275377969509896,
                    0.16956722716058348,
                    -0.14372279628335843,
                    -0.19116535837275342,
                    0.11618441921316465,
                    0.014380388295627591,
                    0.034445648164413076,
                    -0.031196797301789356,
                    0.14224149892421944,
                    -0.24588315374775216,
                    0.22830840886527323,
                    0.007725844341034718,
                    -0.1015062729033088,
                    0.28968542135166453,
                    -0.06853968551931568,
                    -0.13995630834163053,
                    0.07775854847502635,
                    -0.04348745193474532,
                    -0.11577099585332203,
                    0.22027247181677093,
                    -0.00847583961472821,
                    -0.1274175642594141,
                    0.12850807597253897,
                    -0.23691310262269502,
                    0.02371548688520503,
                    -0.09903097217904774,
                    0.38741764673128565,
                    -0.16673327476763852,
                    0.15207938698008333,
                    -0.27102772585680823,
