{
    "task_type": "CLS",
    "dataset": "ionosphere",
    "refit": "full",
    "filter": "m6_p6",
    "time_limit": 3600,
    "best": 0.9295774647887324,
    "fixed_ens": {
        "ensemble_selection10": 0.9436619718309859,
        "cma_es": 0.9295774647887324,
        "qdo_es": 0.971830985915493,
        "OptDivBO": 0.9436619718309859,
        "stacking-1_0.4_L1_linear": 0.9436619718309859,
        "stacking-1_0.4_L2_linear": 0.9577464788732394,
        "stacking1000_0.4_L1_linear": 0.9577464788732394,
        "stacking1000_0.4_L2_linear": 0.971830985915493,
        "ensemble_selection25": 0.9436619718309859,
        "EnsOpt": 0.9577464788732394,
        "stacking1000_0.4_L1_weighted": 0.971830985915493,
        "stacking-1_0.4_L1_weighted": 0.9436619718309859,
        "stacking1000_0.4_L2_weighted": 0.9577464788732394,
        "stacking-1_0.4_L2_weighted": 0.9577464788732394
    },
    "defopt_ens": {
        "s10_r20_d20": "0.9436619718309859, 0.9436619718309859, 0.9436619718309859, 0.9436619718309859, 0.9436619718309859, 0.9436619718309859",
        "s10_r40_d20": "0.9436619718309859, 0.9436619718309859, 0.9436619718309859, 0.9436619718309859, 0.9436619718309859, 0.9436619718309859",
        "s20_r20_d20": "0.9436619718309859, 0.9436619718309859, 0.9436619718309859, 0.9436619718309859, 0.9436619718309859, 0.9436619718309859",
        "s20_r40_d20": "0.9295774647887324, 0.9014084507042254, 0.9154929577464789, 0.9436619718309859, 0.8873239436619719, 0.9154929577464789",
        "s10_r20_d0": "0.9436619718309859, 0.9436619718309859, 0.9436619718309859, 0.9014084507042254, 0.9436619718309859, 0.9436619718309859",
        "s10_r40_d0": "0.9436619718309859, 0.9436619718309859, 0.9436619718309859, 0.9014084507042254, 0.9436619718309859, 0.9436619718309859",
        "s20_r20_d0": "0.9436619718309859, 0.9436619718309859, 0.9436619718309859, 0.9295774647887324, 0.9436619718309859, 0.9436619718309859",
        "s20_r40_d0": "0.9436619718309859, 0.9436619718309859, 0.9436619718309859, 0.9436619718309859, 0.9436619718309859, 0.9436619718309859"
    },
    "opt_ens": [
        "0.9436619718309859",
        "0.9436619718309859",
        "0.9436619718309859",
        "0.9436619718309859",
        "0.9436619718309859",
        "0.9436619718309859",
        "0.9436619718309859",
        "0.9436619718309859",
        "0.9436619718309859",
        "0.9436619718309859",
        "0.9436619718309859",
        "0.9436619718309859",
        "0.9436619718309859",
        "0.9436619718309859",
        "0.9436619718309859",
        "0.9295774647887324",
        "0.9436619718309859",
        "0.9577464788732394",
        "0.9436619718309859",
        "0.9436619718309859",
        "0.9436619718309859",
        "0.9295774647887324",
        "0.9295774647887324",
        "0.9577464788732394",
        "0.971830985915493",
        "0.9295774647887324",
        "0.9436619718309859",
        "0.9436619718309859",
        "0.9436619718309859",
        "0.9436619718309859"
    ],
    "opt_ens_d0": [
        "0.9436619718309859",
        "0.9436619718309859",
        "0.9436619718309859",
        "0.9436619718309859",
        "0.9436619718309859",
        "0.9436619718309859",
        "0.9436619718309859",
        "0.9436619718309859",
        "0.9436619718309859",
        "0.9436619718309859",
        "0.9436619718309859",
        "0.9436619718309859",
        "0.9295774647887324",
        "0.9295774647887324",
        "0.9436619718309859",
        "0.8873239436619719",
        "0.9436619718309859",
        "0.9295774647887324",
        "0.9295774647887324",
        "0.8873239436619719",
        "0.9436619718309859",
        "0.9436619718309859",
        "0.9295774647887324",
        "0.9436619718309859",
        "0.9295774647887324",
        "0.9436619718309859",
        "0.9295774647887324",
        "0.9154929577464789",
        "0.9154929577464789",
        "0.9436619718309859"
    ],
    "opt_ens_d0-20": [
        "0.9436619718309859",
        "0.9436619718309859",
        "0.9436619718309859",
        "0.9436619718309859",
        "0.9436619718309859",
        "0.9436619718309859",
        "0.9436619718309859",
        "0.9436619718309859",
        "0.9436619718309859",
        "0.9436619718309859",
        "0.9436619718309859",
        "0.9436619718309859",
        "0.9436619718309859",
        "0.9295774647887324",
        "0.9436619718309859",
        "0.9436619718309859",
        "0.9436619718309859",
        "0.9436619718309859",
        "0.9436619718309859",
        "0.971830985915493",
        "0.9577464788732394",
        "0.9436619718309859",
        "0.971830985915493",
        "0.9154929577464789",
        "0.9295774647887324",
        "0.9436619718309859",
        "0.9436619718309859",
        "0.8732394366197183",
        "0.9295774647887324",
        "0.9436619718309859"
    ],
    "size_exp": {
        "stacking5_-1_L1_linear": [
            "linear-L1: train-9.41176471e-01, train_2--9.63789606e-02, test-9.57746479e-01, test_2--7.17259829e-02, val-9.56989247e-01, val_2--6.69621758e-02"
        ],
        "stacking5_0_L1_linear": [
            "linear-L1: train-9.46524064e-01, train_2--9.92792166e-02, test-9.43661972e-01, test_2--9.01514187e-02, val-9.67741935e-01, val_2--5.93852909e-02"
        ],
        "stacking5_0.1_L1_linear": [
            "linear-L1: train-9.30481283e-01, train_2--1.17974179e-01, test-9.15492958e-01, test_2--1.13095912e-01, val-9.56989247e-01, val_2--7.80170433e-02"
        ],
        "stacking5_0.2_L1_linear": [
            "linear-L1: train-9.35828877e-01, train_2--1.17241205e-01, test-9.15492958e-01, test_2--1.16349283e-01, val-9.46236559e-01, val_2--7.93871487e-02"
        ],
        "stacking5_0.3_L1_linear": [
            "linear-L1: train-9.35828877e-01, train_2--1.17241205e-01, test-9.15492958e-01, test_2--1.16349283e-01, val-9.46236559e-01, val_2--7.93871487e-02"
        ],
        "stacking5_0.4_L1_linear": [
            "linear-L1: train-9.35828877e-01, train_2--1.17241205e-01, test-9.15492958e-01, test_2--1.16349283e-01, val-9.46236559e-01, val_2--7.93871487e-02"
        ],
        "stacking10_-1_L1_linear": [
            "linear-L1: train-9.41176471e-01, train_2--9.02818213e-02, test-9.71830986e-01, test_2--7.58440405e-02, val-9.67741935e-01, val_2--6.96661068e-02"
        ],
        "stacking10_0_L1_linear": [
            "linear-L1: train-9.51871658e-01, train_2--7.88863963e-02, test-9.57746479e-01, test_2--6.80204470e-02, val-9.78494624e-01, val_2--4.65378487e-02"
        ],
        "stacking10_0.1_L1_linear": [
            "linear-L1: train-9.25133690e-01, train_2--1.18213391e-01, test-9.15492958e-01, test_2--1.18727220e-01, val-9.46236559e-01, val_2--7.53541748e-02"
        ],
        "stacking10_0.2_L1_linear": [
            "linear-L1: train-9.41176471e-01, train_2--9.33349164e-02, test-9.15492958e-01, test_2--9.21377992e-02, val-9.56989247e-01, val_2--6.64413268e-02"
        ],
        "stacking10_0.3_L1_linear": [
            "linear-L1: train-9.41176471e-01, train_2--9.33349164e-02, test-9.15492958e-01, test_2--9.21377992e-02, val-9.56989247e-01, val_2--6.64413268e-02"
        ],
        "stacking10_0.4_L1_linear": [
            "linear-L1: train-9.41176471e-01, train_2--9.33349164e-02, test-9.15492958e-01, test_2--9.21377992e-02, val-9.56989247e-01, val_2--6.64413268e-02"
        ],
        "stacking20_-1_L1_linear": [
            "linear-L1: train-9.46524064e-01, train_2--8.03951520e-02, test-9.57746479e-01, test_2--6.93986129e-02, val-9.56989247e-01, val_2--6.82858886e-02"
        ],
        "stacking20_0_L1_linear": [
            "linear-L1: train-9.57219251e-01, train_2--7.34044229e-02, test-9.43661972e-01, test_2--6.60043070e-02, val-9.56989247e-01, val_2--5.36019824e-02"
        ],
        "stacking20_0.1_L1_linear": [
            "linear-L1: train-9.62566845e-01, train_2--7.84159718e-02, test-9.15492958e-01, test_2--1.03848234e-01, val-9.46236559e-01, val_2--8.39514900e-02"
        ],
        "stacking20_0.2_L1_linear": [
            "linear-L1: train-9.62566845e-01, train_2--7.81662697e-02, test-9.15492958e-01, test_2--1.03151314e-01, val-9.46236559e-01, val_2--8.35649946e-02"
        ],
        "stacking20_0.3_L1_linear": [
            "linear-L1: train-9.67914439e-01, train_2--6.87296177e-02, test-9.57746479e-01, test_2--7.59186800e-02, val-9.56989247e-01, val_2--6.58151572e-02"
        ],
        "stacking20_0.4_L1_linear": [
            "linear-L1: train-9.62566845e-01, train_2--6.88879300e-02, test-9.57746479e-01, test_2--7.41221531e-02, val-9.56989247e-01, val_2--6.28266050e-02"
        ],
        "stacking30_-1_L1_linear": [
            "linear-L1: train-9.41176471e-01, train_2--8.09248478e-02, test-9.43661972e-01, test_2--7.67441342e-02, val-9.56989247e-01, val_2--6.80890368e-02"
        ],
        "stacking30_0_L1_linear": [
            "linear-L1: train-9.51871658e-01, train_2--7.28762850e-02, test-9.43661972e-01, test_2--6.97977697e-02, val-9.56989247e-01, val_2--5.50426198e-02"
        ],
        "stacking30_0.1_L1_linear": [
            "linear-L1: train-9.67914439e-01, train_2--6.48824398e-02, test-9.57746479e-01, test_2--7.37543181e-02, val-9.56989247e-01, val_2--6.72920967e-02"
        ],
        "stacking30_0.2_L1_linear": [
            "linear-L1: train-9.67914439e-01, train_2--6.51478364e-02, test-9.57746479e-01, test_2--7.18382752e-02, val-9.56989247e-01, val_2--6.55742978e-02"
        ],
        "stacking30_0.3_L1_linear": [
            "linear-L1: train-9.67914439e-01, train_2--6.58492566e-02, test-9.43661972e-01, test_2--7.31969407e-02, val-9.56989247e-01, val_2--6.56398743e-02"
        ],
        "stacking30_0.4_L1_linear": [
            "linear-L1: train-9.67914439e-01, train_2--6.58215021e-02, test-9.43661972e-01, test_2--7.20529817e-02, val-9.56989247e-01, val_2--6.51553573e-02"
        ],
        "stacking40_-1_L1_linear": [
            "linear-L1: train-9.57219251e-01, train_2--6.54469058e-02, test-9.43661972e-01, test_2--8.14487776e-02, val-9.46236559e-01, val_2--7.58280556e-02"
        ],
        "stacking40_0_L1_linear": [
            "linear-L1: train-9.51871658e-01, train_2--7.17378217e-02, test-9.43661972e-01, test_2--7.16110811e-02, val-9.56989247e-01, val_2--5.60921129e-02"
        ],
        "stacking40_0.1_L1_linear": [
            "linear-L1: train-9.62566845e-01, train_2--6.42979514e-02, test-9.57746479e-01, test_2--6.92981948e-02, val-9.56989247e-01, val_2--6.07685074e-02"
        ],
        "stacking40_0.2_L1_linear": [
            "linear-L1: train-9.62566845e-01, train_2--6.41999889e-02, test-9.57746479e-01, test_2--6.97978150e-02, val-9.56989247e-01, val_2--6.13611096e-02"
        ],
        "stacking40_0.3_L1_linear": [
            "linear-L1: train-9.62566845e-01, train_2--6.41747932e-02, test-9.57746479e-01, test_2--6.92127050e-02, val-9.56989247e-01, val_2--6.07515167e-02"
        ],
        "stacking40_0.4_L1_linear": [
            "linear-L1: train-9.62566845e-01, train_2--6.41999889e-02, test-9.57746479e-01, test_2--6.97978150e-02, val-9.56989247e-01, val_2--6.13611096e-02"
        ]
    },
    "retain_exp": {
        "stacking10_0.4_L1_weighted_retainFalse": [
            [
                {
                    "train": [
                        0.9037433155080213,
                        0.8449197860962567,
                        0.9144385026737968,
                        0.9037433155080213,
                        0.8770053475935828,
                        0.8716577540106952,
                        0.8770053475935828,
                        0.8556149732620321,
                        0.8502673796791443,
                        0.9251336898395722
                    ],
                    "train_2": [
                        -0.18801782547652313,
                        -0.25734805519356746,
                        -0.14644792253000383,
                        -0.1681729912675337,
                        -0.19255277831014644,
                        -0.19459977665261385,
                        -0.2032269187526341,
                        -0.20609864339186149,
                        -0.2601471397525305,
                        -0.12208695041570444
                    ],
                    "test": [
                        0.9295774647887324,
                        0.8732394366197183,
                        0.9295774647887324,
                        0.9295774647887324,
                        0.9295774647887324,
                        0.9295774647887324,
                        0.9154929577464789,
                        0.9154929577464789,
                        0.9014084507042254,
                        0.9295774647887324
                    ],
                    "test_2": [
                        -0.11803457985549225,
                        -0.2061164622397585,
                        -0.11431979342254865,
                        -0.1127015536617744,
                        -0.1305472824927503,
                        -0.13174908666520016,
                        -0.14623949404125405,
                        -0.1374345748544748,
                        -0.1690569927891746,
                        -0.12099147314428858
                    ],
                    "val": [
                        0.9247311827956989,
                        0.9032258064516129,
                        0.9139784946236559,
                        0.9354838709677419,
                        0.956989247311828,
                        0.956989247311828,
                        0.9032258064516129,
                        0.946236559139785,
                        0.9247311827956989,
                        0.956989247311828
                    ],
                    "val_2": [
                        -0.15295909984675787,
                        -0.1429980023249943,
                        -0.12214189002079148,
                        -0.10479402360176064,
                        -0.09681284669226917,
                        -0.09619576726365091,
                        -0.09270087800230735,
                        -0.09345736386585822,
                        -0.12626810486734066,
                        -0.09734131409690476
                    ]
                },
                {
                    "train": [
                        0.9090909090909091,
                        0.9197860962566845,
                        0.9144385026737968,
                        0.893048128342246,
                        0.9251336898395722,
                        0.9251336898395722,
                        0.8983957219251337,
                        0.9358288770053476,
                        0.893048128342246,
                        0.9358288770053476
                    ],
                    "train_2": [
                        -0.1797498676017465,
                        -0.16042780748663094,
                        -0.16070064504744366,
                        -0.18572375783109574,
                        -0.17279826053675093,
                        -0.17033508902096497,
                        -0.1693623089856818,
                        -0.16193373161007624,
                        -0.1935777311553804,
                        -0.10485001723113488
                    ],
                    "test": [
                        0.9577464788732394,
                        0.9436619718309859,
                        0.971830985915493,
                        0.9436619718309859,
                        0.9295774647887324,
                        0.9295774647887324,
                        0.8873239436619719,
                        0.9295774647887324,
                        0.9436619718309859,
                        0.9577464788732394
                    ],
                    "test_2": [
                        -0.0689942642604777,
                        -0.09464788732394362,
                        -0.0770475136517322,
                        -0.08821997099729935,
                        -0.16374665693435358,
                        -0.16245476996921615,
                        -0.16306723667155273,
                        -0.1580529145216253,
                        -0.15498918420104965,
                        -0.08348524776212832
                    ],
                    "val": [
                        0.956989247311828,
                        0.956989247311828,
                        0.956989247311828,
                        0.967741935483871,
                        0.9354838709677419,
                        0.9354838709677419,
                        0.9139784946236559,
                        0.956989247311828,
                        0.9354838709677419,
                        0.956989247311828
                    ],
                    "val_2": [
                        -0.073931156890051,
                        -0.08344086021505373,
                        -0.0778294975792731,
                        -0.06735670176774997,
                        -0.1504917687300281,
                        -0.14859029188464976,
                        -0.13834188931325983,
                        -0.14082813038950218,
                        -0.1276196153403466,
                        -0.07070253032258063
                    ]
                },
                {
                    "train": [
                        0.9358288770053476,
                        0.9411764705882353,
                        0.9090909090909091,
                        0.893048128342246,
                        0.893048128342246,
                        0.893048128342246,
                        0.8502673796791443,
                        0.8770053475935828,
                        0.8342245989304813,
                        0.9411764705882353
                    ],
                    "train_2": [
                        -0.12564698217724282,
                        -0.11764705882352937,
                        -0.16866926052083167,
                        -0.17813026963747525,
                        -0.19644258156521777,
                        -0.1964521783788401,
                        -0.2404225000800971,
                        -0.19890401232626004,
                        -0.27967589807046433,
                        -0.10273464171122995
                    ],
                    "test": [
                        0.9295774647887324,
                        0.9295774647887324,
                        0.9436619718309859,
                        0.9295774647887324,
                        0.9295774647887324,
                        0.9295774647887324,
                        0.9295774647887324,
                        0.9295774647887324,
                        0.9014084507042254,
                        0.9295774647887324
                    ],
                    "test_2": [
                        -0.1314196968928927,
                        -0.12394366197183095,
                        -0.10346189484785306,
                        -0.10283760598703456,
                        -0.15932249136359564,
                        -0.15904006843953977,
                        -0.13711015414340016,
                        -0.15802141403548692,
                        -0.17159143089267842,
                        -0.08987600075117372
                    ],
                    "val": [
                        0.956989247311828,
                        0.967741935483871,
                        0.967741935483871,
                        0.967741935483871,
                        0.9354838709677419,
                        0.9354838709677419,
                        0.8709677419354839,
                        0.9354838709677419,
                        0.9032258064516129,
                        0.967741935483871
                    ],
                    "val_2": [
                        -0.06744542767427071,
                        -0.05247311827956987,
                        -0.06710020870769773,
                        -0.07008605862855995,
                        -0.15810262161114227,
                        -0.15669126001376882,
                        -0.1717985166823454,
                        -0.1509127135159599,
                        -0.15869129841532226,
                        -0.06700503507765829
                    ]
                },
                {
                    "train": [
                        0.893048128342246,
                        0.893048128342246,
                        0.9144385026737968,
                        0.9090909090909091,
                        0.9251336898395722,
                        0.9251336898395722,
                        0.8716577540106952,
                        0.9251336898395722,
                        0.8770053475935828,
                        0.93048128342246
                    ],
                    "train_2": [
                        -0.21677224244364102,
                        -0.2139037433155079,
                        -0.16218917245299438,
                        -0.1748152018704984,
                        -0.17558571897472292,
                        -0.17418976867137015,
                        -0.1903355291113017,
                        -0.17140582970309756,
                        -0.22441977472295876,
                        -0.10228955436720143
                    ],
                    "test": [
                        0.9577464788732394,
                        0.9154929577464789,
                        0.9295774647887324,
                        0.9295774647887324,
                        0.9295774647887324,
                        0.9295774647887324,
                        0.8873239436619719,
                        0.9295774647887324,
                        0.8591549295774648,
                        0.9295774647887324
                    ],
                    "test_2": [
                        -0.08371859936697137,
                        -0.10704225352112672,
                        -0.11341465762125508,
                        -0.11184677332355056,
                        -0.18329818441618098,
                        -0.18320395728315866,
                        -0.18227949281326702,
                        -0.18310216376332294,
                        -0.2215107255932619,
                        -0.09522204219092331
                    ],
                    "val": [
                        0.9354838709677419,
                        0.956989247311828,
                        0.956989247311828,
                        0.946236559139785,
                        0.956989247311828,
                        0.956989247311828,
                        0.8924731182795699,
                        0.956989247311828,
                        0.9354838709677419,
                        0.967741935483871
                    ],
                    "val_2": [
                        -0.0978754821213873,
                        -0.08172043010752686,
                        -0.08245907982930459,
                        -0.09105178385511803,
                        -0.1367487984941171,
                        -0.13466314675041902,
                        -0.14049635126359758,
                        -0.12583833147426043,
                        -0.12327015651979353,
                        -0.07026778468339308
                    ]
                },
                {
                    "train": [
                        0.8983957219251337,
                        0.893048128342246,
                        0.9037433155080213,
                        0.8877005347593583,
                        0.8823529411764706,
                        0.8770053475935828,
                        0.8716577540106952,
                        0.8609625668449198,
                        0.8288770053475936,
                        0.9197860962566845
                    ],
                    "train_2": [
                        -0.19452567781012345,
                        -0.21390374331550793,
                        -0.1806772893998221,
                        -0.19400945738879855,
                        -0.21386618871741814,
                        -0.21454646081802886,
                        -0.21124000918459335,
                        -0.2197765287482309,
                        -0.28204423268223006,
                        -0.11281896969696971
                    ],
                    "test": [
                        0.9295774647887324,
                        0.9295774647887324,
                        0.9436619718309859,
                        0.9295774647887324,
                        0.9295774647887324,
                        0.9295774647887324,
                        0.9295774647887324,
                        0.9295774647887324,
                        0.8732394366197183,
                        0.9295774647887324
                    ],
                    "test_2": [
                        -0.10290674007766544,
                        -0.12845070422535204,
                        -0.11967398874613792,
                        -0.12170994509916147,
                        -0.17165000859218574,
                        -0.17108309103422706,
                        -0.1381233787113998,
                        -0.16835748444577517,
                        -0.1897900744650392,
                        -0.11067863211267605
                    ],
                    "val": [
                        0.9247311827956989,
                        0.956989247311828,
                        0.946236559139785,
                        0.956989247311828,
                        0.9354838709677419,
                        0.9354838709677419,
                        0.8924731182795699,
                        0.9354838709677419,
                        0.9247311827956989,
                        0.956989247311828
                    ],
                    "val_2": [
                        -0.12076712582819127,
                        -0.07311827956989245,
                        -0.07798219322506278,
                        -0.07789917241870617,
                        -0.1516744712090645,
                        -0.15011982265382745,
                        -0.14281324465384365,
                        -0.143370864502435,
                        -0.1438173974100099,
                        -0.07292021187574671
                    ]
                }
            ],
            [
                "best_idx1-L3: train-0.94118, train_2--0.11765, test-0.92958, test_2--0.12394, val-0.96774, val_2--0.05247",
                "linear-L3: train-0.93583, train_2--0.10894, test-0.92958, test_2--0.11372, val-0.96774, val_2--0.06100",
                "weighted-L3: train-0.93048, train_2--0.11146, test-0.92958, test_2--0.09657, val-0.96774, val_2--0.06267",
                "best_idx3-L2: train-0.89305, train_2--0.18572, test-0.94366, test_2--0.08822, val-0.96774, val_2--0.06736",
                "linear-L4: train-0.91979, train_2--0.13695, test-0.92958, test_2--0.11549, val-0.96774, val_2--0.06861",
                "best_idx9-L4: train-0.93048, train_2--0.10229, test-0.92958, test_2--0.09522, val-0.96774, val_2--0.07027",
                "weighted-L1: train-0.92513, train_2--0.12481, test-0.94366, test_2--0.10805, val-0.96774, val_2--0.08497",
                "weighted-L2: train-0.94652, train_2--0.12352, test-0.94366, test_2--0.11272, val-0.96774, val_2--0.09681",
                "weighted-L4: train-0.93048, train_2--0.13438, test-0.92958, test_2--0.13923, val-0.96774, val_2--0.09763",
                "linear-L1: train-0.91979, train_2--0.12318, test-0.91549, test_2--0.09214, val-0.95699, val_2--0.06644",
                "best_idx9-L5: train-0.91979, train_2--0.11282, test-0.92958, test_2--0.11068, val-0.95699, val_2--0.07292",
                "linear-L2: train-0.92513, train_2--0.12031, test-0.95775, test_2--0.07970, val-0.95699, val_2--0.07331",
                "weighted-L5: train-0.91444, train_2--0.13819, test-0.92958, test_2--0.10965, val-0.94624, val_2--0.08339",
                "linear-L5: train-0.90909, train_2--0.14994, test-0.92958, test_2--0.11156, val-0.94624, val_2--0.08442"
            ]
        ],
        "stacking10_0.4_L1_weighted_retainTrue": [
            [
                {
                    "train": [
                        0.9037433155080213,
                        0.8449197860962567,
                        0.9144385026737968,
                        0.9037433155080213,
                        0.8770053475935828,
                        0.8716577540106952,
                        0.8770053475935828,
                        0.8556149732620321,
                        0.8502673796791443,
                        0.9251336898395722
                    ],
                    "train_2": [
                        -0.18801782547652313,
                        -0.25734805519356746,
                        -0.14644792253000383,
                        -0.1681729912675337,
                        -0.19255277831014644,
                        -0.19459977665261385,
                        -0.2032269187526341,
                        -0.20609864339186149,
                        -0.2601471397525305,
                        -0.12208695041570444
                    ],
                    "test": [
                        0.9295774647887324,
                        0.8732394366197183,
                        0.9295774647887324,
                        0.9295774647887324,
                        0.9295774647887324,
                        0.9295774647887324,
                        0.9154929577464789,
                        0.9154929577464789,
                        0.9014084507042254,
                        0.9295774647887324
                    ],
                    "test_2": [
                        -0.11803457985549225,
                        -0.2061164622397585,
                        -0.11431979342254861,
                        -0.1127015536617744,
                        -0.1305472824927503,
                        -0.13174908666520016,
                        -0.14623949404125405,
                        -0.13743457485447477,
                        -0.16905699278917458,
                        -0.12099147314428858
                    ],
                    "val": [
                        0.9247311827956989,
                        0.9032258064516129,
                        0.9139784946236559,
                        0.9354838709677419,
                        0.956989247311828,
                        0.956989247311828,
                        0.9032258064516129,
                        0.946236559139785,
                        0.9247311827956989,
                        0.956989247311828
                    ],
                    "val_2": [
                        -0.15295909984675787,
                        -0.14299800232499427,
                        -0.12214189002079148,
                        -0.10479402360176064,
                        -0.09681284669226917,
                        -0.09619576726365088,
                        -0.09270087800230732,
                        -0.09345736386585822,
                        -0.1262681048673407,
                        -0.09734131409690476
                    ]
                },
                {
                    "train": [
                        0.9090909090909091,
                        0.9197860962566845,
                        0.9144385026737968,
                        0.893048128342246,
                        0.8770053475935828,
                        0.8716577540106952,
                        0.8983957219251337,
                        0.9358288770053476,
                        0.893048128342246,
                        0.9251336898395722
                    ],
                    "train_2": [
                        -0.1797498676017465,
                        -0.16042780748663094,
                        -0.16070064504744366,
                        -0.18572375783109574,
                        -0.19255277831014644,
                        -0.19459977665261385,
                        -0.1693623089856818,
                        -0.16193373161007624,
                        -0.1935777311553804,
                        -0.12208695041570444
                    ],
                    "test": [
                        0.9577464788732394,
                        0.9436619718309859,
                        0.971830985915493,
                        0.9436619718309859,
                        0.9295774647887324,
                        0.9295774647887324,
                        0.8873239436619719,
                        0.9295774647887324,
                        0.9436619718309859,
                        0.9295774647887324
                    ],
                    "test_2": [
                        -0.0689942642604777,
                        -0.09464788732394362,
                        -0.0770475136517322,
                        -0.08821997099729935,
                        -0.1305472824927503,
                        -0.13174908666520016,
                        -0.1630672366715524,
                        -0.15805291452162515,
                        -0.15498918420104862,
                        -0.12099147314428858
                    ],
                    "val": [
                        0.956989247311828,
                        0.956989247311828,
                        0.956989247311828,
                        0.967741935483871,
                        0.956989247311828,
                        0.956989247311828,
                        0.9139784946236559,
                        0.956989247311828,
                        0.9354838709677419,
                        0.956989247311828
                    ],
                    "val_2": [
                        -0.073931156890051,
                        -0.08344086021505373,
                        -0.0778294975792731,
                        -0.06735670176774997,
                        -0.09681284669226917,
                        -0.09619576726365088,
                        -0.13834188931326244,
                        -0.1408281303895021,
                        -0.12761961534034666,
                        -0.09734131409690476
                    ]
                },
                {
                    "train": [
                        0.9144385026737968,
                        0.9358288770053476,
                        0.93048128342246,
                        0.893048128342246,
                        0.8770053475935828,
                        0.8716577540106952,
                        0.8983957219251337,
                        0.9358288770053476,
                        0.893048128342246,
                        0.946524064171123
                    ],
                    "train_2": [
                        -0.1577384236621301,
                        -0.12834224598930474,
                        -0.12742227989888402,
                        -0.18572375783109574,
                        -0.19255277831014644,
                        -0.19459977665261385,
                        -0.1693623089856818,
                        -0.16193373161007624,
                        -0.1935777311553804,
                        -0.10363161883541297
                    ],
                    "test": [
                        0.9295774647887324,
                        0.9014084507042254,
                        0.9436619718309859,
                        0.9436619718309859,
                        0.9295774647887324,
                        0.9295774647887324,
                        0.8873239436619719,
                        0.9295774647887324,
                        0.9436619718309859,
                        0.9577464788732394
                    ],
                    "test_2": [
                        -0.09377340481096463,
                        -0.1318309859154929,
                        -0.09306158294316468,
                        -0.08821997099729935,
                        -0.1305472824927503,
                        -0.13174908666520016,
                        -0.1630672366715524,
                        -0.15805291452162515,
                        -0.15498918420104862,
                        -0.0862940194679186
                    ],
                    "val": [
                        0.967741935483871,
                        0.967741935483871,
                        0.967741935483871,
                        0.967741935483871,
                        0.956989247311828,
                        0.956989247311828,
                        0.9139784946236559,
                        0.956989247311828,
                        0.9354838709677419,
                        0.967741935483871
                    ],
                    "val_2": [
                        -0.06708216182240548,
                        -0.06451612903225803,
                        -0.0670516441659504,
                        -0.06735670176774997,
                        -0.09681284669226917,
                        -0.09619576726365088,
                        -0.13834188931326244,
                        -0.1408281303895021,
                        -0.12761961534034666,
                        -0.06741483204301077
                    ]
                },
                {
                    "train": [
                        0.9144385026737968,
                        0.9358288770053476,
                        0.93048128342246,
                        0.893048128342246,
                        0.8770053475935828,
                        0.8716577540106952,
                        0.8983957219251337,
                        0.9358288770053476,
                        0.893048128342246,
                        0.946524064171123
                    ],
                    "train_2": [
                        -0.1577384236621301,
                        -0.12834224598930474,
                        -0.12742227989888402,
                        -0.18572375783109574,
                        -0.19255277831014644,
                        -0.19459977665261385,
                        -0.1693623089856818,
                        -0.16193373161007624,
                        -0.1935777311553804,
                        -0.10363161883541297
                    ],
                    "test": [
                        0.9295774647887324,
                        0.9014084507042254,
                        0.9436619718309859,
                        0.9436619718309859,
                        0.9295774647887324,
                        0.9295774647887324,
                        0.8873239436619719,
                        0.9295774647887324,
                        0.9436619718309859,
                        0.9577464788732394
                    ],
                    "test_2": [
                        -0.09377340481096463,
                        -0.1318309859154929,
                        -0.09306158294316468,
                        -0.08821997099729935,
                        -0.1305472824927503,
                        -0.13174908666520016,
                        -0.1630672366715524,
                        -0.15805291452162515,
                        -0.15498918420104862,
                        -0.0862940194679186
                    ],
                    "val": [
                        0.967741935483871,
                        0.967741935483871,
                        0.967741935483871,
                        0.967741935483871,
                        0.956989247311828,
                        0.956989247311828,
                        0.9139784946236559,
                        0.956989247311828,
                        0.9354838709677419,
                        0.967741935483871
                    ],
                    "val_2": [
                        -0.06708216182240548,
                        -0.06451612903225803,
                        -0.0670516441659504,
                        -0.06735670176774997,
                        -0.09681284669226917,
                        -0.09619576726365088,
                        -0.13834188931326244,
                        -0.1408281303895021,
                        -0.12761961534034666,
                        -0.06741483204301077
                    ]
                }
            ],
            [
                "linear-L3: train-0.91979, train_2--0.12504, test-0.92958, test_2--0.10169, val-0.96774, val_2--0.06210",
                "best_idx3-L4: train-0.91444, train_2--0.16688, test-0.92958, test_2--0.11472, val-0.96774, val_2--0.06290",
                "best_idx1-L3: train-0.93583, train_2--0.12834, test-0.90141, test_2--0.13183, val-0.96774, val_2--0.06452",
                "linear-L2: train-0.91444, train_2--0.12601, test-0.94366, test_2--0.08158, val-0.96774, val_2--0.06735",
                "best_idx3-L2: train-0.89305, train_2--0.18572, test-0.94366, test_2--0.08822, val-0.96774, val_2--0.06736",
                "weighted-L3: train-0.93583, train_2--0.11589, test-0.94366, test_2--0.10414, val-0.96774, val_2--0.07936",
                "weighted-L1: train-0.92513, train_2--0.12481, test-0.94366, test_2--0.10805, val-0.96774, val_2--0.08497",
                "weighted-L2: train-0.95722, train_2--0.13036, test-0.95775, test_2--0.12166, val-0.96774, val_2--0.09957",
                "linear-L1: train-0.91979, train_2--0.12318, test-0.91549, test_2--0.09214, val-0.95699, val_2--0.06644"
            ]
        ]
    }
}