{
    "task_type": "CLS",
    "dataset": "kr-vs-kp",
    "refit": "full",
    "filter": "m6_p6",
    "time_limit": 3600,
    "best": 0.99375,
    "fixed_ens": {
        "ensemble_selection10": 0.996875,
        "cma_es": 0.99375,
        "qdo_es": 0.996875,
        "OptDivBO": 0.9890625,
        "EnsOpt": 0.99375,
        "stacking-1_0.4_L1_linear": 0.99375,
        "stacking-1_0.4_L2_linear": 0.99375,
        "stacking1000_0.4_L1_linear": 0.99375,
        "stacking1000_0.4_L2_linear": 0.99375,
        "ensemble_selection25": 0.9953125,
        "stacking1000_0.4_L1_weighted": 0.99375,
        "stacking-1_0.4_L1_weighted": 0.99375,
        "stacking1000_0.4_L2_weighted": 0.99375,
        "stacking-1_0.4_L2_weighted": 0.9953125,
        "autogluon-": 0.99375
    },
    "defopt_ens": {
        "s10_r20_d20": "0.99375, 0.99375, 0.99375, 0.99375, 0.99375, 0.99375",
        "s10_r40_d20": "0.99375, 0.99375, 0.99375, 0.99375, 0.99375, 0.99375",
        "s20_r20_d20": "0.99375, 0.99375, 0.99375, 0.99375, 0.99375, 0.99375",
        "s20_r40_d20": "0.99375, 0.99375, 0.99375, 0.99375, 0.99375, 0.99375",
        "s10_r20_d0": "0.99375, 0.99375, 0.99375, 0.99375, 0.99375, 0.99375",
        "s10_r40_d0": "0.99375, 0.99375, 0.99375, 0.99375, 0.99375, 0.99375",
        "s20_r20_d0": "0.9953125, 0.9953125, 0.99375, 0.99375, 0.9953125, 0.99375",
        "s20_r40_d0": "0.99375, 0.99375, 0.99375, 0.99375, 0.99375, 0.99375"
    },
    "opt_ens": [
        "0.99375",
        "0.99375",
        "0.99375",
        "0.99375",
        "0.99375",
        "0.99375",
        "0.99375",
        "0.99375",
        "0.99375",
        "0.99375",
        "0.99375",
        "0.99375",
        "0.9921875",
        "0.99375",
        "0.99375",
        "0.99375",
        "0.9921875",
        "0.990625",
        "0.99375",
        "0.99375",
        "0.990625",
        "0.99375",
        "0.99375",
        "0.99375",
        "0.9921875",
        "0.99375",
        "0.99375",
        "0.9921875",
        "0.9921875",
        "0.99375"
    ],
    "opt_ens_d0": [
        "0.99375",
        "0.99375",
        "0.99375",
        "0.99375",
        "0.99375",
        "0.99375",
        "0.99375",
        "0.99375",
        "0.99375",
        "0.99375",
        "0.99375",
        "0.99375",
        "0.9953125",
        "0.99375",
        "0.99375",
        "0.99375",
        "0.99375",
        "0.9890625",
        "0.99375",
        "0.9953125",
        "0.99375",
        "0.99375",
        "0.99375",
        "0.99375",
        "0.99375",
        "0.9953125",
        "0.9921875",
        "0.9921875",
        "0.99375",
        "0.99375"
    ],
    "opt_ens_d0-20": [
        "0.99375",
        "0.99375",
        "0.99375",
        "0.99375",
        "0.99375",
        "0.99375",
        "0.99375",
        "0.99375",
        "0.99375",
        "0.99375",
        "0.9921875",
        "0.9921875",
        "0.9921875",
        "0.9921875",
        "0.9921875",
        "0.99375",
        "0.99375",
        "0.990625",
        "0.9921875",
        "0.99375",
        "0.9921875",
        "0.9921875",
        "0.990625",
        "0.9921875",
        "0.99375",
        "0.99375",
        "0.9921875",
        "0.9921875",
        "0.9921875",
        "0.9921875"
    ],
    "size_exp": {
        "stacking5_-1_L1_linear": [
            "linear-L1: train-9.94158879e-01, train_2--9.82741507e-03, test-9.85937500e-01, test_2--1.78658267e-02, val-9.85781991e-01, val_2--2.08823648e-02"
        ],
        "stacking5_0_L1_linear": [
            "linear-L1: train-9.91822430e-01, train_2--1.50852565e-02, test-9.89062500e-01, test_2--1.92883120e-02, val-9.90521327e-01, val_2--1.67097400e-02"
        ],
        "stacking5_0.1_L1_linear": [
            "linear-L1: train-9.91822430e-01, train_2--1.50852565e-02, test-9.89062500e-01, test_2--1.92883120e-02, val-9.90521327e-01, val_2--1.67097400e-02"
        ],
        "stacking5_0.2_L1_linear": [
            "linear-L1: train-9.92990654e-01, train_2--1.25155587e-02, test-9.89062500e-01, test_2--1.64341914e-02, val-9.91706161e-01, val_2--1.58883150e-02"
        ],
        "stacking5_0.3_L1_linear": [
            "linear-L1: train-9.92990654e-01, train_2--1.25155587e-02, test-9.89062500e-01, test_2--1.64341914e-02, val-9.91706161e-01, val_2--1.58883150e-02"
        ],
        "stacking5_0.4_L1_linear": [
            "linear-L1: train-9.92990654e-01, train_2--1.25155587e-02, test-9.89062500e-01, test_2--1.64341914e-02, val-9.91706161e-01, val_2--1.58883150e-02"
        ],
        "stacking10_-1_L1_linear": [
            "linear-L1: train-9.95327103e-01, train_2--7.62949261e-03, test-9.90625000e-01, test_2--1.71388378e-02, val-9.89336493e-01, val_2--2.04995864e-02"
        ],
        "stacking10_0_L1_linear": [
            "linear-L1: train-9.94158879e-01, train_2--1.06326610e-02, test-9.89062500e-01, test_2--1.75837686e-02, val-9.91706161e-01, val_2--1.64285740e-02"
        ],
        "stacking10_0.1_L1_linear": [
            "linear-L1: train-9.94742991e-01, train_2--1.07913379e-02, test-9.90625000e-01, test_2--1.62461391e-02, val-9.90521327e-01, val_2--1.63227942e-02"
        ],
        "stacking10_0.2_L1_linear": [
            "linear-L1: train-9.94158879e-01, train_2--1.13082081e-02, test-9.90625000e-01, test_2--1.62992332e-02, val-9.91706161e-01, val_2--1.62959739e-02"
        ],
        "stacking10_0.3_L1_linear": [
            "linear-L1: train-9.94158879e-01, train_2--1.13082081e-02, test-9.90625000e-01, test_2--1.62992332e-02, val-9.91706161e-01, val_2--1.62959739e-02"
        ],
        "stacking10_0.4_L1_linear": [
            "linear-L1: train-9.94158879e-01, train_2--1.13082081e-02, test-9.90625000e-01, test_2--1.62992332e-02, val-9.91706161e-01, val_2--1.62959739e-02"
        ],
        "stacking20_-1_L1_linear": [
            "linear-L1: train-9.95911215e-01, train_2--8.17502904e-03, test-9.89062500e-01, test_2--1.74199687e-02, val-9.89336493e-01, val_2--1.90231408e-02"
        ],
        "stacking20_0_L1_linear": [
            "linear-L1: train-9.94158879e-01, train_2--9.24650763e-03, test-9.90625000e-01, test_2--1.60344011e-02, val-9.89336493e-01, val_2--1.88414075e-02"
        ],
        "stacking20_0.1_L1_linear": [
            "linear-L1: train-9.94742991e-01, train_2--9.88645563e-03, test-9.90625000e-01, test_2--1.58442194e-02, val-9.90521327e-01, val_2--1.67424051e-02"
        ],
        "stacking20_0.2_L1_linear": [
            "linear-L1: train-9.94742991e-01, train_2--9.90711881e-03, test-9.90625000e-01, test_2--1.50963324e-02, val-9.89336493e-01, val_2--1.64943663e-02"
        ],
        "stacking20_0.3_L1_linear": [
            "linear-L1: train-9.94742991e-01, train_2--9.92581421e-03, test-9.90625000e-01, test_2--1.50779385e-02, val-9.89336493e-01, val_2--1.63712866e-02"
        ],
        "stacking20_0.4_L1_linear": [
            "linear-L1: train-9.94158879e-01, train_2--9.75660177e-03, test-9.92187500e-01, test_2--1.45064016e-02, val-9.89336493e-01, val_2--1.70961415e-02"
        ],
        "stacking30_-1_L1_linear": [
            "linear-L1: train-9.95911215e-01, train_2--8.41502532e-03, test-9.90625000e-01, test_2--1.53857949e-02, val-9.89336493e-01, val_2--1.71844234e-02"
        ],
        "stacking30_0_L1_linear": [
            "linear-L1: train-9.94742991e-01, train_2--8.72467892e-03, test-9.90625000e-01, test_2--1.61691121e-02, val-9.89336493e-01, val_2--1.96535378e-02"
        ],
        "stacking30_0.1_L1_linear": [
            "linear-L1: train-9.95327103e-01, train_2--8.68846771e-03, test-9.90625000e-01, test_2--1.47512052e-02, val-9.89336493e-01, val_2--1.86349163e-02"
        ],
        "stacking30_0.2_L1_linear": [
            "linear-L1: train-9.95327103e-01, train_2--8.85113598e-03, test-9.90625000e-01, test_2--1.48078157e-02, val-9.89336493e-01, val_2--1.82751448e-02"
        ],
        "stacking30_0.3_L1_linear": [
            "linear-L1: train-9.95327103e-01, train_2--8.85113598e-03, test-9.90625000e-01, test_2--1.48078157e-02, val-9.89336493e-01, val_2--1.82751448e-02"
        ],
        "stacking30_0.4_L1_linear": [
            "linear-L1: train-9.95327103e-01, train_2--8.70672863e-03, test-9.90625000e-01, test_2--1.48036018e-02, val-9.89336493e-01, val_2--1.87228792e-02"
        ],
        "stacking40_-1_L1_linear": [
            "linear-L1: train-9.95911215e-01, train_2--7.04108692e-03, test-9.89062500e-01, test_2--1.74561373e-02, val-9.90521327e-01, val_2--1.74102785e-02"
        ],
        "stacking40_0_L1_linear": [
            "linear-L1: train-9.94742991e-01, train_2--8.09369161e-03, test-9.90625000e-01, test_2--1.58350303e-02, val-9.89336493e-01, val_2--1.99531443e-02"
        ],
        "stacking40_0.1_L1_linear": [
            "linear-L1: train-9.95327103e-01, train_2--8.22544044e-03, test-9.90625000e-01, test_2--1.52568832e-02, val-9.89336493e-01, val_2--1.92378556e-02"
        ],
        "stacking40_0.2_L1_linear": [
            "linear-L1: train-9.95327103e-01, train_2--8.00512599e-03, test-9.90625000e-01, test_2--1.56377339e-02, val-9.89336493e-01, val_2--1.95897839e-02"
        ],
        "stacking40_0.3_L1_linear": [
            "linear-L1: train-9.95327103e-01, train_2--8.02370509e-03, test-9.90625000e-01, test_2--1.55201161e-02, val-9.89336493e-01, val_2--1.96879119e-02"
        ],
        "stacking40_0.4_L1_linear": [
            "linear-L1: train-9.95327103e-01, train_2--7.97138583e-03, test-9.90625000e-01, test_2--1.54212217e-02, val-9.89336493e-01, val_2--1.95762805e-02"
        ],
        "stacking-1_0.4_L1_linear": [
            "linear-L1: train-0.99416, train_2--0.01016, test-0.99219, test_2--0.01326, val-0.98934, val_2--0.01693"
        ],
        "stacking1000_0.4_L1_linear": [
            "linear-L1: train-0.99825, train_2--0.00256, test-0.98906, test_2--0.01804, val-0.99052, val_2--0.01798"
        ],
        "stacking5_0.49_L1_linear": [
            "linear-L1: train-0.99299, train_2--0.01252, test-0.98906, test_2--0.01643, val-0.99171, val_2--0.01589"
        ],
        "stacking10_0.49_L1_linear": [
            "linear-L1: train-0.99299, train_2--0.01214, test-0.98906, test_2--0.01626, val-0.99052, val_2--0.01664"
        ],
        "stacking20_0.49_L1_linear": [
            "linear-L1: train-0.99416, train_2--0.00976, test-0.99219, test_2--0.01451, val-0.98934, val_2--0.01710"
        ],
        "stacking30_0.49_L1_linear": [
            "linear-L1: train-0.99533, train_2--0.00871, test-0.99062, test_2--0.01480, val-0.98934, val_2--0.01872"
        ],
        "stacking40_0.49_L1_linear": [
            "linear-L1: train-0.99591, train_2--0.00772, test-0.99062, test_2--0.01583, val-0.98934, val_2--0.01962"
        ],
        "stacking50_-1_L1_linear": [
            "linear-L1: train-0.99591, train_2--0.00718, test-0.98906, test_2--0.01630, val-0.99052, val_2--0.01745"
        ],
        "stacking50_0_L1_linear": [
            "linear-L1: train-0.99533, train_2--0.00744, test-0.99062, test_2--0.01619, val-0.98934, val_2--0.02023"
        ],
        "stacking50_0.1_L1_linear": [
            "linear-L1: train-0.99533, train_2--0.00744, test-0.99062, test_2--0.01592, val-0.98934, val_2--0.01940"
        ],
        "stacking50_0.2_L1_linear": [
            "linear-L1: train-0.99591, train_2--0.00745, test-0.99062, test_2--0.01588, val-0.98934, val_2--0.01939"
        ],
        "stacking50_0.3_L1_linear": [
            "linear-L1: train-0.99591, train_2--0.00722, test-0.99062, test_2--0.01627, val-0.98934, val_2--0.01950"
        ],
        "stacking50_0.4_L1_linear": [
            "linear-L1: train-0.99591, train_2--0.00722, test-0.99062, test_2--0.01627, val-0.98934, val_2--0.01950"
        ],
        "stacking50_0.49_L1_linear": [
            "linear-L1: train-0.99591, train_2--0.00722, test-0.99062, test_2--0.01627, val-0.98934, val_2--0.01950"
        ]
    },
    "retain_exp": {
        "stacking10_0.4_L1_weighted_retainFalse": [
            [
                {
                    "train": [
                        0.9924065420560748,
                        0.9912383177570093,
                        0.9906542056074766,
                        0.9924065420560748,
                        0.9912383177570093,
                        0.9894859813084113,
                        0.990070093457944,
                        0.9883177570093458,
                        0.9760514018691588,
                        0.9766355140186916
                    ],
                    "train_2": [
                        -0.015173582287894576,
                        -0.01584080369930113,
                        -0.01649939633803776,
                        -0.015258828984428194,
                        -0.01639241910790235,
                        -0.01763400252293444,
                        -0.01802327647879489,
                        -0.017156723383479493,
                        -0.03762753619292617,
                        -0.034741569296923173
                    ],
                    "test": [
                        0.9890625,
                        0.9890625,
                        0.9890625,
                        0.9890625,
                        0.990625,
                        0.9890625,
                        0.990625,
                        0.9875,
                        0.984375,
                        0.9828125
                    ],
                    "test_2": [
                        -0.017033307500466686,
                        -0.01804982624902334,
                        -0.015598815987876635,
                        -0.019177217210388547,
                        -0.017496227124618745,
                        -0.015973382351961708,
                        -0.01665293942944811,
                        -0.016304479751900136,
                        -0.025964629971604637,
                        -0.028672433037935284
                    ],
                    "val": [
                        0.9893364928909952,
                        0.9917061611374408,
                        0.9917061611374408,
                        0.990521327014218,
                        0.9881516587677726,
                        0.985781990521327,
                        0.9869668246445498,
                        0.985781990521327,
                        0.9822274881516587,
                        0.9751184834123223
                    ],
                    "val_2": [
                        -0.01746071686916617,
                        -0.016460798277722483,
                        -0.015177509170054657,
                        -0.018034507506207588,
                        -0.01990399580649454,
                        -0.019409784994955697,
                        -0.021420948696520514,
                        -0.02112312083553616,
                        -0.029765721543273865,
                        -0.039686243641343384
                    ]
                },
                {
                    "train": [
                        0.985981308411215,
                        0.985981308411215,
                        0.985981308411215,
                        0.985981308411215,
                        0.985981308411215,
                        0.991822429906542,
                        0.991822429906542,
                        0.991822429906542,
                        0.9404205607476636,
                        0.9766355140186916
                    ],
                    "train_2": [
                        -0.028037383177570086,
                        -0.028037383177570086,
                        -0.028037383177570086,
                        -0.028037383177570086,
                        -0.028037383177570086,
                        -0.016036503405185906,
                        -0.016788094133011078,
                        -0.016260793459476067,
                        -0.11914113492780397,
                        -0.04361339941763622
                    ],
                    "test": [
                        0.984375,
                        0.984375,
                        0.984375,
                        0.984375,
                        0.984375,
                        0.990625,
                        0.990625,
                        0.9890625,
                        0.9859375,
                        0.9890625
                    ],
                    "test_2": [
                        -0.02387499999999999,
                        -0.02387499999999999,
                        -0.02387499999999999,
                        -0.02387499999999999,
                        -0.02387499999999999,
                        -0.01597468437474827,
                        -0.01641353468434697,
                        -0.015124051020382912,
                        -0.04823716216928633,
                        -0.02064404685145973
                    ],
                    "val": [
                        0.9834123222748815,
                        0.9834123222748815,
                        0.9834123222748815,
                        0.9834123222748815,
                        0.9834123222748815,
                        0.9869668246445498,
                        0.985781990521327,
                        0.9869668246445498,
                        0.9845971563981043,
                        0.9893364928909952
                    ],
                    "val_2": [
                        -0.027488151658767765,
                        -0.027488151658767765,
                        -0.02748815165876777,
                        -0.027488151658767765,
                        -0.027488151658767765,
                        -0.02039176559792332,
                        -0.020633267719990377,
                        -0.019521350018547705,
                        -0.049701460597124665,
                        -0.022724377416495946
                    ]
                },
                {
                    "train": [
                        0.9883177570093458,
                        0.9912383177570093,
                        0.991822429906542,
                        0.9912383177570093,
                        0.9906542056074766,
                        0.9894859813084113,
                        0.9573598130841121,
                        0.9667056074766355,
                        0.866822429906542,
                        0.9585280373831776
                    ],
                    "train_2": [
                        -0.022709293100145824,
                        -0.01601307913092703,
                        -0.016310710540970854,
                        -0.01710304452331975,
                        -0.018887371496343116,
                        -0.021055061676793167,
                        -0.08519853063235219,
                        -0.06403317302603938,
                        -0.26635514018691586,
                        -0.08185868682428556
                    ],
                    "test": [
                        0.9890625,
                        0.9921875,
                        0.9890625,
                        0.990625,
                        0.9890625,
                        0.9859375,
                        0.9875,
                        0.9859375,
                        0.975,
                        0.984375
                    ],
                    "test_2": [
                        -0.0169270185313008,
                        -0.013926768280432367,
                        -0.015987001510247796,
                        -0.014111148111638988,
                        -0.016416833560853314,
                        -0.024177385209670797,
                        -0.029226258337159233,
                        -0.031846942157761536,
                        -0.08550000002150966,
                        -0.04052589446483955
                    ],
                    "val": [
                        0.985781990521327,
                        0.9869668246445498,
                        0.985781990521327,
                        0.985781990521327,
                        0.9845971563981043,
                        0.985781990521327,
                        0.9845971563981043,
                        0.9834123222748815,
                        0.9691943127962085,
                        0.9834123222748815
                    ],
                    "val_2": [
                        -0.020555307504226697,
                        -0.017143902825665584,
                        -0.019134586284133726,
                        -0.01731636376089259,
                        -0.020367316553477215,
                        -0.027657119552883396,
                        -0.03407956563316458,
                        -0.03515955473005045,
                        -0.09744290968814998,
                        -0.041231172155704286
                    ]
                },
                {
                    "train": [
                        0.9883177570093458,
                        0.9853971962616822,
                        0.981892523364486,
                        0.9830607476635514,
                        0.9848130841121495,
                        0.9719626168224299,
                        0.9894859813084113,
                        0.9877336448598131,
                        0.8271028037383178,
                        0.9608644859813084
                    ],
                    "train_2": [
                        -0.023062599403492742,
                        -0.028935879223324412,
                        -0.0338437667040695,
                        -0.03233099252703584,
                        -0.030135327958269623,
                        -0.05587238703824293,
                        -0.02023096388031133,
                        -0.022034488135384996,
                        -0.34579439252336447,
                        -0.07706625675762308
                    ],
                    "test": [
                        0.9859375,
                        0.9859375,
                        0.9859375,
                        0.9859375,
                        0.984375,
                        0.9859375,
                        0.9875,
                        0.984375,
                        0.9359375,
                        0.9859375
                    ],
                    "test_2": [
                        -0.02018560967742041,
                        -0.019110204008659305,
                        -0.019006751741178034,
                        -0.0188519373954335,
                        -0.020237629219590582,
                        -0.030096134756799238,
                        -0.023141333863287483,
                        -0.022900652132975784,
                        -0.13275,
                        -0.03219760594970485
                    ],
                    "val": [
                        0.9822274881516587,
                        0.9822274881516587,
                        0.9869668246445498,
                        0.9834123222748815,
                        0.990521327014218,
                        0.985781990521327,
                        0.985781990521327,
                        0.9845971563981043,
                        0.9360189573459715,
                        0.9869668246445498
                    ],
                    "val_2": [
                        -0.023338078348614337,
                        -0.022046798308308007,
                        -0.019888661750553246,
                        -0.022089555415217805,
                        -0.018751171933248798,
                        -0.03222827293878017,
                        -0.025040547248424517,
                        -0.025074286618900845,
                        -0.1387677725135209,
                        -0.0321671610845819
                    ]
                },
                {
                    "train": [
                        0.9737149532710281,
                        0.9731308411214953,
                        0.9748831775700935,
                        0.9725467289719626,
                        0.9713785046728972,
                        0.8434579439252337,
                        0.9410046728971962,
                        0.9585280373831776,
                        0.8837616822429907,
                        0.9632009345794392
                    ],
                    "train_2": [
                        -0.052447699142230554,
                        -0.053729665398820056,
                        -0.050545524668885004,
                        -0.054334033244580714,
                        -0.05594382804723864,
                        -0.31225550878387126,
                        -0.11792108292257227,
                        -0.08220817951497884,
                        -0.2324766355140187,
                        -0.07312257548979419
                    ],
                    "test": [
                        0.9859375,
                        0.9875,
                        0.9859375,
                        0.9875,
                        0.9859375,
                        0.9828125,
                        0.9859375,
                        0.9875,
                        0.9359375,
                        0.9921875
                    ],
                    "test_2": [
                        -0.022938714314452064,
                        -0.0228312001844272,
                        -0.025897140920947158,
                        -0.023512966132080194,
                        -0.023800870790344403,
                        -0.11851274161359124,
                        -0.03460414315663315,
                        -0.03134299863406163,
                        -0.11225000019943132,
                        -0.02308889561025376
                    ],
                    "val": [
                        0.9881516587677726,
                        0.985781990521327,
                        0.9881516587677726,
                        0.985781990521327,
                        0.9881516587677726,
                        0.9845971563981043,
                        0.9893364928909952,
                        0.9845971563981043,
                        0.9300947867298578,
                        0.9869668246445498
                    ],
                    "val_2": [
                        -0.02316111034571922,
                        -0.022864568794712173,
                        -0.02437215583583175,
                        -0.022865925223316232,
                        -0.022820150018635108,
                        -0.11812567497272128,
                        -0.03333913977320489,
                        -0.038119362432060766,
                        -0.12350710900680549,
                        -0.02546067050220784
                    ]
                }
            ],
            [
                "linear-L1: train-0.99299, train_2--0.01235, test-0.99062, test_2--0.01630, val-0.99171, val_2--0.01630",
                "weighted-L1: train-0.99124, train_2--0.01420, test-0.99062, test_2--0.01557, val-0.99171, val_2--0.01778",
                "best_idx4-L4: train-0.98481, train_2--0.03014, test-0.98438, test_2--0.02024, val-0.99052, val_2--0.01875",
                "best_idx9-L2: train-0.97664, train_2--0.04361, test-0.98906, test_2--0.02064, val-0.98934, val_2--0.02272",
                "best_idx6-L5: train-0.94100, train_2--0.11792, test-0.98594, test_2--0.03460, val-0.98934, val_2--0.03334",
                "best_idx1-L3: train-0.99124, train_2--0.01601, test-0.99219, test_2--0.01393, val-0.98697, val_2--0.01714",
                "linear-L5: train-0.97430, train_2--0.03923, test-0.98594, test_2--0.01970, val-0.98697, val_2--0.01856",
                "weighted-L2: train-0.99065, train_2--0.01858, test-0.99062, test_2--0.01599, val-0.98697, val_2--0.02018",
                "linear-L2: train-0.99065, train_2--0.01759, test-0.99219, test_2--0.01570, val-0.98697, val_2--0.02140",
                "weighted-L5: train-0.95619, train_2--0.05146, test-0.98906, test_2--0.02063, val-0.98697, val_2--0.02182",
                "linear-L4: train-0.98832, train_2--0.02316, test-0.98438, test_2--0.02269, val-0.98578, val_2--0.02361",
                "weighted-L3: train-0.99241, train_2--0.02342, test-0.98906, test_2--0.01731, val-0.98460, val_2--0.02009",
                "linear-L3: train-0.99124, train_2--0.01576, test-0.98906, test_2--0.01814, val-0.98460, val_2--0.02404",
                "weighted-L4: train-0.98598, train_2--0.02868, test-0.98594, test_2--0.02024, val-0.98341, val_2--0.02216"
            ]
        ],
        "stacking10_0.4_L1_weighted_retainTrue": [
            [
                {
                    "train": [
                        0.9924065420560748,
                        0.9912383177570093,
                        0.9906542056074766,
                        0.9924065420560748,
                        0.9912383177570093,
                        0.9894859813084113,
                        0.990070093457944,
                        0.9883177570093458,
                        0.9760514018691588,
                        0.9766355140186916
                    ],
                    "train_2": [
                        -0.015173582287894576,
                        -0.01584080369930113,
                        -0.01649939633803776,
                        -0.015258828984428194,
                        -0.01639241910790235,
                        -0.01763400252293444,
                        -0.01802327647879489,
                        -0.017156723383479493,
                        -0.03762753619292617,
                        -0.034741569296923173
                    ],
                    "test": [
                        0.9890625,
                        0.9890625,
                        0.9890625,
                        0.9890625,
                        0.990625,
                        0.9890625,
                        0.990625,
                        0.9875,
                        0.984375,
                        0.9828125
                    ],
                    "test_2": [
                        -0.017033307500466686,
                        -0.01804982624902334,
                        -0.015598815987876633,
                        -0.019177217210388547,
                        -0.017496227124618745,
                        -0.015973382351961704,
                        -0.01665293942944811,
                        -0.01630447975190013,
                        -0.025964629971604637,
                        -0.028672433037935284
                    ],
                    "val": [
                        0.9893364928909952,
                        0.9917061611374408,
                        0.9917061611374408,
                        0.990521327014218,
                        0.9881516587677726,
                        0.985781990521327,
                        0.9869668246445498,
                        0.985781990521327,
                        0.9822274881516587,
                        0.9751184834123223
                    ],
                    "val_2": [
                        -0.01746071686916617,
                        -0.016460798277722483,
                        -0.015177509170054655,
                        -0.018034507506207588,
                        -0.01990399580649454,
                        -0.019409784994955694,
                        -0.02142094869652052,
                        -0.02112312083553616,
                        -0.029765721543273865,
                        -0.039686243641343384
                    ]
                },
                {
                    "train": [
                        0.9924065420560748,
                        0.9912383177570093,
                        0.9906542056074766,
                        0.9924065420560748,
                        0.9912383177570093,
                        0.991822429906542,
                        0.990070093457944,
                        0.991822429906542,
                        0.9404205607476636,
                        0.9766355140186916
                    ],
                    "train_2": [
                        -0.015173582287894576,
                        -0.01584080369930113,
                        -0.01649939633803776,
                        -0.015258828984428194,
                        -0.01639241910790235,
                        -0.016036503405185906,
                        -0.01802327647879489,
                        -0.016260793459476067,
                        -0.11914113492780397,
                        -0.04361339941763622
                    ],
                    "test": [
                        0.9890625,
                        0.9890625,
                        0.9890625,
                        0.9890625,
                        0.990625,
                        0.990625,
                        0.990625,
                        0.9890625,
                        0.9859375,
                        0.9890625
                    ],
                    "test_2": [
                        -0.017033307500466686,
                        -0.01804982624902334,
                        -0.015598815987876633,
                        -0.019177217210388547,
                        -0.017496227124618745,
                        -0.01597468437474827,
                        -0.01665293942944811,
                        -0.015124051020382912,
                        -0.04823716216928633,
                        -0.02064404685145973
                    ],
                    "val": [
                        0.9893364928909952,
                        0.9917061611374408,
                        0.9917061611374408,
                        0.990521327014218,
                        0.9881516587677726,
                        0.9869668246445498,
                        0.9869668246445498,
                        0.9869668246445498,
                        0.9845971563981043,
                        0.9893364928909952
                    ],
                    "val_2": [
                        -0.01746071686916617,
                        -0.016460798277722483,
                        -0.015177509170054655,
                        -0.018034507506207588,
                        -0.01990399580649454,
                        -0.02039176559792332,
                        -0.02142094869652052,
                        -0.019521350018547705,
                        -0.049701460597124665,
                        -0.022724377416495946
                    ]
                },
                {
                    "train": [
                        0.9924065420560748,
                        0.9912383177570093,
                        0.9906542056074766,
                        0.9924065420560748,
                        0.9912383177570093,
                        0.991822429906542,
                        0.990070093457944,
                        0.9801401869158879,
                        0.9404205607476636,
                        0.9766355140186916
                    ],
                    "train_2": [
                        -0.015173582287894576,
                        -0.01584080369930113,
                        -0.01649939633803776,
                        -0.015258828984428194,
                        -0.01639241910790235,
                        -0.016036503405185906,
                        -0.01802327647879489,
                        -0.039231213803348264,
                        -0.11914113492780397,
                        -0.04361339941763622
                    ],
                    "test": [
                        0.9890625,
                        0.9890625,
                        0.9890625,
                        0.9890625,
                        0.990625,
                        0.990625,
                        0.990625,
                        0.990625,
                        0.9859375,
                        0.9890625
                    ],
                    "test_2": [
                        -0.017033307500466686,
                        -0.01804982624902334,
                        -0.015598815987876633,
                        -0.019177217210388547,
                        -0.017496227124618745,
                        -0.01597468437474827,
                        -0.01665293942944811,
                        -0.023912198571295763,
                        -0.04823716216928633,
                        -0.02064404685145973
                    ],
                    "val": [
                        0.9893364928909952,
                        0.9917061611374408,
                        0.9917061611374408,
                        0.990521327014218,
                        0.9881516587677726,
                        0.9869668246445498,
                        0.9869668246445498,
                        0.9881516587677726,
                        0.9845971563981043,
                        0.9893364928909952
                    ],
                    "val_2": [
                        -0.01746071686916617,
                        -0.016460798277722483,
                        -0.015177509170054655,
                        -0.018034507506207588,
                        -0.01990399580649454,
                        -0.02039176559792332,
                        -0.02142094869652052,
                        -0.025311244287661832,
                        -0.049701460597124665,
                        -0.022724377416495946
                    ]
                },
                {
                    "train": [
                        0.9924065420560748,
                        0.9912383177570093,
                        0.9906542056074766,
                        0.9924065420560748,
                        0.9912383177570093,
                        0.991822429906542,
                        0.990070093457944,
                        0.9801401869158879,
                        0.9404205607476636,
                        0.951518691588785
                    ],
                    "train_2": [
                        -0.015173582287894576,
                        -0.01584080369930113,
                        -0.01649939633803776,
                        -0.015258828984428194,
                        -0.01639241910790235,
                        -0.016036503405185906,
                        -0.01802327647879489,
                        -0.039231213803348264,
                        -0.11914113492780397,
                        -0.09666557430683188
                    ],
                    "test": [
                        0.9890625,
                        0.9890625,
                        0.9890625,
                        0.9890625,
                        0.990625,
                        0.990625,
                        0.990625,
                        0.990625,
                        0.9859375,
                        0.9875
                    ],
                    "test_2": [
                        -0.017033307500466686,
                        -0.01804982624902334,
                        -0.015598815987876633,
                        -0.019177217210388547,
                        -0.017496227124618745,
                        -0.01597468437474827,
                        -0.01665293942944811,
                        -0.023912198571295763,
                        -0.04823716216928633,
                        -0.029496800675346192
                    ],
                    "val": [
                        0.9893364928909952,
                        0.9917061611374408,
                        0.9917061611374408,
                        0.990521327014218,
                        0.9881516587677726,
                        0.9869668246445498,
                        0.9869668246445498,
                        0.9881516587677726,
                        0.9845971563981043,
                        0.990521327014218
                    ],
                    "val_2": [
                        -0.01746071686916617,
                        -0.016460798277722483,
                        -0.015177509170054655,
                        -0.018034507506207588,
                        -0.01990399580649454,
                        -0.02039176559792332,
                        -0.02142094869652052,
                        -0.025311244287661832,
                        -0.049701460597124665,
                        -0.028322227697824692
                    ]
                },
                {
                    "train": [
                        0.9924065420560748,
                        0.9912383177570093,
                        0.9906542056074766,
                        0.9924065420560748,
                        0.9912383177570093,
                        0.991822429906542,
                        0.990070093457944,
                        0.9801401869158879,
                        0.9404205607476636,
                        0.951518691588785
                    ],
                    "train_2": [
                        -0.015173582287894576,
                        -0.01584080369930113,
                        -0.01649939633803776,
                        -0.015258828984428194,
                        -0.01639241910790235,
                        -0.016036503405185906,
                        -0.01802327647879489,
                        -0.039231213803348264,
                        -0.11914113492780397,
                        -0.09666557430683188
                    ],
                    "test": [
                        0.9890625,
                        0.9890625,
                        0.9890625,
                        0.9890625,
                        0.990625,
                        0.990625,
                        0.990625,
                        0.990625,
                        0.9859375,
                        0.9875
                    ],
                    "test_2": [
                        -0.017033307500466686,
                        -0.01804982624902334,
                        -0.015598815987876633,
                        -0.019177217210388547,
                        -0.017496227124618745,
                        -0.01597468437474827,
                        -0.01665293942944811,
                        -0.023912198571295763,
                        -0.04823716216928633,
                        -0.029496800675346192
                    ],
                    "val": [
                        0.9893364928909952,
                        0.9917061611374408,
                        0.9917061611374408,
                        0.990521327014218,
                        0.9881516587677726,
                        0.9869668246445498,
                        0.9869668246445498,
                        0.9881516587677726,
                        0.9845971563981043,
                        0.990521327014218
                    ],
                    "val_2": [
                        -0.01746071686916617,
                        -0.016460798277722483,
                        -0.015177509170054655,
                        -0.018034507506207588,
                        -0.01990399580649454,
                        -0.02039176559792332,
                        -0.02142094869652052,
                        -0.025311244287661832,
                        -0.049701460597124665,
                        -0.028322227697824692
                    ]
                }
            ],
            [
                "weighted-L4: train-0.99124, train_2--0.01403, test-0.98906, test_2--0.01470, val-0.99289, val_2--0.01626",
                "weighted-L2: train-0.99124, train_2--0.01511, test-0.98906, test_2--0.01532, val-0.99289, val_2--0.01659",
                "weighted-L3: train-0.99124, train_2--0.01655, test-0.98906, test_2--0.01532, val-0.99289, val_2--0.01659",
                "linear-L1: train-0.99299, train_2--0.01235, test-0.99062, test_2--0.01630, val-0.99171, val_2--0.01630",
                "weighted-L1: train-0.99124, train_2--0.01420, test-0.99062, test_2--0.01557, val-0.99171, val_2--0.01778",
                "linear-L4: train-0.99241, train_2--0.01469, test-0.98906, test_2--0.01623, val-0.99052, val_2--0.01567",
                "linear-L3: train-0.99241, train_2--0.01469, test-0.99062, test_2--0.01550, val-0.99052, val_2--0.01642",
                "linear-L2: train-0.99241, train_2--0.01476, test-0.99062, test_2--0.01545, val-0.99052, val_2--0.01648",
                "best_idx9-L4: train-0.95152, train_2--0.09667, test-0.98750, test_2--0.02950, val-0.99052, val_2--0.02832",
                "best_idx9-L2: train-0.97664, train_2--0.04361, test-0.98906, test_2--0.02064, val-0.98934, val_2--0.02272",
                "best_idx7-L3: train-0.98014, train_2--0.03923, test-0.99062, test_2--0.02391, val-0.98815, val_2--0.02531",
                "best_idx7-L5: train-0.97255, train_2--0.05443, test-0.98594, test_2--0.02661, val-0.98697, val_2--0.02886"
            ]
        ]
    },
    "dropoutreg_exp": {
        "stacking30_0.3_L1_lineardropout0": [
            [
                [
                    0.46798991737364015,
                    0.040825775132624115,
                    0.11640876457436826,
                    -0.21684949269112688,
                    0.6844009407573125,
                    0.04328191260120329,
                    0.059538388920619016,
                    -0.1722155642903145,
                    -0.7012666967611696,
                    0.8174047057097459,
                    0.4674475642758099,
                    0.4973260432116723,
                    0.4971117403733488,
                    0.4971117403733488,
                    0.9993194374636288,
                    0.5720795893274848,
                    1.7150300867096926,
                    1.9800277986996007,
                    -0.27558639769555665,
                    -0.09690260699533207,
                    0.6371426364240014,
                    -0.6519444069689921,
                    -0.13807736575496624,
                    1.079233783366673,
                    0.5587637760895572,
                    0.567900857905952,
                    0.11841820797034988,
                    1.2956391868322354,
                    0.04352006557389988,
                    0.19268740546924557
                ]
            ],
            [
                "linear-L1: train-0.99357, train_2--0.01092, test-0.99062, test_2--0.01481, val-0.98934, val_2--0.01828"
            ]
        ],
        "stacking30_0.3_L1_lineardropout0.1": [
            [
                [
                    0.49282352351806796,
                    -0.04118474709958836,
                    -0.10951144088166662,
                    -0.18499134704077536,
                    0.41874116502989867,
                    0.03450096944608423,
                    0.03872432767626701,
                    -0.19953011381668131,
                    -0.5992740431364758,
                    0.5377369105298825,
                    0.518355999093034,
                    0.510416197561544,
                    0.8379730139765698,
                    0.5238440673319877,
                    0.858538607030497,
                    0.672810995871986,
                    1.5721835894216774,
                    1.8707711671878027,
                    -0.14006477720331045,
                    0.10967152823355672,
                    0.5457340014992883,
                    -0.7387195920023897,
                    -0.23366954243558688,
                    0.8614044123861458,
                    0.6024794151000651,
                    0.8020511950038258,
                    0.20471810173394395,
                    1.252878281798471,
                    0.41290272412584683,
                    0.2478784849001751
                ]
            ],
            [
                "linear-L1: train-0.99299, train_2--0.01176, test-0.99219, test_2--0.01445, val-0.98934, val_2--0.01824"
            ]
        ],
        "stacking30_0.3_L1_lineardropout0.2": [
            [
                [
                    0.42561872255309224,
                    -0.05347674998437795,
                    -0.04480906901708099,
                    0.15268431473465768,
                    0.6822213437818003,
                    0.03050169083205011,
                    0.05288861678635651,
                    0.006786358835675065,
                    -0.5298068636695692,
                    0.29518469376922707,
                    0.295673850984149,
                    0.5168052768221109,
                    0.7705195859844883,
                    0.3032627177539081,
                    0.8524028812185092,
                    0.8705630526887047,
                    1.3941949792652215,
                    2.1557897420320584,
                    -0.20036005096437376,
                    -0.06989194339055675,
                    0.5684296552822522,
                    -0.7288654371505301,
                    -0.020127784473123345,
                    1.327309736300594,
                    0.24073209657142122,
                    0.09818999520250182,
                    0.2919215567400904,
                    1.2445198123151384,
                    0.24582097670340808,
                    0.31278837193248094
                ]
            ],
            [
                "linear-L1: train-0.99299, train_2--0.01165, test-0.99062, test_2--0.01489, val-0.98934, val_2--0.01853"
            ]
        ],
        "stacking30_0.3_L1_lineardropout0.3": [
            [
                [
                    0.47444322990573035,
                    0.13704662953098898,
                    0.1838253599199201,
                    -0.2448663743630033,
                    0.2893111664072344,
                    0.35641345948741904,
                    -0.1400656540623915,
                    0.030173886297508234,
                    -0.1725940125163524,
                    0.6692719194531326,
                    0.8465368175534971,
                    0.7620335007387342,
                    0.757324534040154,
                    0.5966217971248854,
                    0.4408837266074763,
                    0.34306841537806104,
                    1.311863277964131,
                    1.9237687525200575,
                    -0.4716941617105615,
                    0.03336416885311615,
                    0.26754267597956927,
                    -0.44861450829513716,
                    0.4294855972312475,
                    0.3761228274746217,
                    0.7549503951188893,
                    -0.04472724587345203,
                    0.6437948113044878,
                    1.224825836643464,
                    -0.14586071716427232,
                    0.3173196641557705
                ]
            ],
            [
                "linear-L1: train-0.99357, train_2--0.01068, test-0.99062, test_2--0.01506, val-0.98934, val_2--0.01812"
            ]
        ],
        "stacking30_0.3_L1_lineardropout0.4": [
            [
                [
                    0.40523265422641497,
                    0.16199034062236606,
                    -0.1184175468153627,
                    -0.07241134526607255,
                    0.41000154127764854,
                    0.04828397589994516,
                    -0.12943652851858195,
                    -0.005998355962720049,
                    -0.49295186283648956,
                    0.5770159127603869,
                    0.5304870387241073,
                    0.31777938905325764,
                    0.5290866975022845,
                    0.06679025062446878,
                    0.8708265165550385,
                    0.5174670887723641,
                    2.1365654256275968,
                    1.8607799044364506,
                    0.19930774608546237,
                    -0.09265932096918607,
                    0.22763474169986214,
                    -0.42446063770513587,
                    0.04900605086011605,
                    0.9960356578585317,
                    0.560577604665331,
                    0.7203613974617743,
                    0.7072041550724133,
                    0.7505471951107769,
                    0.024032400154843512,
                    0.3435707580924911
                ]
            ],
            [
                "linear-L1: train-0.99357, train_2--0.01029, test-0.99062, test_2--0.01486, val-0.98934, val_2--0.01891"
            ]
        ],
        "stacking30_0.3_L1_lineardropout0.5": [
            [
                [
                    0.40352256005567405,
                    0.3402884576063852,
                    0.07530789224660307,
                    -0.1694889093768792,
                    0.6465768876852389,
                    -0.20419629466707273,
                    -0.038087717606374916,
                    0.000728380907445776,
                    -0.09543531868831047,
                    0.35967137324644527,
                    0.5626527125034333,
                    0.29110335498308393,
                    0.5872716776443067,
                    0.9014332901283083,
                    0.7344541611739234,
                    0.6082023301360724,
                    0.8454858009522649,
                    1.5760273916801177,
                    0.22295031977729218,
                    0.24845171155760604,
                    0.003551864857058339,
                    -0.2775698457388333,
                    -0.41002260107714317,
                    1.2270907101707766,
                    0.7798424005997289,
                    0.4727410139969797,
                    0.0784677456881186,
                    0.9058070560494715,
                    0.2678690283735414,
                    0.5101968486348214
                ]
            ],
            [
                "linear-L1: train-0.99416, train_2--0.01117, test-0.99062, test_2--0.01435, val-0.98934, val_2--0.01773"
            ]
        ]
    },
    "diversity_exp": {
        "stacking30_0": [
            29.695497630331758,
            0.5206352296345788,
            12.51698897849565
        ],
        "stacking30_0.05": [
            29.69905213270142,
            0.5429188341769344,
            11.405517349913971
        ],
        "stacking30_0.1": [
            29.695497630331758,
            0.5560364870778406,
            11.186915593700395
        ],
        "stacking30_0.15": [
            29.689573459715643,
            0.5670542631656642,
            11.117327942334503
        ],
        "stacking30_0.2": [
            29.689573459715643,
            0.5670542631656642,
            11.117327942334503
        ],
        "stacking30_0.25": [
            29.689573459715643,
            0.5670542631656642,
            11.117327942334503
        ],
        "stacking30_0.3": [
            29.689573459715643,
            0.5670542631656642,
            11.117327942334503
        ],
        "stacking30_0.35": [
            29.68838862559242,
            0.5674723693522723,
            11.102077586744464
        ],
        "stacking30_0.4": [
            29.68838862559242,
            0.5674723693522723,
            11.102077586744464
        ],
        "stacking30_0.45": [
            29.686018957345976,
            0.5678001752887456,
            11.10015462090118
        ],
        "stacking30_0.49": [
            29.68838862559242,
            0.5674723693522723,
            11.102077586744464
        ]
    },
    "diversityavg_exp": {
        "stacking30_0": [
            29.695497630331758,
            0.5206352296345788,
            12.51698897849565
        ],
        "stacking30_0.05": [
            29.694312796208532,
            0.5207730205310763,
            12.53415382557929
        ],
        "stacking30_0.1": [
            29.694312796208532,
            0.5224589055820439,
            12.28717429864663
        ],
        "stacking30_0.15": [
            29.697867298578203,
            0.523653115262327,
            12.294993068184642
        ],
        "stacking30_0.2": [
            29.695497630331754,
            0.5260799597097819,
            12.024193097529894
        ],
        "stacking30_0.25": [
            29.695497630331754,
            0.5278512109113922,
            12.090087686885846
        ],
        "stacking30_0.3": [
            29.694312796208532,
            0.528663685048595,
            12.057030123686419
        ],
        "stacking30_0.35": [
            29.694312796208532,
            0.528663685048595,
            12.057030123686419
        ],
        "stacking30_0.4": [
            29.694312796208532,
            0.528663685048595,
            12.057030123686419
        ],
        "stacking30_0.45": [
            29.694312796208532,
            0.5286636850485951,
            12.057030123686419
        ],
        "stacking30_0.49": [
            29.694312796208532,
            0.534160615129966,
            11.975537027272583
        ]
    },
    "struc_exp": {
        "stacking30_0.3_dropout0_retainTrue": [
            "best_idx17-L3: train-9.93574766e-01, train_2--1.17545562e-02, test-9.92187500e-01, test_2--1.20947090e-02, val-9.90521327e-01, val_2--1.50499626e-02",
            "best_idx16-L2: train-9.94158879e-01, train_2--1.00174477e-02, test-9.90625000e-01, test_2--1.34174773e-02, val-9.89336493e-01, val_2--1.54416382e-02",
            "linear-L3: train-9.94158879e-01, train_2--1.17520612e-02, test-9.92187500e-01, test_2--1.48527310e-02, val-9.89336493e-01, val_2--1.68214372e-02",
            "linear-L2: train-9.94158879e-01, train_2--1.14796682e-02, test-9.90625000e-01, test_2--1.45740576e-02, val-9.89336493e-01, val_2--1.77052167e-02",
            "linear-L1: train-9.93574766e-01, train_2--1.09215325e-02, test-9.90625000e-01, test_2--1.48078157e-02, val-9.89336493e-01, val_2--1.82751448e-02",
            "weighted-L3: train-9.94742991e-01, train_2--1.04075369e-02, test-9.92187500e-01, test_2--1.38490364e-02, val-9.88151659e-01, val_2--1.60886502e-02",
            "weighted-L2: train-9.94158879e-01, train_2--1.12522761e-02, test-9.90625000e-01, test_2--1.39176633e-02, val-9.88151659e-01, val_2--1.64607395e-02",
            "weighted-L1: train-9.93574766e-01, train_2--1.00159859e-02, test-9.90625000e-01, test_2--1.51573141e-02, val-9.88151659e-01, val_2--1.64749158e-02",
            "lightgbm-L1: train-9.93574766e-01, train_2--1.21460917e-02, test-9.93750000e-01, test_2--1.34192870e-02, val-9.88151659e-01, val_2--2.03493791e-02",
            "lightgbm-L2: train-9.91822430e-01, train_2--1.67257558e-02, test-9.90625000e-01, test_2--1.46186255e-02, val-9.86966825e-01, val_2--2.02792938e-02",
            "lightgbm-L3: train-9.92990654e-01, train_2--1.25611427e-02, test-9.90625000e-01, test_2--1.64862582e-02, val-9.85781991e-01, val_2--2.40510485e-02"
        ],
        "stacking30_0.3_dropout0.1_retainTrue": [
            "best_idx19-L3: train-9.92990654e-01, train_2--1.33732389e-02, test-9.92187500e-01, test_2--1.45632223e-02, val-9.90521327e-01, val_2--1.93068667e-02",
            "linear-L2: train-9.92406542e-01, train_2--1.23554395e-02, test-9.90625000e-01, test_2--1.58805423e-02, val-9.89336493e-01, val_2--1.72889783e-02",
            "linear-L3: train-9.92990654e-01, train_2--1.26291648e-02, test-9.90625000e-01, test_2--1.51928765e-02, val-9.89336493e-01, val_2--1.75213343e-02",
            "linear-L1: train-9.93574766e-01, train_2--1.09215325e-02, test-9.90625000e-01, test_2--1.48078157e-02, val-9.89336493e-01, val_2--1.82751448e-02",
            "best_idx27-L2: train-9.93574766e-01, train_2--1.27855258e-02, test-9.93750000e-01, test_2--1.25954162e-02, val-9.89336493e-01, val_2--1.83962676e-02",
            "weighted-L3: train-9.94158879e-01, train_2--1.10635070e-02, test-9.92187500e-01, test_2--1.48619829e-02, val-9.88151659e-01, val_2--1.60949199e-02",
            "weighted-L2: train-9.93574766e-01, train_2--1.13957964e-02, test-9.92187500e-01, test_2--1.45540126e-02, val-9.88151659e-01, val_2--1.63335091e-02",
            "weighted-L1: train-9.93574766e-01, train_2--1.00159859e-02, test-9.90625000e-01, test_2--1.51573141e-02, val-9.88151659e-01, val_2--1.64749158e-02",
            "lightgbm-L2: train-9.93574766e-01, train_2--1.19545175e-02, test-9.90625000e-01, test_2--1.52134149e-02, val-9.88151659e-01, val_2--1.88370041e-02",
            "lightgbm-L3: train-9.92990654e-01, train_2--1.24740488e-02, test-9.90625000e-01, test_2--1.57314586e-02, val-9.88151659e-01, val_2--1.98585162e-02",
            "lightgbm-L1: train-9.93574766e-01, train_2--1.21460917e-02, test-9.93750000e-01, test_2--1.34192870e-02, val-9.88151659e-01, val_2--2.03493791e-02"
        ],
        "stacking30_0.3_dropout0.2_retainFalse": [
            "best_idx16-L2: train-9.93574766e-01, train_2--1.01654681e-02, test-9.90625000e-01, test_2--1.31877401e-02, val-9.89336493e-01, val_2--1.47658182e-02",
            "best_idx17-L3: train-9.92406542e-01, train_2--1.11510041e-02, test-9.92187500e-01, test_2--1.42043616e-02, val-9.89336493e-01, val_2--1.51538363e-02",
            "weighted-L3: train-9.94158879e-01, train_2--1.00007350e-02, test-9.92187500e-01, test_2--1.40126110e-02, val-9.89336493e-01, val_2--1.78196506e-02",
            "linear-L1: train-9.93574766e-01, train_2--1.09215325e-02, test-9.90625000e-01, test_2--1.48078157e-02, val-9.89336493e-01, val_2--1.82751448e-02",
            "lightgbm-L3: train-9.93574766e-01, train_2--1.24243037e-02, test-9.92187500e-01, test_2--1.40339305e-02, val-9.89336493e-01, val_2--1.89781763e-02",
            "lightgbm-L2: train-9.90654206e-01, train_2--1.44365528e-02, test-9.92187500e-01, test_2--1.49151563e-02, val-9.89336493e-01, val_2--1.98723723e-02",
            "linear-L3: train-9.94158879e-01, train_2--1.06271889e-02, test-9.92187500e-01, test_2--1.53186150e-02, val-9.89336493e-01, val_2--2.01324490e-02",
            "weighted-L1: train-9.93574766e-01, train_2--1.00159859e-02, test-9.90625000e-01, test_2--1.51573141e-02, val-9.88151659e-01, val_2--1.64749158e-02",
            "lightgbm-L1: train-9.93574766e-01, train_2--1.21460917e-02, test-9.93750000e-01, test_2--1.34192870e-02, val-9.88151659e-01, val_2--2.03493791e-02",
            "weighted-L2: train-9.94158879e-01, train_2--9.79583600e-03, test-9.90625000e-01, test_2--1.44623419e-02, val-9.86966825e-01, val_2--1.99601005e-02",
            "linear-L2: train-9.93574766e-01, train_2--1.12328156e-02, test-9.90625000e-01, test_2--1.57171913e-02, val-9.86966825e-01, val_2--2.23642119e-02"
        ],
        "stacking30_0.3_dropout0.2_retainTrue": [
            "best_idx14-L4: train-9.91238318e-01, train_2--1.75233645e-02, test-9.90625000e-01, test_2--1.42500000e-02, val-9.94075829e-01, val_2--1.26066351e-02",
            "best_idx14-L5: train-9.91822430e-01, train_2--1.63551402e-02, test-9.93750000e-01, test_2--1.13750000e-02, val-9.91706161e-01, val_2--1.51658768e-02",
            "best_idx20-L3: train-9.94158879e-01, train_2--1.15026345e-02, test-9.93750000e-01, test_2--1.31229418e-02, val-9.90521327e-01, val_2--1.85975824e-02",
            "best_idx16-L2: train-9.93574766e-01, train_2--1.01654681e-02, test-9.90625000e-01, test_2--1.31877401e-02, val-9.89336493e-01, val_2--1.47658182e-02",
            "weighted-L5: train-9.94158879e-01, train_2--1.10617307e-02, test-9.90625000e-01, test_2--1.40914547e-02, val-9.89336493e-01, val_2--1.56453336e-02",
            "linear-L3: train-9.94158879e-01, train_2--1.12619270e-02, test-9.92187500e-01, test_2--1.38444119e-02, val-9.89336493e-01, val_2--1.59148140e-02",
            "linear-L5: train-9.93574766e-01, train_2--1.11350643e-02, test-9.90625000e-01, test_2--1.43831385e-02, val-9.89336493e-01, val_2--1.59203135e-02",
            "weighted-L3: train-9.93574766e-01, train_2--1.10844454e-02, test-9.90625000e-01, test_2--1.37053544e-02, val-9.89336493e-01, val_2--1.59803484e-02",
            "linear-L4: train-9.94742991e-01, train_2--1.05151174e-02, test-9.90625000e-01, test_2--1.44150770e-02, val-9.89336493e-01, val_2--1.60768434e-02",
            "linear-L2: train-9.94158879e-01, train_2--1.12765174e-02, test-9.92187500e-01, test_2--1.49579376e-02, val-9.89336493e-01, val_2--1.65495277e-02",
            "linear-L1: train-9.93574766e-01, train_2--1.09215325e-02, test-9.90625000e-01, test_2--1.48078157e-02, val-9.89336493e-01, val_2--1.82751448e-02",
            "lightgbm-L5: train-9.91822430e-01, train_2--1.40345235e-02, test-9.92187500e-01, test_2--1.45184489e-02, val-9.89336493e-01, val_2--1.98288425e-02",
            "weighted-L4: train-9.94742991e-01, train_2--1.01872177e-02, test-9.90625000e-01, test_2--1.39400799e-02, val-9.88151659e-01, val_2--1.57294160e-02",
            "weighted-L2: train-9.93574766e-01, train_2--1.10874077e-02, test-9.90625000e-01, test_2--1.46608410e-02, val-9.88151659e-01, val_2--1.59998095e-02",
            "weighted-L1: train-9.93574766e-01, train_2--1.00159859e-02, test-9.90625000e-01, test_2--1.51573141e-02, val-9.88151659e-01, val_2--1.64749158e-02",
            "lightgbm-L3: train-9.92406542e-01, train_2--1.42468718e-02, test-9.90625000e-01, test_2--1.47063238e-02, val-9.88151659e-01, val_2--1.94171538e-02",
            "lightgbm-L2: train-9.93574766e-01, train_2--1.14917135e-02, test-9.90625000e-01, test_2--1.43572695e-02, val-9.88151659e-01, val_2--1.98033885e-02",
            "lightgbm-L1: train-9.93574766e-01, train_2--1.21460917e-02, test-9.93750000e-01, test_2--1.34192870e-02, val-9.88151659e-01, val_2--2.03493791e-02",
            "lightgbm-L4: train-9.90654206e-01, train_2--1.42938266e-02, test-9.90625000e-01, test_2--1.54256574e-02, val-9.86966825e-01, val_2--2.04760096e-02"
        ],
        "stacking30_0.3_dropout0.3_retainTrue": [
            "best_idx26-L2: train-9.44509346e-01, train_2--1.10981308e-01, test-9.85937500e-01, test_2--3.97500000e-02, val-9.91706161e-01, val_2--3.96208531e-02",
            "best_idx17-L3: train-9.92990654e-01, train_2--1.09741632e-02, test-9.92187500e-01, test_2--1.22354996e-02, val-9.90521327e-01, val_2--1.40845762e-02",
            "weighted-L2: train-9.94158879e-01, train_2--1.07055700e-02, test-9.92187500e-01, test_2--1.41345480e-02, val-9.89336493e-01, val_2--1.58599613e-02",
            "linear-L1: train-9.93574766e-01, train_2--1.09215325e-02, test-9.90625000e-01, test_2--1.48078157e-02, val-9.89336493e-01, val_2--1.82751448e-02",
            "weighted-L3: train-9.94742991e-01, train_2--1.04966497e-02, test-9.90625000e-01, test_2--1.42381652e-02, val-9.88151659e-01, val_2--1.58065172e-02",
            "weighted-L1: train-9.93574766e-01, train_2--1.00159859e-02, test-9.90625000e-01, test_2--1.51573141e-02, val-9.88151659e-01, val_2--1.64749158e-02",
            "linear-L3: train-9.94158879e-01, train_2--1.09169615e-02, test-9.90625000e-01, test_2--1.47089944e-02, val-9.88151659e-01, val_2--1.82259259e-02",
            "linear-L2: train-9.94742991e-01, train_2--1.06856582e-02, test-9.90625000e-01, test_2--1.41559043e-02, val-9.88151659e-01, val_2--1.88743607e-02",
            "lightgbm-L2: train-9.92990654e-01, train_2--1.26716782e-02, test-9.89062500e-01, test_2--1.59729620e-02, val-9.88151659e-01, val_2--1.89216915e-02",
            "lightgbm-L1: train-9.93574766e-01, train_2--1.21460917e-02, test-9.93750000e-01, test_2--1.34192870e-02, val-9.88151659e-01, val_2--2.03493791e-02",
            "lightgbm-L3: train-9.92990654e-01, train_2--1.24350121e-02, test-9.89062500e-01, test_2--1.64681964e-02, val-9.86966825e-01, val_2--2.14072510e-02"
        ],
        "stacking30_0.3_dropout0.4_retainTrue": [
            "best_idx17-L3: train-9.91238318e-01, train_2--1.23838710e-02, test-9.92187500e-01, test_2--1.26456544e-02, val-9.90521327e-01, val_2--1.30098014e-02",
            "best_idx16-L2: train-9.94742991e-01, train_2--1.04309754e-02, test-9.90625000e-01, test_2--1.29152323e-02, val-9.90521327e-01, val_2--1.43108183e-02",
            "lightgbm-L3: train-9.92990654e-01, train_2--1.24851036e-02, test-9.93750000e-01, test_2--1.35104238e-02, val-9.90521327e-01, val_2--1.88555187e-02",
            "linear-L1: train-9.93574766e-01, train_2--1.09215325e-02, test-9.90625000e-01, test_2--1.48078157e-02, val-9.89336493e-01, val_2--1.82751448e-02",
            "weighted-L2: train-9.94158879e-01, train_2--1.33820182e-02, test-9.90625000e-01, test_2--1.36749916e-02, val-9.88151659e-01, val_2--1.51826287e-02",
            "weighted-L3: train-9.92990654e-01, train_2--1.85979318e-02, test-9.90625000e-01, test_2--1.40339236e-02, val-9.88151659e-01, val_2--1.53064336e-02",
            "weighted-L1: train-9.93574766e-01, train_2--1.00159859e-02, test-9.90625000e-01, test_2--1.51573141e-02, val-9.88151659e-01, val_2--1.64749158e-02",
            "linear-L2: train-9.93574766e-01, train_2--1.19277161e-02, test-9.92187500e-01, test_2--1.56170069e-02, val-9.88151659e-01, val_2--1.86935498e-02",
            "linear-L3: train-9.92990654e-01, train_2--1.29112297e-02, test-9.92187500e-01, test_2--1.59270023e-02, val-9.88151659e-01, val_2--1.90582460e-02",
            "lightgbm-L1: train-9.93574766e-01, train_2--1.21460917e-02, test-9.93750000e-01, test_2--1.34192870e-02, val-9.88151659e-01, val_2--2.03493791e-02",
            "lightgbm-L2: train-9.92406542e-01, train_2--1.37498489e-02, test-9.92187500e-01, test_2--1.50681587e-02, val-9.85781991e-01, val_2--2.28895778e-02"
        ]
    }
}