{
    "task_type": "CLS",
    "dataset": "kropt",
    "refit": "full",
    "filter": "m6_p6",
    "time_limit": 3600,
    "best": 0.9272986457590877,
    "fixed_ens": {
        "ensemble_selection10": 0.9214183891660727,
        "cma_es": 0.92712045616536,
        "qdo_es": 0.9272986457590877,
        "OptDivBO": 0.7157875980042766,
        "stacking-1_0.4_L1_linear": 0.864575908766928,
        "stacking-1_0.4_L2_linear": 0.8907697790449037,
        "stacking1000_0.4_L1_linear": 0.8895224518888097,
        "stacking1000_0.4_L2_linear": 0.912152530292231,
        "ensemble_selection25": 0.9214183891660727,
        "EnsOpt": 0.8790092658588738,
        "stacking1000_0.4_L1_weighted": 0.8503207412687099,
        "stacking-1_0.4_L1_weighted": 0.8519244476122595,
        "stacking1000_0.4_L2_weighted": 0.9166072701354241,
        "stacking-1_0.4_L2_weighted": 0.8955808980755524,
        "autogluon-": 0.928232322970233
    },
    "defopt_ens": {
        "s10_r20_d20": "0.9078759800427655, 0.9069850320741268, 0.9069850320741268, 0.9085887384176764, 0.9091233071988596, 0.9069850320741268",
        "s10_r40_d20": "0.9078759800427655, 0.9069850320741268, 0.9069850320741268, 0.9085887384176764, 0.9091233071988596, 0.9069850320741268",
        "s20_r20_d20": "0.9091233071988596, 0.9073414112615823, 0.9059158945117605, 0.9087669280114041, 0.9071632216678546, 0.9059158945117605",
        "s20_r40_d20": "0.9091233071988596, 0.9073414112615823, 0.9059158945117605, 0.9087669280114041, 0.9071632216678546, 0.9059158945117605",
        "s10_r20_d0": "0.9132216678545972, 0.9126870990734142, 0.9085887384176764, 0.9142908054169636, 0.9144689950106913, 0.9085887384176764",
        "s10_r40_d0": "0.9132216678545972, 0.9126870990734142, 0.9085887384176764, 0.9142908054169636, 0.9144689950106913, 0.9085887384176764",
        "s20_r20_d0": "0.9183891660727014, 0.9182109764789737, 0.9187455452601568, 0.9178545972915182, 0.9183891660727014, 0.9187455452601568",
        "s20_r40_d0": "0.9183891660727014, 0.9182109764789737, 0.9187455452601568, 0.9178545972915182, 0.9183891660727014, 0.9187455452601568"
    },
    "opt_ens": [
        "0.9078759800427655",
        "0.9069850320741268",
        "0.9069850320741268",
        "0.9085887384176764",
        "0.9091233071988596",
        "0.9069850320741268"
    ],
    "opt_ens_d0": [
        "0.9132216678545972",
        "0.9126870990734142",
        "0.9085887384176764",
        "0.9142908054169636",
        "0.9144689950106913",
        "0.9085887384176764"
    ],
    "opt_ens_d0-20": [
        "0.9132216678545972",
        "0.9126870990734142",
        "0.9085887384176764",
        "0.9142908054169636",
        "0.9144689950106913",
        "0.9085887384176764"
    ],
    "size_exp": {
        "stacking5_-1_L1_linear": [
            "linear-L1: train-6.46272528e-01, train_2--4.73859635e-01, test-6.51461155e-01, test_2--4.71497246e-01, val-6.53435939e-01, val_2--4.66808713e-01"
        ],
        "stacking5_0_L1_linear": [
            "linear-L1: train-8.09336969e-01, train_2--2.76774525e-01, test-8.16108339e-01, test_2--2.65321940e-01, val-8.19900095e-01, val_2--2.57001583e-01"
        ],
        "stacking5_0.1_L1_linear": [
            "linear-L1: train-8.12728603e-01, train_2--2.70760322e-01, test-8.18602994e-01, test_2--2.59145295e-01, val-8.23545295e-01, val_2--2.51362162e-01"
        ],
        "stacking5_0.2_L1_linear": [
            "linear-L1: train-8.12728603e-01, train_2--2.70760322e-01, test-8.18602994e-01, test_2--2.59145295e-01, val-8.23545295e-01, val_2--2.51362162e-01"
        ],
        "stacking5_0.3_L1_linear": [
            "linear-L1: train-8.12728603e-01, train_2--2.70760322e-01, test-8.18602994e-01, test_2--2.59145295e-01, val-8.23545295e-01, val_2--2.51362162e-01"
        ],
        "stacking5_0.4_L1_linear": [
            "linear-L1: train-8.12728603e-01, train_2--2.70760322e-01, test-8.18602994e-01, test_2--2.59145295e-01, val-8.23545295e-01, val_2--2.51362162e-01"
        ],
        "stacking10_-1_L1_linear": [
            "linear-L1: train-7.68770366e-01, train_2--3.26814103e-01, test-7.72808268e-01, test_2--3.22321922e-01, val-7.75482652e-01, val_2--3.14853408e-01"
        ],
        "stacking10_0_L1_linear": [
            "linear-L1: train-8.24300060e-01, train_2--2.54746327e-01, test-8.27156094e-01, test_2--2.51778236e-01, val-8.28810585e-01, val_2--2.44110302e-01"
        ],
        "stacking10_0.1_L1_linear": [
            "linear-L1: train-8.25231097e-01, train_2--2.53135060e-01, test-8.26977904e-01, test_2--2.50764611e-01, val-8.30700689e-01, val_2--2.43940868e-01"
        ],
        "stacking10_0.2_L1_linear": [
            "linear-L1: train-8.25231097e-01, train_2--2.53135060e-01, test-8.26977904e-01, test_2--2.50764611e-01, val-8.30700689e-01, val_2--2.43940868e-01"
        ],
        "stacking10_0.3_L1_linear": [
            "linear-L1: train-8.25231097e-01, train_2--2.53135060e-01, test-8.26977904e-01, test_2--2.50764611e-01, val-8.30700689e-01, val_2--2.43940868e-01"
        ],
        "stacking10_0.4_L1_linear": [
            "linear-L1: train-8.25231097e-01, train_2--2.53135060e-01, test-8.26977904e-01, test_2--2.50764611e-01, val-8.30700689e-01, val_2--2.43940868e-01"
        ],
        "stacking20_-1_L1_linear": [
            "linear-L1: train-8.04548780e-01, train_2--2.74541569e-01, test-7.95972915e-01, test_2--2.83288663e-01, val-8.05859322e-01, val_2--2.74135882e-01"
        ],
        "stacking20_0_L1_linear": [
            "linear-L1: train-8.42455277e-01, train_2--2.30216887e-01, test-8.36065574e-01, test_2--2.34755456e-01, val-8.37721075e-01, val_2--2.29362683e-01"
        ],
        "stacking20_0.1_L1_linear": [
            "linear-L1: train-8.43452816e-01, train_2--2.29033997e-01, test-8.38025659e-01, test_2--2.34389386e-01, val-8.40961253e-01, val_2--2.27983380e-01"
        ],
        "stacking20_0.2_L1_linear": [
            "linear-L1: train-8.43452816e-01, train_2--2.29033997e-01, test-8.38025659e-01, test_2--2.34389386e-01, val-8.40961253e-01, val_2--2.27983380e-01"
        ],
        "stacking20_0.3_L1_linear": [
            "linear-L1: train-8.43452816e-01, train_2--2.29033997e-01, test-8.38025659e-01, test_2--2.34389386e-01, val-8.40961253e-01, val_2--2.27983380e-01"
        ],
        "stacking20_0.4_L1_linear": [
            "linear-L1: train-8.43452816e-01, train_2--2.29033997e-01, test-8.38025659e-01, test_2--2.34389386e-01, val-8.40961253e-01, val_2--2.27983380e-01"
        ],
        "stacking30_-1_L1_linear": [
            "linear-L1: train-8.22970007e-01, train_2--2.51883105e-01, test-8.10049893e-01, test_2--2.68454909e-01, val-8.18009991e-01, val_2--2.60553163e-01"
        ],
        "stacking30_0_L1_linear": [
            "linear-L1: train-8.50236084e-01, train_2--2.19195792e-01, test-8.39451176e-01, test_2--2.31689485e-01, val-8.44741461e-01, val_2--2.24971665e-01"
        ],
        "stacking30_0.1_L1_linear": [
            "linear-L1: train-8.51765645e-01, train_2--2.17663988e-01, test-8.37491091e-01, test_2--2.32000251e-01, val-8.44201431e-01, val_2--2.25405942e-01"
        ],
        "stacking30_0.2_L1_linear": [
            "linear-L1: train-8.51765645e-01, train_2--2.17663988e-01, test-8.37491091e-01, test_2--2.32000251e-01, val-8.44201431e-01, val_2--2.25405942e-01"
        ],
        "stacking30_0.3_L1_linear": [
            "linear-L1: train-8.51765645e-01, train_2--2.17663988e-01, test-8.37491091e-01, test_2--2.32000251e-01, val-8.44201431e-01, val_2--2.25405942e-01"
        ],
        "stacking30_0.4_L1_linear": [
            "linear-L1: train-8.51765645e-01, train_2--2.17663988e-01, test-8.37491091e-01, test_2--2.32000251e-01, val-8.44201431e-01, val_2--2.25405942e-01"
        ],
        "stacking40_-1_L1_linear": [
            "linear-L1: train-8.36270533e-01, train_2--2.33899270e-01, test-8.18246614e-01, test_2--2.57646768e-01, val-8.22870258e-01, val_2--2.47962004e-01"
        ],
        "stacking40_0_L1_linear": [
            "linear-L1: train-8.56021813e-01, train_2--2.11376500e-01, test-8.39807555e-01, test_2--2.30102334e-01, val-8.45551505e-01, val_2--2.22772739e-01"
        ],
        "stacking40_0.1_L1_linear": [
            "linear-L1: train-8.56021813e-01, train_2--2.11376500e-01, test-8.39807555e-01, test_2--2.30102334e-01, val-8.45551505e-01, val_2--2.22772739e-01"
        ],
        "stacking40_0.2_L1_linear": [
            "linear-L1: train-8.56021813e-01, train_2--2.11376500e-01, test-8.39807555e-01, test_2--2.30102334e-01, val-8.45551505e-01, val_2--2.22772739e-01"
        ],
        "stacking40_0.3_L1_linear": [
            "linear-L1: train-8.56021813e-01, train_2--2.11376500e-01, test-8.39807555e-01, test_2--2.30102334e-01, val-8.45551505e-01, val_2--2.22772739e-01"
        ],
        "stacking40_0.4_L1_linear": [
            "linear-L1: train-8.56021813e-01, train_2--2.11376500e-01, test-8.39807555e-01, test_2--2.30102334e-01, val-8.45551505e-01, val_2--2.22772739e-01"
        ],
        "stacking-1_0.4_L1_linear": [
            "linear-L1: train-0.81426, train_2--0.26975, test-0.81878, test_2--0.25839, val-0.82301, val_2--0.25113"
        ],
        "stacking1000_0.4_L1_linear": [
            "linear-L1: train-0.86254, train_2--0.20065, test-0.84141, test_2--0.22805, val-0.84650, val_2--0.22114"
        ],
        "stacking5_0.49_L1_linear": [
            "linear-L1: train-0.81273, train_2--0.27076, test-0.81860, test_2--0.25915, val-0.82355, val_2--0.25136"
        ],
        "stacking10_0.49_L1_linear": [
            "linear-L1: train-0.82523, train_2--0.25314, test-0.82698, test_2--0.25076, val-0.83070, val_2--0.24394"
        ],
        "stacking20_0.49_L1_linear": [
            "linear-L1: train-0.84345, train_2--0.22903, test-0.83803, test_2--0.23439, val-0.84096, val_2--0.22798"
        ],
        "stacking30_0.49_L1_linear": [
            "linear-L1: train-0.85177, train_2--0.21766, test-0.83749, test_2--0.23200, val-0.84420, val_2--0.22541"
        ],
        "stacking40_0.49_L1_linear": [
            "linear-L1: train-0.85602, train_2--0.21138, test-0.83981, test_2--0.23010, val-0.84555, val_2--0.22277"
        ],
        "stacking50_-1_L1_linear": [
            "linear-L1: train-0.86207, train_2--0.20097, test-0.83981, test_2--0.22814, val-0.84582, val_2--0.22131"
        ],
        "stacking50_0_L1_linear": [
            "linear-L1: train-0.68478, train_2--0.44095, test-0.69779, test_2--0.41896, val-0.70271, val_2--0.41326"
        ],
        "stacking50_0.1_L1_linear": [
            "linear-L1: train-0.68478, train_2--0.44095, test-0.69779, test_2--0.41896, val-0.70271, val_2--0.41326"
        ],
        "stacking50_0.2_L1_linear": [
            "linear-L1: train-0.68478, train_2--0.44095, test-0.69779, test_2--0.41896, val-0.70271, val_2--0.41326"
        ],
        "stacking50_0.3_L1_linear": [
            "linear-L1: train-0.68478, train_2--0.44095, test-0.69779, test_2--0.41896, val-0.70271, val_2--0.41326"
        ],
        "stacking50_0.4_L1_linear": [
            "linear-L1: train-0.68478, train_2--0.44095, test-0.69779, test_2--0.41896, val-0.70271, val_2--0.41326"
        ],
        "stacking50_0.49_L1_linear": [
            "linear-L1: train-0.68478, train_2--0.44095, test-0.69779, test_2--0.41896, val-0.70271, val_2--0.41326"
        ]
    },
    "retain_exp": {
        "stacking10_0.4_L1_weighted_retainFalse": [
            [
                {
                    "train": [
                        0.6501296801223648,
                        0.6937554033384319,
                        0.6704129813127618,
                        0.5600851233623728,
                        0.717895856886347,
                        0.693422890204163,
                        0.5930039236549843,
                        0.6938884085921394,
                        0.6443439515860877,
                        0.6827824699075613
                    ],
                    "train_2": [
                        -0.4831487646128148,
                        -0.452201399734633,
                        -0.5048541547337428,
                        -0.8436391749313519,
                        -0.3960506794400535,
                        -0.4260161899794936,
                        -0.5348301540915261,
                        -0.4306865407693106,
                        -0.480020841923256,
                        -0.4666121638597161
                    ],
                    "test": [
                        0.6657163221667854,
                        0.7006414825374199,
                        0.6917320028510335,
                        0.8396293656450463,
                        0.7218460441910193,
                        0.7006414825374199,
                        0.6038845331432644,
                        0.6936920883820384,
                        0.6660727013542409,
                        0.6919101924447613
                    ],
                    "test_2": [
                        -0.473451078263319,
                        -0.4387733085358081,
                        -0.46972907549912407,
                        -0.37153821245694746,
                        -0.3949227451226821,
                        -0.4247674461057017,
                        -0.5304939487176332,
                        -0.4245685224323162,
                        -0.46607620527441196,
                        -0.46229473778218844
                    ],
                    "val": [
                        0.6709869042797354,
                        0.7043337383556095,
                        0.7032536789523424,
                        0.839341163764007,
                        0.7240448224652356,
                        0.703118671526934,
                        0.6038882138517618,
                        0.7106790873498042,
                        0.6750371270419873,
                        0.7041987309302011
                    ],
                    "val_2": [
                        -0.465996110391919,
                        -0.43522004989883634,
                        -0.4663651402767173,
                        -0.37079896870924867,
                        -0.38927089242820895,
                        -0.41829366116163275,
                        -0.525705390314968,
                        -0.4181557563291875,
                        -0.4586863161873903,
                        -0.4590090888523275
                    ]
                },
                {
                    "train": [
                        0.7838664627252776,
                        0.7879231229633571,
                        0.7566668883420895,
                        0.27591939881625327,
                        0.8211744363902375,
                        0.8143246658243001,
                        0.8175832945401343,
                        0.8072753873778015,
                        0.8022876903637693,
                        0.8164527498836204
                    ],
                    "train_2": [
                        -0.3049877643237448,
                        -0.32585241184282415,
                        -0.42559325880325083,
                        -1.4481611260568656,
                        -0.2938853220844987,
                        -0.3072723800996437,
                        -0.3062604002785986,
                        -0.28134621418873756,
                        -0.29481686506617016,
                        -0.26921043778263554
                    ],
                    "test": [
                        0.8050605844618675,
                        0.84248039914469,
                        0.8100498930862438,
                        0.39914468995010693,
                        0.8622594440484675,
                        0.8629722024233785,
                        0.8652886671418389,
                        0.836600142551675,
                        0.82679971489665,
                        0.8583392729864576
                    ],
                    "test_2": [
                        -0.27727269689230327,
                        -0.23235279878022588,
                        -0.3616773620533373,
                        -0.7740087795223248,
                        -0.20772104495926572,
                        -0.20657936792582604,
                        -0.20866186952235147,
                        -0.24945055523888673,
                        -0.2673356593014968,
                        -0.21057172825918108
                    ],
                    "val": [
                        0.8126096935331443,
                        0.8410962602943162,
                        0.8178749831240718,
                        0.3977318752531389,
                        0.8653975968678277,
                        0.8625624409342514,
                        0.8679627379505873,
                        0.840016200891049,
                        0.8282705548805185,
                        0.8568921290670987
                    ],
                    "val_2": [
                        -0.2719743590176433,
                        -0.23318966178673597,
                        -0.3586165691398639,
                        -0.77667042804612,
                        -0.20541172612205436,
                        -0.208145189282714,
                        -0.20926517335986458,
                        -0.24712294807130344,
                        -0.2614972215471851,
                        -0.2113480122499906
                    ]
                },
                {
                    "train": [
                        0.8066768637361176,
                        0.6448759726009178,
                        0.7885881492318947,
                        0.42528429872979984,
                        0.8130611159140786,
                        0.8097359845713906,
                        0.8072088847509477,
                        0.8196448759726009,
                        0.8203099022411385,
                        0.8130611159140786
                    ],
                    "train_2": [
                        -0.28133784032480186,
                        -0.6401254990633303,
                        -0.4012513238226026,
                        -1.1493285948968124,
                        -0.31381647544112784,
                        -0.32278865147198177,
                        -0.329935236568125,
                        -0.2625342906889469,
                        -0.2659825268338099,
                        -0.2747640943612711
                    ],
                    "test": [
                        0.8417676407697791,
                        0.8455096222380613,
                        0.8399857448325018,
                        0.5997861724875267,
                        0.8512116892373486,
                        0.8517462580185318,
                        0.8519244476122595,
                        0.8535281539558089,
                        0.8560228082679971,
                        0.8522808267997148
                    ],
                    "test_2": [
                        -0.24204618703110245,
                        -0.29671630159132645,
                        -0.33449341504244867,
                        -0.5921575966217396,
                        -0.2263447009935418,
                        -0.23177391700912345,
                        -0.23357260274612426,
                        -0.2190603245308864,
                        -0.2152646369779045,
                        -0.21242142566060598
                    ],
                    "val": [
                        0.8456865127582017,
                        0.8432563791008505,
                        0.8417712974213581,
                        0.6030781692993115,
                        0.85257189145403,
                        0.8489266909680032,
                        0.8501417577966788,
                        0.8540569731335224,
                        0.8544619954097475,
                        0.8516268394761712
                    ],
                    "val_2": [
                        -0.23818452160395298,
                        -0.2968053757992868,
                        -0.3323230859396603,
                        -0.5888697095479412,
                        -0.22676578998748964,
                        -0.23129163957959067,
                        -0.23455723129864048,
                        -0.2183246420376328,
                        -0.2148623259943297,
                        -0.21182545754184065
                    ]
                },
                {
                    "train": [
                        0.8019551772295006,
                        0.30418301522910157,
                        0.7772827026667554,
                        0.41630644410454215,
                        0.8042162665425284,
                        0.7955709250515396,
                        0.8009576378266942,
                        0.8100019950788057,
                        0.8095364766908293,
                        0.8052138059453349
                    ],
                    "train_2": [
                        -0.29126114008731724,
                        -1.3628911658630694,
                        -0.4139939340110679,
                        -1.1673592120157597,
                        -0.33021485748998775,
                        -0.34565117494085357,
                        -0.34392878692118856,
                        -0.2774227377096917,
                        -0.2829609639432609,
                        -0.28668757973222103
                    ],
                    "test": [
                        0.8431931575196009,
                        0.7280826799714897,
                        0.836600142551675,
                        0.5798289379900213,
                        0.8464005702066999,
                        0.8449750534568781,
                        0.8464005702066999,
                        0.8487170349251604,
                        0.8504989308624377,
                        0.8474697077690663
                    ],
                    "test_2": [
                        -0.24299538372993895,
                        -0.6425419790707081,
                        -0.3375727853415052,
                        -0.5856886763525294,
                        -0.23587348767541277,
                        -0.24003546043483417,
                        -0.24353135428878128,
                        -0.22459876990972577,
                        -0.2215654315905071,
                        -0.2185379203509648
                    ],
                    "val": [
                        0.8424463345484001,
                        0.7290400972053463,
                        0.8381260969353315,
                        0.5879573376535709,
                        0.8431213716754421,
                        0.8401512083164574,
                        0.8419063048467665,
                        0.841366275145133,
                        0.8458215201836101,
                        0.8424463345484001
                    ],
                    "val_2": [
                        -0.24240305964374187,
                        -0.6446049718342771,
                        -0.33593979302649285,
                        -0.5844570210795893,
                        -0.23940918804226438,
                        -0.24506843928424324,
                        -0.24871230069680586,
                        -0.22501183460204088,
                        -0.22188732812304676,
                        -0.21961953268224663
                    ]
                },
                {
                    "train": [
                        0.792378798962559,
                        0.7238145906763317,
                        0.7732925450555297,
                        0.6029793176830485,
                        0.7885881492318947,
                        0.7863270599188668,
                        0.7905832280375075,
                        0.7994280774090576,
                        0.8007581299461328,
                        0.7911152490523375
                    ],
                    "train_2": [
                        -0.30477884997024945,
                        -0.4656467495576566,
                        -0.4203621313523992,
                        -0.7696687189358589,
                        -0.34901502229782155,
                        -0.36046102731413443,
                        -0.35785642741744145,
                        -0.2937672840843765,
                        -0.2960580896752723,
                        -0.3025296647848597
                    ],
                    "test": [
                        0.8357091945830364,
                        0.8332145402708482,
                        0.8321454027084818,
                        0.8419458303635068,
                        0.8426585887384177,
                        0.8414112615823236,
                        0.8410548823948681,
                        0.844440484675695,
                        0.8460441910192444,
                        0.8412330719885959
                    ],
                    "test_2": [
                        -0.24790504326294652,
                        -0.25621659798762414,
                        -0.34196131029664867,
                        -0.3104459392269748,
                        -0.24164957953252006,
                        -0.2473303751171117,
                        -0.24924302678259982,
                        -0.22977541401199886,
                        -0.22845302399159506,
                        -0.22636888597731172
                    ],
                    "val": [
                        0.8358309707033886,
                        0.8312407182395032,
                        0.8304306736870528,
                        0.8361009855542055,
                        0.8335358444714459,
                        0.8367760226812475,
                        0.8385311192115567,
                        0.840691238018091,
                        0.8420413122721749,
                        0.8363710004050223
                    ],
                    "val_2": [
                        -0.24640865709827944,
                        -0.25857281386455977,
                        -0.34367124326104603,
                        -0.32033336795311507,
                        -0.24819939796682136,
                        -0.250592272125134,
                        -0.25275725538564947,
                        -0.22957904383495614,
                        -0.2281466040235899,
                        -0.22787932076072742
                    ]
                }
            ],
            [
                "best_idx6-L2: train-0.81758, train_2--0.30626, test-0.86529, test_2--0.20866, val-0.86796, val_2--0.20927",
                "weighted-L2: train-0.82217, train_2--0.26069, test-0.86226, test_2--0.20527, val-0.86351, val_2--0.20409",
                "weighted-L3: train-0.81785, train_2--0.26391, test-0.85638, test_2--0.21689, val-0.85662, val_2--0.21609",
                "linear-L2: train-0.81898, train_2--0.27111, test-0.85264, test_2--0.21564, val-0.85622, val_2--0.21313",
                "best_idx8-L3: train-0.82031, train_2--0.26598, test-0.85602, test_2--0.21526, val-0.85446, val_2--0.21486",
                "linear-L3: train-0.81253, train_2--0.27489, test-0.85032, test_2--0.21563, val-0.85001, val_2--0.21680",
                "best_idx8-L4: train-0.80954, train_2--0.28296, test-0.85050, test_2--0.22157, val-0.84582, val_2--0.22189",
                "weighted-L4: train-0.81180, train_2--0.27339, test-0.85175, test_2--0.21860, val-0.84420, val_2--0.21925",
                "weighted-L5: train-0.80003, train_2--0.29283, test-0.84515, test_2--0.22818, val-0.84272, val_2--0.22793",
                "best_idx8-L5: train-0.80076, train_2--0.29606, test-0.84604, test_2--0.22845, val-0.84204, val_2--0.22815",
                "linear-L4: train-0.79936, train_2--0.29489, test-0.84195, test_2--0.22483, val-0.84002, val_2--0.22460",
                "linear-L5: train-0.79198, train_2--0.30907, test-0.84105, test_2--0.23119, val-0.83637, val_2--0.23272",
                "linear-L1: train-0.80076, train_2--0.28920, test-0.82698, test_2--0.25076, val-0.83070, val_2--0.24394",
                "weighted-L1: train-0.77449, train_2--0.40826, test-0.81361, test_2--0.36628, val-0.81558, val_2--0.36248"
            ]
        ],
        "stacking10_0.4_L1_weighted_retainTrue": [
            [
                {
                    "train": [
                        0.6501296801223648,
                        0.6937554033384319,
                        0.6704129813127618,
                        0.5600851233623728,
                        0.717895856886347,
                        0.693422890204163,
                        0.5930039236549843,
                        0.6938884085921394,
                        0.6443439515860877,
                        0.6827824699075613
                    ],
                    "train_2": [
                        -0.4831487646128148,
                        -0.452201399734633,
                        -0.5048541547337428,
                        -0.8436391749313519,
                        -0.3960506794400535,
                        -0.4260161899794936,
                        -0.5348301540915261,
                        -0.4306865407693106,
                        -0.480020841923256,
                        -0.4666121638597161
                    ],
                    "test": [
                        0.6657163221667854,
                        0.7006414825374199,
                        0.6917320028510335,
                        0.8396293656450463,
                        0.7218460441910193,
                        0.7006414825374199,
                        0.6038845331432644,
                        0.6936920883820384,
                        0.6660727013542409,
                        0.6919101924447613
                    ],
                    "test_2": [
                        -0.473451078263319,
                        -0.4387733085358081,
                        -0.46972907549912396,
                        -0.37153821245694746,
                        -0.3949227451226821,
                        -0.4247674461057018,
                        -0.5304939487176332,
                        -0.4245685224323162,
                        -0.46607620527441196,
                        -0.46229473778218844
                    ],
                    "val": [
                        0.6709869042797354,
                        0.7043337383556095,
                        0.7032536789523424,
                        0.839341163764007,
                        0.7240448224652356,
                        0.703118671526934,
                        0.6038882138517618,
                        0.7106790873498042,
                        0.6750371270419873,
                        0.7041987309302011
                    ],
                    "val_2": [
                        -0.465996110391919,
                        -0.43522004989883634,
                        -0.4663651402767173,
                        -0.37079896870924867,
                        -0.38927089242820895,
                        -0.41829366116163275,
                        -0.525705390314968,
                        -0.4181557563291875,
                        -0.4586863161873903,
                        -0.4590090888523275
                    ]
                },
                {
                    "train": [
                        0.7838664627252776,
                        0.7879231229633571,
                        0.7566668883420895,
                        0.5600851233623728,
                        0.8211744363902375,
                        0.8143246658243001,
                        0.8175832945401343,
                        0.8072753873778015,
                        0.8022876903637693,
                        0.8164527498836204
                    ],
                    "train_2": [
                        -0.3049877643237448,
                        -0.32585241184282415,
                        -0.42559325880325083,
                        -0.8436391749313519,
                        -0.2938853220844987,
                        -0.3072723800996437,
                        -0.3062604002785986,
                        -0.28134621418873756,
                        -0.29481686506617016,
                        -0.26921043778263554
                    ],
                    "test": [
                        0.8050605844618675,
                        0.84248039914469,
                        0.8100498930862438,
                        0.8396293656450463,
                        0.8622594440484675,
                        0.8629722024233785,
                        0.8652886671418389,
                        0.836600142551675,
                        0.82679971489665,
                        0.8583392729864576
                    ],
                    "test_2": [
                        -0.27727269689230327,
                        -0.23235279878022588,
                        -0.3616773620533373,
                        -0.37153821245694746,
                        -0.20772104495926572,
                        -0.20657936792582604,
                        -0.20866186952235147,
                        -0.24945055523888673,
                        -0.2673356593014968,
                        -0.21057172825918108
                    ],
                    "val": [
                        0.8126096935331443,
                        0.8410962602943162,
                        0.8178749831240718,
                        0.839341163764007,
                        0.8653975968678277,
                        0.8625624409342514,
                        0.8679627379505873,
                        0.840016200891049,
                        0.8282705548805185,
                        0.8568921290670987
                    ],
                    "val_2": [
                        -0.2719743590176433,
                        -0.23318966178673603,
                        -0.3586165691398639,
                        -0.37079896870924867,
                        -0.20541172612205436,
                        -0.208145189282714,
                        -0.20926517335986458,
                        -0.24712294807130344,
                        -0.2614972215471851,
                        -0.2113480122499906
                    ]
                },
                {
                    "train": [
                        0.8044822770499435,
                        0.7879231229633571,
                        0.7828689233224713,
                        0.5600851233623728,
                        0.8211744363902375,
                        0.8143246658243001,
                        0.8175832945401343,
                        0.8164527498836204,
                        0.8193123628383321,
                        0.8164527498836204
                    ],
                    "train_2": [
                        -0.2850584076986982,
                        -0.32585241184282415,
                        -0.4052815425542788,
                        -0.8436391749313519,
                        -0.2938853220844987,
                        -0.3072723800996437,
                        -0.3062604002785986,
                        -0.2653304477558216,
                        -0.2672745760457538,
                        -0.26921043778263554
                    ],
                    "test": [
                        0.8433713471133286,
                        0.84248039914469,
                        0.8360655737704918,
                        0.8396293656450463,
                        0.8622594440484675,
                        0.8629722024233785,
                        0.8652886671418389,
                        0.852815395580898,
                        0.855488239486814,
                        0.8583392729864576
                    ],
                    "test_2": [
                        -0.24221391827557323,
                        -0.23235279878022588,
                        -0.3360951743375279,
                        -0.37153821245694746,
                        -0.20772104495926572,
                        -0.20657936792582604,
                        -0.20866186952235147,
                        -0.22177436573959053,
                        -0.2180091432644334,
                        -0.21057172825918108
                    ],
                    "val": [
                        0.8435263939516674,
                        0.8410962602943162,
                        0.8375860672336979,
                        0.839341163764007,
                        0.8653975968678277,
                        0.8625624409342514,
                        0.8679627379505873,
                        0.853246928581072,
                        0.8558120696638315,
                        0.8568921290670987
                    ],
                    "val_2": [
                        -0.23885344895952923,
                        -0.23318966178673603,
                        -0.3326381729996539,
                        -0.37079896870924867,
                        -0.20541172612205436,
                        -0.208145189282714,
                        -0.20926517335986458,
                        -0.2210256300557286,
                        -0.21675042527339006,
                        -0.2113480122499906
                    ]
                },
                {
                    "train": [
                        0.8065438584824101,
                        0.7879231229633571,
                        0.7814058655316884,
                        0.5600851233623728,
                        0.8211744363902375,
                        0.8143246658243001,
                        0.8175832945401343,
                        0.8164527498836204,
                        0.8193123628383321,
                        0.8164527498836204
                    ],
                    "train_2": [
                        -0.28301956438966597,
                        -0.32585241184282415,
                        -0.40766424310158306,
                        -0.8436391749313519,
                        -0.2938853220844987,
                        -0.3072723800996437,
                        -0.3062604002785986,
                        -0.2653304477558216,
                        -0.2672745760457538,
                        -0.26921043778263554
                    ],
                    "test": [
                        0.8464005702066999,
                        0.84248039914469,
                        0.83464005702067,
                        0.8396293656450463,
                        0.8622594440484675,
                        0.8629722024233785,
                        0.8652886671418389,
                        0.852815395580898,
                        0.855488239486814,
                        0.8583392729864576
                    ],
                    "test_2": [
                        -0.23648785292476876,
                        -0.23235279878022588,
                        -0.3358086897696717,
                        -0.37153821245694746,
                        -0.20772104495926572,
                        -0.20657936792582604,
                        -0.20866186952235147,
                        -0.22177436573959053,
                        -0.2180091432644334,
                        -0.21057172825918108
                    ],
                    "val": [
                        0.844066423653301,
                        0.8410962602943162,
                        0.8388011340623734,
                        0.839341163764007,
                        0.8653975968678277,
                        0.8625624409342514,
                        0.8679627379505873,
                        0.853246928581072,
                        0.8558120696638315,
                        0.8568921290670987
                    ],
                    "val_2": [
                        -0.23518094266997833,
                        -0.23318966178673603,
                        -0.3327620467521435,
                        -0.37079896870924867,
                        -0.20541172612205436,
                        -0.208145189282714,
                        -0.20926517335986458,
                        -0.2210256300557286,
                        -0.21675042527339006,
                        -0.2113480122499906
                    ]
                },
                {
                    "train": [
                        0.803750748154552,
                        0.7879231229633571,
                        0.7816718760391036,
                        0.5600851233623728,
                        0.8211744363902375,
                        0.8143246658243001,
                        0.8175832945401343,
                        0.8164527498836204,
                        0.8193123628383321,
                        0.8164527498836204
                    ],
                    "train_2": [
                        -0.28511186215339285,
                        -0.32585241184282415,
                        -0.40760143740184024,
                        -0.8436391749313519,
                        -0.2938853220844987,
                        -0.3072723800996437,
                        -0.3062604002785986,
                        -0.2653304477558216,
                        -0.2672745760457538,
                        -0.26921043778263554
                    ],
                    "test": [
                        0.8478260869565217,
                        0.84248039914469,
                        0.8342836778332146,
                        0.8396293656450463,
                        0.8622594440484675,
                        0.8629722024233785,
                        0.8652886671418389,
                        0.852815395580898,
                        0.855488239486814,
                        0.8583392729864576
                    ],
                    "test_2": [
                        -0.23885699156864926,
                        -0.23235279878022588,
                        -0.3356152565740822,
                        -0.37153821245694746,
                        -0.20772104495926572,
                        -0.20657936792582604,
                        -0.20866186952235147,
                        -0.22177436573959053,
                        -0.2180091432644334,
                        -0.21057172825918108
                    ],
                    "val": [
                        0.8458215201836101,
                        0.8410962602943162,
                        0.839341163764007,
                        0.839341163764007,
                        0.8653975968678277,
                        0.8625624409342514,
                        0.8679627379505873,
                        0.853246928581072,
                        0.8558120696638315,
                        0.8568921290670987
                    ],
                    "val_2": [
                        -0.23643933646497034,
                        -0.23318966178673603,
                        -0.3320475444905715,
                        -0.37079896870924867,
                        -0.20541172612205436,
                        -0.208145189282714,
                        -0.20926517335986458,
                        -0.2210256300557286,
                        -0.21675042527339006,
                        -0.2113480122499906
                    ]
                }
            ],
            [
                "best_idx6-L2: train-0.81758, train_2--0.30626, test-0.86529, test_2--0.20866, val-0.86796, val_2--0.20927",
                "weighted-L3: train-0.82097, train_2--0.26783, test-0.86475, test_2--0.20110, val-0.86729, val_2--0.20049",
                "weighted-L5: train-0.82091, train_2--0.26899, test-0.86475, test_2--0.20110, val-0.86729, val_2--0.20049",
                "weighted-L2: train-0.82211, train_2--0.27292, test-0.86404, test_2--0.20634, val-0.86580, val_2--0.20498",
                "weighted-L4: train-0.82071, train_2--0.26985, test-0.86493, test_2--0.20141, val-0.86553, val_2--0.20083",
                "linear-L3: train-0.81339, train_2--0.27800, test-0.85567, test_2--0.21102, val-0.85757, val_2--0.21065",
                "linear-L4: train-0.81366, train_2--0.27741, test-0.85567, test_2--0.21115, val-0.85649, val_2--0.21098",
                "linear-L2: train-0.81240, train_2--0.27716, test-0.85246, test_2--0.21501, val-0.85635, val_2--0.21189",
                "linear-L5: train-0.81432, train_2--0.27679, test-0.85371, test_2--0.21177, val-0.85622, val_2--0.21118",
                "best_idx8-L3: train-0.81931, train_2--0.26727, test-0.85549, test_2--0.21801, val-0.85581, val_2--0.21675",
                "best_idx8-L4: train-0.81546, train_2--0.27063, test-0.85941, test_2--0.21923, val-0.85568, val_2--0.21721",
                "best_idx8-L5: train-0.81672, train_2--0.27071, test-0.85959, test_2--0.21765, val-0.85500, val_2--0.21731",
                "linear-L1: train-0.80076, train_2--0.28920, test-0.82698, test_2--0.25076, val-0.83070, val_2--0.24394",
                "weighted-L1: train-0.77449, train_2--0.40826, test-0.81361, test_2--0.36628, val-0.81558, val_2--0.36248"
            ]
        ]
    },
    "dropoutreg_exp": {
        "stacking30_0.3_L1_lineardropout0": [
            [
                [
                    0.2900132145722063,
                    -0.4110451710606032,
                    -0.2624572633743309,
                    0.3794896562012625,
                    0.642270032187759,
                    -0.13269811140016088,
                    0.45281964872086045,
                    -0.4250064098179731,
                    -0.028198649144128726,
                    0.19567768029125004,
                    -0.2706790583022144,
                    -0.01004057481295084,
                    -0.5439738696182594,
                    -0.31526728635188517,
                    0.02190373750821148,
                    0.32369593122359713,
                    0.12074817607611685,
                    -0.024810434226971302,
                    0.5956001002499101,
                    0.06801172064402941,
                    -0.33174720820081904,
                    0.32497519222708104,
                    -0.09526516263646106,
                    -0.06131588181599551,
                    0.2723483388044265,
                    -0.4223418058798022,
                    -0.02586060644205984,
                    -0.5273314375757301,
                    -0.08958769342479589,
                    0.13943852925111522,
                    -0.3865075896675365,
                    -0.10338985699992767,
                    -0.40042759494319996,
                    0.1076728859850733,
                    0.7291997020597831,
                    0.2089696170366889,
                    1.3898256047598803,
                    -0.40941262482821467,
                    -0.476352202415308,
                    -0.09774413478223,
                    0.4877156372990831,
                    0.07821394212524374,
                    -0.07793443974677876,
                    -0.06522291777981032,
                    0.5709833560413344,
                    -0.1360388173310277,
                    -0.06114392806195409,
                    -0.04774527379397857,
                    -0.0813066020494134,
                    -0.5935773902796491,
                    0.18335091124809388,
                    -0.30239727260995986,
                    -0.1479699879248597,
                    -0.21080261119868512,
                    0.7408313446014179,
                    -0.24463243106587318,
                    -0.2925015733049167,
                    -0.24620016337967868,
                    -0.0848245825154665,
                    -0.07552186071135253,
                    0.07422260308634085,
                    0.10055148229686896,
                    0.10754009746042943,
                    0.03561540248795714,
                    -0.06855072958739748,
                    0.11613696031209471,
                    0.032009134110159446,
                    -0.4516149890020453,
                    0.726743188322978,
                    -0.133615452664336,
                    -0.15867104779612218,
                    -0.17507613397927357,
                    0.9948103524281385,
                    -0.1676737356550757,
                    -0.11430757254029737,
                    -0.30636455801673246,
                    -0.014226323506720422,
                    0.16847526627797382,
                    -0.1678710098148984,
                    0.04099161655772163,
                    -0.09649477232682356,
                    -0.1573350438783962,
                    -0.00589553531627608,
                    0.21383788942741602,
                    0.09101786827874427,
                    -0.5904958891847663,
                    0.1335931807505891,
                    -0.027175689137246762,
                    0.006818047951316554,
                    0.0007371563771103056,
                    0.07692933315740762,
                    -0.33590656607401576,
                    0.04320221795927015,
                    0.09486038835736398,
                    -0.03677324055831555,
                    0.10332337255109694,
                    0.04546293410768617,
                    0.1380475548248001,
                    -0.0613157872153741,
                    -0.39629871405323613,
                    -0.1608997158899959,
                    0.44032961083921746,
                    0.05073205697712894,
                    -0.36879305432420456,
                    0.48594085622974614,
                    -0.15988757554739808,
                    0.04348520342343628,
                    2.373907164558207e-06,
                    -0.0671449220341826,
                    0.2381349182942475,
                    0.38938263117401595,
                    -0.23550852852435683,
                    -0.5231921833714865,
                    0.3704700384466098,
                    -0.4169289086847524,
                    0.33204650974474736,
                    0.03842285357942547,
                    -0.26699126645752974,
                    0.09866861688040231,
                    1.222564378097334,
                    -0.5437774866205509,
                    -0.10109733762505987,
                    -0.012735395644491401,
                    0.17628791183900738,
                    -0.01912236265915099,
                    -0.6770382177624473,
                    3.116545440640865,
                    0.06851559531878292,
                    -0.05353858555144719,
                    -0.5352730554420869,
                    -0.19392106349677873,
                    -0.6444199349334079,
                    0.12413924470771948,
                    -0.2123956543120272,
                    -0.10671322401971838,
                    -0.1875581709523528,
                    -0.7221039483151663,
                    -0.13070577486693663,
                    -0.5147319513304915,
                    -0.5384279188364933,
                    -0.027112099641264237,
                    0.08360948828870882,
                    0.591179636477433,
                    -0.11464677506355907,
                    -0.2434973786993324,
                    -0.4359124308528638,
                    -0.48476618900874263,
                    0.31403459433041125,
                    -0.2651883981127114,
                    0.07098873247454776,
                    0.07203048612176804,
                    -0.21471728907679113,
                    -0.1035913291942499,
                    0.09674485378610899,
                    0.0026410004600555762,
                    0.36685176839530326,
                    -0.36853003920208827,
                    0.6360902800951241,
                    -0.030911026294418872,
                    0.16088195123125637,
                    0.42941783084367907,
                    -0.00012616862529132424,
                    0.3911106616557805,
                    -0.0055740769704981956,
                    -0.35588412069846426,
                    0.2929152663441238,
                    0.015507150901192453,
                    -0.12753655803293604,
                    0.9318229390383493,
                    -0.2350298007947002,
                    0.0996505917489905,
                    -0.7219221020975074,
                    -0.10019034833707544,
                    0.17003144664036812,
                    -0.10075221186136016,
                    0.08722868154219762,
                    -0.07689152653932708,
                    -0.5513262574340208,
                    0.29186034387557425,
                    -0.0025788303089011853,
                    1.6206717636331824,
                    0.5212820822588882,
                    -0.3006747531683582,
                    -0.46020519580748726,
                    -0.0020765557167583696,
                    -0.29598147446288475,
                    0.024310465023268273,
                    -0.7881907831217402,
                    -0.018061578034811558,
                    -0.178075133001852,
                    -0.29355563297715226,
                    -0.29891953506724644,
                    -0.17667580820073928,
                    -0.7659737396631072,
                    0.41094678200723345,
                    0.37372618043773287,
                    0.6392212685905018,
                    -0.009327104056895168,
                    1.5757691969778644,
                    -0.07215545032213057,
                    -0.6302255024954341,
                    0.049638471979985714,
                    0.3275315792346787,
                    0.0996117725002885,
                    -0.3421056921680341,
                    -0.5621769447427085,
                    -0.04995718395791527,
                    0.3136668120337219,
                    0.004734623721097344,
                    0.26716498606873434,
                    -0.31445657735052457,
                    -0.6430869046571823,
                    0.0001708784516630622,
                    -0.5671415122322697,
                    0.33026133467517493,
                    0.21519736095474543,
                    0.3570642420486732,
                    0.03866282682676027,
                    -0.31871286949990296,
                    -0.10517198807569278,
                    0.17426909875196928,
                    0.2225765471919713,
                    -0.030563803569518287,
                    -0.3242744030722674,
                    0.06385946970125346,
                    0.19136808616801093,
                    0.040311001543548934,
                    -0.057891560786407364,
                    -0.0962198446859257,
                    -0.6076158676396413,
                    0.3191816657984842,
                    -0.25345124293519505,
                    0.27977042452823797,
                    0.10927946637741713,
                    2.007885688317633,
                    -0.2947728751822315,
                    -0.12661495942847767,
                    0.02137647989422618,
                    0.00367349534617282,
                    0.4032705298858306,
                    -0.7045572465812279,
                    -0.11568215209230352,
                    0.15302098778726608,
                    -0.15942328242766535,
                    -0.11615373618889543,
                    0.2116633829389842,
                    -0.3788262272953786,
                    -0.5515051470361814,
                    0.0033599984599328885,
                    -0.49110172823555026,
                    0.08277741182607354,
                    0.05405062868357451,
                    -0.38555877383579096,
                    0.13805056527566853,
                    -0.06837122049210873,
                    0.27077992583995586,
                    0.016508940264196716,
                    0.017200816502662617,
                    -0.32276779953234064,
                    0.21108337732930765,
                    0.03658919428041527,
                    0.005898587082513378,
                    -0.10844806566145422,
                    0.4987114251559935,
                    -0.0696656409127827,
                    -0.37849741146659593,
                    0.12535752780604248,
                    -0.06052359647777128,
                    0.03265122836191141,
                    0.043442169151949935,
                    2.672862603063232,
                    -0.19279735078790944,
                    -0.05762719334532286,
                    -0.6748167632710356,
                    0.6566231713368678,
                    0.3242290149030495,
                    -0.43368628652353886,
                    -0.34120358344321966,
                    0.10716486958509276,
                    -0.6465450630639467,
                    0.12287093300219487,
                    -0.19692465136026346,
                    -0.7370175381559013,
                    -1.0901817589513365,
                    0.11426612472850867,
                    -0.2168700110905471,
                    0.33630462814745654,
                    0.25579010389841833,
                    -0.0022672425877637713,
                    0.02700619704912806,
                    0.3913601703188447,
                    0.553452539591344,
                    0.081033762268292,
                    0.3889617629899511,
                    -0.2422489003845285,
                    -0.05002863001159126,
                    0.15871289707077102,
                    -0.28971071375843505,
                    -0.1259404805108251,
                    0.14449964310943467,
                    -0.5720746655193735,
                    -0.43551358458107337,
                    0.12451290920138892,
                    -0.19150373638345272,
                    0.15407128542842818,
                    -0.11188196461875279,
                    0.0408635903588684,
                    -0.06143258685897195,
                    0.07374343510586123,
                    0.17273722068001204,
                    -0.08207153649732815,
                    0.16112779586989376,
                    -0.168616025609637,
                    0.4053440615507864,
                    -0.0504799710226896,
                    -0.023240611012944026,
                    -0.3128628568279773,
                    0.22277388885645288,
                    -0.13764726716959325,
                    -0.42507985018234706,
                    -0.002467369119161447,
                    0.18225362499259626,
                    0.01692347412388896,
                    -0.009427768565930087,
                    -0.5070891996275094,
                    0.02991314710822711,
                    0.20318102669966004,
                    0.24234821731724177,
                    -0.07974163072590879,
                    0.1740397140779602,
                    -0.04823158689687878,
                    0.12262967022843665,
                    -0.04217597336058302,
                    0.08187785715667242,
                    -0.3234132362161095,
                    0.3745261222816369,
                    -0.05405354694610984,
                    -0.42505714050197635,
                    -0.03006055574281494,
                    0.2353860471654205,
                    0.05436832252635276,
                    -0.006006005871947939,
                    0.04160178790789243,
                    -0.17948152917957358,
                    0.09989238875054292,
                    0.5445877686109388,
                    0.14228444500148588,
                    0.21697773655096206,
                    0.5421911414708512,
                    -0.21504406579606328,
                    -0.07539484692877357,
                    0.1684857657621146,
                    -0.306479137985207,
                    0.2876917893105028,
                    -0.39669357237955455,
                    -0.6161523276588139,
                    0.020034367422114712,
                    -0.3801332091355776,
                    0.055191629116517815,
                    0.052881117831417544,
                    -0.02645392739179074,
                    -0.1713651544884055,
                    -0.0018646744442076344,
                    0.4374501324075018,
                    0.03408460543538608,
                    0.11818267652144195,
                    0.25783150863288756,
                    -0.029005448900847403,
                    -0.10459305631074921,
                    0.07730931312130204,
                    -0.2251891491957121,
                    0.18234605806689017,
                    -0.2857272193925328,
                    -0.2953461282124372,
                    0.034064010326336054,
                    -0.05896767645535475,
                    0.028733953850333116,
                    0.030951425101737595,
                    0.399775921994694,
                    -0.4096636314640602,
                    0.05999047765698876,
                    0.06955077730740648,
                    0.07450226139720534,
                    -0.14868756852420845,
                    0.16138688877672916,
                    -0.04784205344644783,
                    -0.09123378039016347,
                    -0.27694940279259966,
                    -0.43045760565489194,
                    0.19117679731589005,
                    0.06298960384487436,
                    -0.0627852743991226,
                    0.14406462831834804,
                    0.261141636213377,
                    0.030830391894352147,
                    0.014651180623403008,
                    -0.330772256586012,
                    -0.1797106545738145,
                    0.11817244962324543,
                    0.2739453092543638,
                    -0.11115663608818051,
                    -0.17642739759088688,
                    -0.2829270797277324,
                    -0.1985998013645544,
                    -0.10350891541871299,
                    0.12932398226839387,
                    0.15155938483264703,
                    0.11847168947973868,
                    0.08108245322846659,
                    0.09589283808050432,
                    0.07152113685388614,
                    0.30144345335124423,
                    0.04962733364503843,
                    -0.005496040595861722,
                    0.5391687362342897,
                    -0.32203933324129225,
                    -0.1336055144764684,
                    -0.27841766889463065,
                    0.21627339226216558,
                    -0.2957042220726499,
                    0.1702554304302672,
                    -0.06806721801348958,
                    -0.056351883799920746,
                    -0.5614931305942021,
                    -0.19984128035691617,
                    0.08802159581421809,
                    0.36741346561476956,
                    0.10483859981163367,
                    0.11612045489399235,
                    0.5078433226303599,
                    -0.15620744899389488,
                    -0.035766048576447246,
                    0.094812602071364,
                    0.21121595732904616,
                    0.03052144152234977,
                    -0.26722312552319016,
                    -0.10731738823185176,
                    -0.1289685236043964,
                    -0.18228187605052193,
                    0.20681468807890654,
                    -0.09499412472242247,
                    0.0985589089941127,
                    0.070726762366102,
                    0.12003335445688787,
                    -0.10664663573082729,
                    -0.12237297182224481,
                    -0.11225907145426253,
                    0.4509005706603659,
                    -0.17737051572036183,
                    0.01829119605271654,
                    -0.19033178589013705,
                    -0.2512768262949508,
                    0.02192187257021308,
                    0.6654276054796087,
                    0.03474706949749277,
                    0.24272693353833755,
                    0.09602024014002573,
                    0.11434219506338533,
                    -0.03856009213902469,
                    -0.14438895201896804,
                    -0.3154368371466265,
                    0.545282951996592,
                    -0.2803182877825969,
                    0.16030573190959121,
                    0.008599558853036782,
                    -0.6927603757740197,
                    -0.01922411759962768,
                    0.045364364269438386,
                    0.5347993082766621,
                    -0.25604631772996517,
                    0.03742286855562466,
                    0.04337329436184731,
                    0.1472599423660674,
                    0.15216218442369764,
                    0.08669978263276246,
                    0.13449826677295343,
                    0.08747193963546514,
                    -0.20961485528435947,
                    -0.3589469609868465,
                    -0.36010709592295226,
                    -0.0757047979344379,
                    0.014417119368301052,
                    -0.2547862374678265,
                    0.15426148135860646,
                    0.07821566600009436,
                    0.047065660246074226,
                    0.018305730714349787,
                    -0.1318955770228279,
                    -0.02087390824003641,
                    0.4177245238374983,
                    -0.0077282811326046036,
                    0.253285375304489,
                    0.37273650269817293,
                    0.17393298037950114,
                    -0.008290253117721694,
                    -0.022450286002269535,
                    -0.4053035683015989,
                    0.04961192942283805,
                    -0.2782537855506062,
                    -0.07898628702769583,
                    -0.13214140953753156,
                    -0.21238697288255085,
                    -0.11973299281816988,
                    0.13488752794854594,
                    1.1288763240033188,
                    -0.0912410652937897,
                    -0.39533220985049655,
                    0.0943758819223117,
                    -0.11930692276571078,
                    -0.011464042717635767,
                    0.03492955306442491,
                    -0.14175071631165184,
                    0.059174411388536324,
                    0.005139634980216684,
                    0.3864785959983878,
                    0.1476988796565809,
                    0.0770749513932583,
                    -0.5861704502990065,
                    -0.21850546838251167,
                    -0.23996426203076598,
                    0.027000319079206272,
                    -0.15457199812438738,
                    2.254217533746597,
                    -0.2301830452279829,
                    -0.2618425139187449,
                    -0.1335123829085799,
                    -0.14330108885975695,
                    0.021129353619862633,
                    -0.3576445852946413,
                    0.12273271650926977,
                    -0.021531312829783815,
                    -0.26980904032624387,
                    -0.2647315369919026,
                    0.14607275463394104,
                    -0.11367848653368745,
                    -0.48671849066980366,
                    -0.013863209549561842,
                    -0.2922753098383982,
                    0.0651580821075949,
                    -0.017778112166131396
                ],
                [
                    0.674259474398106,
                    1.704551356899049,
                    -0.6942598954180436,
                    -0.06827463654727547,
                    0.052312939343672656,
                    -0.029410347317923483,
                    -0.7479560371912377,
                    0.735221266561512,
                    0.06688858318357498,
                    -0.18931184796867256,
                    -0.4101678926038717,
                    -0.011212757988541556,
                    0.18227567983430978,
                    -0.22864949005411214,
                    -0.027717274943513365,
                    -0.9703367713060718,
                    -0.04056241443765435,
                    0.004099608636132213,
                    -0.055370552867352665,
                    0.6069275015795494,
                    -0.8523981456372127,
                    -0.1055895106928434,
                    0.3271285133058662,
                    -0.17818058622215688,
                    -0.2431031277503617,
                    0.4611747369291801,
                    -0.03258384632761498,
                    0.5502736422693444,
                    -0.41045945378548954,
                    -0.028580122527642242,
                    0.8392785777995662,
                    -0.3518960293248867,
                    -0.08820644234872181,
                    -0.30176964982855725,
                    -0.05989112119029524,
                    -0.07500484030095349,
                    -0.18274489861025942,
                    0.8374176028472563,
                    -0.8115390900369985,
                    -0.3266296169756528,
                    -0.3382765728858108,
                    0.5386911324869961,
                    -0.2352563642672777,
                    1.0118085766207188,
                    -0.01801726412110355,
                    0.7549931450544854,
                    -0.2927448590900275,
                    -0.009700573894052893,
                    0.3886742535533001,
                    0.06760496156060466,
                    -0.593593817703577,
                    -0.700421255548146,
                    0.03697293184673904,
                    -0.1254887477577474,
                    0.03594864774894111,
                    0.06321833514281644,
                    -0.12185992151536601,
                    -0.33300431357320354,
                    -0.21416814695355793,
                    -0.4107099724846978,
                    -0.37294817948382986,
                    1.1021242397947777,
                    0.036350882690004256,
                    0.6067777945442691,
                    0.009074283684333821,
                    -0.008746447431710136,
                    0.3916066869893738,
                    0.11347782239977543,
                    -0.19017837468189663,
                    -0.4909567976123826,
                    -0.0837920943596172,
                    -0.13046490181859582,
                    0.09464314850571841,
                    -0.8887601353007994,
                    0.6884027441313694,
                    -0.14653554688946244,
                    -0.1656650451942968,
                    -0.16623558635576452,
                    0.20450085012945513,
                    -0.09015233467186637,
                    0.006569160793761029,
                    0.26448971774217617,
                    0.21648722488472819,
                    0.00032535683126914494,
                    -0.339266915890058,
                    -0.11568385699775893,
                    -0.03605294798977938,
                    0.4549532180677606,
                    0.0869055260465931,
                    -0.06717503476363164,
                    0.12964748609258922,
                    -0.48929679232374057,
                    1.0354325858342404,
                    -0.1046725868187811,
                    -0.19932698787160372,
                    -0.40078540008610625,
                    0.18043021375585894,
                    0.17373600517813648,
                    0.07959202660729729,
                    -0.3252290407377566,
                    0.01458359862769698,
                    -0.006276499930442123,
                    -0.27488576121755415,
                    -0.06717530498959663,
                    -0.17163306262822822,
                    0.4105988042278416,
                    -0.09597123133570658,
                    0.1129814906952807,
                    0.23127596999350855,
                    0.0949965595677549,
                    0.1270632996592082,
                    -0.19608470088997412,
                    0.29992232899925647,
                    0.20783576695147782,
                    0.2148763507765222,
                    0.21315954228828807,
                    0.049865618607291794,
                    -0.16448607191013012,
                    -0.019900033364791354,
                    -0.15164667347068722,
                    -0.3152959535714133,
                    0.6483638484265791,
                    -0.7215750126577226,
                    0.014810086128658561,
                    -0.7075136707468472,
                    0.17608228829245662,
                    -0.10495724682298878,
                    0.8532282805838994,
                    -0.6823766900551718,
                    -0.1768700954944732,
                    0.629687759039715,
                    0.18957824072435703,
                    -0.16347805817668923,
                    0.4854467726602822,
                    -0.06084962322916435,
                    -0.38220869266052837,
                    0.0029428339397472624,
                    -0.14682057904024076,
                    1.1513829628397216,
                    -0.825754379841805,
                    -0.13740099941509476,
                    -0.7737587302601576,
                    0.17863813373376497,
                    -0.03468034544574605,
                    -0.13254455634337828,
                    -0.14170178488770355,
                    0.6168512552090905,
                    -0.21311330114954669,
                    0.020204174965339154,
                    -0.10508922817122056,
                    0.3836720531925195,
                    0.042383794083043665,
                    -0.0332154187411264,
                    0.74976612662227,
                    -0.1795892205439248,
                    -0.018984418625309737,
                    -0.6267486981753891,
                    -0.002814435665836089,
                    0.005804786594094634,
                    -0.36316926170546615,
                    0.00012007624853329288,
                    -8.239982654859265e-05,
                    -0.6400658060600236,
                    -0.13483163399128764,
                    0.2374080032733293,
                    -0.3443806074648919,
                    0.143399856747155,
                    0.3742109187682123,
                    -0.19951901308701256,
                    0.014074478879560062,
                    -0.011559352038678987,
                    0.8243090553584012,
                    0.09829262265807115,
                    -0.055336847549289594,
                    0.14439874314239476,
                    -0.289584094714917,
                    -0.5607666063075675,
                    0.17938905310648845,
                    0.18400676856521628,
                    0.03830400379426889,
                    -0.887984985843938,
                    1.2315226200335445,
                    0.5819839663870202,
                    -1.4401898188807338,
                    0.5586993368230109,
                    -0.17492866363497606,
                    0.20490454937304758,
                    0.26214833032827545,
                    -0.040151824027737856,
                    0.23963910869166297,
                    0.2406753110675474,
                    -0.03038982771473467,
                    0.18503751434632512,
                    -0.531446246485957,
                    -0.05914169837167334,
                    -0.15830144178450462,
                    -0.0907350532461697,
                    -0.08959163398056479,
                    -0.4020408715014153,
                    1.3498367203737411,
                    0.04449600361628699,
                    -0.3161716737571103,
                    -0.9971396104178547,
                    -0.17603059752488875,
                    -0.7860251833403619,
                    0.50792624223119,
                    -0.1882862973223581,
                    0.6044906313314452,
                    0.04452592922036251,
                    -0.011572894133473963,
                    0.4888918640806389,
                    0.0219975250567239,
                    -0.09121664820661636,
                    -0.23565995527967457,
                    -0.09574096322020208,
                    0.23946932187296846,
                    0.284098071071886,
                    1.2036844078280007,
                    0.1736288965212592,
                    -0.18713535410092577,
                    -0.40209192837715796,
                    -0.4977223796798431,
                    -0.4259724741525021,
                    0.5144470772611619,
                    -0.139465326375983,
                    -0.22774711043643273,
                    0.21536896858244392,
                    0.1106823037726176,
                    0.30527154656882066,
                    -0.27363024914301654,
                    -0.15313709800397543,
                    -0.6858056507783353,
                    -0.09139587034882637,
                    0.2786717128702437,
                    -0.48075806852691816,
                    0.7842158057189783,
                    -0.49583792190423454,
                    -0.16211917833858336,
                    0.17508239913340326,
                    -0.4060676909086451,
                    -0.3672157400458704,
                    0.7601143206080151,
                    -0.11281128037011523,
                    0.45192359754990585,
                    0.11281811421179201,
                    -0.04459922162057133,
                    0.43067200681718637,
                    0.20538620718094366,
                    -0.05607688818066254,
                    -0.6500543769910337,
                    0.08622403835013669,
                    -0.22914657960428853,
                    -0.3460930505318594,
                    0.06651847831124402,
                    0.32187017293042813,
                    -0.08892049691451155,
                    -0.2931058359180864,
                    -0.3252253397042959,
                    0.3686464655080363,
                    -0.260354560530428,
                    0.019087717215625678,
                    0.12740391608088347,
                    0.17060093286250141,
                    -0.012856363974891072,
                    -0.2299715577310498,
                    0.40085420001704475,
                    -0.02903668510602061,
                    0.03132512816736333,
                    -0.014936288999062677,
                    0.09594271139650808,
                    -0.04861578292741385,
                    -0.27852143777790533,
                    0.25376450244003146,
                    -0.5066091397916376,
                    -0.9618890599577499,
                    -0.2014001103558258,
                    -0.48883338825087863,
                    0.7351597981923957,
                    -0.17673393356357026,
                    0.7294138617797266,
                    0.5992493448850612,
                    -0.06633549778944185,
                    1.0656179409343907,
                    -0.47549123228362833,
                    -0.03157674731386133,
                    0.07808383377807815,
                    -0.13221079503330846,
                    -0.09132261388502005,
                    0.6452851567234673,
                    -0.661526751373834,
                    -0.4810361484590836,
                    0.0010558998992699644,
                    0.3730393171857891,
                    -0.4384461970005002,
                    0.41156598816736994,
                    0.3860635988761438,
                    -0.010462678321161994,
                    -0.18685053769697535,
                    -0.25397146182769054,
                    -0.05934925208341319,
                    0.030474074783393743,
                    0.44930432925634894,
                    -0.06863175631531489,
                    -0.177907638378054,
                    0.13497041128867698,
                    -0.09182681164500822,
                    -0.3523139476075868,
                    -0.33443577893901383,
                    0.6699641275539774,
                    -0.08282571508098065,
                    0.26452955114517596,
                    -0.18340458862329262,
                    0.5772867080609281,
                    -0.7677835920175738,
                    0.011876070235923629,
                    -0.02219172057690297,
                    0.15906067492103912,
                    -0.012723818076960162,
                    -0.32450719232764774,
                    -0.09081086417415492,
                    0.005777621475213572,
                    0.610063929854502,
                    -0.04595206784291003,
                    -0.07985985490031233,
                    -0.21185327811871663,
                    -0.33393041579834687,
                    0.6184164455176041,
                    -0.052473012965074575,
                    -0.02529326255291687,
                    -0.1371914041416734,
                    0.6813552456755533,
                    -0.8888423781598263,
                    -0.01222255225161788,
                    0.07093306623389649,
                    0.169134763699069,
                    -0.01737028630617994,
                    0.050081531445627166,
                    -0.04744149617963874,
                    -0.031194864928955512,
                    0.202461746035009,
                    0.029146539625787324,
                    -0.0619668437501844,
                    -0.20930690677134328,
                    2.9653669605931374,
                    -0.04436396114669346,
                    -0.08303093601197467,
                    -0.43086427989257065,
                    -0.23126508241538887,
                    0.0401547419487611,
                    0.6567368553171314,
                    -0.18687403155804283,
                    -0.6916725030330829,
                    -0.15343175717401192,
                    -0.02376623683105798,
                    -0.7577597574797197,
                    -0.11091675181326695,
                    -0.0826861715475405,
                    -0.3094503541067419,
                    -0.23383583303154756,
                    -0.11128445196663704,
                    -0.16844824562733787,
                    0.6235946651566976,
                    0.19933755363782676,
                    -0.13841105692783334,
                    -0.10992818709630761,
                    -0.15230088696713628,
                    0.2843766896601027,
                    0.6060996144340256,
                    -0.07703305078289659,
                    -0.47082122954697914,
                    0.12371772601106104,
                    -0.027795605827368657,
                    -0.43839341489059014,
                    -0.09408834923954415,
                    -0.060132203715787286,
                    0.15881891471849371,
                    -0.21675113497360707,
                    -0.04009225494339449,
                    0.35622428921930216,
                    0.049560081646880555,
                    -0.4062305774188522,
                    -0.3111192148546324,
                    0.31494152985891505,
                    0.5919231435003309,
                    -0.1972530233684737,
                    -0.3257354167925278,
                    -0.17452680219730457,
                    0.11710833871249296,
                    -0.23103803504021597,
                    -0.0008729578710402514,
                    0.32426924464136286,
                    0.08090848056727602,
                    -0.2684787726191685,
                    0.4692144262472313,
                    -0.25640759727421264,
                    -0.13073759387794356,
                    -0.5468759449902711,
                    0.02272914593042767,
                    0.2841119376938322,
                    -0.36922618648923666,
                    0.44936476657653146,
                    0.15641751585981925,
                    0.19281759929789277,
                    -0.33443880652652774,
                    -0.08353391599244607,
                    0.3438223988816783,
                    0.07857396549051823,
                    -0.013819311412734642,
                    0.0012215560939186254,
                    -0.0037755936533510038,
                    -0.20262581853392758,
                    0.322555181580704,
                    -0.22786127303760265,
                    -0.06770767368979408,
                    -0.11855573274642034,
                    -0.32599296312059733,
                    0.37824818717207087,
                    -0.49858107274327096,
                    -0.21302947615150744,
                    0.7344798148841568,
                    -0.19775452883627365,
                    0.8686510838759349,
                    -0.2715220854640951,
                    0.05426921174683932,
                    0.10305228465461093,
                    0.07114640259765444,
                    0.25091413743210766,
                    -0.2474454497112012,
                    -0.10254732777393306,
                    -0.21405873525431826,
                    -0.1000693472844757,
                    -0.16945486019782893,
                    -0.3745869459491005,
                    -0.013436610578817962,
                    -0.07379075254100893,
                    -0.5304247691757036,
                    -0.1514471179018497,
                    0.3164204559848827,
                    0.4243183013042607,
                    0.41447064495727787,
                    -0.10476653558420539,
                    0.6393567078008144,
                    0.03527139434763259,
                    -0.017485403771089664,
                    -0.6124546007505252,
                    0.021932256655028817,
                    -0.09746459669371287,
                    0.25883793703766683,
                    -0.09026462639232863,
                    -0.04273619566977755,
                    0.644442581404029,
                    0.6094165175085615,
                    0.004191234968771162,
                    -0.1835644408660051,
                    -0.7658243681553034,
                    -0.42504284853223195,
                    -0.22573991041622787,
                    3.0071143779684702e-05,
                    -0.05750130470070905,
                    0.4131969542448355,
                    0.24911679667619163,
                    -0.031960213821129686,
                    -0.07752926179036257,
                    0.043166906817629046,
                    0.14572637526131987,
                    0.20309179205527728,
                    -0.508991201341768,
                    -0.03447613737722694,
                    -0.6960987086504168,
                    -1.0206477682211517,
                    -0.21415531979460406,
                    -0.13234954254994102,
                    -0.08168539500438415,
                    0.045447689322629985,
                    0.1953889366066861,
                    0.3964871080990455,
                    0.022043650530539135,
                    0.27709963285440353,
                    0.2850944187054375,
                    0.03247200662504769,
                    -0.1533753902717162,
                    -0.09386371580558021,
                    0.5049262543920856,
                    0.8272525827599024,
                    0.11168828857921584,
                    -0.3039751850977692,
                    0.1315934125132009,
                    -0.31664504303598173,
                    0.32791681492427216,
                    0.009073081571519861,
                    -0.3994271183402921,
                    -0.19228056197094348,
                    0.25718316064161256,
                    -0.8003231479400211,
                    -0.1761481152880601,
                    -0.16317822790641764,
                    0.30415827285472663,
                    -0.13877096953090354,
                    -0.3332901461289821,
                    -0.024160184010020774,
                    0.5259525200784482,
                    1.0175095593256156,
                    -0.022969717493908613,
                    -0.004444047184433051,
                    -0.231848656441907,
                    0.16886282767882133,
                    0.154393460401449,
                    -0.34816278009112217,
                    0.43515142276522123,
                    -0.4502645209233106,
                    -0.1142249601226961,
                    -0.02114110353704017,
                    -0.061575462964085885,
                    0.26501447623829244,
                    -0.4692000353361973,
                    -0.048959455753701746,
                    0.34022194187387034,
                    0.5667605337011272,
                    -0.10549176721885771,
                    -0.04268474050729687,
                    -0.09514287275578617,
                    0.06004098793982435,
                    0.011478563848767486,
                    -0.5688146408119172,
                    0.7300010712973755,
                    -0.13970179180675524,
                    -0.017012370093017672,
                    -0.11539596065313633,
                    0.03267462348888778,
                    -0.6581572939772012,
                    0.04782062029614933,
                    -0.11036761221185529,
                    0.11288366141442205,
                    0.027632584016375944,
                    0.1464902327006966,
                    0.08291571320925104,
                    0.023149555347869787,
                    0.41283029047058883,
                    -0.024931857759671244,
                    0.008254733441938696
                ],
                [
                    0.1452635545652615,
                    -0.41174484276336926,
                    1.3622426535503926,
                    0.06020341545612036,
                    -0.24607351312647785,
                    0.07585306779128473,
                    -0.6276158909770267,
                    -0.18155744886841318,
                    -0.017300988204774062,
                    0.28818594945449705,
                    0.13711110877738944,
                    -0.057386170817795415,
                    -0.12012397740122097,
                    -0.8885513695969353,
                    -0.019670569915472214,
                    0.5431400373865224,
                    -0.023358959704788473,
                    -0.017807687648580067,
                    -0.4701182733527016,
                    -0.0805727165176804,
                    0.8777525319667145,
                    0.63176474177076,
                    -0.18138569511324357,
                    -0.1027508075357724,
                    -0.31521572861127306,
                    -0.09754554007039962,
                    -0.01996600599371582,
                    0.5063094711660543,
                    0.13248197506899642,
                    0.054628671071166215,
                    -0.49140963475566596,
                    -0.2327386132854289,
                    -0.021753354393421725,
                    -0.12989680709115323,
                    -0.05245978267057931,
                    -0.006316063696034693,
                    0.5336944506393988,
                    0.28223166796411014,
                    -0.028472614700760727,
                    0.15265566773093375,
                    -0.7051283977603267,
                    -0.03515039250668156,
                    0.2199261686487333,
                    -0.43069216536026156,
                    -0.11522775585204054,
                    -0.23903290930219775,
                    0.05998769141484725,
                    -0.25142126575385165,
                    -0.13105574096544761,
                    0.0610999268875461,
                    -0.13145886730983278,
                    0.4727300089002197,
                    -0.04048758760271631,
                    0.326610482884957,
                    0.02142337878290256,
                    0.7125588746060146,
                    0.8631004647720176,
                    -0.0504780277203497,
                    -0.3762706683544399,
                    -0.2534673735956312,
                    0.1172171509719884,
                    0.21869512255420986,
                    0.029044822827902893,
                    -0.10690301652675797,
                    -0.20673523447047606,
                    -0.0168717032070073,
                    0.17565100951653775,
                    -1.2872068282097735,
                    -0.5355683752574097,
                    0.158900289109313,
                    0.5189832803380998,
                    0.018735201819467133,
                    -0.03653469957577408,
                    0.3316657704641926,
                    -0.1793259666633664,
                    0.19368259101121152,
                    -0.1620847798856597,
                    -0.06481572643337723,
                    0.09523550946064885,
                    -0.13531018176679577,
                    0.08154907395471064,
                    -0.03155893242294407,
                    0.06767766435001302,
                    0.033402692313037566,
                    -0.2025395281658208,
                    0.2613026973721139,
                    -0.0466934659002845,
                    0.12629957032751257,
                    -0.3089469794981748,
                    -0.022196940984629553,
                    -0.09040225474169,
                    0.11847619782123564,
                    -1.00684343380791,
                    0.020232832817100706,
                    -0.1703121944213223,
                    -0.2226752179451801,
                    0.4360235306478195,
                    0.11140447372935224,
                    0.03589164467562761,
                    -0.3184871366487272,
                    0.1590113600789862,
                    -0.12423067264380006,
                    -0.10889208172018017,
                    0.7946996051890988,
                    -0.07310014666189711,
                    0.6353838931660157,
                    -0.2165662615382669,
                    0.021194229960350405,
                    -0.901480632678222,
                    0.5842748761582852,
                    0.13939059167718104,
                    0.04200155225314729,
                    -0.023597676005471486,
                    -0.3687249351488153,
                    -0.2877799213154618,
                    -0.17287760358670315,
                    0.11318630260308483,
                    -0.09410741783283509,
                    0.42490219502388377,
                    0.7753698392111408,
                    0.042589346847914336,
                    -0.34630415197052433,
                    -0.18141185845115418,
                    0.48485151440406454,
                    -0.3279892437275205,
                    0.09851559049462827,
                    0.02214011790553306,
                    -0.5371568897335285,
                    1.2611238630796864,
                    -0.46092111758612964,
                    -0.05276754864102654,
                    -0.2719469288615008,
                    -0.8083178913723391,
                    -0.4295338848829925,
                    0.10355425494572759,
                    0.3656825985804018,
                    -0.04230011177861522,
                    -0.394613509589249,
                    0.5587284022262953,
                    0.39796763740077457,
                    0.0756365751442947,
                    0.8297835475149046,
                    -0.5939156395516171,
                    -0.022335106844034978,
                    -0.1897173431208973,
                    0.05407052801548071,
                    -0.6386504845122368,
                    -0.07849268179392012,
                    -0.216490559157369,
                    0.11969881093616269,
                    0.8107145348830044,
                    0.6123781808524734,
                    0.02008711262963298,
                    -0.4818714752609493,
                    -0.09221802578908114,
                    0.14144516234484855,
                    0.37011124250971217,
                    -0.10340907567505608,
                    -0.006813532458032943,
                    -0.194107801673764,
                    -0.1242828962645301,
                    -0.0016433285088798876,
                    -0.0045642219127196995,
                    -0.1625369569490659,
                    0.1770613028284496,
                    -0.8513705239673645,
                    -0.6981980324435745,
                    -0.014927951090999207,
                    0.45021945664127266,
                    0.9386039520172457,
                    0.14674937260397608,
                    -0.11279770421630804,
                    0.2770224716482165,
                    -0.5747607969917793,
                    0.20507509331770155,
                    0.22245528748956975,
                    -0.04119082250787298,
                    0.15274735080566954,
                    -0.05139250385672777,
                    -0.05738640545905262,
                    -0.23617343867165663,
                    -1.150419549101474,
                    1.5612097892093202,
                    0.10102410245363708,
                    0.04291530435073498,
                    -0.09495571648414315,
                    0.19075501896358357,
                    -0.2727586381972976,
                    0.0039049370049641886,
                    -0.4676113317899773,
                    -0.12802064434311639,
                    -0.07606421820057853,
                    0.39975662313954696,
                    0.12325950721940178,
                    0.13704091604384327,
                    0.0028817763162968125,
                    -0.046485998778301965,
                    -0.08945007117814457,
                    0.3432802029923846,
                    0.1268410043857055,
                    1.471016385949251,
                    -0.5039885787606578,
                    -0.4230830121217482,
                    -0.10853794180206061,
                    -0.15075661742343163,
                    -0.11041380039513311,
                    -0.08493814917815261,
                    -0.6656085901568621,
                    -0.5336957513919401,
                    -0.21053517255656426,
                    -0.05445569296069499,
                    -0.1692851454794084,
                    -0.027584930529171707,
                    0.9951822474640944,
                    -0.05371000174831513,
                    0.16108191166928293,
                    -0.559124541703678,
                    -0.23386086609386,
                    0.4284126379657845,
                    0.269392287034218,
                    -0.25077919873479126,
                    -0.2552821937946108,
                    -0.1107634483082795,
                    -0.009379848078955791,
                    -0.03844757366328324,
                    -0.6543419880508267,
                    -0.7090835676404673,
                    -0.2051876160349793,
                    1.6037548253896659,
                    -0.44474391584617484,
                    -0.029112014732338612,
                    1.0496879537747554,
                    -0.05100559604662306,
                    0.20067303252105656,
                    -0.13949037100652345,
                    -0.7990745445317138,
                    1.0228571900577368,
                    -0.17352574439171278,
                    0.41343583623113356,
