{
    "task_type": "CLS",
    "dataset": "mfeat-karhunen(1)",
    "refit": "full",
    "filter": "m6_p6",
    "time_limit": 3600,
    "best": 0.9775,
    "fixed_ens": {
        "ensemble_selection10": 0.9675,
        "cma_es": 0.9775,
        "qdo_es": 0.975,
        "OptDivBO": 0.95,
        "stacking-1_0.4_L1_linear": 0.97,
        "stacking-1_0.4_L2_linear": 0.975,
        "stacking1000_0.4_L1_linear": 0.9775,
        "stacking1000_0.4_L2_linear": 0.98,
        "ensemble_selection25": 0.97,
        "EnsOpt": 0.9775,
        "stacking1000_0.4_L1_weighted": 0.9675,
        "stacking-1_0.4_L1_weighted": 0.9775,
        "stacking1000_0.4_L2_weighted": 0.975,
        "stacking-1_0.4_L2_weighted": 0.9775
    },
    "defopt_ens": {
        "s10_r20_d20": "0.9825, 0.9825, 0.9825, 0.9775, 0.9775, 0.9825",
        "s10_r40_d20": "0.9825, 0.9825, 0.98, 0.9825, 0.9825, 0.98",
        "s20_r20_d20": "0.9825, 0.9775, 0.9775, 0.9825, 0.9775, 0.9775",
        "s20_r40_d20": "0.9825, 0.98, 0.9825, 0.9825, 0.9775, 0.9825",
        "s10_r20_d0": "0.9825, 0.9775, 0.9775, 0.98, 0.9775, 0.9775",
        "s10_r40_d0": "0.9825, 0.98, 0.98, 0.98, 0.98, 0.98",
        "s20_r20_d0": "0.9825, 0.9825, 0.9775, 0.9825, 0.9825, 0.9775",
        "s20_r40_d0": "0.9825, 0.9825, 0.9775, 0.9825, 0.9825, 0.9775"
    },
    "opt_ens": [
        "0.9825",
        "0.9825",
        "0.9825",
        "0.9825",
        "0.9825",
        "0.9825",
        "0.98",
        "0.98",
        "0.98",
        "0.9775",
        "0.9775",
        "0.9775",
        "0.9825",
        "0.9825",
        "0.9825",
        "0.9825",
        "0.9825",
        "0.98",
        "0.9825",
        "0.98",
        "0.98",
        "0.9775",
        "0.9775",
        "0.9775"
    ],
    "opt_ens_d0": [
        "0.9825",
        "0.9825",
        "0.9825",
        "0.98",
        "0.98",
        "0.98",
        "0.98",
        "0.98",
        "0.9825",
        "0.98",
        "0.9775",
        "0.9775",
        "0.9825",
        "0.9825",
        "0.9825",
        "0.98",
        "0.9775",
        "0.975",
        "0.98",
        "0.98",
        "0.9825",
        "0.98",
        "0.98",
        "0.9775"
    ],
    "opt_ens_d0-20": [
        "0.9825",
        "0.9825",
        "0.98",
        "0.98",
        "0.9825",
        "0.9825",
        "0.9825",
        "0.98",
        "0.9775",
        "0.9775",
        "0.9775",
        "0.9775",
        "0.9775",
        "0.98",
        "0.98",
        "0.98",
        "0.9825",
        "0.98",
        "0.98",
        "0.98",
        "0.9775",
        "0.98",
        "0.9825",
        "0.9825",
        "0.98",
        "0.975",
        "0.975",
        "0.975",
        "0.975",
        "0.98"
    ],
    "size_exp": {
        "stacking5_-1_L1_linear": [
            "linear-L1: train-9.72947761e-01, train_2--4.65603343e-02, test-9.80000000e-01, test_2--3.55052506e-02, val-9.81060606e-01, val_2--2.90008314e-02"
        ],
        "stacking5_0_L1_linear": [
            "linear-L1: train-9.70149254e-01, train_2--4.60130507e-02, test-9.85000000e-01, test_2--2.78009967e-02, val-9.84848485e-01, val_2--2.50242979e-02"
        ],
        "stacking5_0.1_L1_linear": [
            "linear-L1: train-9.71082090e-01, train_2--4.70375316e-02, test-9.85000000e-01, test_2--2.61842744e-02, val-9.84848485e-01, val_2--2.48716538e-02"
        ],
        "stacking5_0.2_L1_linear": [
            "linear-L1: train-9.71082090e-01, train_2--4.70375316e-02, test-9.85000000e-01, test_2--2.61842744e-02, val-9.84848485e-01, val_2--2.48716538e-02"
        ],
        "stacking5_0.3_L1_linear": [
            "linear-L1: train-9.71082090e-01, train_2--4.41376298e-02, test-9.82500000e-01, test_2--2.84164851e-02, val-9.84848485e-01, val_2--2.73416932e-02"
        ],
        "stacking5_0.4_L1_linear": [
            "linear-L1: train-9.70149254e-01, train_2--4.29584233e-02, test-9.82500000e-01, test_2--2.87379860e-02, val-9.82954545e-01, val_2--2.48178125e-02"
        ],
        "stacking10_-1_L1_linear": [
            "linear-L1: train-9.72947761e-01, train_2--4.52918652e-02, test-9.82500000e-01, test_2--3.51090890e-02, val-9.86742424e-01, val_2--2.52464835e-02"
        ],
        "stacking10_0_L1_linear": [
            "linear-L1: train-9.73880597e-01, train_2--3.99653546e-02, test-9.85000000e-01, test_2--2.88720599e-02, val-9.84848485e-01, val_2--2.39403306e-02"
        ],
        "stacking10_0.1_L1_linear": [
            "linear-L1: train-9.74813433e-01, train_2--3.77069851e-02, test-9.80000000e-01, test_2--3.01903869e-02, val-9.82954545e-01, val_2--2.60099464e-02"
        ],
        "stacking10_0.2_L1_linear": [
            "linear-L1: train-9.76679104e-01, train_2--3.72263565e-02, test-9.80000000e-01, test_2--3.00165777e-02, val-9.82954545e-01, val_2--2.36369872e-02"
        ],
        "stacking10_0.3_L1_linear": [
            "linear-L1: train-9.76679104e-01, train_2--3.72263565e-02, test-9.80000000e-01, test_2--3.00165777e-02, val-9.82954545e-01, val_2--2.36369872e-02"
        ],
        "stacking10_0.4_L1_linear": [
            "linear-L1: train-9.82276119e-01, train_2--3.18805726e-02, test-9.77500000e-01, test_2--3.07548823e-02, val-9.84848485e-01, val_2--2.17575851e-02"
        ],
        "stacking20_-1_L1_linear": [
            "linear-L1: train-9.78544776e-01, train_2--3.29042402e-02, test-9.67500000e-01, test_2--5.16964717e-02, val-9.82954545e-01, val_2--2.83875105e-02"
        ],
        "stacking20_0_L1_linear": [
            "linear-L1: train-9.78544776e-01, train_2--3.42427255e-02, test-9.77500000e-01, test_2--3.59198031e-02, val-9.84848485e-01, val_2--2.46972212e-02"
        ],
        "stacking20_0.1_L1_linear": [
            "linear-L1: train-9.86940299e-01, train_2--2.37102413e-02, test-9.77500000e-01, test_2--3.39480639e-02, val-9.88636364e-01, val_2--2.10709317e-02"
        ],
        "stacking20_0.2_L1_linear": [
            "linear-L1: train-9.86007463e-01, train_2--2.33434906e-02, test-9.77500000e-01, test_2--3.48922434e-02, val-9.88636364e-01, val_2--2.11058783e-02"
        ],
        "stacking20_0.3_L1_linear": [
            "linear-L1: train-9.86007463e-01, train_2--2.33434906e-02, test-9.77500000e-01, test_2--3.48922434e-02, val-9.88636364e-01, val_2--2.11058783e-02"
        ],
        "stacking20_0.4_L1_linear": [
            "linear-L1: train-9.86940299e-01, train_2--2.38317707e-02, test-9.77500000e-01, test_2--3.54524886e-02, val-9.86742424e-01, val_2--2.17903340e-02"
        ],
        "stacking30_-1_L1_linear": [
            "linear-L1: train-9.85074627e-01, train_2--2.66366571e-02, test-9.72500000e-01, test_2--3.86884235e-02, val-9.88636364e-01, val_2--2.15506749e-02"
        ],
        "stacking30_0_L1_linear": [
            "linear-L1: train-9.86940299e-01, train_2--2.40913704e-02, test-9.77500000e-01, test_2--3.99848364e-02, val-9.84848485e-01, val_2--2.43989071e-02"
        ],
        "stacking30_0.1_L1_linear": [
            "linear-L1: train-9.89738806e-01, train_2--2.10313691e-02, test-9.75000000e-01, test_2--3.73063836e-02, val-9.88636364e-01, val_2--2.20192160e-02"
        ],
        "stacking30_0.2_L1_linear": [
            "linear-L1: train-9.89738806e-01, train_2--2.07743905e-02, test-9.75000000e-01, test_2--3.70803175e-02, val-9.88636364e-01, val_2--2.20495925e-02"
        ],
        "stacking30_0.3_L1_linear": [
            "linear-L1: train-9.89738806e-01, train_2--2.04232598e-02, test-9.75000000e-01, test_2--3.67481205e-02, val-9.88636364e-01, val_2--2.21085898e-02"
        ],
        "stacking30_0.4_L1_linear": [
            "linear-L1: train-9.89738806e-01, train_2--2.04232598e-02, test-9.75000000e-01, test_2--3.67481205e-02, val-9.88636364e-01, val_2--2.21085898e-02"
        ],
        "stacking40_-1_L1_linear": [
            "linear-L1: train-9.89738806e-01, train_2--1.94099896e-02, test-9.75000000e-01, test_2--4.01239814e-02, val-9.84848485e-01, val_2--2.28752979e-02"
        ],
        "stacking40_0_L1_linear": [
            "linear-L1: train-9.88805970e-01, train_2--2.00752242e-02, test-9.75000000e-01, test_2--4.10559994e-02, val-9.84848485e-01, val_2--2.46719962e-02"
        ],
        "stacking40_0.1_L1_linear": [
            "linear-L1: train-9.89738806e-01, train_2--1.72900799e-02, test-9.75000000e-01, test_2--3.75965090e-02, val-9.82954545e-01, val_2--2.34805800e-02"
        ],
        "stacking40_0.2_L1_linear": [
            "linear-L1: train-9.89738806e-01, train_2--1.77548680e-02, test-9.80000000e-01, test_2--3.69529551e-02, val-9.84848485e-01, val_2--2.28633887e-02"
        ],
        "stacking40_0.3_L1_linear": [
            "linear-L1: train-9.89738806e-01, train_2--1.73214191e-02, test-9.77500000e-01, test_2--3.72341734e-02, val-9.84848485e-01, val_2--2.25590890e-02"
        ],
        "stacking40_0.4_L1_linear": [
            "linear-L1: train-9.90671642e-01, train_2--1.59318438e-02, test-9.75000000e-01, test_2--3.65691392e-02, val-9.84848485e-01, val_2--2.20308462e-02"
        ]
    },
    "retain_exp": {
        "stacking10_0.4_L1_weighted_retainFalse": [
            [
                {
                    "train": [
                        0.957089552238806,
                        0.9598880597014925,
                        0.957089552238806,
                        0.9598880597014925,
                        0.9533582089552238,
                        0.9514925373134329,
                        0.9524253731343284,
                        0.9272388059701493,
                        0.9440298507462687,
                        0.9384328358208955
                    ],
                    "train_2": [
                        -0.06392869599084312,
                        -0.058812068044427505,
                        -0.06722579135157931,
                        -0.06034646014837125,
                        -0.06203358208955224,
                        -0.06389925373134328,
                        -0.09514925373134328,
                        -0.09561567164179105,
                        -0.10177138850972345,
                        -0.10987647524132284
                    ],
                    "test": [
                        0.975,
                        0.9775,
                        0.9725,
                        0.9825,
                        0.98,
                        0.975,
                        0.965,
                        0.9375,
                        0.9375,
                        0.9275
                    ],
                    "test_2": [
                        -0.05152463986330257,
                        -0.04357798909816386,
                        -0.04998350811549129,
                        -0.03860501161119053,
                        -0.03950000000000001,
                        -0.039850000000000003,
                        -0.05800000000000001,
                        -0.08355,
                        -0.10389221561298989,
                        -0.13053155195657104
                    ],
                    "val": [
                        0.9848484848484849,
                        0.9829545454545454,
                        0.9791666666666666,
                        0.9772727272727273,
                        0.9772727272727273,
                        0.9791666666666666,
                        0.9678030303030303,
                        0.9696969696969697,
                        0.9659090909090909,
                        0.9564393939393939
                    ],
                    "val_2": [
                        -0.038049775288868146,
                        -0.03397320443371763,
                        -0.04079816182035828,
                        -0.03402885685031515,
                        -0.03446969696969698,
                        -0.0375,
                        -0.05181818181818182,
                        -0.05382575757575758,
                        -0.06304460070594836,
                        -0.07193695307751469
                    ]
                },
                {
                    "train": [
                        0.9598880597014925,
                        0.960820895522388,
                        0.9580223880597015,
                        0.960820895522388,
                        0.9542910447761194,
                        0.9617537313432836,
                        0.960820895522388,
                        0.9347014925373134,
                        0.957089552238806,
                        0.957089552238806
                    ],
                    "train_2": [
                        -0.05952702666210658,
                        -0.05958489777589426,
                        -0.061903429834434406,
                        -0.0596299487845328,
                        -0.06110074626865672,
                        -0.06996268656716417,
                        -0.07835820895522388,
                        -0.08722014925373134,
                        -0.07388088228031876,
                        -0.07344908617984668
                    ],
                    "test": [
                        0.98,
                        0.98,
                        0.975,
                        0.985,
                        0.9825,
                        0.9775,
                        0.975,
                        0.9525,
                        0.98,
                        0.98
                    ],
                    "test_2": [
                        -0.04705779461134313,
                        -0.03983666841957509,
                        -0.04531791402599573,
                        -0.03611245004773891,
                        -0.036950000000000004,
                        -0.03625,
                        -0.040999999999999995,
                        -0.06595000000000001,
                        -0.03676045872859449,
                        -0.03935018404208147
                    ],
                    "val": [
                        0.9848484848484849,
                        0.9829545454545454,
                        0.9791666666666666,
                        0.9791666666666666,
                        0.9791666666666666,
                        0.9848484848484849,
                        0.9810606060606061,
                        0.9715909090909091,
                        0.9886363636363636,
                        0.9867424242424242
                    ],
                    "val_2": [
                        -0.03393349999386999,
                        -0.03200224638412572,
                        -0.03772441419987625,
                        -0.03240706515944465,
                        -0.032878787878787875,
                        -0.028863636363636366,
                        -0.03136363636363637,
                        -0.04950757575757576,
                        -0.022110592180314696,
                        -0.02309148842509766
                    ]
                },
                {
                    "train": [
                        0.9580223880597015,
                        0.9598880597014925,
                        0.9598880597014925,
                        0.9636194029850746,
                        0.9552238805970149,
                        0.9561567164179104,
                        0.9617537313432836,
                        0.9347014925373134,
                        0.9542910447761194,
                        0.9561567164179104
                    ],
                    "train_2": [
                        -0.060198214495122124,
                        -0.05998795460407677,
                        -0.06195806929491798,
                        -0.05916587821396868,
                        -0.06063432835820896,
                        -0.07695895522388059,
                        -0.07649253731343283,
                        -0.08395522388059702,
                        -0.07472929024920563,
                        -0.07226778807842221
                    ],
                    "test": [
                        0.98,
                        0.9825,
                        0.975,
                        0.985,
                        0.9825,
                        0.985,
                        0.9775,
                        0.9525,
                        0.9775,
                        0.9775
                    ],
                    "test_2": [
                        -0.04507289205453612,
                        -0.0374452514727003,
                        -0.042971428802023946,
                        -0.035102396858691626,
                        -0.036000000000000004,
                        -0.0341,
                        -0.0378,
                        -0.06495000000000001,
                        -0.034959386864496296,
                        -0.0368123673966135
                    ],
                    "val": [
                        0.9848484848484849,
                        0.9829545454545454,
                        0.9810606060606061,
                        0.9810606060606061,
                        0.9791666666666666,
                        0.9848484848484849,
                        0.9829545454545454,
                        0.9715909090909091,
                        0.9848484848484849,
                        0.9848484848484849
                    ],
                    "val_2": [
                        -0.03374197495375893,
                        -0.0315094087334931,
                        -0.036458507922581616,
                        -0.03175612694477963,
                        -0.03227272727272728,
                        -0.02772727272727273,
                        -0.030454545454545456,
                        -0.04875,
                        -0.026926304046044156,
                        -0.028212536836741953
                    ]
                },
                {
                    "train": [
                        0.9589552238805971,
                        0.9598880597014925,
                        0.9580223880597015,
                        0.9626865671641791,
                        0.9552238805970149,
                        0.957089552238806,
                        0.9589552238805971,
                        0.9356343283582089,
                        0.9533582089552238,
                        0.9552238805970149
                    ],
                    "train_2": [
                        -0.06010637634590064,
                        -0.059656137095725786,
                        -0.06229671090621635,
                        -0.0596388176533958,
                        -0.06110074626865672,
                        -0.07882462686567164,
                        -0.08208955223880597,
                        -0.08488805970149253,
                        -0.07869418113274772,
                        -0.0792114288879045
                    ],
                    "test": [
                        0.98,
                        0.9825,
                        0.975,
                        0.985,
                        0.9825,
                        0.9825,
                        0.9775,
                        0.9525,
                        0.975,
                        0.9775
                    ],
                    "test_2": [
                        -0.045108767456435876,
                        -0.03765201152590207,
                        -0.04287401842928233,
                        -0.03537233921065066,
                        -0.0363,
                        -0.038000000000000006,
                        -0.0378,
                        -0.06495000000000001,
                        -0.036890978793324154,
                        -0.03789448641652487
                    ],
                    "val": [
                        0.9848484848484849,
                        0.9829545454545454,
                        0.9810606060606061,
                        0.9810606060606061,
                        0.9791666666666666,
                        0.9867424242424242,
                        0.9829545454545454,
                        0.9715909090909091,
                        0.9829545454545454,
                        0.9848484848484849
                    ],
                    "val_2": [
                        -0.033824518489846835,
                        -0.03134394432807863,
                        -0.03635940412570002,
                        -0.03134864295635628,
                        -0.03181818181818183,
                        -0.02537878787878788,
                        -0.028939393939393942,
                        -0.04893939393939395,
                        -0.02345666053975544,
                        -0.02432180978537472
                    ]
                },
                {
                    "train": [
                        0.9580223880597015,
                        0.960820895522388,
                        0.9589552238805971,
                        0.9636194029850746,
                        0.9552238805970149,
                        0.9580223880597015,
                        0.9598880597014925,
                        0.9347014925373134,
                        0.9598880597014925,
                        0.9580223880597015
                    ],
                    "train_2": [
                        -0.06044489893015951,
                        -0.059606985984543205,
                        -0.06191366986727037,
                        -0.0587105762662986,
                        -0.060167910447761194,
                        -0.07509328358208955,
                        -0.08022388059701492,
                        -0.08628731343283583,
                        -0.0680129075283222,
                        -0.06789095143293698
                    ],
                    "test": [
                        0.98,
                        0.9825,
                        0.975,
                        0.985,
                        0.9825,
                        0.985,
                        0.9775,
                        0.9525,
                        0.9825,
                        0.9775
                    ],
                    "test_2": [
                        -0.04522479012050457,
                        -0.0375257279746656,
                        -0.04312750008073831,
                        -0.03504238263660128,
                        -0.03595000000000001,
                        -0.0315,
                        -0.0378,
                        -0.06495000000000001,
                        -0.031039706517951727,
                        -0.033456252961235486
                    ],
                    "val": [
                        0.9848484848484849,
                        0.9829545454545454,
                        0.9810606060606061,
                        0.9810606060606061,
                        0.9791666666666666,
                        0.9848484848484849,
                        0.9791666666666666,
                        0.9715909090909091,
                        0.9848484848484849,
                        0.9848484848484849
                    ],
                    "val_2": [
                        -0.03396303732736595,
                        -0.03153343839782665,
                        -0.03629654512593556,
                        -0.03136193215956331,
                        -0.03181818181818182,
                        -0.028257575757575756,
                        -0.03363636363636364,
                        -0.04882575757575758,
                        -0.02469386242500782,
                        -0.027861012624673564
                    ]
                }
            ],
            [
                "best_idx8-L2: train-0.95709, train_2--0.07388, test-0.98000, test_2--0.03676, val-0.98864, val_2--0.02211",
                "best_idx5-L4: train-0.95709, train_2--0.07882, test-0.98250, test_2--0.03800, val-0.98674, val_2--0.02538",
                "linear-L1: train-0.96455, train_2--0.05224, test-0.97750, test_2--0.03075, val-0.98485, val_2--0.02176",
                "linear-L5: train-0.96455, train_2--0.06110, test-0.98250, test_2--0.02696, val-0.98485, val_2--0.02230",
                "linear-L3: train-0.95802, train_2--0.06168, test-0.98250, test_2--0.02725, val-0.98485, val_2--0.02310",
                "linear-L4: train-0.96455, train_2--0.05878, test-0.98500, test_2--0.02604, val-0.98485, val_2--0.02344",
                "best_idx8-L5: train-0.95989, train_2--0.06801, test-0.98250, test_2--0.03104, val-0.98485, val_2--0.02469",
                "linear-L2: train-0.96175, train_2--0.06019, test-0.98250, test_2--0.02618, val-0.98485, val_2--0.02545",
                "best_idx8-L3: train-0.95429, train_2--0.07473, test-0.97750, test_2--0.03496, val-0.98485, val_2--0.02693",
                "weighted-L2: train-0.96175, train_2--0.05670, test-0.98250, test_2--0.03302, val-0.98485, val_2--0.02740",
                "weighted-L5: train-0.96175, train_2--0.05776, test-0.98500, test_2--0.03276, val-0.98485, val_2--0.02891",
                "weighted-L1: train-0.96269, train_2--0.05680, test-0.97750, test_2--0.04446, val-0.98295, val_2--0.03071",
                "weighted-L4: train-0.96455, train_2--0.05865, test-0.98250, test_2--0.03494, val-0.98295, val_2--0.03084",
                "weighted-L3: train-0.96362, train_2--0.06012, test-0.98250, test_2--0.03853, val-0.97727, val_2--0.03159"
            ]
        ],
        "stacking10_0.4_L1_weighted_retainTrue": [
            [
                {
                    "train": [
                        0.957089552238806,
                        0.9598880597014925,
                        0.957089552238806,
                        0.9598880597014925,
                        0.9533582089552238,
                        0.9514925373134329,
                        0.9524253731343284,
                        0.9272388059701493,
                        0.9440298507462687,
                        0.9384328358208955
                    ],
                    "train_2": [
                        -0.06392869599084312,
                        -0.058812068044427505,
                        -0.06722579135157931,
                        -0.06034646014837125,
                        -0.06203358208955224,
                        -0.06389925373134328,
                        -0.09514925373134328,
                        -0.09561567164179105,
                        -0.10177138850972345,
                        -0.10987647524132284
                    ],
                    "test": [
                        0.975,
                        0.9775,
                        0.9725,
                        0.9825,
                        0.98,
                        0.975,
                        0.965,
                        0.9375,
                        0.9375,
                        0.9275
                    ],
                    "test_2": [
                        -0.05152463986330257,
                        -0.04357798909816386,
                        -0.04998350811549131,
                        -0.03860501161119054,
                        -0.03950000000000001,
                        -0.039850000000000003,
                        -0.05800000000000001,
                        -0.08355,
                        -0.10389221561298989,
                        -0.13053155195657104
                    ],
                    "val": [
                        0.9848484848484849,
                        0.9829545454545454,
                        0.9791666666666666,
                        0.9772727272727273,
                        0.9772727272727273,
                        0.9791666666666666,
                        0.9678030303030303,
                        0.9696969696969697,
                        0.9659090909090909,
                        0.9564393939393939
                    ],
                    "val_2": [
                        -0.038049775288868146,
                        -0.033973204433717624,
                        -0.04079816182035828,
                        -0.03402885685031515,
                        -0.03446969696969698,
                        -0.037500000000000006,
                        -0.05181818181818182,
                        -0.05382575757575758,
                        -0.06304460070594836,
                        -0.07193695307751469
                    ]
                },
                {
                    "train": [
                        0.957089552238806,
                        0.9598880597014925,
                        0.957089552238806,
                        0.960820895522388,
                        0.9542910447761194,
                        0.9617537313432836,
                        0.960820895522388,
                        0.9347014925373134,
                        0.957089552238806,
                        0.957089552238806
                    ],
                    "train_2": [
                        -0.06392869599084312,
                        -0.058812068044427505,
                        -0.06722579135157931,
                        -0.0596299487845328,
                        -0.06110074626865672,
                        -0.06996268656716417,
                        -0.07835820895522388,
                        -0.08722014925373134,
                        -0.07388088228031876,
                        -0.07344908617984668
                    ],
                    "test": [
                        0.975,
                        0.9775,
                        0.9725,
                        0.985,
                        0.9825,
                        0.9775,
                        0.975,
                        0.9525,
                        0.98,
                        0.98
                    ],
                    "test_2": [
                        -0.05152463986330257,
                        -0.04357798909816386,
                        -0.04998350811549131,
                        -0.03611245004773891,
                        -0.036950000000000004,
                        -0.03625,
                        -0.040999999999999995,
                        -0.06595000000000001,
                        -0.0367604587285945,
                        -0.03935018404208147
                    ],
                    "val": [
                        0.9848484848484849,
                        0.9829545454545454,
                        0.9791666666666666,
                        0.9791666666666666,
                        0.9791666666666666,
                        0.9848484848484849,
                        0.9810606060606061,
                        0.9715909090909091,
                        0.9886363636363636,
                        0.9867424242424242
                    ],
                    "val_2": [
                        -0.038049775288868146,
                        -0.033973204433717624,
                        -0.04079816182035828,
                        -0.03240706515944465,
                        -0.032878787878787875,
                        -0.028863636363636366,
                        -0.03136363636363637,
                        -0.04950757575757576,
                        -0.022110592180314692,
                        -0.02309148842509766
                    ]
                },
                {
                    "train": [
                        0.957089552238806,
                        0.9598880597014925,
                        0.9598880597014925,
                        0.960820895522388,
                        0.9542910447761194,
                        0.9617537313432836,
                        0.9617537313432836,
                        0.9347014925373134,
                        0.957089552238806,
                        0.957089552238806
                    ],
                    "train_2": [
                        -0.06392869599084312,
                        -0.058812068044427505,
                        -0.06186668513453088,
                        -0.0596299487845328,
                        -0.06110074626865672,
                        -0.06996268656716417,
                        -0.07649253731343283,
                        -0.08722014925373134,
                        -0.07388088228031876,
                        -0.07344908617984668
                    ],
                    "test": [
                        0.975,
                        0.9775,
                        0.975,
                        0.985,
                        0.9825,
                        0.9775,
                        0.9775,
                        0.9525,
                        0.98,
                        0.98
                    ],
                    "test_2": [
                        -0.05152463986330257,
                        -0.04357798909816386,
                        -0.04324880218313461,
                        -0.03611245004773891,
                        -0.036950000000000004,
                        -0.03625,
                        -0.0378,
                        -0.06595000000000001,
                        -0.0367604587285945,
                        -0.03935018404208147
                    ],
                    "val": [
                        0.9848484848484849,
                        0.9829545454545454,
                        0.9810606060606061,
                        0.9791666666666666,
                        0.9791666666666666,
                        0.9848484848484849,
                        0.9829545454545454,
                        0.9715909090909091,
                        0.9886363636363636,
                        0.9867424242424242
                    ],
                    "val_2": [
                        -0.038049775288868146,
                        -0.033973204433717624,
                        -0.036481323007690136,
                        -0.03240706515944465,
                        -0.032878787878787875,
                        -0.028863636363636366,
                        -0.030303030303030304,
                        -0.04950757575757576,
                        -0.022110592180314692,
                        -0.02309148842509766
                    ]
                },
                {
                    "train": [
                        0.957089552238806,
                        0.9598880597014925,
                        0.9598880597014925,
                        0.9636194029850746,
                        0.9542910447761194,
                        0.957089552238806,
                        0.9617537313432836,
                        0.9347014925373134,
                        0.957089552238806,
                        0.957089552238806
                    ],
                    "train_2": [
                        -0.06392869599084312,
                        -0.058812068044427505,
                        -0.06186668513453088,
                        -0.05916174993278329,
                        -0.06110074626865672,
                        -0.07369402985074627,
                        -0.07649253731343283,
                        -0.08722014925373134,
                        -0.07388088228031876,
                        -0.07344908617984668
                    ],
                    "test": [
                        0.975,
                        0.9775,
                        0.975,
                        0.985,
                        0.9825,
                        0.985,
                        0.9775,
                        0.9525,
                        0.98,
                        0.98
                    ],
                    "test_2": [
                        -0.05152463986330257,
                        -0.04357798909816386,
                        -0.04324880218313461,
                        -0.03509763631747955,
                        -0.036950000000000004,
                        -0.034,
                        -0.0378,
                        -0.06595000000000001,
                        -0.0367604587285945,
                        -0.03935018404208147
                    ],
                    "val": [
                        0.9848484848484849,
                        0.9829545454545454,
                        0.9810606060606061,
                        0.9810606060606061,
                        0.9791666666666666,
                        0.9867424242424242,
                        0.9829545454545454,
                        0.9715909090909091,
                        0.9886363636363636,
                        0.9867424242424242
                    ],
                    "val_2": [
                        -0.038049775288868146,
                        -0.033973204433717624,
                        -0.036481323007690136,
                        -0.03175044741415276,
                        -0.032878787878787875,
                        -0.026174242424242426,
                        -0.030303030303030304,
                        -0.04950757575757576,
                        -0.022110592180314692,
                        -0.02309148842509766
                    ]
                },
                {
                    "train": [
                        0.957089552238806,
                        0.9598880597014925,
                        0.9598880597014925,
                        0.9636194029850746,
                        0.9542910447761194,
                        0.9580223880597015,
                        0.960820895522388,
                        0.9347014925373134,
                        0.957089552238806,
                        0.957089552238806
                    ],
                    "train_2": [
                        -0.06392869599084312,
                        -0.058812068044427505,
                        -0.06186668513453088,
                        -0.05916174993278329,
                        -0.06110074626865672,
                        -0.07369402985074627,
                        -0.07835820895522388,
                        -0.08722014925373134,
                        -0.07388088228031876,
                        -0.07344908617984668
                    ],
                    "test": [
                        0.975,
                        0.9775,
                        0.975,
                        0.985,
                        0.9825,
                        0.9825,
                        0.9775,
                        0.9525,
                        0.98,
                        0.98
                    ],
                    "test_2": [
                        -0.05152463986330257,
                        -0.04357798909816386,
                        -0.04324880218313461,
                        -0.03509763631747955,
                        -0.036950000000000004,
                        -0.0359,
                        -0.0378,
                        -0.06595000000000001,
                        -0.0367604587285945,
                        -0.03935018404208147
                    ],
                    "val": [
                        0.9848484848484849,
                        0.9829545454545454,
                        0.9810606060606061,
                        0.9810606060606061,
                        0.9791666666666666,
                        0.9886363636363636,
                        0.9848484848484849,
                        0.9715909090909091,
                        0.9886363636363636,
                        0.9867424242424242
                    ],
                    "val_2": [
                        -0.038049775288868146,
                        -0.033973204433717624,
                        -0.036481323007690136,
                        -0.03175044741415276,
                        -0.032878787878787875,
                        -0.025984848484848486,
                        -0.027878787878787885,
                        -0.04950757575757576,
                        -0.022110592180314692,
                        -0.02309148842509766
                    ]
                }
            ],
            [
                "best_idx8-L2: train-0.95709, train_2--0.07388, test-0.98000, test_2--0.03676, val-0.98864, val_2--0.02211",
                "best_idx5-L5: train-0.95802, train_2--0.07369, test-0.98250, test_2--0.03590, val-0.98864, val_2--0.02598",
                "best_idx8-L4: train-0.95802, train_2--0.07032, test-0.97750, test_2--0.03298, val-0.98674, val_2--0.02557",
                "weighted-L3: train-0.96082, train_2--0.05770, test-0.98250, test_2--0.03322, val-0.98674, val_2--0.02904",
                "linear-L1: train-0.96455, train_2--0.05224, test-0.97750, test_2--0.03075, val-0.98485, val_2--0.02176",
                "linear-L4: train-0.96269, train_2--0.05936, test-0.98500, test_2--0.02589, val-0.98485, val_2--0.02407",
                "linear-L3: train-0.96082, train_2--0.06057, test-0.98250, test_2--0.02607, val-0.98485, val_2--0.02438",
                "linear-L5: train-0.96362, train_2--0.05962, test-0.98250, test_2--0.02549, val-0.98485, val_2--0.02459",
                "linear-L2: train-0.96175, train_2--0.06027, test-0.98250, test_2--0.02643, val-0.98485, val_2--0.02541",
                "best_idx8-L3: train-0.95616, train_2--0.07361, test-0.97750, test_2--0.03527, val-0.98485, val_2--0.02739",
                "weighted-L2: train-0.96082, train_2--0.05802, test-0.98250, test_2--0.03302, val-0.98485, val_2--0.02740",
                "weighted-L5: train-0.96269, train_2--0.05842, test-0.98500, test_2--0.03273, val-0.98485, val_2--0.02887",
                "weighted-L4: train-0.96082, train_2--0.05891, test-0.98500, test_2--0.03403, val-0.98485, val_2--0.03043",
                "weighted-L1: train-0.96269, train_2--0.05680, test-0.97750, test_2--0.04446, val-0.98295, val_2--0.03071"
            ]
        ]
    }
}