{
    "task_type": "CLS",
    "dataset": "puma32H",
    "refit": "full",
    "filter": "m6_p6",
    "time_limit": 3600,
    "best": 0.9139719341061623,
    "fixed_ens": {
        "ensemble_selection10": 0.9072605247101891,
        "cma_es": 0.912751677852349,
        "qdo_es": 0.9103111653447223,
        "OptDivBO": 0.8828553996339231,
        "EnsOpt": 0.8767541183648566,
        "stacking-1_0.4_L1_linear": 0.9103111653447223,
        "stacking-1_0.4_L2_linear": 0.9145820622330689,
        "stacking1000_0.4_L1_linear": 0.9286150091519219,
        "stacking1000_0.4_L2_linear": 0.9212934716290421,
        "ensemble_selection25": 0.9066503965832825,
        "stacking1000_0.4_L1_weighted": 0.9121415497254424,
        "stacking-1_0.4_L1_weighted": 0.9158023184868822,
        "stacking1000_0.4_L2_weighted": 0.9212934716290421,
        "stacking-1_0.4_L2_weighted": 0.9219035997559487
    },
    "defopt_ens": {
        "s10_r20_d20": "0.9212934716290421, 0.9194630872483222, 0.9182428309945089, 0.9219035997559487, 0.9231238560097621, 0.9182428309945089",
        "s10_r40_d20": "0.9298352654057352, 0.9280048810250152, 0.9292251372788286, 0.9231238560097621, 0.9286150091519219, 0.9292251372788286",
        "s20_r20_d20": "0.9237339841366687, 0.9206833435021354, 0.9206833435021354, 0.9231238560097621, 0.9231238560097621, 0.9206833435021354",
        "s20_r40_d20": "0.9243441122635754, 0.9225137278828553, 0.9225137278828553, 0.9237339841366687, 0.9182428309945089, 0.9225137278828553",
        "s10_r20_d0": "0.9219035997559487, 0.9219035997559487, 0.9231238560097621, 0.9188529591214155, 0.9182428309945089, 0.9231238560097621",
        "s10_r40_d0": "0.9225137278828553, 0.9231238560097621, 0.9170225747406956, 0.9151921903599756, 0.9261744966442953, 0.9170225747406956",
        "s20_r20_d0": "0.924954240390482, 0.924954240390482, 0.9237339841366687, 0.9255643685173887, 0.924954240390482, 0.9237339841366687",
        "s20_r40_d0": "0.924954240390482, 0.9225137278828553, 0.9237339841366687, 0.9212934716290421, 0.9200732153752288, 0.9237339841366687"
    },
    "opt_ens": [
        "0.9219035997559487",
        "0.9206833435021354",
        "0.9212934716290421",
        "0.9219035997559487",
        "0.9219035997559487",
        "0.9225137278828553",
        "0.9225137278828553",
        "0.9237339841366687",
        "0.924954240390482",
        "0.9231238560097621",
        "0.9225137278828553",
        "0.9219035997559487",
        "0.9237339841366687",
        "0.9261744966442953",
        "0.9292251372788286",
        "0.9255643685173887",
        "0.9231238560097621",
        "0.9286150091519219",
        "0.9212934716290421",
        "0.9255643685173887",
        "0.9212934716290421",
        "0.9145820622330689",
        "0.9237339841366687",
        "0.9225137278828553",
        "0.912751677852349",
        "0.9237339841366687",
        "0.9194630872483222",
        "0.9231238560097621",
        "0.9231238560097621",
        "0.9292251372788286"
    ],
    "opt_ens_d0": [
        "0.9206833435021354",
        "0.9206833435021354",
        "0.9219035997559487",
        "0.9219035997559487",
        "0.9231238560097621",
        "0.9237339841366687",
        "0.9261744966442953",
        "0.9286150091519219",
        "0.9280048810250152",
        "0.9273947528981086",
        "0.9231238560097621",
        "0.9231238560097621",
        "0.9273947528981086",
        "0.924954240390482",
        "0.9219035997559487",
        "0.9170225747406956",
        "0.9170225747406956",
        "0.9206833435021354",
        "0.9176327028676022",
        "0.9261744966442953",
        "0.9194630872483222",
        "0.9206833435021354",
        "0.9237339841366687",
        "0.9237339841366687",
        "0.9255643685173887",
        "0.9164124466137888",
        "0.9188529591214155",
        "0.9261744966442953",
        "0.9243441122635754",
        "0.9219035997559487"
    ],
    "opt_ens_d0-20": [
        "0.9237339841366687",
        "0.9237339841366687",
        "0.924954240390482",
        "0.924954240390482",
        "0.9231238560097621",
        "0.9231238560097621",
        "0.9237339841366687",
        "0.9219035997559487",
        "0.924954240390482",
        "0.9231238560097621",
        "0.9212934716290421",
        "0.9225137278828553",
        "0.9237339841366687",
        "0.924954240390482",
        "0.9219035997559487",
        "0.9225137278828553",
        "0.9206833435021354",
        "0.9212934716290421",
        "0.9170225747406956",
        "0.9225137278828553",
        "0.9225137278828553",
        "0.9237339841366687",
        "0.9182428309945089",
        "0.924954240390482",
        "0.9231238560097621",
        "0.9194630872483222",
        "0.9237339841366687",
        "0.9255643685173887",
        "0.9243441122635754",
        "0.9219035997559487"
    ],
    "size_exp": {
        "stacking5_-1_L1_linear": [
            "linear-L1: train-8.82004556e-01, train_2--1.70151719e-01, test-8.78584503e-01, test_2--1.71453351e-01, val-8.85344429e-01, val_2--1.58637226e-01"
        ],
        "stacking5_0_L1_linear": [
            "linear-L1: train-8.82460137e-01, train_2--1.67593633e-01, test-8.82855400e-01, test_2--1.67896240e-01, val-8.88118354e-01, val_2--1.58518043e-01"
        ],
        "stacking5_0.1_L1_linear": [
            "linear-L1: train-8.77904328e-01, train_2--1.71013322e-01, test-8.84075656e-01, test_2--1.66015174e-01, val-8.89505317e-01, val_2--1.57969679e-01"
        ],
        "stacking5_0.2_L1_linear": [
            "linear-L1: train-9.00683371e-01, train_2--1.45223719e-01, test-9.09701037e-01, test_2--1.28606097e-01, val-9.07073509e-01, val_2--1.33493390e-01"
        ],
        "stacking5_0.3_L1_linear": [
            "linear-L1: train-9.00683371e-01, train_2--1.45223719e-01, test-9.09701037e-01, test_2--1.28606097e-01, val-9.07073509e-01, val_2--1.33493390e-01"
        ],
        "stacking5_0.4_L1_linear": [
            "linear-L1: train-9.02733485e-01, train_2--1.45578837e-01, test-9.07870653e-01, test_2--1.31365293e-01, val-9.03837263e-01, val_2--1.32252935e-01"
        ],
        "stacking10_-1_L1_linear": [
            "linear-L1: train-8.87015945e-01, train_2--1.58943434e-01, test-8.83465528e-01, test_2--1.62403640e-01, val-8.86269071e-01, val_2--1.51142333e-01"
        ],
        "stacking10_0_L1_linear": [
            "linear-L1: train-8.88610478e-01, train_2--1.57059659e-01, test-8.86516168e-01, test_2--1.56884449e-01, val-8.89505317e-01, val_2--1.48451759e-01"
        ],
        "stacking10_0.1_L1_linear": [
            "linear-L1: train-9.01594533e-01, train_2--1.43497019e-01, test-9.07260525e-01, test_2--1.29674202e-01, val-9.07073509e-01, val_2--1.31935597e-01"
        ],
        "stacking10_0.2_L1_linear": [
            "linear-L1: train-9.01594533e-01, train_2--1.43497019e-01, test-9.07260525e-01, test_2--1.29674202e-01, val-9.07073509e-01, val_2--1.31935597e-01"
        ],
        "stacking10_0.3_L1_linear": [
            "linear-L1: train-9.04100228e-01, train_2--1.38232003e-01, test-9.13361806e-01, test_2--1.26184054e-01, val-9.07998151e-01, val_2--1.29369206e-01"
        ],
        "stacking10_0.4_L1_linear": [
            "linear-L1: train-9.04100228e-01, train_2--1.38232003e-01, test-9.13361806e-01, test_2--1.26184054e-01, val-9.07998151e-01, val_2--1.29369206e-01"
        ],
        "stacking20_-1_L1_linear": [
            "linear-L1: train-9.11845103e-01, train_2--1.26427019e-01, test-9.11531422e-01, test_2--1.21978834e-01, val-9.14008322e-01, val_2--1.22658020e-01"
        ],
        "stacking20_0_L1_linear": [
            "linear-L1: train-8.87243736e-01, train_2--1.55924857e-01, test-8.92007322e-01, test_2--1.55453660e-01, val-8.91354600e-01, val_2--1.47169583e-01"
        ],
        "stacking20_0.1_L1_linear": [
            "linear-L1: train-9.05466970e-01, train_2--1.36275711e-01, test-9.11531422e-01, test_2--1.23421475e-01, val-9.07998151e-01, val_2--1.28749663e-01"
        ],
        "stacking20_0.2_L1_linear": [
            "linear-L1: train-9.05466970e-01, train_2--1.36275711e-01, test-9.11531422e-01, test_2--1.23421475e-01, val-9.07998151e-01, val_2--1.28749663e-01"
        ],
        "stacking20_0.3_L1_linear": [
            "linear-L1: train-9.05466970e-01, train_2--1.36275711e-01, test-9.11531422e-01, test_2--1.23421475e-01, val-9.07998151e-01, val_2--1.28749663e-01"
        ],
        "stacking20_0.4_L1_linear": [
            "linear-L1: train-9.04783599e-01, train_2--1.36123634e-01, test-9.15802318e-01, test_2--1.23606708e-01, val-9.07998151e-01, val_2--1.28566672e-01"
        ],
        "stacking30_-1_L1_linear": [
            "linear-L1: train-9.09794989e-01, train_2--1.26634289e-01, test-9.09090909e-01, test_2--1.24225241e-01, val-9.11234397e-01, val_2--1.22049799e-01"
        ],
        "stacking30_0_L1_linear": [
            "linear-L1: train-8.86104784e-01, train_2--1.55593936e-01, test-8.89566809e-01, test_2--1.55136901e-01, val-8.93666204e-01, val_2--1.46514947e-01"
        ],
        "stacking30_0.1_L1_linear": [
            "linear-L1: train-9.04783599e-01, train_2--1.35619408e-01, test-9.12751678e-01, test_2--1.23833103e-01, val-9.09847434e-01, val_2--1.28852406e-01"
        ],
        "stacking30_0.2_L1_linear": [
            "linear-L1: train-9.05239180e-01, train_2--1.35633211e-01, test-9.12751678e-01, test_2--1.23655192e-01, val-9.09385113e-01, val_2--1.28801299e-01"
        ],
        "stacking30_0.3_L1_linear": [
            "linear-L1: train-9.05239180e-01, train_2--1.35633211e-01, test-9.12751678e-01, test_2--1.23655192e-01, val-9.09385113e-01, val_2--1.28801299e-01"
        ],
        "stacking30_0.4_L1_linear": [
            "linear-L1: train-9.06378132e-01, train_2--1.35179436e-01, test-9.13361806e-01, test_2--1.23452624e-01, val-9.08460472e-01, val_2--1.28874099e-01"
        ],
        "stacking40_-1_L1_linear": [
            "linear-L1: train-9.16173121e-01, train_2--1.21228885e-01, test-9.15192190e-01, test_2--1.11891788e-01, val-9.16319926e-01, val_2--1.17126831e-01"
        ],
        "stacking40_0_L1_linear": [
            "linear-L1: train-8.85876993e-01, train_2--1.54379928e-01, test-8.88956681e-01, test_2--1.55485800e-01, val-8.91816921e-01, val_2--1.46828718e-01"
        ],
        "stacking40_0.1_L1_linear": [
            "linear-L1: train-9.06833713e-01, train_2--1.35106142e-01, test-9.12141550e-01, test_2--1.24076806e-01, val-9.07535830e-01, val_2--1.29178878e-01"
        ],
        "stacking40_0.2_L1_linear": [
            "linear-L1: train-9.06833713e-01, train_2--1.35106142e-01, test-9.12141550e-01, test_2--1.24076806e-01, val-9.07535830e-01, val_2--1.29178878e-01"
        ],
        "stacking40_0.3_L1_linear": [
            "linear-L1: train-9.06833713e-01, train_2--1.35094785e-01, test-9.10921293e-01, test_2--1.24169799e-01, val-9.07073509e-01, val_2--1.29316382e-01"
        ],
        "stacking40_0.4_L1_linear": [
            "linear-L1: train-9.06833713e-01, train_2--1.35094785e-01, test-9.10921293e-01, test_2--1.24169799e-01, val-9.07073509e-01, val_2--1.29316382e-01"
        ]
    },
    "retain_exp": {
        "stacking10_0.4_L1_weighted_retainFalse": [
            [
                {
                    "train": [
                        0.8822323462414579,
                        0.8808656036446469,
                        0.8792710706150342,
                        0.875626423690205,
                        0.8728929384965831,
                        0.8544419134396355,
                        0.8387243735763098,
                        0.8840546697038725,
                        0.8760820045558086,
                        0.8733485193621868
                    ],
                    "train_2": [
                        -0.16597858148300162,
                        -0.16999628574740433,
                        -0.16859231765392926,
                        -0.17571350216814105,
                        -0.17194800089250514,
                        -0.23479398308474306,
                        -0.2218688647419143,
                        -0.16355876542099182,
                        -0.1736757967567543,
                        -0.17443258597539243
                    ],
                    "test": [
                        0.884685784014643,
                        0.8840756558877364,
                        0.8840756558877364,
                        0.8804148871262966,
                        0.8791946308724832,
                        0.8749237339841367,
                        0.8669920683343502,
                        0.8773642464917633,
                        0.8737034777303234,
                        0.8785845027455765
                    ],
                    "test_2": [
                        -0.16352779121302563,
                        -0.16229998955702046,
                        -0.1636004309416435,
                        -0.16440466226574,
                        -0.162461631869435,
                        -0.18092133275984637,
                        -0.1949192810866452,
                        -0.16544295199123957,
                        -0.17272781901285772,
                        -0.16498070548818697
                    ],
                    "val": [
                        0.8876560332871013,
                        0.8867313915857605,
                        0.8881183541377716,
                        0.8867313915857605,
                        0.8830328247803976,
                        0.8839574664817383,
                        0.8585298196948682,
                        0.8862690707350902,
                        0.8839574664817383,
                        0.8848821081830791
                    ],
                    "val_2": [
                        -0.1559455148922582,
                        -0.1545623786201808,
                        -0.15398711225572323,
                        -0.15596030734730423,
                        -0.15713781812386252,
                        -0.17235135602641952,
                        -0.21071754754565394,
                        -0.16109759981675578,
                        -0.1581930937638053,
                        -0.15454770357104589
                    ]
                },
                {
                    "train": [
                        0.9047835990888383,
                        0.89749430523918,
                        0.8993166287015946,
                        0.8949886104783599,
                        0.8949886104783599,
                        0.8779043280182233,
                        0.9148063781321184,
                        0.893621867881549,
                        0.893621867881549,
                        0.8949886104783599
                    ],
                    "train_2": [
                        -0.1432473076252176,
                        -0.14813857862992122,
                        -0.14688287418454918,
                        -0.15925262572243853,
                        -0.1555029653968605,
                        -0.2067802039808605,
                        -0.12972589316188565,
                        -0.22073072306395186,
                        -0.14865585415734453,
                        -0.15188085086898817
                    ],
                    "test": [
                        0.9139719341061623,
                        0.9078706528370958,
                        0.9060402684563759,
                        0.9109212934716291,
                        0.9054301403294692,
                        0.8999389871873094,
                        0.9267846247712019,
                        0.9048200122025626,
                        0.9115314215985357,
                        0.9121415497254424
                    ],
                    "test_2": [
                        -0.1297110544288456,
                        -0.12815727006739625,
                        -0.1287152150382825,
                        -0.13203081534318312,
                        -0.1389562762607461,
                        -0.14536842078527173,
                        -0.1095657533908167,
                        -0.2095907289577635,
                        -0.12771000538566182,
                        -0.12788172084023353
                    ],
                    "val": [
                        0.9093851132686084,
                        0.9079981507165973,
                        0.9093851132686084,
                        0.9024503005085529,
                        0.9024503005085529,
                        0.8987517337031901,
                        0.9144706426259824,
                        0.9029126213592233,
                        0.908922792417938,
                        0.9052242256125751
                    ],
                    "val_2": [
                        -0.13251087289562352,
                        -0.13136752347186428,
                        -0.13235501108767356,
                        -0.13501553227521285,
                        -0.13850108404993433,
                        -0.1504981177412877,
                        -0.11885940356834955,
                        -0.21253568888809832,
                        -0.1283848375331678,
                        -0.13296975824686333
                    ]
                },
                {
                    "train": [
                        0.9070615034168565,
                        0.9034168564920273,
                        0.9084282460136675,
                        0.8865603644646924,
                        0.8963553530751709,
                        0.8813211845102505,
                        0.9084282460136675,
                        0.8981776765375854,
                        0.9052391799544419,
                        0.9036446469248292
                    ],
                    "train_2": [
                        -0.1379742958790402,
                        -0.14026858771201692,
                        -0.1370064835463227,
                        -0.16342801740941929,
                        -0.1538635138119099,
                        -0.20930127301671336,
                        -0.14119847665215576,
                        -0.22168320665611319,
                        -0.13746581860381768,
                        -0.14421290793257732
                    ],
                    "test": [
                        0.9225137278828553,
                        0.9206833435021354,
                        0.9219035997559487,
                        0.9225137278828553,
                        0.9182428309945089,
                        0.912751677852349,
                        0.9261744966442953,
                        0.912751677852349,
                        0.9200732153752288,
                        0.9188529591214155
                    ],
                    "test_2": [
                        -0.11819297702795259,
                        -0.11393772510205091,
                        -0.11295680147070386,
                        -0.11411975688990739,
                        -0.11907266758670733,
                        -0.12836443453780266,
                        -0.11295099426695349,
                        -0.207994667163693,
                        -0.11685862526994491,
                        -0.11493306449299277
                    ],
                    "val": [
                        0.9135460009246417,
                        0.9135460009246417,
                        0.9121590383726306,
                        0.9061488673139159,
                        0.903837263060564,
                        0.9024503005085529,
                        0.9116967175219602,
                        0.9010633379565418,
                        0.9158576051779935,
                        0.9116967175219602
                    ],
                    "val_2": [
                        -0.1267125623001634,
                        -0.1254659422237509,
                        -0.12566209612253784,
                        -0.12781418350628487,
                        -0.13114570767877967,
                        -0.14739766728408338,
                        -0.12447483748476486,
                        -0.21427688831604835,
                        -0.11944719002528999,
                        -0.12579245330684202
                    ]
                },
                {
                    "train": [
                        0.9013667425968109,
                        0.8997722095671982,
                        0.9004555808656036,
                        0.8927107061503416,
                        0.8920273348519362,
                        0.878132118451025,
                        0.8949886104783599,
                        0.8933940774487471,
                        0.8977220956719818,
                        0.8990888382687927
                    ],
                    "train_2": [
                        -0.1454166572178678,
                        -0.14759955457814625,
                        -0.14512226922219065,
                        -0.16346209000935727,
                        -0.15581008169790073,
                        -0.2090361824487968,
                        -0.15571434355735755,
                        -0.22601047406022967,
                        -0.14953739814154812,
                        -0.15084369374327813
                    ],
                    "test": [
                        0.9219035997559487,
                        0.9206833435021354,
                        0.9219035997559487,
                        0.9194630872483222,
                        0.9121415497254424,
                        0.9151921903599756,
                        0.9206833435021354,
                        0.9158023184868822,
                        0.9182428309945089,
                        0.9219035997559487
                    ],
                    "test_2": [
                        -0.12195913430231277,
                        -0.11663130731049177,
                        -0.11799889387514932,
                        -0.12216438221988746,
                        -0.12501566670062714,
                        -0.13307618753009412,
                        -0.11624806506874794,
                        -0.2063178255440213,
                        -0.12045666892541855,
                        -0.11587473583826419
                    ],
                    "val": [
                        0.9153952843273232,
                        0.9135460009246417,
                        0.9140083217753121,
                        0.9056865464632455,
                        0.9079981507165973,
                        0.903837263060564,
                        0.9112343966712899,
                        0.9066111881645862,
                        0.9167822468793343,
                        0.9112343966712899
                    ],
                    "val_2": [
                        -0.13004005106829702,
                        -0.1257952137966313,
                        -0.12547592745929279,
                        -0.1344172272993538,
                        -0.13315471808726473,
                        -0.14112564788235235,
                        -0.12875497032281466,
                        -0.2130101544396125,
                        -0.12287910440247855,
                        -0.12718183272326095
                    ]
                },
                {
                    "train": [
                        0.89749430523918,
                        0.8938496583143508,
                        0.8970387243735763,
                        0.8842824601366742,
                        0.8908883826879271,
                        0.8788154897494306,
                        0.8954441913439636,
                        0.8890660592255125,
                        0.893621867881549,
                        0.8902050113895217
                    ],
                    "train_2": [
                        -0.15344497279918176,
                        -0.15756506936568904,
                        -0.15437487759555446,
                        -0.16652683849042468,
                        -0.16195630694289298,
                        -0.2066366982786984,
                        -0.15663593241495538,
                        -0.23023788122395647,
                        -0.1541868734729121,
                        -0.16029330109059522
                    ],
                    "test": [
                        0.9219035997559487,
                        0.9200732153752288,
                        0.9200732153752288,
                        0.9164124466137888,
                        0.9151921903599756,
                        0.9176327028676022,
                        0.9194630872483222,
                        0.912751677852349,
                        0.9200732153752288,
                        0.9188529591214155
                    ],
                    "test_2": [
                        -0.1250755338586038,
                        -0.12058854866365663,
                        -0.12168577298945793,
                        -0.12701337933043835,
                        -0.12441032617809694,
                        -0.1331111362243499,
                        -0.1208355499045532,
                        -0.20564391344536403,
                        -0.1235595097906519,
                        -0.12250798927546656
                    ],
                    "val": [
                        0.9130836800739713,
                        0.908922792417938,
                        0.9103097549699491,
                        0.9079981507165973,
                        0.9047619047619048,
                        0.9006010171058715,
                        0.9061488673139159,
                        0.9079981507165973,
                        0.9107720758206195,
                        0.907535829865927
                    ],
                    "val_2": [
                        -0.13330584384573543,
                        -0.13085812743045103,
                        -0.13130144657320258,
                        -0.13428228795586936,
                        -0.1388351022879045,
                        -0.15026605040041652,
                        -0.13579108171149423,
                        -0.213250990497506,
                        -0.13022866484322768,
                        -0.13243845858783274
                    ]
                }
            ],
            [
                "best_idx8-L4: train-0.89772, train_2--0.14954, test-0.91824, test_2--0.12046, val-0.91678, val_2--0.12288",
                "best_idx8-L3: train-0.90524, train_2--0.13747, test-0.92007, test_2--0.11686, val-0.91586, val_2--0.11945",
                "weighted-L3: train-0.90911, train_2--0.13576, test-0.92373, test_2--0.11220, val-0.91493, val_2--0.12187",
                "best_idx6-L2: train-0.91481, train_2--0.12973, test-0.92678, test_2--0.10957, val-0.91447, val_2--0.11886",
                "linear-L3: train-0.90979, train_2--0.14257, test-0.92434, test_2--0.11572, val-0.91447, val_2--0.12631",
                "weighted-L2: train-0.91321, train_2--0.13691, test-0.92190, test_2--0.12887, val-0.91355, val_2--0.13379",
                "best_idx0-L5: train-0.89749, train_2--0.15344, test-0.92190, test_2--0.12508, val-0.91308, val_2--0.13331",
                "linear-L2: train-0.91298, train_2--0.13444, test-0.92556, test_2--0.11663, val-0.91262, val_2--0.12439",
                "weighted-L4: train-0.90547, train_2--0.14393, test-0.92373, test_2--0.11747, val-0.91262, val_2--0.12650",
                "linear-L4: train-0.90364, train_2--0.14898, test-0.92312, test_2--0.11976, val-0.91170, val_2--0.13156",
                "weighted-L5: train-0.89704, train_2--0.15035, test-0.92495, test_2--0.12016, val-0.91123, val_2--0.13003",
                "linear-L5: train-0.89476, train_2--0.15793, test-0.92312, test_2--0.12362, val-0.90846, val_2--0.13635",
                "linear-L1: train-0.90228, train_2--0.13988, test-0.91336, test_2--0.12618, val-0.90800, val_2--0.12937",
                "weighted-L1: train-0.90000, train_2--0.15867, test-0.91092, test_2--0.15328, val-0.90707, val_2--0.15651"
            ]
        ],
        "stacking10_0.4_L1_weighted_retainTrue": [
            [
                {
                    "train": [
                        0.8822323462414579,
                        0.8808656036446469,
                        0.8792710706150342,
                        0.875626423690205,
                        0.8728929384965831,
                        0.8544419134396355,
                        0.8387243735763098,
                        0.8840546697038725,
                        0.8760820045558086,
                        0.8733485193621868
                    ],
                    "train_2": [
                        -0.16597858148300162,
                        -0.16999628574740433,
                        -0.16859231765392926,
                        -0.17571350216814105,
                        -0.17194800089250514,
                        -0.23479398308474306,
                        -0.2218688647419143,
                        -0.16355876542099182,
                        -0.1736757967567543,
                        -0.17443258597539243
                    ],
                    "test": [
                        0.884685784014643,
                        0.8840756558877364,
                        0.8840756558877364,
                        0.8804148871262966,
                        0.8791946308724832,
                        0.8749237339841367,
                        0.8669920683343502,
                        0.8773642464917633,
                        0.8737034777303234,
                        0.8785845027455765
                    ],
                    "test_2": [
                        -0.1635277912130256,
                        -0.16229998955702046,
                        -0.1636004309416435,
                        -0.16440466226574,
                        -0.16246163186943496,
                        -0.18092133275984643,
                        -0.1949192810866452,
                        -0.16544295199123954,
                        -0.17272781901285772,
                        -0.16498070548818697
                    ],
                    "val": [
                        0.8876560332871013,
                        0.8867313915857605,
                        0.8881183541377716,
                        0.8867313915857605,
                        0.8830328247803976,
                        0.8839574664817383,
                        0.8585298196948682,
                        0.8862690707350902,
                        0.8839574664817383,
                        0.8848821081830791
                    ],
                    "val_2": [
                        -0.1559455148922582,
                        -0.1545623786201808,
                        -0.15398711225572326,
                        -0.15596030734730423,
                        -0.15713781812386252,
                        -0.17235135602641952,
                        -0.21071754754565394,
                        -0.16109759981675578,
                        -0.1581930937638053,
                        -0.15454770357104589
                    ]
                },
                {
                    "train": [
                        0.9047835990888383,
                        0.89749430523918,
                        0.8993166287015946,
                        0.8949886104783599,
                        0.8949886104783599,
                        0.8779043280182233,
                        0.9148063781321184,
                        0.893621867881549,
                        0.893621867881549,
                        0.8949886104783599
                    ],
                    "train_2": [
                        -0.1432473076252176,
                        -0.14813857862992122,
                        -0.14688287418454918,
                        -0.15925262572243853,
                        -0.1555029653968605,
                        -0.2067802039808605,
                        -0.12972589316188565,
                        -0.22073072306395186,
                        -0.14865585415734453,
                        -0.15188085086898817
                    ],
                    "test": [
                        0.9139719341061623,
                        0.9078706528370958,
                        0.9060402684563759,
                        0.9109212934716291,
                        0.9054301403294692,
                        0.8999389871873094,
                        0.9267846247712019,
                        0.9048200122025626,
                        0.9115314215985357,
                        0.9121415497254424
                    ],
                    "test_2": [
                        -0.1297110544288456,
                        -0.12815727006739625,
                        -0.1287152150382825,
                        -0.13203081534318312,
                        -0.1389562762607461,
                        -0.14536842078527173,
                        -0.1095657533908167,
                        -0.20959072895776354,
                        -0.12771000538566182,
                        -0.12788172084023353
                    ],
                    "val": [
                        0.9093851132686084,
                        0.9079981507165973,
                        0.9093851132686084,
                        0.9024503005085529,
                        0.9024503005085529,
                        0.8987517337031901,
                        0.9144706426259824,
                        0.9029126213592233,
                        0.908922792417938,
                        0.9052242256125751
                    ],
                    "val_2": [
                        -0.13251087289562352,
                        -0.13136752347186428,
                        -0.13235501108767356,
                        -0.13501553227521285,
                        -0.13850108404993433,
                        -0.1504981177412877,
                        -0.11885940356834955,
                        -0.21253568888809835,
                        -0.1283848375331678,
                        -0.13296975824686333
                    ]
                },
                {
                    "train": [
                        0.9070615034168565,
                        0.9034168564920273,
                        0.9084282460136675,
                        0.8865603644646924,
                        0.8963553530751709,
                        0.8813211845102505,
                        0.9148063781321184,
                        0.893621867881549,
                        0.9052391799544419,
                        0.9036446469248292
                    ],
                    "train_2": [
                        -0.1379742958790402,
                        -0.14026858771201692,
                        -0.1370064835463227,
                        -0.16342801740941929,
                        -0.1538635138119099,
                        -0.20930127301671336,
                        -0.12972589316188565,
                        -0.22073072306395186,
                        -0.13746581860381768,
                        -0.14421290793257732
                    ],
                    "test": [
                        0.9225137278828553,
                        0.9206833435021354,
                        0.9219035997559487,
                        0.9225137278828553,
                        0.9182428309945089,
                        0.912751677852349,
                        0.9267846247712019,
                        0.9048200122025626,
                        0.9200732153752288,
                        0.9188529591214155
                    ],
                    "test_2": [
                        -0.11819297702795258,
                        -0.11393772510205091,
                        -0.11295680147070386,
                        -0.11411975688990739,
                        -0.11907266758670733,
                        -0.12836443453780266,
                        -0.1095657533908167,
                        -0.20959072895776354,
                        -0.11685862526994491,
                        -0.11493306449299277
                    ],
                    "val": [
                        0.9135460009246417,
                        0.9135460009246417,
                        0.9121590383726306,
                        0.9061488673139159,
                        0.903837263060564,
                        0.9024503005085529,
                        0.9144706426259824,
                        0.9029126213592233,
                        0.9158576051779935,
                        0.9116967175219602
                    ],
                    "val_2": [
                        -0.12671256230016337,
                        -0.1254659422237509,
                        -0.12566209612253784,
                        -0.12781418350628487,
                        -0.13114570767877967,
                        -0.14739766728408338,
                        -0.11885940356834955,
                        -0.21253568888809835,
                        -0.11944719002528999,
                        -0.12579245330684202
                    ]
                },
                {
                    "train": [
                        0.9070615034168565,
                        0.9104783599088838,
                        0.9107061503416857,
                        0.89749430523918,
                        0.9043280182232346,
                        0.8913439635535307,
                        0.9036446469248292,
                        0.896127562642369,
                        0.9075170842824601,
                        0.9072892938496583
                    ],
                    "train_2": [
                        -0.1379742958790402,
                        -0.1323831815793025,
                        -0.13025924240187006,
                        -0.1521100457201857,
                        -0.1414916276427226,
                        -0.18501654666175585,
                        -0.14575174754606257,
                        -0.22099340010721674,
                        -0.13513649686142098,
                        -0.13588244658732873
                    ],
                    "test": [
                        0.9225137278828553,
                        0.9261744966442953,
                        0.924954240390482,
                        0.9225137278828553,
                        0.9206833435021354,
                        0.9164124466137888,
                        0.924954240390482,
                        0.9200732153752288,
                        0.924954240390482,
                        0.9243441122635754
                    ],
                    "test_2": [
                        -0.11819297702795258,
                        -0.11162634956316941,
                        -0.1110687212886335,
                        -0.11545920657870967,
                        -0.11739929376165446,
                        -0.12441676299760256,
                        -0.11323018100372942,
                        -0.20296954055973643,
                        -0.11583747744848498,
                        -0.11272303346765572
                    ],
                    "val": [
                        0.9135460009246417,
                        0.9163199260286639,
                        0.9144706426259824,
                        0.9144706426259824,
                        0.9172445677300046,
                        0.9103097549699491,
                        0.9149329634766528,
                        0.9163199260286639,
                        0.9181692094313454,
                        0.9158576051779935
                    ],
                    "val_2": [
                        -0.12671256230016337,
                        -0.12053586369734146,
                        -0.12079792362814663,
                        -0.12168532412115085,
                        -0.12450723857282718,
                        -0.13343758597881344,
                        -0.12562871547903667,
                        -0.2058884543476872,
                        -0.11705661435175166,
                        -0.1218441453366335
                    ]
                },
                {
                    "train": [
                        0.9070615034168565,
                        0.9104783599088838,
                        0.9107061503416857,
                        0.89749430523918,
                        0.9043280182232346,
                        0.8913439635535307,
                        0.903872437357631,
                        0.896127562642369,
                        0.9075170842824601,
                        0.9072892938496583
                    ],
                    "train_2": [
                        -0.1379742958790402,
                        -0.1323831815793025,
                        -0.13025924240187006,
                        -0.1521100457201857,
                        -0.1414916276427226,
                        -0.18501654666175585,
                        -0.14378840885491953,
                        -0.22099340010721674,
                        -0.13513649686142098,
                        -0.13588244658732873
                    ],
                    "test": [
                        0.9225137278828553,
                        0.9261744966442953,
                        0.924954240390482,
                        0.9225137278828553,
                        0.9206833435021354,
                        0.9164124466137888,
                        0.9212934716290421,
                        0.9200732153752288,
                        0.924954240390482,
                        0.9243441122635754
                    ],
                    "test_2": [
                        -0.11819297702795258,
                        -0.11162634956316941,
                        -0.1110687212886335,
                        -0.11545920657870967,
                        -0.11739929376165446,
                        -0.12441676299760256,
                        -0.11800396617496747,
                        -0.20296954055973643,
                        -0.11583747744848498,
                        -0.11272303346765572
                    ],
                    "val": [
                        0.9135460009246417,
                        0.9163199260286639,
                        0.9144706426259824,
                        0.9144706426259824,
                        0.9172445677300046,
                        0.9103097549699491,
                        0.9153952843273232,
                        0.9163199260286639,
                        0.9181692094313454,
                        0.9158576051779935
                    ],
                    "val_2": [
                        -0.12671256230016337,
                        -0.12053586369734146,
                        -0.12079792362814663,
                        -0.12168532412115085,
                        -0.12450723857282718,
                        -0.13343758597881344,
                        -0.1272648485623516,
                        -0.2058884543476872,
                        -0.11705661435175166,
                        -0.1218441453366335
                    ]
                }
            ],
            [
                "best_idx8-L4: train-0.90752, train_2--0.13514, test-0.92495, test_2--0.11584, val-0.91817, val_2--0.11706",
                "linear-L4: train-0.91025, train_2--0.13750, test-0.92312, test_2--0.11586, val-0.91678, val_2--0.12453",
                "best_idx8-L3: train-0.90524, train_2--0.13747, test-0.92007, test_2--0.11686, val-0.91586, val_2--0.11945",
                "best_idx8-L5: train-0.90364, train_2--0.14005, test-0.91885, test_2--0.11691, val-0.91540, val_2--0.12262",
                "linear-L3: train-0.91253, train_2--0.13672, test-0.92373, test_2--0.11546, val-0.91540, val_2--0.12370",
                "linear-L5: train-0.91048, train_2--0.13794, test-0.92251, test_2--0.11520, val-0.91540, val_2--0.12464",
                "weighted-L3: train-0.91298, train_2--0.13425, test-0.92434, test_2--0.11675, val-0.91493, val_2--0.12390",
                "best_idx6-L2: train-0.91481, train_2--0.12973, test-0.92678, test_2--0.10957, val-0.91447, val_2--0.11886",
                "weighted-L4: train-0.91071, train_2--0.13037, test-0.92312, test_2--0.11419, val-0.91355, val_2--0.12230",
                "weighted-L5: train-0.91071, train_2--0.13037, test-0.92312, test_2--0.11419, val-0.91355, val_2--0.12230",
                "weighted-L2: train-0.91321, train_2--0.13691, test-0.92190, test_2--0.12887, val-0.91355, val_2--0.13379",
                "linear-L2: train-0.91298, train_2--0.13444, test-0.92556, test_2--0.11663, val-0.91262, val_2--0.12439",
                "linear-L1: train-0.90228, train_2--0.13988, test-0.91336, test_2--0.12618, val-0.90800, val_2--0.12937",
                "weighted-L1: train-0.90000, train_2--0.15867, test-0.91092, test_2--0.15328, val-0.90707, val_2--0.15651"
            ]
        ]
    }
}