{
    "task_type": "CLS",
    "dataset": "socmob",
    "refit": "full",
    "filter": "m6_p6",
    "time_limit": 3600,
    "best": 0.9525862068965517,
    "fixed_ens": {
        "ensemble_selection10": 0.9525862068965517,
        "cma_es": 0.9525862068965517,
        "qdo_es": 0.9568965517241379,
        "OptDivBO": 0.9525862068965517,
        "EnsOpt": 0.9612068965517241,
        "stacking-1_0.4_L1_linear": 0.9568965517241379,
        "stacking-1_0.4_L2_linear": 0.9568965517241379,
        "stacking1000_0.4_L1_linear": 0.9612068965517241,
        "stacking1000_0.4_L2_linear": 0.9525862068965517,
        "ensemble_selection25": 0.9525862068965517,
        "stacking1000_0.4_L1_weighted": 0.9655172413793104,
        "stacking-1_0.4_L1_weighted": 0.9525862068965517,
        "stacking1000_0.4_L2_weighted": 0.9525862068965517,
        "stacking-1_0.4_L2_weighted": 0.9612068965517241,
        "autogluon-": 0.9542238964229298
    },
    "defopt_ens": {
        "s10_r20_d20": "0.9612068965517241, 0.9568965517241379, 0.9612068965517241, 0.9612068965517241, 0.9612068965517241, 0.9612068965517241",
        "s10_r40_d20": "0.9612068965517241, 0.9568965517241379, 0.9612068965517241, 0.9612068965517241, 0.9612068965517241, 0.9612068965517241",
        "s20_r20_d20": "0.9612068965517241, 0.9612068965517241, 0.9612068965517241, 0.9612068965517241, 0.9568965517241379, 0.9612068965517241",
        "s20_r40_d20": "0.9655172413793104, 0.9482758620689655, 0.9482758620689655, 0.9655172413793104, 0.9612068965517241, 0.9482758620689655",
        "s10_r20_d0": "0.9612068965517241, 0.9612068965517241, 0.9482758620689655, 0.9612068965517241, 0.9612068965517241, 0.9482758620689655",
        "s10_r40_d0": "0.9612068965517241, 0.9612068965517241, 0.9482758620689655, 0.9612068965517241, 0.9612068965517241, 0.9482758620689655",
        "s20_r20_d0": "0.9482758620689655, 0.9525862068965517, 0.9525862068965517, 0.9568965517241379, 0.9482758620689655, 0.9525862068965517",
        "s20_r40_d0": "0.9612068965517241, 0.9655172413793104, 0.9655172413793104, 0.9482758620689655, 0.9396551724137931, 0.9655172413793104"
    },
    "opt_ens": [
        "0.9612068965517241",
        "0.9612068965517241",
        "0.9612068965517241",
        "0.9612068965517241",
        "0.9612068965517241",
        "0.9612068965517241",
        "0.9612068965517241",
        "0.9612068965517241",
        "0.9655172413793104",
        "0.9568965517241379",
        "0.9612068965517241",
        "0.9655172413793104",
        "0.9655172413793104",
        "0.9568965517241379",
        "0.9482758620689655",
        "0.9612068965517241",
        "0.9482758620689655",
        "0.9568965517241379",
        "0.9568965517241379",
        "0.9655172413793104",
        "0.9655172413793104",
        "0.9568965517241379",
        "0.9568965517241379",
        "0.9568965517241379",
        "0.9525862068965517",
        "0.9612068965517241",
        "0.9482758620689655",
        "0.9525862068965517",
        "0.9525862068965517",
        "0.9482758620689655"
    ],
    "opt_ens_d0": [
        "0.9482758620689655",
        "0.9525862068965517",
        "0.9525862068965517",
        "0.9568965517241379",
        "0.9568965517241379",
        "0.9568965517241379",
        "0.9568965517241379",
        "0.9568965517241379",
        "0.9568965517241379",
        "0.9568965517241379",
        "0.9525862068965517",
        "0.9568965517241379",
        "0.9482758620689655",
        "0.9525862068965517",
        "0.9482758620689655",
        "0.9482758620689655",
        "0.9482758620689655",
        "0.9439655172413793",
        "0.9525862068965517",
        "0.9396551724137931",
        "0.9525862068965517",
        "0.9482758620689655",
        "0.9568965517241379",
        "0.9568965517241379",
        "0.9655172413793104",
        "0.9525862068965517",
        "0.9655172413793104",
        "0.9482758620689655",
        "0.9482758620689655",
        "0.9482758620689655"
    ],
    "opt_ens_d0-20": [
        "0.9525862068965517",
        "0.9525862068965517",
        "0.9525862068965517",
        "0.9525862068965517",
        "0.9525862068965517",
        "0.9525862068965517",
        "0.9525862068965517",
        "0.9525862068965517",
        "0.9525862068965517",
        "0.9525862068965517",
        "0.9568965517241379",
        "0.9612068965517241",
        "0.9525862068965517",
        "0.9612068965517241",
        "0.9482758620689655",
        "0.9525862068965517",
        "0.9525862068965517",
        "0.9525862068965517",
        "0.9612068965517241",
        "0.9482758620689655",
        "0.9482758620689655",
        "0.9482758620689655",
        "0.9439655172413793",
        "0.9396551724137931",
        "0.9525862068965517",
        "0.9482758620689655",
        "0.9525862068965517",
        "0.9482758620689655",
        "0.9568965517241379",
        "0.9482758620689655"
    ],
    "size_exp": {
        "stacking5_-1_L1_linear": [
            "linear-L1: train-9.40226171e-01, train_2--8.84896745e-02, test-9.31034483e-01, test_2--7.97443649e-02, val-9.67213115e-01, val_2--5.42865355e-02"
        ],
        "stacking5_0_L1_linear": [
            "linear-L1: train-9.36995153e-01, train_2--9.44337254e-02, test-9.43965517e-01, test_2--7.16490602e-02, val-9.54098361e-01, val_2--6.20782411e-02"
        ],
        "stacking5_0.1_L1_linear": [
            "linear-L1: train-9.49919225e-01, train_2--7.67939713e-02, test-9.48275862e-01, test_2--7.37982911e-02, val-9.63934426e-01, val_2--6.34185690e-02"
        ],
        "stacking5_0.2_L1_linear": [
            "linear-L1: train-9.41841680e-01, train_2--9.00965781e-02, test-9.48275862e-01, test_2--6.96219843e-02, val-9.73770492e-01, val_2--5.24855101e-02"
        ],
        "stacking5_0.3_L1_linear": [
            "linear-L1: train-9.41841680e-01, train_2--9.00965781e-02, test-9.48275862e-01, test_2--6.96219843e-02, val-9.73770492e-01, val_2--5.24855101e-02"
        ],
        "stacking5_0.4_L1_linear": [
            "linear-L1: train-9.41841680e-01, train_2--9.00965781e-02, test-9.48275862e-01, test_2--6.96219843e-02, val-9.73770492e-01, val_2--5.24855101e-02"
        ],
        "stacking10_-1_L1_linear": [
            "linear-L1: train-9.35379645e-01, train_2--9.02596901e-02, test-9.43965517e-01, test_2--6.73273752e-02, val-9.63934426e-01, val_2--5.80895288e-02"
        ],
        "stacking10_0_L1_linear": [
            "linear-L1: train-9.36995153e-01, train_2--9.47706621e-02, test-9.43965517e-01, test_2--7.29580972e-02, val-9.54098361e-01, val_2--6.27941088e-02"
        ],
        "stacking10_0.1_L1_linear": [
            "linear-L1: train-9.53150242e-01, train_2--7.65276542e-02, test-9.48275862e-01, test_2--7.44382255e-02, val-9.60655738e-01, val_2--6.37070204e-02"
        ],
        "stacking10_0.2_L1_linear": [
            "linear-L1: train-9.53150242e-01, train_2--7.36580429e-02, test-9.52586207e-01, test_2--7.34385559e-02, val-9.63934426e-01, val_2--5.89378437e-02"
        ],
        "stacking10_0.3_L1_linear": [
            "linear-L1: train-9.53150242e-01, train_2--7.36580429e-02, test-9.52586207e-01, test_2--7.34385559e-02, val-9.63934426e-01, val_2--5.89378437e-02"
        ],
        "stacking10_0.4_L1_linear": [
            "linear-L1: train-9.53150242e-01, train_2--7.36580429e-02, test-9.52586207e-01, test_2--7.34385559e-02, val-9.63934426e-01, val_2--5.89378437e-02"
        ],
        "stacking20_-1_L1_linear": [
            "linear-L1: train-9.48303716e-01, train_2--7.15997781e-02, test-9.48275862e-01, test_2--7.53981683e-02, val-9.63934426e-01, val_2--6.03054875e-02"
        ],
        "stacking20_0_L1_linear": [
            "linear-L1: train-9.43457189e-01, train_2--9.18641708e-02, test-9.48275862e-01, test_2--7.55317083e-02, val-9.60655738e-01, val_2--6.18724786e-02"
        ],
        "stacking20_0.1_L1_linear": [
            "linear-L1: train-9.53150242e-01, train_2--7.49039774e-02, test-9.52586207e-01, test_2--7.33264325e-02, val-9.60655738e-01, val_2--6.08003934e-02"
        ],
        "stacking20_0.2_L1_linear": [
            "linear-L1: train-9.53150242e-01, train_2--7.38793200e-02, test-9.52586207e-01, test_2--7.32662433e-02, val-9.63934426e-01, val_2--5.90502633e-02"
        ],
        "stacking20_0.3_L1_linear": [
            "linear-L1: train-9.54765751e-01, train_2--7.32937425e-02, test-9.52586207e-01, test_2--7.12932170e-02, val-9.67213115e-01, val_2--5.67489410e-02"
        ],
        "stacking20_0.4_L1_linear": [
            "linear-L1: train-9.54765751e-01, train_2--7.33180116e-02, test-9.56896552e-01, test_2--7.08038022e-02, val-9.67213115e-01, val_2--5.62751434e-02"
        ],
        "stacking30_-1_L1_linear": [
            "linear-L1: train-9.54765751e-01, train_2--6.59679761e-02, test-9.48275862e-01, test_2--7.99974173e-02, val-9.60655738e-01, val_2--6.56059935e-02"
        ],
        "stacking30_0_L1_linear": [
            "linear-L1: train-9.41841680e-01, train_2--8.93836630e-02, test-9.39655172e-01, test_2--7.71110126e-02, val-9.60655738e-01, val_2--5.81115888e-02"
        ],
        "stacking30_0.1_L1_linear": [
            "linear-L1: train-9.53150242e-01, train_2--7.32729203e-02, test-9.52586207e-01, test_2--7.50649191e-02, val-9.57377049e-01, val_2--6.02228001e-02"
        ],
        "stacking30_0.2_L1_linear": [
            "linear-L1: train-9.54765751e-01, train_2--7.27242906e-02, test-9.52586207e-01, test_2--7.28888855e-02, val-9.63934426e-01, val_2--5.76802336e-02"
        ],
        "stacking30_0.3_L1_linear": [
            "linear-L1: train-9.54765751e-01, train_2--7.09287617e-02, test-9.52586207e-01, test_2--7.33247559e-02, val-9.63934426e-01, val_2--5.64989130e-02"
        ],
        "stacking30_0.4_L1_linear": [
            "linear-L1: train-9.54765751e-01, train_2--7.09287617e-02, test-9.52586207e-01, test_2--7.33247559e-02, val-9.63934426e-01, val_2--5.64989130e-02"
        ],
        "stacking40_-1_L1_linear": [
            "linear-L1: train-9.49919225e-01, train_2--6.93578129e-02, test-9.39655172e-01, test_2--7.36462160e-02, val-9.67213115e-01, val_2--5.87269096e-02"
        ],
        "stacking40_0_L1_linear": [
            "linear-L1: train-9.40226171e-01, train_2--8.44201233e-02, test-9.39655172e-01, test_2--7.50196790e-02, val-9.70491803e-01, val_2--5.36396044e-02"
        ],
        "stacking40_0.1_L1_linear": [
            "linear-L1: train-9.54765751e-01, train_2--7.22954301e-02, test-9.52586207e-01, test_2--7.34757344e-02, val-9.63934426e-01, val_2--5.79146827e-02"
        ],
        "stacking40_0.2_L1_linear": [
            "linear-L1: train-9.54765751e-01, train_2--7.08655705e-02, test-9.52586207e-01, test_2--7.32742322e-02, val-9.63934426e-01, val_2--5.68460330e-02"
        ],
        "stacking40_0.3_L1_linear": [
            "linear-L1: train-9.54765751e-01, train_2--7.08639013e-02, test-9.52586207e-01, test_2--7.24283167e-02, val-9.63934426e-01, val_2--5.68633142e-02"
        ],
        "stacking40_0.4_L1_linear": [
            "linear-L1: train-9.54765751e-01, train_2--7.06082245e-02, test-9.52586207e-01, test_2--7.20701374e-02, val-9.63934426e-01, val_2--5.62360677e-02"
        ],
        "stacking-1_0.4_L1_linear": [
            "linear-L1: train-0.95638, train_2--0.07417, test-0.94397, test_2--0.07577, val-0.96721, val_2--0.05995"
        ],
        "stacking1000_0.4_L1_linear": [
            "linear-L1: train-0.97415, train_2--0.04623, test-0.94828, test_2--0.07858, val-0.95738, val_2--0.06600"
        ],
        "stacking5_0.49_L1_linear": [
            "linear-L1: train-0.94507, train_2--0.07937, test-0.96121, test_2--0.06574, val-0.96393, val_2--0.05900"
        ],
        "stacking10_0.49_L1_linear": [
            "linear-L1: train-0.95315, train_2--0.07394, test-0.95690, test_2--0.07213, val-0.96721, val_2--0.05793"
        ],
        "stacking20_0.49_L1_linear": [
            "linear-L1: train-0.95477, train_2--0.07340, test-0.95690, test_2--0.07141, val-0.96721, val_2--0.05670"
        ],
        "stacking30_0.49_L1_linear": [
            "linear-L1: train-0.95477, train_2--0.07098, test-0.95259, test_2--0.07339, val-0.96393, val_2--0.05655"
        ],
        "stacking40_0.49_L1_linear": [
            "linear-L1: train-0.95477, train_2--0.07061, test-0.95259, test_2--0.07207, val-0.96393, val_2--0.05624"
        ],
        "stacking50_-1_L1_linear": [
            "linear-L1: train-0.95477, train_2--0.06562, test-0.95259, test_2--0.07045, val-0.97049, val_2--0.05810"
        ],
        "stacking50_0_L1_linear": [
            "linear-L1: train-0.94023, train_2--0.08366, test-0.94397, test_2--0.07409, val-0.96721, val_2--0.05374"
        ],
        "stacking50_0.1_L1_linear": [
            "linear-L1: train-0.95800, train_2--0.06824, test-0.95690, test_2--0.07367, val-0.96393, val_2--0.05917"
        ],
        "stacking50_0.2_L1_linear": [
            "linear-L1: train-0.95800, train_2--0.06698, test-0.95259, test_2--0.07387, val-0.96066, val_2--0.05871"
        ],
        "stacking50_0.3_L1_linear": [
            "linear-L1: train-0.95477, train_2--0.06921, test-0.95259, test_2--0.07166, val-0.96393, val_2--0.05526"
        ],
        "stacking50_0.4_L1_linear": [
            "linear-L1: train-0.95477, train_2--0.06921, test-0.95259, test_2--0.07166, val-0.96393, val_2--0.05526"
        ],
        "stacking50_0.49_L1_linear": [
            "linear-L1: train-0.95477, train_2--0.06929, test-0.95259, test_2--0.07158, val-0.96393, val_2--0.05513"
        ]
    },
    "retain_exp": {
        "stacking10_0.4_L1_weighted_retainFalse": [
            [
                {
                    "train": [
                        0.9547657512116317,
                        0.9531502423263328,
                        0.9531502423263328,
                        0.9224555735056543,
                        0.9079159935379645,
                        0.9289176090468497,
                        0.9321486268174475,
                        0.9353796445880452,
                        0.9434571890145396,
                        0.9353796445880452
                    ],
                    "train_2": [
                        -0.08333203491425865,
                        -0.09087882159377032,
                        -0.08338244138632361,
                        -0.13679136666326222,
                        -0.1743695729102282,
                        -0.10237619222314365,
                        -0.1004893128467602,
                        -0.10489873365701201,
                        -0.09050031764545077,
                        -0.09550445073144702
                    ],
                    "test": [
                        0.9396551724137931,
                        0.9525862068965517,
                        0.9353448275862069,
                        0.9310344827586207,
                        0.9181034482758621,
                        0.9525862068965517,
                        0.9396551724137931,
                        0.9482758620689655,
                        0.9439655172413793,
                        0.9525862068965517
                    ],
                    "test_2": [
                        -0.09632180658750501,
                        -0.08177329996464891,
                        -0.106374182760748,
                        -0.09364405264776594,
                        -0.12412228859155797,
                        -0.08049171383684374,
                        -0.07862717859368275,
                        -0.08664384286763104,
                        -0.06831227162998238,
                        -0.07072835517729627
                    ],
                    "val": [
                        0.9606557377049181,
                        0.9540983606557377,
                        0.9573770491803278,
                        0.9606557377049181,
                        0.9475409836065574,
                        0.9639344262295082,
                        0.9672131147540983,
                        0.9540983606557377,
                        0.9639344262295082,
                        0.9573770491803278
                    ],
                    "val_2": [
                        -0.07409395476319884,
                        -0.08751233604607264,
                        -0.07340954705325961,
                        -0.06689568080222241,
                        -0.09909047228971593,
                        -0.06396670402474969,
                        -0.06314394496415297,
                        -0.07657312750773392,
                        -0.05587387844772052,
                        -0.05755263910528868
                    ]
                },
                {
                    "train": [
                        0.9434571890145396,
                        0.938610662358643,
                        0.938610662358643,
                        0.9240710823909531,
                        0.9337641357027464,
                        0.9499192245557351,
                        0.9450726978998385,
                        0.9499192245557351,
                        0.9499192245557351,
                        0.9434571890145396
                    ],
                    "train_2": [
                        -0.10783330030135158,
                        -0.12277880827239068,
                        -0.11975222082175499,
                        -0.13441211715346202,
                        -0.13247172859450723,
                        -0.08007238017413378,
                        -0.07643785505246131,
                        -0.09474305495730226,
                        -0.07897681980732685,
                        -0.09679999036780632
                    ],
                    "test": [
                        0.9353448275862069,
                        0.9439655172413793,
                        0.9439655172413793,
                        0.9568965517241379,
                        0.9396551724137931,
                        0.9568965517241379,
                        0.9525862068965517,
                        0.9568965517241379,
                        0.9525862068965517,
                        0.9568965517241379
                    ],
                    "test_2": [
                        -0.08928059604703531,
                        -0.0818706581536517,
                        -0.08239518960579138,
                        -0.07077288403976818,
                        -0.09275862068965515,
                        -0.0808671969238573,
                        -0.07560761523202965,
                        -0.08566258162144348,
                        -0.06644673412423754,
                        -0.07185844871594242
                    ],
                    "val": [
                        0.9639344262295082,
                        0.9540983606557377,
                        0.9672131147540983,
                        0.9639344262295082,
                        0.9639344262295082,
                        0.9672131147540983,
                        0.980327868852459,
                        0.9606557377049181,
                        0.9639344262295082,
                        0.9639344262295082
                    ],
                    "val_2": [
                        -0.06808166362780782,
                        -0.08021358267306573,
                        -0.06700018687435726,
                        -0.06671303975170971,
                        -0.08026229508196721,
                        -0.06803197794901274,
                        -0.052930959883530714,
                        -0.08098540288625514,
                        -0.05396488588731848,
                        -0.05773469959162804
                    ]
                },
                {
                    "train": [
                        0.9466882067851373,
                        0.9353796445880452,
                        0.9450726978998385,
                        0.9337641357027464,
                        0.9434571890145396,
                        0.9305331179321487,
                        0.9321486268174475,
                        0.9240710823909531,
                        0.9369951534733441,
                        0.9450726978998385
                    ],
                    "train_2": [
                        -0.1017011962762932,
                        -0.12924071082390948,
                        -0.10985460420032306,
                        -0.11837221592164825,
                        -0.1130856219709208,
                        -0.10653308042625804,
                        -0.10657521572990855,
                        -0.11296344178129705,
                        -0.09049543951209331,
                        -0.08858435806072266
                    ],
                    "test": [
                        0.9482758620689655,
                        0.9439655172413793,
                        0.9439655172413793,
                        0.9568965517241379,
                        0.9482758620689655,
                        0.9525862068965517,
                        0.9439655172413793,
                        0.9482758620689655,
                        0.9612068965517241,
                        0.9439655172413793
                    ],
                    "test_2": [
                        -0.09116426916238017,
                        -0.08586206896551722,
                        -0.08931034482758617,
                        -0.07066019230551744,
                        -0.09137931034482755,
                        -0.07926505134806786,
                        -0.08032865367983924,
                        -0.08886442994621895,
                        -0.07405119753293304,
                        -0.07957406745791569
                    ],
                    "val": [
                        0.9639344262295082,
                        0.9540983606557377,
                        0.9540983606557377,
                        0.9704918032786886,
                        0.9508196721311475,
                        0.9704918032786886,
                        0.9573770491803278,
                        0.9573770491803278,
                        0.9639344262295082,
                        0.9704918032786886
                    ],
                    "val_2": [
                        -0.06678517046188163,
                        -0.07763934426229506,
                        -0.07554098360655735,
                        -0.06599027215308159,
                        -0.0781639344262295,
                        -0.0588881870961466,
                        -0.06490749478181985,
                        -0.07175275328580692,
                        -0.05484154734627193,
                        -0.050601004384273396
                    ]
                },
                {
                    "train": [
                        0.9369951534733441,
                        0.9192245557350566,
                        0.925686591276252,
                        0.9289176090468497,
                        0.9143780290791599,
                        0.9353796445880452,
                        0.9273021001615509,
                        0.9321486268174475,
                        0.9337641357027464,
                        0.9353796445880452
                    ],
                    "train_2": [
                        -0.11759663414508824,
                        -0.16155088852988683,
                        -0.13476260847066895,
                        -0.13175526458320366,
                        -0.17124394184168007,
                        -0.1035460464121596,
                        -0.11063173037982704,
                        -0.1133878089250378,
                        -0.10369857728227236,
                        -0.10379199947796224
                    ],
                    "test": [
                        0.9525862068965517,
                        0.9396551724137931,
                        0.9396551724137931,
                        0.9568965517241379,
                        0.9396551724137931,
                        0.9439655172413793,
                        0.9439655172413793,
                        0.9353448275862069,
                        0.9396551724137931,
                        0.9482758620689655
                    ],
                    "test_2": [
                        -0.07663983360488234,
                        -0.08103448275862067,
                        -0.0832299750933315,
                        -0.07305109709322298,
                        -0.07758620689655171,
                        -0.09034253736999957,
                        -0.0807701947526828,
                        -0.09498048490628455,
                        -0.07285138581862748,
                        -0.08409542951544116
                    ],
                    "val": [
                        0.9672131147540983,
                        0.9377049180327869,
                        0.9573770491803278,
                        0.9606557377049181,
                        0.9540983606557377,
                        0.9606557377049181,
                        0.9508196721311475,
                        0.9672131147540983,
                        0.9639344262295082,
                        0.9672131147540983
                    ],
                    "val_2": [
                        -0.05804295980950326,
                        -0.09180327868852456,
                        -0.06823404199846426,
                        -0.06726236245045504,
                        -0.07396721311475409,
                        -0.07460418014552711,
                        -0.06401631393473609,
                        -0.07695351894333366,
                        -0.05580709545931971,
                        -0.056314701709030926
                    ]
                },
                {
                    "train": [
                        0.938610662358643,
                        0.9240710823909531,
                        0.9208400646203554,
                        0.9321486268174475,
                        0.925686591276252,
                        0.9369951534733441,
                        0.938610662358643,
                        0.9353796445880452,
                        0.9402261712439418,
                        0.9240710823909531
                    ],
                    "train_2": [
                        -0.11745744939900056,
                        -0.14862681744749592,
                        -0.15636009061886552,
                        -0.12681602061132155,
                        -0.14870749000891664,
                        -0.09714995670233564,
                        -0.09777030607357781,
                        -0.10357479335977147,
                        -0.09371084915527175,
                        -0.11919713160124507
                    ],
                    "test": [
                        0.9353448275862069,
                        0.9353448275862069,
                        0.9396551724137931,
                        0.9482758620689655,
                        0.9396551724137931,
                        0.9525862068965517,
                        0.9439655172413793,
                        0.9525862068965517,
                        0.9439655172413793,
                        0.9525862068965517
                    ],
                    "test_2": [
                        -0.09630594577398127,
                        -0.11086206896551722,
                        -0.08852486298729954,
                        -0.09191022726044774,
                        -0.09994415133936184,
                        -0.07212752856020356,
                        -0.07930230429989962,
                        -0.07929988126433717,
                        -0.06701296951554377,
                        -0.0736697947956764
                    ],
                    "val": [
                        0.9606557377049181,
                        0.940983606557377,
                        0.9606557377049181,
                        0.9606557377049181,
                        0.9344262295081968,
                        0.9606557377049181,
                        0.9606557377049181,
                        0.9606557377049181,
                        0.9704918032786886,
                        0.9606557377049181
                    ],
                    "val_2": [
                        -0.06374484800025775,
                        -0.08918032786885244,
                        -0.07069453412570845,
                        -0.07179470511430863,
                        -0.08336055095356604,
                        -0.06045361311128076,
                        -0.06282853752580886,
                        -0.06684627389301917,
                        -0.05450412697038517,
                        -0.05353812317357705
                    ]
                }
            ],
            [
                "best_idx6-L2: train-0.94507, train_2--0.07644, test-0.95259, test_2--0.07561, val-0.98033, val_2--0.05293",
                "linear-L2: train-0.95638, train_2--0.07072, test-0.94828, test_2--0.07278, val-0.97377, val_2--0.04914",
                "weighted-L2: train-0.95315, train_2--0.07631, test-0.95690, test_2--0.07377, val-0.97377, val_2--0.06106",
                "best_idx9-L3: train-0.94507, train_2--0.08858, test-0.94397, test_2--0.07957, val-0.97049, val_2--0.05060",
                "best_idx8-L5: train-0.94023, train_2--0.09371, test-0.94397, test_2--0.06701, val-0.97049, val_2--0.05450",
                "best_idx9-L4: train-0.93538, train_2--0.10379, test-0.94828, test_2--0.08410, val-0.96721, val_2--0.05631",
                "weighted-L5: train-0.94830, train_2--0.08332, test-0.94828, test_2--0.06883, val-0.96721, val_2--0.05639",
                "weighted-L4: train-0.93538, train_2--0.10445, test-0.94397, test_2--0.07170, val-0.96721, val_2--0.05804",
                "linear-L5: train-0.94023, train_2--0.08668, test-0.93966, test_2--0.07962, val-0.96393, val_2--0.05499",
                "linear-L4: train-0.92892, train_2--0.10046, test-0.94397, test_2--0.07393, val-0.96393, val_2--0.05515",
                "weighted-L3: train-0.94507, train_2--0.08057, test-0.94397, test_2--0.07033, val-0.96393, val_2--0.05614",
                "linear-L1: train-0.94992, train_2--0.08185, test-0.95259, test_2--0.07344, val-0.96393, val_2--0.05894",
                "linear-L3: train-0.94992, train_2--0.08684, test-0.93966, test_2--0.07824, val-0.96066, val_2--0.05501",
                "weighted-L1: train-0.94507, train_2--0.07871, test-0.94828, test_2--0.07331, val-0.96066, val_2--0.06542"
            ]
        ],
        "stacking10_0.4_L1_weighted_retainTrue": [
            [
                {
                    "train": [
                        0.9547657512116317,
                        0.9531502423263328,
                        0.9531502423263328,
                        0.9224555735056543,
                        0.9079159935379645,
                        0.9289176090468497,
                        0.9321486268174475,
                        0.9353796445880452,
                        0.9434571890145396,
                        0.9353796445880452
                    ],
                    "train_2": [
                        -0.08333203491425865,
                        -0.09087882159377032,
                        -0.08338244138632361,
                        -0.13679136666326222,
                        -0.1743695729102282,
                        -0.10237619222314365,
                        -0.1004893128467602,
                        -0.10489873365701201,
                        -0.09050031764545077,
                        -0.09550445073144702
                    ],
                    "test": [
                        0.9396551724137931,
                        0.9525862068965517,
                        0.9353448275862069,
                        0.9310344827586207,
                        0.9181034482758621,
                        0.9525862068965517,
                        0.9396551724137931,
                        0.9482758620689655,
                        0.9439655172413793,
                        0.9525862068965517
                    ],
                    "test_2": [
                        -0.09632180658750501,
                        -0.08177329996464891,
                        -0.106374182760748,
                        -0.09364405264776594,
                        -0.12412228859155797,
                        -0.08049171383684374,
                        -0.07862717859368275,
                        -0.08664384286763104,
                        -0.06831227162998238,
                        -0.07072835517729627
                    ],
                    "val": [
                        0.9606557377049181,
                        0.9540983606557377,
                        0.9573770491803278,
                        0.9606557377049181,
                        0.9475409836065574,
                        0.9639344262295082,
                        0.9672131147540983,
                        0.9540983606557377,
                        0.9639344262295082,
                        0.9573770491803278
                    ],
                    "val_2": [
                        -0.07409395476319883,
                        -0.08751233604607264,
                        -0.07340954705325961,
                        -0.06689568080222241,
                        -0.09909047228971593,
                        -0.06396670402474969,
                        -0.06314394496415297,
                        -0.07657312750773392,
                        -0.05587387844772052,
                        -0.05755263910528868
                    ]
                },
                {
                    "train": [
                        0.9434571890145396,
                        0.9531502423263328,
                        0.938610662358643,
                        0.9240710823909531,
                        0.9337641357027464,
                        0.9499192245557351,
                        0.9450726978998385,
                        0.9499192245557351,
                        0.9434571890145396,
                        0.9434571890145396
                    ],
                    "train_2": [
                        -0.10783330030135158,
                        -0.09087882159377032,
                        -0.11975222082175499,
                        -0.13441211715346202,
                        -0.13247172859450723,
                        -0.08007238017413378,
                        -0.07643785505246131,
                        -0.09474305495730226,
                        -0.09050031764545077,
                        -0.09679999036780632
                    ],
                    "test": [
                        0.9353448275862069,
                        0.9525862068965517,
                        0.9439655172413793,
                        0.9568965517241379,
                        0.9396551724137931,
                        0.9568965517241379,
                        0.9525862068965517,
                        0.9568965517241379,
                        0.9439655172413793,
                        0.9568965517241379
                    ],
                    "test_2": [
                        -0.08928059604703531,
                        -0.08177329996464891,
                        -0.08239518960579138,
                        -0.07077288403976818,
                        -0.09275862068965515,
                        -0.08086719692385733,
                        -0.07560761523202965,
                        -0.08566258162144348,
                        -0.06831227162998238,
                        -0.07185844871594242
                    ],
                    "val": [
                        0.9639344262295082,
                        0.9540983606557377,
                        0.9672131147540983,
                        0.9639344262295082,
                        0.9639344262295082,
                        0.9672131147540983,
                        0.980327868852459,
                        0.9606557377049181,
                        0.9639344262295082,
                        0.9639344262295082
                    ],
                    "val_2": [
                        -0.06808166362780785,
                        -0.08751233604607264,
                        -0.06700018687435726,
                        -0.06671303975170972,
                        -0.08026229508196721,
                        -0.06803197794901272,
                        -0.052930959883530714,
                        -0.08098540288625514,
                        -0.05587387844772052,
                        -0.05773469959162804
                    ]
                },
                {
                    "train": [
                        0.9434571890145396,
                        0.9531502423263328,
                        0.938610662358643,
                        0.9240710823909531,
                        0.9337641357027464,
                        0.9499192245557351,
                        0.9450726978998385,
                        0.9434571890145396,
                        0.9434571890145396,
                        0.9434571890145396
                    ],
                    "train_2": [
                        -0.10783330030135158,
                        -0.09087882159377032,
                        -0.11975222082175499,
                        -0.13441211715346202,
                        -0.13247172859450723,
                        -0.08007238017413378,
                        -0.07643785505246131,
                        -0.09158745472365894,
                        -0.09050031764545077,
                        -0.08674063040824669
                    ],
                    "test": [
                        0.9353448275862069,
                        0.9525862068965517,
                        0.9439655172413793,
                        0.9568965517241379,
                        0.9396551724137931,
                        0.9568965517241379,
                        0.9525862068965517,
                        0.9396551724137931,
                        0.9439655172413793,
                        0.9568965517241379
                    ],
                    "test_2": [
                        -0.08928059604703531,
                        -0.08177329996464891,
                        -0.08239518960579138,
                        -0.07077288403976818,
                        -0.09275862068965515,
                        -0.08086719692385733,
                        -0.07560761523202965,
                        -0.08603856824801269,
                        -0.06831227162998238,
                        -0.0735674185408244
                    ],
                    "val": [
                        0.9639344262295082,
                        0.9540983606557377,
                        0.9672131147540983,
                        0.9639344262295082,
                        0.9639344262295082,
                        0.9672131147540983,
                        0.980327868852459,
                        0.9639344262295082,
                        0.9639344262295082,
                        0.9704918032786886
                    ],
                    "val_2": [
                        -0.06808166362780785,
                        -0.08751233604607264,
                        -0.06700018687435726,
                        -0.06671303975170972,
                        -0.08026229508196721,
                        -0.06803197794901272,
                        -0.052930959883530714,
                        -0.07134900337764294,
                        -0.05587387844772052,
                        -0.05283869423092884
                    ]
                },
                {
                    "train": [
                        0.9434571890145396,
                        0.9531502423263328,
                        0.938610662358643,
                        0.9418416801292407,
                        0.9337641357027464,
                        0.9499192245557351,
                        0.9450726978998385,
                        0.9434571890145396,
                        0.9434571890145396,
                        0.9434571890145396
                    ],
                    "train_2": [
                        -0.10783330030135158,
                        -0.09087882159377032,
                        -0.11975222082175499,
                        -0.11507023057151083,
                        -0.13247172859450723,
                        -0.08007238017413378,
                        -0.07643785505246131,
                        -0.09158745472365894,
                        -0.09050031764545077,
                        -0.08674063040824669
                    ],
                    "test": [
                        0.9353448275862069,
                        0.9525862068965517,
                        0.9439655172413793,
                        0.9310344827586207,
                        0.9396551724137931,
                        0.9568965517241379,
                        0.9525862068965517,
                        0.9396551724137931,
                        0.9439655172413793,
                        0.9568965517241379
                    ],
                    "test_2": [
                        -0.08928059604703531,
                        -0.08177329996464891,
                        -0.08239518960579138,
                        -0.09572128613144097,
                        -0.09275862068965515,
                        -0.08086719692385733,
                        -0.07560761523202965,
                        -0.08603856824801269,
                        -0.06831227162998238,
                        -0.0735674185408244
                    ],
                    "val": [
                        0.9639344262295082,
                        0.9540983606557377,
                        0.9672131147540983,
                        0.9672131147540983,
                        0.9639344262295082,
                        0.9672131147540983,
                        0.980327868852459,
                        0.9639344262295082,
                        0.9639344262295082,
                        0.9704918032786886
                    ],
                    "val_2": [
                        -0.06808166362780785,
                        -0.08751233604607264,
                        -0.06700018687435726,
                        -0.07232897138674402,
                        -0.08026229508196721,
                        -0.06803197794901272,
                        -0.052930959883530714,
                        -0.07134900337764294,
                        -0.05587387844772052,
                        -0.05283869423092884
                    ]
                },
                {
                    "train": [
                        0.9434571890145396,
                        0.9531502423263328,
                        0.938610662358643,
                        0.9418416801292407,
                        0.9337641357027464,
                        0.9499192245557351,
                        0.9450726978998385,
                        0.9434571890145396,
                        0.9434571890145396,
                        0.9434571890145396
                    ],
                    "train_2": [
                        -0.10783330030135158,
                        -0.09087882159377032,
                        -0.11975222082175499,
                        -0.11507023057151083,
                        -0.13247172859450723,
                        -0.08007238017413378,
                        -0.07643785505246131,
                        -0.09158745472365894,
                        -0.09050031764545077,
                        -0.08674063040824669
                    ],
                    "test": [
                        0.9353448275862069,
                        0.9525862068965517,
                        0.9439655172413793,
                        0.9310344827586207,
                        0.9396551724137931,
                        0.9568965517241379,
                        0.9525862068965517,
                        0.9396551724137931,
                        0.9439655172413793,
                        0.9568965517241379
                    ],
                    "test_2": [
                        -0.08928059604703531,
                        -0.08177329996464891,
                        -0.08239518960579138,
                        -0.09572128613144097,
                        -0.09275862068965515,
                        -0.08086719692385733,
                        -0.07560761523202965,
                        -0.08603856824801269,
                        -0.06831227162998238,
                        -0.0735674185408244
                    ],
                    "val": [
                        0.9639344262295082,
                        0.9540983606557377,
                        0.9672131147540983,
                        0.9672131147540983,
                        0.9639344262295082,
                        0.9672131147540983,
                        0.980327868852459,
                        0.9639344262295082,
                        0.9639344262295082,
                        0.9704918032786886
                    ],
                    "val_2": [
                        -0.06808166362780785,
                        -0.08751233604607264,
                        -0.06700018687435726,
                        -0.07232897138674402,
                        -0.08026229508196721,
                        -0.06803197794901272,
                        -0.052930959883530714,
                        -0.07134900337764294,
                        -0.05587387844772052,
                        -0.05283869423092884
                    ]
                }
            ],
            [
                "best_idx6-L2: train-0.94507, train_2--0.07644, test-0.95259, test_2--0.07561, val-0.98033, val_2--0.05293",
                "linear-L2: train-0.94830, train_2--0.07103, test-0.96121, test_2--0.07061, val-0.97049, val_2--0.05205",
                "best_idx9-L3: train-0.94346, train_2--0.08674, test-0.95690, test_2--0.07357, val-0.97049, val_2--0.05284",
                "linear-L4: train-0.94830, train_2--0.07442, test-0.95259, test_2--0.06868, val-0.96721, val_2--0.05213",
                "linear-L3: train-0.94830, train_2--0.07272, test-0.95259, test_2--0.06973, val-0.96721, val_2--0.05249",
                "best_idx9-L4: train-0.94507, train_2--0.08382, test-0.96121, test_2--0.07028, val-0.96721, val_2--0.05387",
                "weighted-L2: train-0.95477, train_2--0.07292, test-0.95259, test_2--0.07239, val-0.96721, val_2--0.06425",
                "best_idx9-L5: train-0.94184, train_2--0.08472, test-0.96121, test_2--0.06959, val-0.96393, val_2--0.05346",
                "linear-L1: train-0.94992, train_2--0.08185, test-0.95259, test_2--0.07344, val-0.96393, val_2--0.05894",
                "weighted-L1: train-0.94507, train_2--0.07871, test-0.94828, test_2--0.07331, val-0.96066, val_2--0.06542",
                "weighted-L3: train-0.95153, train_2--0.07709, test-0.95259, test_2--0.06924, val-0.95738, val_2--0.06375",
                "weighted-L4: train-0.95153, train_2--0.07729, test-0.95259, test_2--0.06924, val-0.95738, val_2--0.06375"
            ]
        ]
    },
    "dropoutreg_exp": {
        "stacking30_0.3_L1_lineardropout0": [
            [
                [
                    0.04028357901072804,
                    1.0270715988943147,
                    1.2471129714288847,
                    0.827996120132663,
                    0.5024075404914351,
                    -0.5383245200197355,
                    0.5743231724039933,
                    -0.09333909592195563,
                    0.5743231724039933,
                    0.5693901509328111,
                    -0.18622881613004105,
                    0.475913548847157,
                    1.7610213864955588,
                    0.7009552451975053,
                    -0.2762592911138009,
                    0.027586219965561497,
                    0.5910316459577103,
                    -0.012743591812087071,
                    -0.0010053442972824391,
                    -0.0025748158701479414,
                    -0.0013305109778354836,
                    -0.007002083086084129,
                    -0.009207150699209455,
                    0.015940070407199695,
                    0.015940070407238525,
                    -0.010935148314355709,
                    -0.003061783156600063,
                    0.3345351901561837,
                    0.12293952173985762,
                    0.27116661637622214
                ]
            ],
            [
                "linear-L1: train-0.95315, train_2--0.08103, test-0.95259, test_2--0.07332, val-0.96393, val_2--0.05650"
            ]
        ],
        "stacking30_0.3_L1_lineardropout0.1": [
            [
                [
                    -0.08244439645961149,
                    1.1167808680441886,
                    0.939098059818864,
                    0.7013003257412551,
                    0.9958859637687534,
                    -0.4493285572587017,
                    0.3409527220533476,
                    0.04026418217896349,
                    0.774401425040976,
                    0.5973951145180657,
                    -0.13776522715108047,
                    0.6292942160465443,
                    1.3173983740890738,
                    0.69438967313521,
                    -0.17038204007727525,
                    0.17471224059462817,
                    0.4926476302155721,
                    0.248570125992115,
                    0.07546352770577006,
                    0.0021755608635004985,
                    -0.2673171087436504,
                    0.016709508041818196,
                    0.1380939675017731,
                    0.030614254251918663,
                    0.10408776746254483,
                    -0.46898222072557194,
                    0.19209253785200314,
                    0.48129488867555353,
                    -0.22344071230985865,
                    0.16274739355773113
                ]
            ],
            [
                "linear-L1: train-0.95153, train_2--0.08244, test-0.95259, test_2--0.07241, val-0.96393, val_2--0.05581"
            ]
        ],
        "stacking30_0.3_L1_lineardropout0.2": [
            [
                [
                    0.24101636862888037,
                    1.143388007883466,
                    0.04517488677312663,
                    1.3424676890133869,
                    0.2877332019251919,
                    -0.000304230725105559,
                    0.5721410453236042,
                    0.03561424987798469,
                    0.8453096687589872,
                    0.7628818077830747,
                    -0.0727908286442511,
                    0.47767635041834927,
                    1.8113909804989994,
                    0.4468331027783925,
                    -0.1517607446708037,
                    0.011495764566913473,
                    0.05095584145748663,
                    0.2269222832207704,
                    0.35748224227668685,
                    -0.2943223949091953,
                    -0.08389702073278459,
                    0.14542406293928142,
                    -0.4246179357539318,
                    -0.09624620408358797,
                    -0.026729083161914517,
                    -0.08570840491209651,
                    0.15266282235865478,
                    0.3643594235382822,
                    -0.0568591892869498,
                    0.4735393796489603
                ]
            ],
            [
                "linear-L1: train-0.94669, train_2--0.08344, test-0.94397, test_2--0.07318, val-0.96393, val_2--0.05676"
            ]
        ],
        "stacking30_0.3_L1_lineardropout0.3": [
            [
                [
                    -0.08275171397594135,
                    1.331564505982899,
                    1.4843246725873067,
                    0.7832524061359666,
                    0.5249050586679807,
                    -0.19408991663950348,
                    0.7179809510756274,
                    -0.060573283545360054,
                    0.8760079908472046,
                    0.04562946867637408,
                    -0.03949580058380242,
                    0.6497413542587979,
                    1.0261141589763436,
                    0.2599188573396721,
                    -0.4115414533553478,
                    0.6255824404186461,
                    0.3555912829342705,
                    -0.16919159978313136,
                    -0.5794900167272158,
                    0.05914435924710455,
                    -0.19427041583116725,
                    0.4557705659998062,
                    0.24044932931938284,
                    -0.20497519877797304,
                    0.1039850087588493,
                    0.289198003550463,
                    -0.08143769184075286,
                    0.24548083468992643,
                    -0.1607857110727826,
                    0.22109528183531021
                ]
            ],
            [
                "linear-L1: train-0.94346, train_2--0.08572, test-0.95259, test_2--0.07632, val-0.96393, val_2--0.05908"
            ]
        ],
        "stacking30_0.3_L1_lineardropout0.4": [
            [
                [
                    0.21304150924292273,
                    0.6616598590165637,
                    1.5871953920378465,
                    1.2323683338566256,
                    0.456050168473915,
                    -0.5481807153730807,
                    1.165978966732661,
                    -0.09409910979856641,
                    0.821786051598414,
                    0.41799025100289994,
                    0.16277006743245234,
                    0.47991605039666835,
                    0.6771644822791286,
                    0.9828884488588763,
                    -0.26711296378311705,
                    0.09592027224670634,
                    -0.007326984456787233,
                    0.314308343055654,
                    0.024344429300966672,
                    0.053393825835393746,
                    -0.6376132714039547,
                    -0.03371097036785251,
                    -0.23385955589642363,
                    -0.15940696529357726,
                    -0.021406486667944737,
                    -0.4702546756645595,
                    0.008722207001143538,
                    0.5751437149374645,
                    0.4115353607217577,
                    0.3828714448523348
                ]
            ],
            [
                "linear-L1: train-0.94507, train_2--0.08283, test-0.94828, test_2--0.07937, val-0.96393, val_2--0.05782"
            ]
        ],
        "stacking30_0.3_L1_lineardropout0.5": [
            [
                [
                    -0.37491220151191407,
                    1.0977909822369138,
                    1.4388055966905153,
                    0.755787680943628,
                    0.8731210659344942,
                    -1.0500105661504435,
                    0.42441997069774984,
                    -0.07598784445985109,
                    0.8264002191107174,
                    0.6652819013692839,
                    -0.0011980839938570502,
                    0.36604353680422086,
                    0.8775738365803698,
                    0.4208337870515445,
                    -0.05129567288899322,
                    0.5025836359515611,
                    0.7167896914583831,
                    -0.0840001145187185,
                    -0.24548778580413674,
                    0.31938876818196416,
                    0.34091826432691075,
                    0.3895588299993865,
                    -0.36595378217344415,
                    0.6832728525811543,
                    -0.007906329656094106,
                    -0.281163377377851,
                    -0.18153149012553402,
                    1.060296805014969,
                    -0.5064151953459357,
                    -0.501465868618106
                ]
            ],
            [
                "linear-L1: train-0.94669, train_2--0.08455, test-0.95259, test_2--0.07288, val-0.96393, val_2--0.05681"
            ]
        ]
    },
    "diversity_exp": {
        "stacking30_0": [
            28.7672131147541,
            1.8892834036390727,
            52.089771077918854
        ],
        "stacking30_0.05": [
            28.79672131147541,
            2.04456535593815,
            49.905697853293674
        ],
        "stacking30_0.1": [
            28.77704918032787,
            2.141115108736778,
            48.94512917518068
        ],
        "stacking30_0.15": [
            28.780327868852464,
            2.131993437294439,
            48.43082533025359
        ],
        "stacking30_0.2": [
            28.793442622950824,
            2.1419088947640654,
            47.59440973185191
        ],
        "stacking30_0.25": [
            28.783606557377052,
            2.135233830146534,
            47.09008829920243
        ],
        "stacking30_0.3": [
            28.79344262295082,
            2.1272256806171743,
            47.12144426833535
        ],
        "stacking30_0.35": [
            28.79344262295082,
            2.1272256806171743,
            47.12144426833535
        ],
        "stacking30_0.4": [
            28.79344262295082,
            2.1272256806171743,
            47.12144426833536
        ],
        "stacking30_0.45": [
            28.79344262295082,
            2.1272256806171748,
            47.12144426833535
        ],
        "stacking30_0.49": [
            28.790163934426232,
            2.1564359137135263,
            46.902268541194985
        ]
    },
    "diversityavg_exp": {
        "stacking30_0": [
            28.7672131147541,
            1.8892834036390727,
            52.089771077918854
        ],
        "stacking30_0.05": [
            28.7672131147541,
            1.889283403639072,
            52.08977107791886
        ],
        "stacking30_0.1": [
            28.7672131147541,
            1.8900344314556328,
            52.32753133933433
        ],
        "stacking30_0.15": [
            28.7672131147541,
            1.8900344314556325,
            52.32753133933433
        ],
        "stacking30_0.2": [
            28.76065573770492,
            1.8980834702737546,
            52.09452660211037
        ],
        "stacking30_0.25": [
            28.76065573770492,
            1.8980834702737548,
            52.09452660211037
        ],
        "stacking30_0.3": [
            28.76065573770492,
            1.8980834702737548,
            52.09452660211037
        ],
        "stacking30_0.35": [
            28.763934426229508,
            1.909373818645086,
            51.51672143397691
        ],
        "stacking30_0.4": [
            28.770491803278688,
            1.920601887137575,
            50.930612153391415
        ],
        "stacking30_0.45": [
            28.770491803278688,
            1.920601887137575,
            50.93061215339141
        ],
        "stacking30_0.49": [
            28.770491803278688,
            1.920601887137575,
            50.930612153391415
        ]
    },
    "struc_exp": {
        "stacking30_0.3_dropout0_retainTrue": [
            "best_idx4-L3: train-9.30533118e-01, train_2--1.33374060e-01, test-9.52586207e-01, test_2--9.43723437e-02, val-9.83606557e-01, val_2--4.66291866e-02",
            "linear-L2: train-9.53150242e-01, train_2--7.29106339e-02, test-9.65517241e-01, test_2--6.44303080e-02, val-9.73770492e-01, val_2--4.96809549e-02",
            "linear-L3: train-9.57996769e-01, train_2--7.01496048e-02, test-9.56896552e-01, test_2--6.74124716e-02, val-9.73770492e-01, val_2--5.09602749e-02",
            "lightgbm-L2: train-9.49919225e-01, train_2--7.44093551e-02, test-9.35344828e-01, test_2--9.09833417e-02, val-9.73770492e-01, val_2--5.40576002e-02",
            "best_idx11-L2: train-9.51534733e-01, train_2--7.79969561e-02, test-9.52586207e-01, test_2--7.64993194e-02, val-9.70491803e-01, val_2--5.36677451e-02",
            "weighted-L1: train-9.53150242e-01, train_2--7.51257642e-02, test-9.52586207e-01, test_2--7.11514830e-02, val-9.70491803e-01, val_2--5.75618178e-02",
            "lightgbm-L3: train-9.46688207e-01, train_2--8.46445697e-02, test-9.56896552e-01, test_2--7.67891790e-02, val-9.67213115e-01, val_2--5.37679487e-02",
            "weighted-L2: train-9.51534733e-01, train_2--7.15045227e-02, test-9.56896552e-01, test_2--6.79261394e-02, val-9.67213115e-01, val_2--5.49191347e-02",
            "weighted-L3: train-9.53150242e-01, train_2--7.20352211e-02, test-9.56896552e-01, test_2--7.14037556e-02, val-9.63934426e-01, val_2--5.29052123e-02",
            "linear-L1: train-9.53150242e-01, train_2--8.10342244e-02, test-9.52586207e-01, test_2--7.33247559e-02, val-9.63934426e-01, val_2--5.64989130e-02",
            "lightgbm-L1: train-9.51534733e-01, train_2--8.37020158e-02, test-9.09482759e-01, test_2--9.84212416e-02, val-9.63934426e-01, val_2--6.21533037e-02"
        ],
        "stacking30_0.3_dropout0.1_retainTrue": [
            "lightgbm-L2: train-9.53150242e-01, train_2--7.79103647e-02, test-9.43965517e-01, test_2--8.60917612e-02, val-9.77049180e-01, val_2--5.45988150e-02",
            "best_idx4-L3: train-9.38610662e-01, train_2--1.17164607e-01, test-9.52586207e-01, test_2--7.11132964e-02, val-9.73770492e-01, val_2--5.55289683e-02",
            "weighted-L3: train-9.46688207e-01, train_2--8.27552419e-02, test-9.39655172e-01, test_2--7.43920284e-02, val-9.70491803e-01, val_2--5.59924256e-02",
            "weighted-L1: train-9.53150242e-01, train_2--7.51257642e-02, test-9.52586207e-01, test_2--7.11514830e-02, val-9.70491803e-01, val_2--5.75618178e-02",
            "best_idx10-L2: train-9.49919225e-01, train_2--9.14187924e-02, test-9.52586207e-01, test_2--8.24177373e-02, val-9.70491803e-01, val_2--6.58719798e-02",
            "linear-L2: train-9.46688207e-01, train_2--8.07612724e-02, test-9.52586207e-01, test_2--7.24290028e-02, val-9.67213115e-01, val_2--4.97140953e-02",
            "linear-L3: train-9.49919225e-01, train_2--8.01954175e-02, test-9.48275862e-01, test_2--7.63578101e-02, val-9.67213115e-01, val_2--5.05547323e-02",
            "weighted-L2: train-9.48303716e-01, train_2--8.01040666e-02, test-9.56896552e-01, test_2--7.14788102e-02, val-9.67213115e-01, val_2--6.00326914e-02",
            "linear-L1: train-9.53150242e-01, train_2--8.10342244e-02, test-9.52586207e-01, test_2--7.33247559e-02, val-9.63934426e-01, val_2--5.64989130e-02",
            "lightgbm-L1: train-9.51534733e-01, train_2--8.37020158e-02, test-9.09482759e-01, test_2--9.84212416e-02, val-9.63934426e-01, val_2--6.21533037e-02",
            "lightgbm-L3: train-9.51534733e-01, train_2--8.42525905e-02, test-9.22413793e-01, test_2--9.21857742e-02, val-9.60655738e-01, val_2--6.48784498e-02"
        ],
        "stacking30_0.3_dropout0.2_retainFalse": [
            "weighted-L1: train-9.53150242e-01, train_2--7.51257642e-02, test-9.52586207e-01, test_2--7.11514830e-02, val-9.70491803e-01, val_2--5.75618178e-02",
            "best_idx10-L2: train-9.43457189e-01, train_2--9.72235362e-02, test-9.52586207e-01, test_2--7.71065890e-02, val-9.70491803e-01, val_2--5.95965452e-02",
            "best_idx15-L3: train-9.43457189e-01, train_2--8.31237270e-02, test-9.52586207e-01, test_2--7.40829843e-02, val-9.67213115e-01, val_2--5.29867717e-02",
            "linear-L1: train-9.53150242e-01, train_2--8.10342244e-02, test-9.52586207e-01, test_2--7.33247559e-02, val-9.63934426e-01, val_2--5.64989130e-02",
            "lightgbm-L1: train-9.51534733e-01, train_2--8.37020158e-02, test-9.09482759e-01, test_2--9.84212416e-02, val-9.63934426e-01, val_2--6.21533037e-02",
            "lightgbm-L2: train-9.38610662e-01, train_2--9.73546008e-02, test-9.39655172e-01, test_2--7.92486982e-02, val-9.63934426e-01, val_2--6.44792886e-02",
            "weighted-L2: train-9.51534733e-01, train_2--7.84816882e-02, test-9.43965517e-01, test_2--8.15854724e-02, val-9.63934426e-01, val_2--6.77698687e-02",
            "linear-L2: train-9.48303716e-01, train_2--8.13518782e-02, test-9.52586207e-01, test_2--7.43876184e-02, val-9.60655738e-01, val_2--5.31971216e-02",
            "weighted-L3: train-9.36995153e-01, train_2--9.48698742e-02, test-9.52586207e-01, test_2--7.26885393e-02, val-9.60655738e-01, val_2--5.40753731e-02",
            "linear-L3: train-9.40226171e-01, train_2--9.17703468e-02, test-9.52586207e-01, test_2--8.13722832e-02, val-9.60655738e-01, val_2--5.74265479e-02",
            "lightgbm-L3: train-9.36995153e-01, train_2--1.03470860e-01, test-9.35344828e-01, test_2--9.29715371e-02, val-9.54098361e-01, val_2--6.90107180e-02"
        ],
        "stacking30_0.3_dropout0.2_retainTrue": [
            "linear-L4: train-9.45072698e-01, train_2--8.15318706e-02, test-9.56896552e-01, test_2--6.58080610e-02, val-9.73770492e-01, val_2--4.93075891e-02",
            "linear-L3: train-9.40226171e-01, train_2--8.71404374e-02, test-9.52586207e-01, test_2--6.91696454e-02, val-9.73770492e-01, val_2--4.93775645e-02",
            "linear-L5: train-9.49919225e-01, train_2--8.83753475e-02, test-9.56896552e-01, test_2--6.79184629e-02, val-9.73770492e-01, val_2--5.01443322e-02",
            "best_idx23-L5: train-9.36995153e-01, train_2--1.05256452e-01, test-9.39655172e-01, test_2--7.75778954e-02, val-9.70491803e-01, val_2--5.30182176e-02",
            "linear-L2: train-9.49919225e-01, train_2--7.87453085e-02, test-9.56896552e-01, test_2--6.61640337e-02, val-9.70491803e-01, val_2--5.33945414e-02",
            "best_idx15-L4: train-9.38610662e-01, train_2--9.45470553e-02, test-9.52586207e-01, test_2--7.06349297e-02, val-9.70491803e-01, val_2--5.41889555e-02",
            "weighted-L2: train-9.48303716e-01, train_2--8.33594059e-02, test-9.48275862e-01, test_2--7.07372066e-02, val-9.70491803e-01, val_2--5.56218891e-02",
            "weighted-L1: train-9.53150242e-01, train_2--7.51257642e-02, test-9.52586207e-01, test_2--7.11514830e-02, val-9.70491803e-01, val_2--5.75618178e-02",
            "best_idx11-L3: train-9.41841680e-01, train_2--9.78257401e-02, test-9.52586207e-01, test_2--6.40384049e-02, val-9.70491803e-01, val_2--5.76579344e-02",
            "best_idx10-L2: train-9.43457189e-01, train_2--9.72235362e-02, test-9.52586207e-01, test_2--7.71065890e-02, val-9.70491803e-01, val_2--5.95965452e-02",
            "weighted-L4: train-9.46688207e-01, train_2--7.93525824e-02, test-9.56896552e-01, test_2--7.26138193e-02, val-9.67213115e-01, val_2--5.65977933e-02",
            "weighted-L5: train-9.49919225e-01, train_2--7.56208726e-02, test-9.61206897e-01, test_2--7.18156306e-02, val-9.67213115e-01, val_2--5.67817083e-02",
            "weighted-L3: train-9.48303716e-01, train_2--8.00342392e-02, test-9.52586207e-01, test_2--7.02049559e-02, val-9.67213115e-01, val_2--5.76209767e-02",
            "linear-L1: train-9.53150242e-01, train_2--8.10342244e-02, test-9.52586207e-01, test_2--7.33247559e-02, val-9.63934426e-01, val_2--5.64989130e-02",
            "lightgbm-L1: train-9.51534733e-01, train_2--8.37020158e-02, test-9.09482759e-01, test_2--9.84212416e-02, val-9.63934426e-01, val_2--6.21533037e-02",
            "lightgbm-L5: train-9.43457189e-01, train_2--8.96511615e-02, test-9.48275862e-01, test_2--8.12983242e-02, val-9.60655738e-01, val_2--5.10005854e-02",
            "lightgbm-L4: train-9.43457189e-01, train_2--9.35361791e-02, test-9.35344828e-01, test_2--9.16995099e-02, val-9.54098361e-01, val_2--6.84852653e-02",
            "lightgbm-L3: train-9.43457189e-01, train_2--9.39972521e-02, test-9.31034483e-01, test_2--8.11511775e-02, val-9.50819672e-01, val_2--6.21222568e-02",
            "lightgbm-L2: train-9.41841680e-01, train_2--8.47042512e-02, test-9.22413793e-01, test_2--9.60592432e-02, val-9.47540984e-01, val_2--7.27766021e-02"
        ],
        "stacking30_0.3_dropout0.3_retainTrue": [
            "best_idx11-L3: train-9.49919225e-01, train_2--8.50225323e-02, test-9.52586207e-01, test_2--7.47865498e-02, val-9.70491803e-01, val_2--5.08363348e-02",
            "weighted-L1: train-9.53150242e-01, train_2--7.51257642e-02, test-9.52586207e-01, test_2--7.11514830e-02, val-9.70491803e-01, val_2--5.75618178e-02",
            "best_idx25-L2: train-9.43457189e-01, train_2--9.32754366e-02, test-9.56896552e-01, test_2--7.23578672e-02, val-9.67213115e-01, val_2--5.49561406e-02",
            "linear-L2: train-9.46688207e-01, train_2--8.36584114e-02, test-9.52586207e-01, test_2--7.22327955e-02, val-9.67213115e-01, val_2--5.51268094e-02",
            "weighted-L3: train-9.46688207e-01, train_2--8.35533556e-02, test-9.52586207e-01, test_2--7.28103415e-02, val-9.67213115e-01, val_2--5.51298579e-02",
            "lightgbm-L3: train-9.35379645e-01, train_2--1.01291097e-01, test-9.39655172e-01, test_2--8.42108618e-02, val-9.67213115e-01, val_2--6.26228091e-02",
            "linear-L3: train-9.41841680e-01, train_2--8.66690906e-02, test-9.52586207e-01, test_2--7.20117778e-02, val-9.63934426e-01, val_2--5.24720359e-02",
            "linear-L1: train-9.53150242e-01, train_2--8.10342244e-02, test-9.52586207e-01, test_2--7.33247559e-02, val-9.63934426e-01, val_2--5.64989130e-02",
            "lightgbm-L1: train-9.51534733e-01, train_2--8.37020158e-02, test-9.09482759e-01, test_2--9.84212416e-02, val-9.63934426e-01, val_2--6.21533037e-02",
            "weighted-L2: train-9.51534733e-01, train_2--7.75184020e-02, test-9.52586207e-01, test_2--7.32615101e-02, val-9.60655738e-01, val_2--5.88738164e-02",
            "lightgbm-L2: train-9.48303716e-01, train_2--8.84281770e-02, test-9.43965517e-01, test_2--9.31318117e-02, val-9.57377049e-01, val_2--6.78745662e-02"
        ],
        "stacking30_0.3_dropout0.4_retainTrue": [
            "best_idx16-L3: train-9.40226171e-01, train_2--1.02321458e-01, test-9.52586207e-01, test_2--7.35966997e-02, val-9.73770492e-01, val_2--5.26590277e-02",
            "linear-L2: train-9.48303716e-01, train_2--8.45372230e-02, test-9.48275862e-01, test_2--7.00453299e-02, val-9.70491803e-01, val_2--5.01710783e-02",
            "linear-L3: train-9.38610662e-01, train_2--9.09593364e-02, test-9.43965517e-01, test_2--7.29681084e-02, val-9.70491803e-01, val_2--5.26143042e-02",
            "weighted-L2: train-9.35379645e-01, train_2--8.51962930e-02, test-9.52586207e-01, test_2--7.06905316e-02, val-9.70491803e-01, val_2--5.72084831e-02",
            "weighted-L1: train-9.53150242e-01, train_2--7.51257642e-02, test-9.52586207e-01, test_2--7.11514830e-02, val-9.70491803e-01, val_2--5.75618178e-02",
            "best_idx7-L2: train-9.35379645e-01, train_2--1.03555527e-01, test-9.56896552e-01, test_2--7.73948769e-02, val-9.70491803e-01, val_2--6.56636616e-02",
            "weighted-L3: train-9.41841680e-01, train_2--8.33444055e-02, test-9.48275862e-01, test_2--7.09921064e-02, val-9.67213115e-01, val_2--5.47051640e-02",
            "lightgbm-L3: train-9.38610662e-01, train_2--9.25367530e-02, test-9.52586207e-01, test_2--7.45164169e-02, val-9.67213115e-01, val_2--5.74193372e-02",
            "linear-L1: train-9.53150242e-01, train_2--8.10342244e-02, test-9.52586207e-01, test_2--7.33247559e-02, val-9.63934426e-01, val_2--5.64989130e-02",
            "lightgbm-L1: train-9.51534733e-01, train_2--8.37020158e-02, test-9.09482759e-01, test_2--9.84212416e-02, val-9.63934426e-01, val_2--6.21533037e-02",
            "lightgbm-L2: train-9.51534733e-01, train_2--8.14001287e-02, test-9.22413793e-01, test_2--8.76982714e-02, val-9.57377049e-01, val_2--6.24590656e-02"
        ]
    }
}