{
    "task_type": "CLS",
    "dataset": "space_ga",
    "refit": "full",
    "filter": "m6_p6",
    "time_limit": 3600,
    "best": 0.8617363344051447,
    "fixed_ens": {
        "ensemble_selection10": 0.8745980707395499,
        "cma_es": 0.8585209003215434,
        "qdo_es": 0.8713826366559485,
        "OptDivBO": 0.8392282958199357,
        "EnsOpt": 0.8279742765273312,
        "stacking-1_0.4_L1_linear": 0.8697749196141479,
        "stacking-1_0.4_L2_linear": 0.8762057877813505,
        "stacking1000_0.4_L1_linear": 0.8778135048231511,
        "stacking1000_0.4_L2_linear": 0.8842443729903537,
        "ensemble_selection25": 0.8665594855305466,
        "stacking1000_0.4_L1_weighted": 0.8794212218649518,
        "stacking-1_0.4_L1_weighted": 0.8729903536977492,
        "stacking1000_0.4_L2_weighted": 0.8713826366559485,
        "stacking-1_0.4_L2_weighted": 0.8729903536977492,
        "autogluon-": 0.872874243775798
    },
    "defopt_ens": {
        "s10_r20_d20": "0.8810289389067524, 0.8810289389067524, 0.8778135048231511, 0.8794212218649518, 0.8842443729903537, 0.8778135048231511",
        "s10_r40_d20": "0.8762057877813505, 0.8810289389067524, 0.882636655948553, 0.8778135048231511, 0.8762057877813505, 0.882636655948553",
        "s20_r20_d20": "0.8794212218649518, 0.8810289389067524, 0.8778135048231511, 0.8762057877813505, 0.8745980707395499, 0.8778135048231511",
        "s20_r40_d20": "0.8794212218649518, 0.8778135048231511, 0.8794212218649518, 0.8745980707395499, 0.8697749196141479, 0.8794212218649518",
        "s10_r20_d0": "0.882636655948553, 0.8842443729903537, 0.8794212218649518, 0.8794212218649518, 0.887459807073955, 0.8794212218649518",
        "s10_r40_d0": "0.8778135048231511, 0.8762057877813505, 0.8681672025723473, 0.8778135048231511, 0.8810289389067524, 0.8681672025723473",
        "s20_r20_d0": "0.8745980707395499, 0.8745980707395499, 0.8762057877813505, 0.8697749196141479, 0.8665594855305466, 0.8762057877813505",
        "s20_r40_d0": "0.8745980707395499, 0.8762057877813505, 0.8762057877813505, 0.8762057877813505, 0.8810289389067524, 0.8762057877813505"
    },
    "opt_ens": [
        "0.8810289389067524",
        "0.8810289389067524",
        "0.882636655948553",
        "0.8810289389067524",
        "0.8810289389067524",
        "0.882636655948553",
        "0.882636655948553",
        "0.8810289389067524",
        "0.8810289389067524",
        "0.8810289389067524",
        "0.882636655948553",
        "0.8810289389067524",
        "0.8794212218649518",
        "0.8778135048231511",
        "0.8794212218649518",
        "0.8745980707395499",
        "0.8681672025723473",
        "0.8810289389067524",
        "0.8810289389067524",
        "0.8778135048231511",
        "0.8810289389067524",
        "0.8810289389067524",
        "0.882636655948553",
        "0.8842443729903537",
        "0.8842443729903537",
        "0.8794212218649518",
        "0.8794212218649518",
        "0.8810289389067524",
        "0.8794212218649518",
        "0.8794212218649518"
    ],
    "opt_ens_d0": [
        "0.8745980707395499",
        "0.8745980707395499",
        "0.8745980707395499",
        "0.8745980707395499",
        "0.8745980707395499",
        "0.8745980707395499",
        "0.8745980707395499",
        "0.8794212218649518",
        "0.8794212218649518",
        "0.8762057877813505",
        "0.8762057877813505",
        "0.8778135048231511",
        "0.882636655948553",
        "0.8745980707395499",
        "0.8762057877813505",
        "0.8729903536977492",
        "0.8810289389067524",
        "0.8810289389067524",
        "0.887459807073955",
        "0.8762057877813505",
        "0.8665594855305466",
        "0.8665594855305466",
        "0.8778135048231511",
        "0.8745980707395499",
        "0.8745980707395499",
        "0.8713826366559485",
        "0.8810289389067524",
        "0.882636655948553",
        "0.8745980707395499",
        "0.8762057877813505"
    ],
    "opt_ens_d0-20": [
        "0.8778135048231511",
        "0.8794212218649518",
        "0.8794212218649518",
        "0.8810289389067524",
        "0.8810289389067524",
        "0.8810289389067524",
        "0.882636655948553",
        "0.882636655948553",
        "0.8794212218649518",
        "0.8794212218649518",
        "0.8810289389067524",
        "0.8810289389067524",
        "0.882636655948553",
        "0.8794212218649518",
        "0.8762057877813505",
        "0.8665594855305466",
        "0.8665594855305466",
        "0.8778135048231511",
        "0.8810289389067524",
        "0.8810289389067524",
        "0.8745980707395499",
        "0.887459807073955",
        "0.8745980707395499",
        "0.8810289389067524",
        "0.8810289389067524",
        "0.8810289389067524",
        "0.8794212218649518",
        "0.8745980707395499",
        "0.8794212218649518",
        "0.8762057877813505"
    ],
    "size_exp": {
        "stacking5_-1_L1_linear": [
            "linear-L1: train-8.30528846e-01, train_2--2.46680618e-01, test-8.47266881e-01, test_2--2.32692462e-01, val-8.73325213e-01, val_2--1.96397260e-01"
        ],
        "stacking5_0_L1_linear": [
            "linear-L1: train-8.78605769e-01, train_2--1.86732997e-01, test-8.71382637e-01, test_2--1.92628817e-01, val-8.89159562e-01, val_2--1.68597823e-01"
        ],
        "stacking5_0.1_L1_linear": [
            "linear-L1: train-8.79807692e-01, train_2--1.86892077e-01, test-8.60128617e-01, test_2--1.91471354e-01, val-8.96467722e-01, val_2--1.61269302e-01"
        ],
        "stacking5_0.2_L1_linear": [
            "linear-L1: train-8.79807692e-01, train_2--1.86892077e-01, test-8.60128617e-01, test_2--1.91471354e-01, val-8.96467722e-01, val_2--1.61269302e-01"
        ],
        "stacking5_0.3_L1_linear": [
            "linear-L1: train-8.71995192e-01, train_2--1.93799088e-01, test-8.64951768e-01, test_2--1.92785878e-01, val-8.91595615e-01, val_2--1.58774673e-01"
        ],
        "stacking5_0.4_L1_linear": [
            "linear-L1: train-8.71995192e-01, train_2--1.93799088e-01, test-8.64951768e-01, test_2--1.92785878e-01, val-8.91595615e-01, val_2--1.58774673e-01"
        ],
        "stacking10_-1_L1_linear": [
            "linear-L1: train-8.69591346e-01, train_2--1.95685579e-01, test-8.68167203e-01, test_2--1.96521270e-01, val-8.84287454e-01, val_2--1.74953114e-01"
        ],
        "stacking10_0_L1_linear": [
            "linear-L1: train-8.77403846e-01, train_2--1.86641738e-01, test-8.72990354e-01, test_2--1.92242065e-01, val-8.92813642e-01, val_2--1.68171585e-01"
        ],
        "stacking10_0.1_L1_linear": [
            "linear-L1: train-8.80408654e-01, train_2--1.81818281e-01, test-8.74598071e-01, test_2--1.88870183e-01, val-8.92813642e-01, val_2--1.61476747e-01"
        ],
        "stacking10_0.2_L1_linear": [
            "linear-L1: train-8.81610577e-01, train_2--1.81306373e-01, test-8.71382637e-01, test_2--1.88198706e-01, val-8.96467722e-01, val_2--1.63001382e-01"
        ],
        "stacking10_0.3_L1_linear": [
            "linear-L1: train-8.82211538e-01, train_2--1.81332117e-01, test-8.64951768e-01, test_2--1.90510211e-01, val-8.95249695e-01, val_2--1.62593013e-01"
        ],
        "stacking10_0.4_L1_linear": [
            "linear-L1: train-8.82211538e-01, train_2--1.81332117e-01, test-8.64951768e-01, test_2--1.90510211e-01, val-8.95249695e-01, val_2--1.62593013e-01"
        ],
        "stacking20_-1_L1_linear": [
            "linear-L1: train-8.75600962e-01, train_2--1.87778887e-01, test-8.64951768e-01, test_2--1.93696897e-01, val-8.86723508e-01, val_2--1.72698970e-01"
        ],
        "stacking20_0_L1_linear": [
            "linear-L1: train-8.80408654e-01, train_2--1.84399595e-01, test-8.69774920e-01, test_2--1.90439007e-01, val-8.86723508e-01, val_2--1.68626540e-01"
        ],
        "stacking20_0.1_L1_linear": [
            "linear-L1: train-8.80408654e-01, train_2--1.80642505e-01, test-8.69774920e-01, test_2--1.88889705e-01, val-8.95249695e-01, val_2--1.63592685e-01"
        ],
        "stacking20_0.2_L1_linear": [
            "linear-L1: train-8.82812500e-01, train_2--1.79803943e-01, test-8.72990354e-01, test_2--1.87466959e-01, val-8.96467722e-01, val_2--1.62508791e-01"
        ],
        "stacking20_0.3_L1_linear": [
            "linear-L1: train-8.79206731e-01, train_2--1.79385022e-01, test-8.74598071e-01, test_2--1.87125124e-01, val-8.96467722e-01, val_2--1.62990793e-01"
        ],
        "stacking20_0.4_L1_linear": [
            "linear-L1: train-8.79206731e-01, train_2--1.79234017e-01, test-8.72990354e-01, test_2--1.86968665e-01, val-8.94031669e-01, val_2--1.62691751e-01"
        ],
        "stacking30_-1_L1_linear": [
            "linear-L1: train-8.75000000e-01, train_2--1.85829453e-01, test-8.60128617e-01, test_2--1.95754492e-01, val-8.81851401e-01, val_2--1.72488009e-01"
        ],
        "stacking30_0_L1_linear": [
            "linear-L1: train-8.80408654e-01, train_2--1.83318554e-01, test-8.68167203e-01, test_2--1.91051628e-01, val-8.87941535e-01, val_2--1.68439578e-01"
        ],
        "stacking30_0.1_L1_linear": [
            "linear-L1: train-8.82211538e-01, train_2--1.78515580e-01, test-8.69774920e-01, test_2--1.89158687e-01, val-8.95249695e-01, val_2--1.60960089e-01"
        ],
        "stacking30_0.2_L1_linear": [
            "linear-L1: train-8.80408654e-01, train_2--1.78550833e-01, test-8.71382637e-01, test_2--1.87208381e-01, val-8.94031669e-01, val_2--1.63361866e-01"
        ],
        "stacking30_0.3_L1_linear": [
            "linear-L1: train-8.81009615e-01, train_2--1.78359533e-01, test-8.74598071e-01, test_2--1.87290817e-01, val-8.95249695e-01, val_2--1.62867319e-01"
        ],
        "stacking30_0.4_L1_linear": [
            "linear-L1: train-8.80408654e-01, train_2--1.78145312e-01, test-8.74598071e-01, test_2--1.87350214e-01, val-8.94031669e-01, val_2--1.62729953e-01"
        ],
        "stacking40_-1_L1_linear": [
            "linear-L1: train-8.79206731e-01, train_2--1.83318582e-01, test-8.63344051e-01, test_2--1.93664234e-01, val-8.84287454e-01, val_2--1.77068322e-01"
        ],
        "stacking40_0_L1_linear": [
            "linear-L1: train-8.80408654e-01, train_2--1.81098101e-01, test-8.68167203e-01, test_2--1.89673622e-01, val-8.85505481e-01, val_2--1.70231272e-01"
        ],
        "stacking40_0.1_L1_linear": [
            "linear-L1: train-8.81610577e-01, train_2--1.78057979e-01, test-8.66559486e-01, test_2--1.90067998e-01, val-8.94031669e-01, val_2--1.63639742e-01"
        ],
        "stacking40_0.2_L1_linear": [
            "linear-L1: train-8.79807692e-01, train_2--1.77340537e-01, test-8.68167203e-01, test_2--1.88697869e-01, val-8.91595615e-01, val_2--1.63950092e-01"
        ],
        "stacking40_0.3_L1_linear": [
            "linear-L1: train-8.80408654e-01, train_2--1.77584126e-01, test-8.71382637e-01, test_2--1.87929508e-01, val-8.96467722e-01, val_2--1.63697673e-01"
        ],
        "stacking40_0.4_L1_linear": [
            "linear-L1: train-8.77403846e-01, train_2--1.77623534e-01, test-8.68167203e-01, test_2--1.88492333e-01, val-8.92813642e-01, val_2--1.63840951e-01"
        ],
        "stacking-1_0.4_L1_linear": [
            "linear-L1: train-0.87500, train_2--0.19110, test-0.86817, test_2--0.19539, val-0.88551, val_2--0.17252"
        ],
        "stacking1000_0.4_L1_linear": [
            "linear-L1: train-0.91286, train_2--0.14266, test-0.86334, test_2--0.20128, val-0.89281, val_2--0.16583"
        ],
        "stacking5_0.49_L1_linear": [
            "linear-L1: train-0.87680, train_2--0.19009, test-0.86817, test_2--0.18527, val-0.89038, val_2--0.16182"
        ],
        "stacking10_0.49_L1_linear": [
            "linear-L1: train-0.88221, train_2--0.18133, test-0.86495, test_2--0.19051, val-0.89525, val_2--0.16259"
        ],
        "stacking20_0.49_L1_linear": [
            "linear-L1: train-0.87921, train_2--0.17923, test-0.87299, test_2--0.18697, val-0.89403, val_2--0.16269"
        ],
        "stacking30_0.49_L1_linear": [
            "linear-L1: train-0.88041, train_2--0.17802, test-0.87138, test_2--0.18750, val-0.89403, val_2--0.16388"
        ],
        "stacking40_0.49_L1_linear": [
            "linear-L1: train-0.87800, train_2--0.17735, test-0.86977, test_2--0.18809, val-0.89525, val_2--0.16382"
        ],
        "stacking50_-1_L1_linear": [
            "linear-L1: train-0.88041, train_2--0.17791, test-0.86977, test_2--0.19263, val-0.89769, val_2--0.16583"
        ],
        "stacking50_0_L1_linear": [
            "linear-L1: train-0.88401, train_2--0.17856, test-0.86817, test_2--0.19092, val-0.88794, val_2--0.16950"
        ],
        "stacking50_0.1_L1_linear": [
            "linear-L1: train-0.88221, train_2--0.17540, test-0.87460, test_2--0.19130, val-0.89281, val_2--0.16524"
        ],
        "stacking50_0.2_L1_linear": [
            "linear-L1: train-0.88041, train_2--0.17676, test-0.86817, test_2--0.19041, val-0.89403, val_2--0.16395"
        ],
        "stacking50_0.3_L1_linear": [
            "linear-L1: train-0.88161, train_2--0.17642, test-0.87138, test_2--0.18872, val-0.89525, val_2--0.16402"
        ],
        "stacking50_0.4_L1_linear": [
            "linear-L1: train-0.87981, train_2--0.17647, test-0.86817, test_2--0.18949, val-0.89647, val_2--0.16413"
        ],
        "stacking50_0.49_L1_linear": [
            "linear-L1: train-0.88041, train_2--0.17641, test-0.86817, test_2--0.18957, val-0.89647, val_2--0.16409"
        ]
    },
    "retain_exp": {
        "stacking10_0.4_L1_weighted_retainFalse": [
            [
                {
                    "train": [
                        0.8155048076923077,
                        0.7722355769230769,
                        0.8605769230769231,
                        0.8629807692307693,
                        0.8353365384615384,
                        0.8311298076923077,
                        0.8185096153846154,
                        0.8623798076923077,
                        0.8581730769230769,
                        0.8581730769230769
                    ],
                    "train_2": [
                        -0.31073367551338726,
                        -0.34706267608210195,
                        -0.2047454222418898,
                        -0.20670109211775883,
                        -0.3293269230769231,
                        -0.33774038461538464,
                        -0.2642067691024775,
                        -0.21326051521968306,
                        -0.2209976186046118,
                        -0.2193963792444851
                    ],
                    "test": [
                        0.8392282958199357,
                        0.8102893890675241,
                        0.8488745980707395,
                        0.8520900321543409,
                        0.819935691318328,
                        0.8215434083601286,
                        0.8488745980707395,
                        0.8633440514469454,
                        0.8585209003215434,
                        0.8520900321543409
                    ],
                    "test_2": [
                        -0.2626543591271338,
                        -0.27231825856045105,
                        -0.21144454224096282,
                        -0.20411734349569294,
                        -0.3122829581993569,
                        -0.2989067524115756,
                        -0.21488905220887702,
                        -0.2118482524818694,
                        -0.20545588199661824,
                        -0.21192478282830565
                    ],
                    "val": [
                        0.8745432399512789,
                        0.8270401948842875,
                        0.8745432399512789,
                        0.8781973203410475,
                        0.8526187576126675,
                        0.8526187576126675,
                        0.8587088915956151,
                        0.8757612667478685,
                        0.8745432399512789,
                        0.8757612667478685
                    ],
                    "val_2": [
                        -0.20920948161346245,
                        -0.24245463002488102,
                        -0.18251472988621734,
                        -0.17976150734575422,
                        -0.24302070645554208,
                        -0.24730816077953718,
                        -0.19614615024836257,
                        -0.18605747034195075,
                        -0.18470072666111417,
                        -0.18467732623240454
                    ]
                },
                {
                    "train": [
                        0.8707932692307693,
                        0.6328125,
                        0.8683894230769231,
                        0.8701923076923077,
                        0.8473557692307693,
                        0.8275240384615384,
                        0.8401442307692307,
                        0.875,
                        0.8659855769230769,
                        0.8707932692307693
                    ],
                    "train_2": [
                        -0.23792009310569845,
                        -0.7343743128220735,
                        -0.1940807164068941,
                        -0.20122566476733142,
                        -0.30528846153846156,
                        -0.3449519230769231,
                        -0.24364633513587583,
                        -0.1911924379723079,
                        -0.19449490392571506,
                        -0.1974774253236601
                    ],
                    "test": [
                        0.864951768488746,
                        0.7395498392282959,
                        0.8745980707395499,
                        0.8713826366559485,
                        0.8408360128617364,
                        0.8263665594855305,
                        0.8536977491961415,
                        0.8681672025723473,
                        0.8697749196141479,
                        0.8553054662379421
                    ],
                    "test_2": [
                        -0.2312373206641754,
                        -0.3603467073679181,
                        -0.1947451409616235,
                        -0.19498233496089873,
                        -0.27099678456591647,
                        -0.2931189710610933,
                        -0.22439075585070994,
                        -0.1963537907380589,
                        -0.20213139994008375,
                        -0.20509025030220146
                    ],
                    "val": [
                        0.8855054811205847,
                        0.7381242387332522,
                        0.8891595615103532,
                        0.8903775883069428,
                        0.8635809987819733,
                        0.8453105968331304,
                        0.8721071863580999,
                        0.8879415347137637,
                        0.8903775883069428,
                        0.8855054811205847
                    ],
                    "val_2": [
                        -0.1894769224401892,
                        -0.3617246326295536,
                        -0.16750043260226713,
                        -0.17117817777176284,
                        -0.23610231425091355,
                        -0.25607795371498177,
                        -0.20299355428662474,
                        -0.16936154650433158,
                        -0.17142458033057123,
                        -0.17668396942540565
                    ]
                },
                {
                    "train": [
                        0.8713942307692307,
                        0.6640625,
                        0.8713942307692307,
                        0.8774038461538461,
                        0.8527644230769231,
                        0.8239182692307693,
                        0.8233173076923077,
                        0.8719951923076923,
                        0.8611778846153846,
                        0.8629807692307693
                    ],
                    "train_2": [
                        -0.2416423781045445,
                        -0.6719508247249387,
                        -0.19728040487478454,
                        -0.2051430436847104,
                        -0.29447115384615385,
                        -0.35216346153846156,
                        -0.26458138447155305,
                        -0.1970432758456022,
                        -0.20965499876150925,
                        -0.2101165934276972
                    ],
                    "test": [
                        0.8633440514469454,
                        0.7813504823151125,
                        0.8681672025723473,
                        0.8681672025723473,
                        0.8263665594855305,
                        0.8215434083601286,
                        0.860128617363344,
                        0.8729903536977492,
                        0.864951768488746,
                        0.8745980707395499
                    ],
                    "test_2": [
                        -0.23066476547712947,
                        -0.3350094539185606,
                        -0.20146526704937825,
                        -0.20782184113373828,
                        -0.30430868167202574,
                        -0.30945337620578783,
                        -0.22933137764113537,
                        -0.1910064531416179,
                        -0.1947152829255433,
                        -0.19681880333040588
                    ],
                    "val": [
                        0.8928136419001218,
                        0.7868453105968332,
                        0.8964677222898904,
                        0.8989037758830695,
                        0.8635809987819733,
                        0.8477466504263094,
                        0.8647990255785627,
                        0.8842874543239951,
                        0.8915956151035322,
                        0.8879415347137637
                    ],
                    "val_2": [
                        -0.19439138995064306,
                        -0.32197374541550966,
                        -0.1689958326260551,
                        -0.17019172644020394,
                        -0.22655298416565164,
                        -0.26718635809987823,
                        -0.21467297460725993,
                        -0.16627568906465878,
                        -0.16400158323352804,
                        -0.16930068700153303
                    ]
                },
                {
                    "train": [
                        0.8611778846153846,
                        0.7283653846153846,
                        0.8768028846153846,
                        0.8719951923076923,
                        0.8473557692307693,
                        0.8100961538461539,
                        0.8269230769230769,
                        0.8683894230769231,
                        0.8695913461538461,
                        0.8725961538461539
                    ],
                    "train_2": [
                        -0.2545032548135527,
                        -0.5432692307692307,
                        -0.19870120556703386,
                        -0.20702754036087373,
                        -0.30528846153846156,
                        -0.3798076923076923,
                        -0.25549288848403495,
                        -0.20099108171857336,
                        -0.2024486000803452,
                        -0.20238545338701408
                    ],
                    "test": [
                        0.8633440514469454,
                        0.8344051446945338,
                        0.8665594855305466,
                        0.8681672025723473,
                        0.8327974276527331,
                        0.8295819935691319,
                        0.8408360128617364,
                        0.8697749196141479,
                        0.8665594855305466,
                        0.8697749196141479
                    ],
                    "test_2": [
                        -0.23390740278707417,
                        -0.25337617597890094,
                        -0.2054967114908787,
                        -0.21145170894367035,
                        -0.28990353697749194,
                        -0.2931189710610933,
                        -0.2393030386899924,
                        -0.19861794346372535,
                        -0.20204142286364418,
                        -0.20676378951656083
                    ],
                    "val": [
                        0.8903775883069428,
                        0.8465286236297198,
                        0.8915956151035322,
                        0.8940316686967114,
                        0.8721071863580999,
                        0.8428745432399513,
                        0.8757612667478685,
                        0.8830694275274056,
                        0.8879415347137637,
                        0.8781973203410475
                    ],
                    "val_2": [
                        -0.18905642461091704,
                        -0.23269946038938655,
                        -0.16856829594467887,
                        -0.16996195545931642,
                        -0.21729598051157126,
                        -0.26436053593179054,
                        -0.20265394120224553,
                        -0.16880157212761437,
                        -0.16525882781710005,
                        -0.17343870901703434
                    ]
                },
                {
                    "train": [
                        0.8629807692307693,
                        0.6027644230769231,
                        0.8774038461538461,
                        0.8725961538461539,
                        0.8341346153846154,
                        0.8323317307692307,
                        0.8233173076923077,
                        0.8671875,
                        0.8677884615384616,
                        0.8677884615384616
                    ],
                    "train_2": [
                        -0.25883763505659363,
                        -0.7944711126871258,
                        -0.20268896326163224,
                        -0.21098943494776828,
                        -0.3317307692307692,
                        -0.33533653846153844,
                        -0.2635896297570693,
                        -0.19779472641448945,
                        -0.20924288568656604,
                        -0.2071859448543509
                    ],
                    "test": [
                        0.8617363344051447,
                        0.6720257234726688,
                        0.8665594855305466,
                        0.8681672025723473,
                        0.8311897106109325,
                        0.8135048231511254,
                        0.842443729903537,
                        0.8681672025723473,
                        0.8681672025723473,
                        0.864951768488746
                    ],
                    "test_2": [
                        -0.24426324775605676,
                        -0.4024437297367197,
                        -0.2101554540666366,
                        -0.2131046802429439,
                        -0.2929903536977493,
                        -0.3139549839228296,
                        -0.23832389015251168,
                        -0.1964270742374655,
                        -0.1962268071930166,
                        -0.20161040655941914
                    ],
                    "val": [
                        0.8903775883069428,
                        0.6760048721071864,
                        0.8903775883069428,
                        0.8928136419001218,
                        0.8501827040194885,
                        0.8574908647990256,
                        0.8806333739342266,
                        0.8842874543239951,
                        0.8879415347137637,
                        0.8830694275274056
                    ],
                    "val_2": [
                        -0.18908762070794527,
                        -0.4062382625411029,
                        -0.16830689917907485,
                        -0.17285755101427044,
                        -0.2557856272838002,
                        -0.24409257003654083,
                        -0.19818092797715942,
                        -0.17121945045231085,
                        -0.17093160183927353,
                        -0.17905395936900087
                    ]
                }
            ],
            [
                "linear-L3: train-0.87440, train_2--0.19508, test-0.87138, test_2--0.20231, val-0.90012, val_2--0.15865",
                "weighted-L2: train-0.88041, train_2--0.18497, test-0.87138, test_2--0.18649, val-0.89890, val_2--0.16208",
                "best_idx3-L3: train-0.87740, train_2--0.20514, test-0.86817, test_2--0.20782, val-0.89890, val_2--0.17019",
                "linear-L2: train-0.88041, train_2--0.18901, test-0.86977, test_2--0.19254, val-0.89769, val_2--0.16057",
                "linear-L1: train-0.87921, train_2--0.18583, test-0.86495, test_2--0.19051, val-0.89525, val_2--0.16259",
                "weighted-L3: train-0.87440, train_2--0.19446, test-0.87621, test_2--0.19524, val-0.89403, val_2--0.16082",
                "best_idx3-L4: train-0.87200, train_2--0.20703, test-0.86817, test_2--0.21145, val-0.89403, val_2--0.16996",
                "best_idx3-L5: train-0.87260, train_2--0.21099, test-0.86817, test_2--0.21310, val-0.89281, val_2--0.17286",
                "linear-L4: train-0.87861, train_2--0.19529, test-0.86977, test_2--0.20296, val-0.89160, val_2--0.16010",
                "weighted-L5: train-0.87680, train_2--0.19709, test-0.86656, test_2--0.20194, val-0.89160, val_2--0.16558",
                "best_idx3-L2: train-0.87019, train_2--0.20123, test-0.87138, test_2--0.19498, val-0.89038, val_2--0.17118",
                "linear-L5: train-0.87440, train_2--0.20036, test-0.87138, test_2--0.20146, val-0.88916, val_2--0.16623",
                "weighted-L4: train-0.87200, train_2--0.19557, test-0.86817, test_2--0.19750, val-0.88794, val_2--0.16327",
                "weighted-L1: train-0.87500, train_2--0.19258, test-0.87138, test_2--0.19157, val-0.88551, val_2--0.17090"
            ]
        ],
        "stacking10_0.4_L1_weighted_retainTrue": [
            [
                {
                    "train": [
                        0.8155048076923077,
                        0.7722355769230769,
                        0.8605769230769231,
                        0.8629807692307693,
                        0.8353365384615384,
                        0.8311298076923077,
                        0.8185096153846154,
                        0.8623798076923077,
                        0.8581730769230769,
                        0.8581730769230769
                    ],
                    "train_2": [
                        -0.31073367551338726,
                        -0.34706267608210195,
                        -0.2047454222418898,
                        -0.20670109211775883,
                        -0.3293269230769231,
                        -0.33774038461538464,
                        -0.2642067691024775,
                        -0.21326051521968306,
                        -0.2209976186046118,
                        -0.2193963792444851
                    ],
                    "test": [
                        0.8392282958199357,
                        0.8102893890675241,
                        0.8488745980707395,
                        0.8520900321543409,
                        0.819935691318328,
                        0.8215434083601286,
                        0.8488745980707395,
                        0.8633440514469454,
                        0.8585209003215434,
                        0.8520900321543409
                    ],
                    "test_2": [
                        -0.26265435912713375,
                        -0.27231825856045105,
                        -0.21144454224096287,
                        -0.20411734349569294,
                        -0.3122829581993569,
                        -0.2989067524115756,
                        -0.21488905220887702,
                        -0.2118482524818694,
                        -0.20545588199661824,
                        -0.21192478282830565
                    ],
                    "val": [
                        0.8745432399512789,
                        0.8270401948842875,
                        0.8745432399512789,
                        0.8781973203410475,
                        0.8526187576126675,
                        0.8526187576126675,
                        0.8587088915956151,
                        0.8757612667478685,
                        0.8745432399512789,
                        0.8757612667478685
                    ],
                    "val_2": [
                        -0.20920948161346245,
                        -0.24245463002488102,
                        -0.18251472988621734,
                        -0.17976150734575422,
                        -0.24302070645554208,
                        -0.24730816077953718,
                        -0.19614615024836257,
                        -0.18605747034195075,
                        -0.18470072666111417,
                        -0.18467732623240454
                    ]
                },
                {
                    "train": [
                        0.8707932692307693,
                        0.7722355769230769,
                        0.8683894230769231,
                        0.8701923076923077,
                        0.8473557692307693,
                        0.8311298076923077,
                        0.8401442307692307,
                        0.875,
                        0.8659855769230769,
                        0.8707932692307693
                    ],
                    "train_2": [
                        -0.23792009310569845,
                        -0.34706267608210195,
                        -0.1940807164068941,
                        -0.20122566476733142,
                        -0.30528846153846156,
                        -0.33774038461538464,
                        -0.24364633513587583,
                        -0.1911924379723079,
                        -0.19449490392571506,
                        -0.1974774253236601
                    ],
                    "test": [
                        0.864951768488746,
                        0.8102893890675241,
                        0.8745980707395499,
                        0.8713826366559485,
                        0.8408360128617364,
                        0.8215434083601286,
                        0.8536977491961415,
                        0.8681672025723473,
                        0.8697749196141479,
                        0.8553054662379421
                    ],
                    "test_2": [
                        -0.2312373206641754,
                        -0.27231825856045105,
                        -0.1947451409616235,
                        -0.19498233496089873,
                        -0.27099678456591647,
                        -0.2989067524115756,
                        -0.22439075585070986,
                        -0.1963537907380589,
                        -0.20213139994008375,
                        -0.20509025030220146
                    ],
                    "val": [
                        0.8855054811205847,
                        0.8270401948842875,
                        0.8891595615103532,
                        0.8903775883069428,
                        0.8635809987819733,
                        0.8526187576126675,
                        0.8721071863580999,
                        0.8879415347137637,
                        0.8903775883069428,
                        0.8855054811205847
                    ],
                    "val_2": [
                        -0.18947692244018918,
                        -0.24245463002488102,
                        -0.16750043260226713,
                        -0.17117817777176284,
                        -0.23610231425091355,
                        -0.24730816077953718,
                        -0.2029935542866246,
                        -0.16936154650433158,
                        -0.17142458033057123,
                        -0.17668396942540565
                    ]
                },
                {
                    "train": [
                        0.8671875,
                        0.7722355769230769,
                        0.8683894230769231,
                        0.8774038461538461,
                        0.8473557692307693,
                        0.8335336538461539,
                        0.8401442307692307,
                        0.875,
                        0.8635817307692307,
                        0.8713942307692307
                    ],
                    "train_2": [
                        -0.2523440334189727,
                        -0.34706267608210195,
                        -0.1940807164068941,
                        -0.20417853751187087,
                        -0.30528846153846156,
                        -0.3329326923076923,
                        -0.24364633513587583,
                        -0.1911924379723079,
                        -0.211261505838868,
                        -0.2072362131533834
                    ],
                    "test": [
                        0.8697749196141479,
                        0.8102893890675241,
                        0.8745980707395499,
                        0.8665594855305466,
                        0.8408360128617364,
                        0.819935691318328,
                        0.8536977491961415,
                        0.8681672025723473,
                        0.8681672025723473,
                        0.8713826366559485
                    ],
                    "test_2": [
                        -0.22831114021995116,
                        -0.27231825856045105,
                        -0.1947451409616235,
                        -0.21023540153229325,
                        -0.27099678456591647,
                        -0.30803858520900324,
                        -0.22439075585070986,
                        -0.1963537907380589,
                        -0.19280400468840658,
                        -0.19398894021720364
                    ],
                    "val": [
                        0.8928136419001218,
                        0.8270401948842875,
                        0.8891595615103532,
                        0.8964677222898904,
                        0.8635809987819733,
                        0.8599269183922046,
                        0.8721071863580999,
                        0.8879415347137637,
                        0.8928136419001218,
                        0.8867235079171741
                    ],
                    "val_2": [
                        -0.1845898842369646,
                        -0.24245463002488102,
                        -0.16750043260226713,
                        -0.16777973263559945,
                        -0.23610231425091355,
                        -0.24487210718635813,
                        -0.2029935542866246,
                        -0.16936154650433158,
                        -0.1620091575661928,
                        -0.16640157901816272
                    ]
                },
                {
                    "train": [
                        0.8671875,
                        0.7722355769230769,
                        0.8743990384615384,
                        0.8774038461538461,
                        0.8509615384615384,
                        0.8335336538461539,
                        0.8401442307692307,
                        0.8743990384615384,
                        0.8635817307692307,
                        0.8792067307692307
                    ],
                    "train_2": [
                        -0.2523440334189727,
                        -0.34706267608210195,
                        -0.1965850175686456,
                        -0.20417853751187087,
                        -0.2980769230769231,
                        -0.3329326923076923,
                        -0.24364633513587583,
                        -0.1906867246413291,
                        -0.211261505838868,
                        -0.1875801700439324
                    ],
                    "test": [
                        0.8697749196141479,
                        0.8102893890675241,
                        0.8665594855305466,
                        0.8665594855305466,
                        0.8231511254019293,
                        0.819935691318328,
                        0.8536977491961415,
                        0.8745980707395499,
                        0.8681672025723473,
                        0.8762057877813505
                    ],
                    "test_2": [
                        -0.22831114021995116,
                        -0.27231825856045105,
                        -0.2029118207603386,
                        -0.21023540153229325,
                        -0.300064308681672,
                        -0.30803858520900324,
                        -0.22439075585070986,
                        -0.19865327838451693,
                        -0.19280400468840658,
                        -0.20216745927965263
                    ],
                    "val": [
                        0.8928136419001218,
                        0.8270401948842875,
                        0.8940316686967114,
                        0.8964677222898904,
                        0.8672350791717418,
                        0.8599269183922046,
                        0.8721071863580999,
                        0.8891595615103532,
                        0.8928136419001218,
                        0.8903775883069428
                    ],
                    "val_2": [
                        -0.1845898842369646,
                        -0.24245463002488102,
                        -0.16828538601521664,
                        -0.16777973263559945,
                        -0.22996345919610234,
                        -0.24487210718635813,
                        -0.2029935542866246,
                        -0.16715697616944494,
                        -0.1620091575661928,
                        -0.16944531100159724
                    ]
                },
                {
                    "train": [
                        0.8671875,
                        0.7722355769230769,
                        0.8743990384615384,
                        0.8774038461538461,
                        0.8635817307692307,
                        0.8335336538461539,
                        0.8401442307692307,
                        0.8743990384615384,
                        0.8756009615384616,
                        0.8653846153846154
                    ],
                    "train_2": [
                        -0.2523440334189727,
                        -0.34706267608210195,
                        -0.1965850175686456,
                        -0.20417853751187087,
                        -0.27283653846153844,
                        -0.3329326923076923,
                        -0.24364633513587583,
                        -0.1906867246413291,
                        -0.19862242145581954,
                        -0.21028459932386598
                    ],
                    "test": [
                        0.8697749196141479,
                        0.8102893890675241,
                        0.8665594855305466,
                        0.8665594855305466,
                        0.8553054662379421,
                        0.819935691318328,
                        0.8536977491961415,
                        0.8745980707395499,
                        0.8633440514469454,
                        0.8697749196141479
                    ],
                    "test_2": [
                        -0.22831114021995116,
                        -0.27231825856045105,
                        -0.2029118207603386,
                        -0.21023540153229325,
                        -0.26508038585209004,
                        -0.30803858520900324,
                        -0.22439075585070986,
                        -0.19865327838451693,
                        -0.20442916002152697,
                        -0.2019027722858074
                    ],
                    "val": [
                        0.8928136419001218,
                        0.8270401948842875,
                        0.8940316686967114,
                        0.8964677222898904,
                        0.8733252131546894,
                        0.8599269183922046,
                        0.8721071863580999,
                        0.8891595615103532,
                        0.8964677222898904,
                        0.8928136419001218
                    ],
                    "val_2": [
                        -0.1845898842369646,
                        -0.24245463002488102,
                        -0.16828538601521664,
                        -0.16777973263559945,
                        -0.22021924482338612,
                        -0.24487210718635813,
                        -0.2029935542866246,
                        -0.16715697616944494,
                        -0.16407060193223527,
                        -0.1691579091593439
                    ]
                }
            ],
            [
                "weighted-L2: train-0.88041, train_2--0.18497, test-0.87138, test_2--0.18649, val-0.89890, val_2--0.16208",
                "linear-L5: train-0.87620, train_2--0.19012, test-0.86977, test_2--0.19859, val-0.89769, val_2--0.15856",
                "weighted-L4: train-0.87620, train_2--0.18896, test-0.87781, test_2--0.19525, val-0.89769, val_2--0.15983",
                "linear-L2: train-0.87921, train_2--0.18849, test-0.87299, test_2--0.19212, val-0.89769, val_2--0.16107",
                "best_idx8-L5: train-0.87560, train_2--0.19862, test-0.86334, test_2--0.20443, val-0.89647, val_2--0.16407",
                "best_idx3-L3: train-0.87740, train_2--0.20418, test-0.86656, test_2--0.21024, val-0.89647, val_2--0.16778",
                "linear-L3: train-0.87139, train_2--0.18829, test-0.87460, test_2--0.19269, val-0.89525, val_2--0.16020",
                "linear-L1: train-0.87921, train_2--0.18583, test-0.86495, test_2--0.19051, val-0.89525, val_2--0.16259",
                "weighted-L3: train-0.87921, train_2--0.19062, test-0.87460, test_2--0.19220, val-0.89403, val_2--0.16069",
                "linear-L4: train-0.87500, train_2--0.18937, test-0.87138, test_2--0.20081, val-0.89403, val_2--0.16149",
                "best_idx2-L4: train-0.87440, train_2--0.19659, test-0.86656, test_2--0.20291, val-0.89403, val_2--0.16829",
                "weighted-L5: train-0.87921, train_2--0.18945, test-0.87621, test_2--0.19934, val-0.89281, val_2--0.16207",
                "best_idx3-L2: train-0.87019, train_2--0.20123, test-0.87138, test_2--0.19498, val-0.89038, val_2--0.17118",
                "weighted-L1: train-0.87500, train_2--0.19258, test-0.87138, test_2--0.19157, val-0.88551, val_2--0.17090"
            ]
        ]
    },
    "dropoutreg_exp": {
        "stacking30_0.3_L1_lineardropout0": [
            [
                [
                    -0.6942094077164577,
                    -0.685120305827621,
                    0.5112067071796162,
                    0.8564823914921047,
                    -0.2706211305419458,
                    -0.24414411948435163,
                    -0.04158104868652261,
                    -0.3455338849965307,
                    0.4728658847855483,
                    0.35464887206863643,
                    1.4662842742318405,
                    0.9316412289850945,
                    0.058792703564721674,
                    -0.2812550624185167,
                    0.25973330509893605,
                    0.25973330509893605,
                    0.6918745411105585,
                    0.10490519774723701,
                    -0.11930546082580541,
                    -0.4465567002754526,
                    0.37123181061494437,
                    0.05690081607419556,
                    0.6609356990903509,
                    0.7675421907744788,
                    0.30930069344914485,
                    0.959594120774908,
                    -0.06552327207338551,
                    1.050323295210912,
                    0.15197585263399524,
                    0.04647190185749561
                ]
            ],
            [
                "linear-L1: train-0.87380, train_2--0.18914, test-0.87460, test_2--0.18729, val-0.89525, val_2--0.16287"
            ]
        ],
        "stacking30_0.3_L1_lineardropout0.1": [
            [
                [
                    -0.056972353090954976,
                    -0.6826580530175413,
                    0.613239683790798,
                    0.2524778328889583,
                    -0.3374667829310295,
                    -0.28397536924201355,
                    0.03975826970881104,
                    -0.6191540622030429,
                    0.5168274775615167,
                    0.006364483805645952,
                    1.4596504520660956,
                    0.680126915672806,
                    0.35260369874031394,
                    -0.27466353664395177,
                    -0.1255542996946288,
                    0.6174511262065041,
                    0.5799731688611661,
                    0.16500830424317145,
                    0.04973903533632922,
                    -0.48173256607190307,
                    0.07196884774777493,
                    0.4641856822688268,
                    0.5562817036724521,
                    0.9567846034345809,
                    0.40958581318223314,
                    0.3691926192439223,
                    -0.11276462529137052,
                    1.1451302279886777,
                    -0.012610823662900226,
                    0.7311859832723572
                ]
            ],
            [
                "linear-L1: train-0.86839, train_2--0.19184, test-0.87781, test_2--0.18744, val-0.89647, val_2--0.16490"
            ]
        ],
        "stacking30_0.3_L1_lineardropout0.2": [
            [
                [
                    0.13929665414735168,
                    0.13514111320975333,
                    -0.1815126528649188,
                    0.26624545850969006,
                    -0.10606319968445643,
                    -0.7065371168817939,
                    -0.3013509416945625,
                    -0.7058576762651285,
                    0.20798604158636985,
                    0.5088879859703782,
                    1.5375326293118665,
                    0.7597468354124995,
                    0.5144079609981352,
                    0.2633860650425316,
                    0.560533133373185,
                    -0.42830639111063434,
                    0.700441515995557,
                    0.1525449291793223,
                    -0.026861728027412844,
                    -0.3339121767424406,
                    0.36247652192405977,
                    -0.17467874710389392,
                    0.46421725781075174,
                    1.058896577066204,
                    0.11444837175174236,
                    0.7568437621661145,
                    0.1453335224926021,
                    0.9764557676418965,
                    0.1915122595899233,
                    0.2192287321127266
                ]
            ],
            [
                "linear-L1: train-0.87320, train_2--0.19011, test-0.88103, test_2--0.18889, val-0.89160, val_2--0.16735"
            ]
        ],
        "stacking30_0.3_L1_lineardropout0.3": [
            [
                [
                    -0.46479809858840576,
                    -0.4910317440208545,
                    0.34104919401626144,
                    0.23229973668911638,
                    -0.06929549175078155,
                    -0.9140999614437287,
                    0.06602919457127185,
                    -0.592319632027734,
                    0.5711356641641193,
                    0.43309194979600735,
                    0.708502236230101,
                    1.4046005348420543,
                    0.6682051652677224,
                    0.08812320285838063,
                    0.34284341125201584,
                    0.6385612055361798,
                    0.6850889618311196,
                    0.12261947630888373,
                    -0.40852338102094715,
                    -0.11096023099970273,
                    0.2792410054584866,
                    0.12584875611109045,
                    0.6108956673819177,
                    0.5152828338839279,
                    0.45369198726117793,
                    0.5226911115189529,
                    -0.5612994357846468,
                    0.8613699376944588,
                    0.5013281555969551,
                    0.49098266810289304
                ]
            ],
            [
                "linear-L1: train-0.87740, train_2--0.19208, test-0.87781, test_2--0.18529, val-0.89160, val_2--0.16559"
            ]
        ],
        "stacking30_0.3_L1_lineardropout0.4": [
            [
                [
                    -0.7193566944722529,
                    -0.1847471627778529,
                    -0.7410969394799197,
                    -0.46848878267513555,
                    -0.2369668092157218,
                    -0.09560464953363897,
                    -0.1100227480465381,
                    -0.709797079326716,
                    0.8394117967343407,
                    0.5404918959315812,
                    1.0647445011126513,
                    0.9942235695727047,
                    0.03265006128662851,
                    0.5930197327551707,
                    0.06475523689857145,
                    0.47360945094059137,
                    0.7010886722676524,
                    0.17568419010525493,
                    -0.26498833052715437,
                    -0.009327867049809728,
                    0.11029130884059361,
                    0.32192019689784546,
                    0.7318330427029416,
                    1.2668999381741854,
                    -0.1878622752711669,
                    0.3880407328020585,
                    0.3244252774476788,
                    1.0021114240933038,
                    0.6396351645498671,
                    0.6170260157258667
                ]
            ],
            [
                "linear-L1: train-0.87139, train_2--0.18966, test-0.87460, test_2--0.19125, val-0.88551, val_2--0.17643"
            ]
        ],
        "stacking30_0.3_L1_lineardropout0.5": [
            [
                [
                    -0.8647047099312603,
                    -0.7484160693260051,
                    0.08557146211255541,
                    0.18853607314976192,
                    -0.584021594978748,
                    -0.4289508038583708,
                    -0.10495834290339832,
                    -0.5771195605219902,
                    0.30849631164241975,
                    0.10620135171939128,
                    1.1338924212436488,
                    0.9969516226235757,
                    0.25125179246173046,
                    0.872288971217101,
                    0.38770855370663104,
                    0.6422599281359752,
                    0.21638934681845756,
                    0.30532948837074103,
                    -0.12739752656795497,
                    -0.30049360340197984,
                    0.5917842232858014,
                    0.6365312221857701,
                    0.4877143968172784,
                    0.7025605886062621,
                    0.6120684053019465,
                    1.103500907917461,
                    0.32445631485459187,
                    0.4650651721544311,
                    0.3515143298541065,
                    0.0037295966691948046
                ]
            ],
            [
                "linear-L1: train-0.86839, train_2--0.19370, test-0.87942, test_2--0.18814, val-0.89038, val_2--0.17621"
            ]
        ]
    },
    "diversity_exp": {
        "stacking30_0": [
            26.28014616321559,
            5.562196059765574,
            148.09570197346392
        ],
        "stacking30_0.05": [
            26.170523751522538,
            5.8454156923558145,
            143.19659863174923
        ],
        "stacking30_0.1": [
            26.10718635809988,
            5.994968458398217,
            139.7955556593784
        ],
        "stacking30_0.15": [
            25.971985383678444,
            6.205980485628491,
            137.88164806342635
        ],
        "stacking30_0.2": [
            25.9537149817296,
            6.260630251746595,
            137.28083952731618
        ],
        "stacking30_0.25": [
            25.947624847746653,
            6.318499188171983,
            137.20498946068398
        ],
        "stacking30_0.3": [
            25.951278928136418,
            6.356839712405737,
            137.31744155643665
        ],
        "stacking30_0.35": [
            25.950060901339832,
            6.325890150523688,
            137.1277428404148
        ],
        "stacking30_0.4": [
            25.958587088915955,
            6.328380933147085,
            137.14565973370387
        ],
        "stacking30_0.45": [
            25.958587088915955,
            6.328380933147086,
            137.14565973370387
        ],
        "stacking30_0.49": [
            25.967113276492086,
            6.306490229570447,
            137.08393359849657
        ]
    },
    "diversityavg_exp": {
        "stacking30_0": [
            26.28014616321559,
            5.562196059765574,
            148.09570197346392
        ],
        "stacking30_0.05": [
            26.274056029232643,
            5.562452378415909,
            148.02662064806177
        ],
        "stacking30_0.1": [
            26.270401948842874,
            5.563465298751493,
            147.9221593966719
        ],
        "stacking30_0.15": [
            26.278928136419,
            5.564732957089174,
            148.08847838984474
        ],
        "stacking30_0.2": [
            26.27771010962241,
            5.5665909233691995,
            147.99212588451908
        ],
        "stacking30_0.25": [
            26.27771010962241,
            5.5665909233692,
            147.99212588451908
        ],
        "stacking30_0.3": [
            26.258221680876982,
            5.582597130146392,
            146.66153658684976
        ],
        "stacking30_0.35": [
            26.258221680876982,
            5.582597130146392,
            146.66153658684976
        ],
        "stacking30_0.4": [
            26.258221680876982,
            5.582597130146392,
            146.66153658684976
        ],
        "stacking30_0.45": [
            26.255785627283803,
            5.584450903458242,
            146.69061844856208
        ],
        "stacking30_0.49": [
            26.255785627283803,
            5.584450903458243,
            146.69061844856208
        ]
    },
    "struc_exp": {
        "stacking30_0.3_dropout0_retainTrue": [
            "best_idx12-L2: train-8.71995192e-01, train_2--1.97467387e-01, test-8.69774920e-01, test_2--1.88315460e-01, val-8.97685749e-01, val_2--1.67038073e-01",
            "linear-L1: train-8.73798077e-01, train_2--1.89139780e-01, test-8.74598071e-01, test_2--1.87290817e-01, val-8.95249695e-01, val_2--1.62867319e-01",
            "lightgbm-L1: train-8.75000000e-01, train_2--1.93392984e-01, test-8.71382637e-01, test_2--1.90643899e-01, val-8.94031669e-01, val_2--1.64289923e-01",
            "best_idx10-L3: train-8.76802885e-01, train_2--2.01657031e-01, test-8.72990354e-01, test_2--1.95009633e-01, val-8.94031669e-01, val_2--1.71501506e-01",
            "linear-L3: train-8.78605769e-01, train_2--1.87829275e-01, test-8.72990354e-01, test_2--1.91260360e-01, val-8.91595615e-01, val_2--1.65783239e-01",
            "weighted-L3: train-8.75600962e-01, train_2--1.89259696e-01, test-8.74598071e-01, test_2--1.87178354e-01, val-8.91595615e-01, val_2--1.66228584e-01",
            "linear-L2: train-8.79206731e-01, train_2--1.89122956e-01, test-8.81028939e-01, test_2--1.91138303e-01, val-8.89159562e-01, val_2--1.65920014e-01",
            "weighted-L1: train-8.73798077e-01, train_2--1.93078949e-01, test-8.76205788e-01, test_2--1.85427194e-01, val-8.89159562e-01, val_2--1.68658872e-01",
            "lightgbm-L2: train-8.73197115e-01, train_2--1.91876860e-01, test-8.68167203e-01, test_2--1.93139982e-01, val-8.89159562e-01, val_2--1.68977236e-01",
            "weighted-L2: train-8.74399038e-01, train_2--1.93768197e-01, test-8.76205788e-01, test_2--1.87502478e-01, val-8.87941535e-01, val_2--1.66140207e-01",
            "lightgbm-L3: train-8.78004808e-01, train_2--1.84887775e-01, test-8.69774920e-01, test_2--1.89839650e-01, val-8.87941535e-01, val_2--1.68904264e-01"
        ],
        "stacking30_0.3_dropout0.1_retainTrue": [
            "best_idx12-L2: train-8.71394231e-01, train_2--1.97389948e-01, test-8.69774920e-01, test_2--1.88709608e-01, val-8.98903776e-01, val_2--1.66924481e-01",
            "linear-L1: train-8.73798077e-01, train_2--1.89139780e-01, test-8.74598071e-01, test_2--1.87290817e-01, val-8.95249695e-01, val_2--1.62867319e-01",
            "lightgbm-L3: train-8.72596154e-01, train_2--1.93097293e-01, test-8.72990354e-01, test_2--1.87468825e-01, val-8.94031669e-01, val_2--1.61526569e-01",
            "lightgbm-L1: train-8.75000000e-01, train_2--1.93392984e-01, test-8.71382637e-01, test_2--1.90643899e-01, val-8.94031669e-01, val_2--1.64289923e-01",
            "best_idx24-L3: train-8.75600962e-01, train_2--1.95920330e-01, test-8.69774920e-01, test_2--1.86183683e-01, val-8.92813642e-01, val_2--1.64121822e-01",
            "weighted-L2: train-8.79807692e-01, train_2--1.85302316e-01, test-8.74598071e-01, test_2--1.88640800e-01, val-8.92813642e-01, val_2--1.65990659e-01",
            "weighted-L3: train-8.78605769e-01, train_2--1.88434628e-01, test-8.74598071e-01, test_2--1.88421742e-01, val-8.92813642e-01, val_2--1.68800800e-01",
            "linear-L3: train-8.76201923e-01, train_2--1.88417494e-01, test-8.76205788e-01, test_2--1.89568562e-01, val-8.91595615e-01, val_2--1.64698094e-01",
            "weighted-L1: train-8.73798077e-01, train_2--1.93078949e-01, test-8.76205788e-01, test_2--1.85427194e-01, val-8.89159562e-01, val_2--1.68658872e-01",
            "lightgbm-L2: train-8.67788462e-01, train_2--1.96792161e-01, test-8.61736334e-01, test_2--1.88546593e-01, val-8.86723508e-01, val_2--1.66721805e-01",
            "linear-L2: train-8.79807692e-01, train_2--1.84405991e-01, test-8.72990354e-01, test_2--1.90834252e-01, val-8.86723508e-01, val_2--1.66989249e-01"
        ],
        "stacking30_0.3_dropout0.2_retainFalse": [
            "best_idx4-L2: train-8.75600962e-01, train_2--2.27910086e-01, test-8.71382637e-01, test_2--2.21572924e-01, val-8.98903776e-01, val_2--1.90761607e-01",
            "best_idx11-L3: train-8.71394231e-01, train_2--2.06938509e-01, test-8.71382637e-01, test_2--2.02019769e-01, val-8.96467722e-01, val_2--1.69146329e-01",
            "linear-L1: train-8.73798077e-01, train_2--1.89139780e-01, test-8.74598071e-01, test_2--1.87290817e-01, val-8.95249695e-01, val_2--1.62867319e-01",
            "lightgbm-L1: train-8.75000000e-01, train_2--1.93392984e-01, test-8.71382637e-01, test_2--1.90643899e-01, val-8.94031669e-01, val_2--1.64289923e-01",
            "linear-L3: train-8.74399038e-01, train_2--1.92226106e-01, test-8.71382637e-01, test_2--1.98017990e-01, val-8.92813642e-01, val_2--1.64856623e-01",
            "weighted-L3: train-8.75000000e-01, train_2--1.92554857e-01, test-8.74598071e-01, test_2--1.86538701e-01, val-8.91595615e-01, val_2--1.63127228e-01",
            "weighted-L1: train-8.73798077e-01, train_2--1.93078949e-01, test-8.76205788e-01, test_2--1.85427194e-01, val-8.89159562e-01, val_2--1.68658872e-01",
            "lightgbm-L2: train-8.76802885e-01, train_2--1.92955548e-01, test-8.76205788e-01, test_2--1.88496264e-01, val-8.87941535e-01, val_2--1.61941257e-01",
            "weighted-L2: train-8.76802885e-01, train_2--1.89636136e-01, test-8.76205788e-01, test_2--1.92527605e-01, val-8.85505481e-01, val_2--1.73688682e-01",
            "linear-L2: train-8.75000000e-01, train_2--1.84062499e-01, test-8.69774920e-01, test_2--1.93483838e-01, val-8.81851401e-01, val_2--1.67431777e-01",
            "lightgbm-L3: train-8.73197115e-01, train_2--1.95793490e-01, test-8.68167203e-01, test_2--1.92296490e-01, val-8.76979294e-01, val_2--1.76887963e-01"
        ],
        "stacking30_0.3_dropout0.2_retainTrue": [
            "best_idx4-L2: train-8.75600962e-01, train_2--2.27910086e-01, test-8.71382637e-01, test_2--2.21572924e-01, val-8.98903776e-01, val_2--1.90761607e-01",
            "best_idx13-L5: train-8.75600962e-01, train_2--1.99913612e-01, test-8.76205788e-01, test_2--1.94015776e-01, val-8.97685749e-01, val_2--1.70437728e-01",
            "linear-L1: train-8.73798077e-01, train_2--1.89139780e-01, test-8.74598071e-01, test_2--1.87290817e-01, val-8.95249695e-01, val_2--1.62867319e-01",
            "best_idx24-L3: train-8.66586538e-01, train_2--2.01607154e-01, test-8.69774920e-01, test_2--1.89385109e-01, val-8.95249695e-01, val_2--1.63410657e-01",
            "weighted-L3: train-8.74399038e-01, train_2--1.90312046e-01, test-8.74598071e-01, test_2--1.88831455e-01, val-8.95249695e-01, val_2--1.66425897e-01",
            "linear-L3: train-8.73798077e-01, train_2--1.88845080e-01, test-8.69774920e-01, test_2--1.90383288e-01, val-8.94031669e-01, val_2--1.64214515e-01",
            "lightgbm-L1: train-8.75000000e-01, train_2--1.93392984e-01, test-8.71382637e-01, test_2--1.90643899e-01, val-8.94031669e-01, val_2--1.64289923e-01",
            "weighted-L4: train-8.73798077e-01, train_2--1.87554876e-01, test-8.76205788e-01, test_2--1.86762104e-01, val-8.94031669e-01, val_2--1.65988096e-01",
            "best_idx15-L4: train-8.73197115e-01, train_2--2.01937301e-01, test-8.71382637e-01, test_2--1.92820259e-01, val-8.94031669e-01, val_2--1.69719421e-01",
            "weighted-L5: train-8.72596154e-01, train_2--1.87930641e-01, test-8.71382637e-01, test_2--1.87596487e-01, val-8.92813642e-01, val_2--1.64527210e-01",
            "linear-L4: train-8.71394231e-01, train_2--1.91508649e-01, test-8.71382637e-01, test_2--1.91341395e-01, val-8.92813642e-01, val_2--1.66003355e-01",
            "linear-L5: train-8.72596154e-01, train_2--1.91510841e-01, test-8.71382637e-01, test_2--1.91052205e-01, val-8.91595615e-01, val_2--1.66391274e-01",
            "weighted-L1: train-8.73798077e-01, train_2--1.93078949e-01, test-8.76205788e-01, test_2--1.85427194e-01, val-8.89159562e-01, val_2--1.68658872e-01",
            "lightgbm-L3: train-8.72596154e-01, train_2--1.91054885e-01, test-8.76205788e-01, test_2--1.93308875e-01, val-8.86723508e-01, val_2--1.71630350e-01",
            "weighted-L2: train-8.76802885e-01, train_2--1.89636136e-01, test-8.76205788e-01, test_2--1.92527605e-01, val-8.85505481e-01, val_2--1.73688682e-01",
            "lightgbm-L2: train-8.68389423e-01, train_2--1.93694183e-01, test-8.76205788e-01, test_2--1.89275670e-01, val-8.84287454e-01, val_2--1.61013832e-01",
            "linear-L2: train-8.76802885e-01, train_2--1.85099384e-01, test-8.68167203e-01, test_2--1.93315355e-01, val-8.84287454e-01, val_2--1.67717927e-01",
            "lightgbm-L5: train-8.68389423e-01, train_2--1.92077835e-01, test-8.74598071e-01, test_2--1.94036581e-01, val-8.81851401e-01, val_2--1.69802597e-01",
            "lightgbm-L4: train-8.68990385e-01, train_2--1.94293353e-01, test-8.71382637e-01, test_2--1.93118777e-01, val-8.79415347e-01, val_2--1.71871904e-01"
        ],
        "stacking30_0.3_dropout0.3_retainTrue": [
            "weighted-L3: train-8.72596154e-01, train_2--1.91084640e-01, test-8.76205788e-01, test_2--1.89164078e-01, val-8.97685749e-01, val_2--1.64650365e-01",
            "best_idx14-L2: train-8.71995192e-01, train_2--1.91959206e-01, test-8.74598071e-01, test_2--1.92670332e-01, val-8.97685749e-01, val_2--1.66364298e-01",
            "best_idx11-L3: train-8.73197115e-01, train_2--2.06908832e-01, test-8.71382637e-01, test_2--2.03553650e-01, val-8.96467722e-01, val_2--1.72999504e-01",
            "linear-L1: train-8.73798077e-01, train_2--1.89139780e-01, test-8.74598071e-01, test_2--1.87290817e-01, val-8.95249695e-01, val_2--1.62867319e-01",
            "linear-L3: train-8.75600962e-01, train_2--1.89622367e-01, test-8.68167203e-01, test_2--1.95898707e-01, val-8.95249695e-01, val_2--1.64244820e-01",
            "weighted-L2: train-8.74399038e-01, train_2--1.88638060e-01, test-8.74598071e-01, test_2--1.90950372e-01, val-8.95249695e-01, val_2--1.69988173e-01",
            "lightgbm-L1: train-8.75000000e-01, train_2--1.93392984e-01, test-8.71382637e-01, test_2--1.90643899e-01, val-8.94031669e-01, val_2--1.64289923e-01",
            "lightgbm-L2: train-8.66586538e-01, train_2--1.99022926e-01, test-8.63344051e-01, test_2--1.92485369e-01, val-8.90377588e-01, val_2--1.67024891e-01",
            "linear-L2: train-8.68389423e-01, train_2--1.93320521e-01, test-8.79421222e-01, test_2--1.90645054e-01, val-8.90377588e-01, val_2--1.67536889e-01",
            "weighted-L1: train-8.73798077e-01, train_2--1.93078949e-01, test-8.76205788e-01, test_2--1.85427194e-01, val-8.89159562e-01, val_2--1.68658872e-01",
            "lightgbm-L3: train-8.65985577e-01, train_2--1.94969751e-01, test-8.69774920e-01, test_2--1.86593891e-01, val-8.80633374e-01, val_2--1.67587032e-01"
        ],
        "stacking30_0.3_dropout0.4_retainTrue": [
            "best_idx12-L2: train-8.67788462e-01, train_2--1.96186471e-01, test-8.69774920e-01, test_2--1.87612403e-01, val-9.00121803e-01, val_2--1.66574324e-01",
            "best_idx14-L3: train-8.70793269e-01, train_2--1.97129609e-01, test-8.74598071e-01, test_2--1.90183223e-01, val-8.97685749e-01, val_2--1.66971438e-01",
            "linear-L1: train-8.73798077e-01, train_2--1.89139780e-01, test-8.74598071e-01, test_2--1.87290817e-01, val-8.95249695e-01, val_2--1.62867319e-01",
            "lightgbm-L1: train-8.75000000e-01, train_2--1.93392984e-01, test-8.71382637e-01, test_2--1.90643899e-01, val-8.94031669e-01, val_2--1.64289923e-01",
            "linear-L3: train-8.64182692e-01, train_2--1.97280618e-01, test-8.72990354e-01, test_2--1.87751731e-01, val-8.92813642e-01, val_2--1.68450091e-01",
            "weighted-L3: train-8.76802885e-01, train_2--1.87412990e-01, test-8.74598071e-01, test_2--1.87008617e-01, val-8.91595615e-01, val_2--1.66126959e-01",
            "weighted-L2: train-8.79807692e-01, train_2--1.89776024e-01, test-8.77813505e-01, test_2--1.89094846e-01, val-8.91595615e-01, val_2--1.70647378e-01",
            "lightgbm-L3: train-8.62379808e-01, train_2--2.06326000e-01, test-8.69774920e-01, test_2--1.90762965e-01, val-8.90377588e-01, val_2--1.72518486e-01",
            "weighted-L1: train-8.73798077e-01, train_2--1.93078949e-01, test-8.76205788e-01, test_2--1.85427194e-01, val-8.89159562e-01, val_2--1.68658872e-01",
            "linear-L2: train-8.76201923e-01, train_2--1.91841349e-01, test-8.84244373e-01, test_2--1.86344365e-01, val-8.87941535e-01, val_2--1.65918915e-01",
            "lightgbm-L2: train-8.70192308e-01, train_2--1.97936353e-01, test-8.77813505e-01, test_2--1.84587098e-01, val-8.81851401e-01, val_2--1.70840392e-01"
        ]
    }
}