{
    "task_type": "CLS",
    "dataset": "spectf",
    "refit": "full",
    "filter": "m6_p6",
    "time_limit": 3600,
    "best": 0.9285714285714286,
    "fixed_ens": {
        "ensemble_selection10": 0.9285714285714286,
        "cma_es": 0.9285714285714286,
        "qdo_es": 0.9285714285714286,
        "OptDivBO": 0.9,
        "EnsOpt": 0.9428571428571428,
        "stacking-1_0.4_L1_linear": 0.9142857142857143,
        "stacking-1_0.4_L2_linear": 0.9428571428571428,
        "stacking1000_0.4_L1_linear": 0.8714285714285714,
        "stacking1000_0.4_L2_linear": 0.8714285714285714,
        "ensemble_selection25": 0.9285714285714286,
        "stacking1000_0.4_L1_weighted": 0.8714285714285714,
        "stacking-1_0.4_L1_weighted": 0.9,
        "stacking1000_0.4_L2_weighted": 0.9142857142857143,
        "stacking-1_0.4_L2_weighted": 0.9142857142857143
    },
    "defopt_ens": {
        "s10_r20_d20": "0.8857142857142857, 0.9, 0.9, 0.9, 0.9, 0.9",
        "s10_r40_d20": "0.9, 0.8714285714285714, 0.8857142857142857, 0.9142857142857143, 0.8714285714285714, 0.8857142857142857",
        "s20_r20_d20": "0.9285714285714286, 0.9142857142857143, 0.9285714285714286, 0.9285714285714286, 0.6571428571428571, 0.9285714285714286",
        "s20_r40_d20": "0.8714285714285714, 0.9, 0.8714285714285714, 0.8857142857142857, 0.9142857142857143, 0.8714285714285714",
        "s10_r20_d0": "0.9, 0.9142857142857143, 0.9142857142857143, 0.9, 0.9142857142857143, 0.9142857142857143",
        "s10_r40_d0": "0.9, 0.8714285714285714, 0.8857142857142857, 0.9, 0.8857142857142857, 0.8857142857142857",
        "s20_r20_d0": "0.8857142857142857, 0.9, 0.9, 0.8428571428571429, 0.9, 0.9",
        "s20_r40_d0": "0.8571428571428571, 0.8571428571428571, 0.8857142857142857, 0.9, 0.8285714285714286, 0.8857142857142857"
    },
    "opt_ens": [
        "0.9142857142857143",
        "0.9142857142857143",
        "0.9142857142857143",
        "0.9142857142857143",
        "0.9142857142857143",
        "0.9285714285714286",
        "0.9428571428571428",
        "0.9428571428571428",
        "0.9428571428571428",
        "0.9428571428571428",
        "0.9571428571428572",
        "0.9571428571428572",
        "0.9571428571428572",
        "0.9428571428571428",
        "0.8714285714285714",
        "0.9142857142857143",
        "0.9142857142857143",
        "0.9142857142857143",
        "0.9428571428571428",
        "0.8714285714285714",
        "0.9142857142857143",
        "0.8571428571428571",
        "0.8714285714285714",
        "0.9714285714285714",
        "0.9142857142857143",
        "0.9142857142857143",
        "0.9428571428571428",
        "0.9",
        "0.9285714285714286",
        "0.8714285714285714"
    ],
    "opt_ens_d0": [
        "0.9",
        "0.9",
        "0.9285714285714286",
        "0.9285714285714286",
        "0.9285714285714286",
        "0.9142857142857143",
        "0.9142857142857143",
        "0.9142857142857143",
        "0.9142857142857143",
        "0.9142857142857143",
        "0.9142857142857143",
        "0.9142857142857143",
        "0.8857142857142857",
        "0.9",
        "0.8571428571428571",
        "0.8714285714285714",
        "0.8857142857142857",
        "0.8714285714285714",
        "0.9285714285714286",
        "0.9",
        "0.9",
        "0.8714285714285714",
        "0.8857142857142857",
        "0.9285714285714286",
        "0.8857142857142857",
        "0.9285714285714286",
        "0.9428571428571428",
        "0.9",
        "0.8428571428571429",
        "0.8571428571428571"
    ],
    "opt_ens_d0-20": [
        "0.9",
        "0.9",
        "0.9142857142857143",
        "0.9142857142857143",
        "0.9",
        "0.9142857142857143",
        "0.9142857142857143",
        "0.9142857142857143",
        "0.9142857142857143",
        "0.9285714285714286",
        "0.9142857142857143",
        "0.9142857142857143",
        "0.8714285714285714",
        "0.8857142857142857",
        "0.9142857142857143",
        "0.8428571428571429",
        "0.9",
        "0.9",
        "0.9142857142857143",
        "0.9142857142857143",
        "0.9142857142857143",
        "0.9428571428571428",
        "0.9142857142857143",
        "0.8714285714285714",
        "0.9714285714285714",
        "0.9142857142857143",
        "0.9142857142857143",
        "0.8857142857142857",
        "0.9",
        "0.9142857142857143"
    ],
    "size_exp": {
        "stacking5_-1_L1_linear": [
            "linear-L1: train-8.60215054e-01, train_2--1.99149334e-01, test-7.85714286e-01, test_2--2.50168972e-01, val-8.27956989e-01, val_2--2.50824293e-01"
        ],
        "stacking5_0_L1_linear": [
            "linear-L1: train-8.70967742e-01, train_2--2.22870637e-01, test-8.57142857e-01, test_2--2.52852275e-01, val-8.60215054e-01, val_2--2.48623563e-01"
        ],
        "stacking5_0.1_L1_linear": [
            "linear-L1: train-8.81720430e-01, train_2--2.06447339e-01, test-8.57142857e-01, test_2--2.31149138e-01, val-8.27956989e-01, val_2--2.36630832e-01"
        ],
        "stacking5_0.2_L1_linear": [
            "linear-L1: train-8.70967742e-01, train_2--1.97724381e-01, test-8.42857143e-01, test_2--2.03540226e-01, val-8.60215054e-01, val_2--2.29965278e-01"
        ],
        "stacking5_0.3_L1_linear": [
            "linear-L1: train-8.65591398e-01, train_2--1.97532237e-01, test-8.57142857e-01, test_2--2.31164426e-01, val-8.60215054e-01, val_2--2.33927627e-01"
        ],
        "stacking5_0.4_L1_linear": [
            "linear-L1: train-8.65591398e-01, train_2--1.97532237e-01, test-8.57142857e-01, test_2--2.31164426e-01, val-8.60215054e-01, val_2--2.33927627e-01"
        ],
        "stacking10_-1_L1_linear": [
            "linear-L1: train-8.81720430e-01, train_2--1.83496671e-01, test-8.71428571e-01, test_2--2.16320702e-01, val-8.60215054e-01, val_2--2.33529061e-01"
        ],
        "stacking10_0_L1_linear": [
            "linear-L1: train-8.70967742e-01, train_2--2.22701606e-01, test-8.57142857e-01, test_2--2.51437047e-01, val-8.60215054e-01, val_2--2.46391080e-01"
        ],
        "stacking10_0.1_L1_linear": [
            "linear-L1: train-8.70967742e-01, train_2--2.06772162e-01, test-8.57142857e-01, test_2--2.30283792e-01, val-8.27956989e-01, val_2--2.35357094e-01"
        ],
        "stacking10_0.2_L1_linear": [
            "linear-L1: train-8.70967742e-01, train_2--1.91106724e-01, test-8.42857143e-01, test_2--2.08336392e-01, val-8.49462366e-01, val_2--2.28766282e-01"
        ],
        "stacking10_0.3_L1_linear": [
            "linear-L1: train-8.60215054e-01, train_2--1.89600516e-01, test-8.42857143e-01, test_2--2.01898810e-01, val-8.38709677e-01, val_2--2.28900022e-01"
        ],
        "stacking10_0.4_L1_linear": [
            "linear-L1: train-8.65591398e-01, train_2--1.89649497e-01, test-8.42857143e-01, test_2--2.06023215e-01, val-8.49462366e-01, val_2--2.28192022e-01"
        ],
        "stacking20_-1_L1_linear": [
            "linear-L1: train-8.92473118e-01, train_2--1.86263954e-01, test-8.42857143e-01, test_2--2.23181246e-01, val-8.70967742e-01, val_2--2.30882764e-01"
        ],
        "stacking20_0_L1_linear": [
            "linear-L1: train-8.70967742e-01, train_2--2.22528244e-01, test-8.57142857e-01, test_2--2.48573528e-01, val-8.81720430e-01, val_2--2.44280982e-01"
        ],
        "stacking20_0.1_L1_linear": [
            "linear-L1: train-8.70967742e-01, train_2--1.97192894e-01, test-8.42857143e-01, test_2--2.02726901e-01, val-8.49462366e-01, val_2--2.28621888e-01"
        ],
        "stacking20_0.2_L1_linear": [
            "linear-L1: train-8.60215054e-01, train_2--1.89413932e-01, test-8.28571429e-01, test_2--2.00650227e-01, val-8.38709677e-01, val_2--2.27207918e-01"
        ],
        "stacking20_0.3_L1_linear": [
            "linear-L1: train-8.60215054e-01, train_2--1.88072869e-01, test-8.42857143e-01, test_2--2.07613273e-01, val-8.49462366e-01, val_2--2.22407756e-01"
        ],
        "stacking20_0.4_L1_linear": [
            "linear-L1: train-8.60215054e-01, train_2--1.88072869e-01, test-8.42857143e-01, test_2--2.07613273e-01, val-8.49462366e-01, val_2--2.22407756e-01"
        ],
        "stacking30_-1_L1_linear": [
            "linear-L1: train-8.87096774e-01, train_2--1.84209248e-01, test-8.57142857e-01, test_2--2.35127155e-01, val-8.70967742e-01, val_2--2.35388289e-01"
        ],
        "stacking30_0_L1_linear": [
            "linear-L1: train-8.70967742e-01, train_2--2.22256565e-01, test-8.57142857e-01, test_2--2.46842160e-01, val-8.81720430e-01, val_2--2.43522607e-01"
        ],
        "stacking30_0.1_L1_linear": [
            "linear-L1: train-8.60215054e-01, train_2--1.89516233e-01, test-8.28571429e-01, test_2--2.00053517e-01, val-8.38709677e-01, val_2--2.26918062e-01"
        ],
        "stacking30_0.2_L1_linear": [
            "linear-L1: train-8.60215054e-01, train_2--1.88158562e-01, test-8.42857143e-01, test_2--2.06412891e-01, val-8.70967742e-01, val_2--2.21827547e-01"
        ],
        "stacking30_0.3_L1_linear": [
            "linear-L1: train-8.60215054e-01, train_2--1.86600017e-01, test-8.42857143e-01, test_2--2.04806383e-01, val-8.70967742e-01, val_2--2.17705534e-01"
        ],
        "stacking30_0.4_L1_linear": [
            "linear-L1: train-8.60215054e-01, train_2--1.87507381e-01, test-8.42857143e-01, test_2--2.08447763e-01, val-8.60215054e-01, val_2--2.16505546e-01"
        ],
        "stacking40_-1_L1_linear": [
            "linear-L1: train-8.97849462e-01, train_2--1.64112870e-01, test-8.42857143e-01, test_2--2.20333512e-01, val-8.60215054e-01, val_2--2.26781353e-01"
        ],
        "stacking40_0_L1_linear": [
            "linear-L1: train-8.70967742e-01, train_2--2.20126053e-01, test-8.57142857e-01, test_2--2.49304352e-01, val-8.81720430e-01, val_2--2.46158147e-01"
        ],
        "stacking40_0.1_L1_linear": [
            "linear-L1: train-8.65591398e-01, train_2--1.87235567e-01, test-8.42857143e-01, test_2--2.13248624e-01, val-8.49462366e-01, val_2--2.23854481e-01"
        ],
        "stacking40_0.2_L1_linear": [
            "linear-L1: train-8.60215054e-01, train_2--1.86265853e-01, test-8.42857143e-01, test_2--2.09029165e-01, val-8.60215054e-01, val_2--2.15962445e-01"
        ],
        "stacking40_0.3_L1_linear": [
            "linear-L1: train-8.65591398e-01, train_2--1.83887200e-01, test-8.42857143e-01, test_2--2.01288968e-01, val-8.60215054e-01, val_2--2.16058927e-01"
        ],
        "stacking40_0.4_L1_linear": [
            "linear-L1: train-8.65591398e-01, train_2--1.83821513e-01, test-8.42857143e-01, test_2--2.01424099e-01, val-8.60215054e-01, val_2--2.16078080e-01"
        ]
    },
    "retain_exp": {
        "stacking10_0.4_L1_weighted_retainFalse": [
            [
                {
                    "train": [
                        0.8387096774193549,
                        0.8387096774193549,
                        0.8387096774193549,
                        0.8387096774193549,
                        0.8172043010752689,
                        0.8172043010752689,
                        0.7688172043010753,
                        0.7526881720430108,
                        0.8494623655913979,
                        0.7150537634408602
                    ],
                    "train_2": [
                        -0.26607389627726524,
                        -0.2660738982012063,
                        -0.2660738982012063,
                        -0.2660738982012063,
                        -0.33954854944557084,
                        -0.3242669432750367,
                        -0.4633547474069045,
                        -0.4902870822471406,
                        -0.26726510915319,
                        -0.5653044142427953
                    ],
                    "test": [
                        0.8142857142857143,
                        0.8142857142857143,
                        0.8142857142857143,
                        0.8142857142857143,
                        0.8142857142857143,
                        0.8571428571428571,
                        0.8,
                        0.8,
                        0.9285714285714286,
                        0.7428571428571429
                    ],
                    "test_2": [
                        -0.2608270660367014,
                        -0.26148451599022765,
                        -0.26295452195139596,
                        -0.2622970736269907,
                        -0.3630732016907115,
                        -0.21161270135017066,
                        -0.31004663808815536,
                        -0.2914241066907142,
                        -0.14493295906928205,
                        -0.3385500019534282
                    ],
                    "val": [
                        0.8279569892473119,
                        0.8279569892473119,
                        0.8279569892473119,
                        0.8279569892473119,
                        0.7096774193548387,
                        0.8709677419354839,
                        0.7849462365591398,
                        0.8064516129032258,
                        0.8494623655913979,
                        0.7956989247311828
                    ],
                    "val_2": [
                        -0.2751456780250868,
                        -0.2756387546438312,
                        -0.27563876039469254,
                        -0.2751438755016744,
                        -0.3478459541656777,
                        -0.2513375997292776,
                        -0.33692378818097074,
                        -0.2767767064923884,
                        -0.250011663020794,
                        -0.32371047188776186
                    ]
                },
                {
                    "train": [
                        0.8010752688172043,
                        0.8010752688172043,
                        0.8010752688172043,
                        0.8010752688172043,
                        0.8655913978494624,
                        0.7634408602150538,
                        0.6989247311827957,
                        0.7741935483870968,
                        0.8279569892473119,
                        0.7365591397849462
                    ],
                    "train_2": [
                        -0.38583483310689304,
                        -0.38583483310689304,
                        -0.38583483310689304,
                        -0.38583483310689304,
                        -0.24438836013329818,
                        -0.45118629581426395,
                        -0.5768818744161329,
                        -0.44457700208790846,
                        -0.2786244088075522,
                        -0.5345656707406761
                    ],
                    "test": [
                        0.8857142857142857,
                        0.8857142857142857,
                        0.8857142857142857,
                        0.8857142857142857,
                        0.8285714285714286,
                        0.8571428571428571,
                        0.8571428571428571,
                        0.8,
                        0.8714285714285714,
                        0.7857142857142857
                    ],
                    "test_2": [
                        -0.2253217734160931,
                        -0.22532178149141063,
                        -0.22532178149141063,
                        -0.22532178149141063,
                        -0.2655758808470434,
                        -0.2349205315571326,
                        -0.26201178270968745,
                        -0.20935577445193165,
                        -0.1823376688070907,
                        -0.2701893177785614
                    ],
                    "val": [
                        0.8817204301075269,
                        0.8817204301075269,
                        0.8817204301075269,
                        0.8817204301075269,
                        0.8387096774193549,
                        0.8494623655913979,
                        0.7956989247311828,
                        0.8172043010752689,
                        0.8387096774193549,
                        0.8172043010752689
                    ],
                    "val_2": [
                        -0.26675715834055197,
                        -0.26675716441874797,
                        -0.26675716441874797,
                        -0.26675716441874797,
                        -0.2681190999890781,
                        -0.22535509246399194,
                        -0.2388348316104667,
                        -0.2816523275990827,
                        -0.24968602578525445,
                        -0.29425612008267454
                    ]
                },
                {
                    "train": [
                        0.8064516129032258,
                        0.8064516129032258,
                        0.8064516129032258,
                        0.8064516129032258,
                        0.8387096774193549,
                        0.8010752688172043,
                        0.7903225806451613,
                        0.7526881720430108,
                        0.8172043010752689,
                        0.5913978494623656
                    ],
                    "train_2": [
                        -0.3792684384617636,
                        -0.3790957096162,
                        -0.3790957096162,
                        -0.3792684384617636,
                        -0.2642241562850657,
                        -0.3888054958739228,
                        -0.3986316161902414,
                        -0.4837794868933008,
                        -0.29207421506043413,
                        -0.8096662718341062
                    ],
                    "test": [
                        0.8571428571428571,
                        0.8571428571428571,
                        0.8571428571428571,
                        0.8571428571428571,
                        0.7571428571428571,
                        0.8571428571428571,
                        0.8714285714285714,
                        0.7857142857142857,
                        0.8714285714285714,
                        0.7428571428571429
                    ],
                    "test_2": [
                        -0.2717625013478757,
                        -0.2717672876833691,
                        -0.27176728768336905,
                        -0.2717625013478757,
                        -0.2661874717892428,
                        -0.24561075656643894,
                        -0.2245586058873195,
                        -0.26378229140319487,
                        -0.18849604559238817,
                        -0.38242303980381714
                    ],
                    "val": [
                        0.8602150537634409,
                        0.8602150537634409,
                        0.8602150537634409,
                        0.8602150537634409,
                        0.8064516129032258,
                        0.8494623655913979,
                        0.8387096774193549,
                        0.8172043010752689,
                        0.8602150537634409,
                        0.6559139784946236
                    ],
                    "val_2": [
                        -0.2500883749162568,
                        -0.2500883844918976,
                        -0.2500883844918975,
                        -0.2497831530395968,
                        -0.26706055515448807,
                        -0.27178862836967105,
                        -0.21776337844777,
                        -0.2804923717618904,
                        -0.24047064473311652,
                        -0.44173975919953723
                    ]
                },
                {
                    "train": [
                        0.7849462365591398,
                        0.7849462365591398,
                        0.7849462365591398,
                        0.7849462365591398,
                        0.8440860215053764,
                        0.7956989247311828,
                        0.6182795698924731,
                        0.7096774193548387,
                        0.8225806451612904,
                        0.6182795698924731
                    ],
                    "train_2": [
                        -0.33324781290383826,
                        -0.3332478129750505,
                        -0.3332478129750505,
                        -0.3332479212857129,
                        -0.26264873842029296,
                        -0.4087729509852057,
                        -0.7569971489968187,
                        -0.5732906490354663,
                        -0.29688798510381453,
                        -0.752418690257962
                    ],
                    "test": [
                        0.8714285714285714,
                        0.8714285714285714,
                        0.8714285714285714,
                        0.8714285714285714,
                        0.7714285714285715,
                        0.8285714285714286,
                        0.7142857142857143,
                        0.7571428571428571,
                        0.9,
                        0.8
                    ],
                    "test_2": [
                        -0.2439391700922866,
                        -0.24393919446509768,
                        -0.24370726495044664,
                        -0.2437071020063321,
                        -0.26965919581867526,
                        -0.2343642832612913,
                        -0.47111831201290794,
                        -0.32123373256250115,
                        -0.17240133623049053,
                        -0.31605150069434573
                    ],
                    "val": [
                        0.8602150537634409,
                        0.8602150537634409,
                        0.8602150537634409,
                        0.8602150537634409,
                        0.8064516129032258,
                        0.8817204301075269,
                        0.6774193548387096,
                        0.7741935483870968,
                        0.8387096774193549,
                        0.7956989247311828
                    ],
                    "val_2": [
                        -0.22770256252535076,
                        -0.22770501765987608,
                        -0.22770501766193077,
                        -0.22770256252740112,
                        -0.26625785073680375,
                        -0.22538222771953706,
                        -0.44217158127743267,
                        -0.32693584320834135,
                        -0.23689470256538078,
                        -0.3049664200290696
                    ]
                },
                {
                    "train": [
                        0.8118279569892473,
                        0.8118279569892473,
                        0.8118279569892473,
                        0.8118279569892473,
                        0.8333333333333334,
                        0.8709677419354839,
                        0.6666666666666666,
                        0.5967741935483871,
                        0.8440860215053764,
                        0.6344086021505376
                    ],
                    "train_2": [
                        -0.3756458894357391,
                        -0.37511510648540886,
                        -0.37511510648540886,
                        -0.37511510648540886,
                        -0.25740590449007833,
                        -0.23743497553146908,
                        -0.6553891006545366,
                        -0.8060047613769151,
                        -0.2723385526657199,
                        -0.7311827956989247
                    ],
                    "test": [
                        0.8285714285714286,
                        0.8285714285714286,
                        0.8285714285714286,
                        0.8285714285714286,
                        0.7428571428571429,
                        0.8285714285714286,
                        0.7714285714285715,
                        0.7,
                        0.8857142857142857,
                        0.7142857142857143
                    ],
                    "test_2": [
                        -0.26536659574908117,
                        -0.26536659574908117,
                        -0.26536659574908117,
                        -0.26536659574908117,
                        -0.2696874333348318,
                        -0.2360200214213006,
                        -0.3044341362083692,
                        -0.42612520550624594,
                        -0.1909493989234593,
                        -0.40114285714285713
                    ],
                    "val": [
                        0.8817204301075269,
                        0.8817204301075269,
                        0.8817204301075269,
                        0.8817204301075269,
                        0.8064516129032258,
                        0.8924731182795699,
                        0.8064516129032258,
                        0.7849462365591398,
                        0.8494623655913979,
                        0.7204301075268817
                    ],
                    "val_2": [
                        -0.25965495899710667,
                        -0.2597255840417904,
                        -0.2597255840417904,
                        -0.2597255662874144,
                        -0.2636928007386524,
                        -0.19879099089279373,
                        -0.3188719713226588,
                        -0.3753276597491667,
                        -0.2434418955833805,
                        -0.40430107526881714
                    ]
                }
            ],
            [
                "best_idx5-L5: train-0.87097, train_2--0.23743, test-0.82857, test_2--0.23602, val-0.89247, val_2--0.19879",
                "linear-L4: train-0.84946, train_2--0.22234, test-0.88571, test_2--0.20795, val-0.89247, val_2--0.20850",
                "linear-L3: train-0.83871, train_2--0.23315, test-0.87143, test_2--0.20330, val-0.89247, val_2--0.22062",
                "weighted-L3: train-0.81720, train_2--0.24553, test-0.88571, test_2--0.22228, val-0.89247, val_2--0.22999",
                "linear-L5: train-0.87634, train_2--0.21932, test-0.82857, test_2--0.20809, val-0.88172, val_2--0.19940",
                "weighted-L5: train-0.85484, train_2--0.22491, test-0.82857, test_2--0.21900, val-0.88172, val_2--0.20516",
                "best_idx5-L4: train-0.79570, train_2--0.40877, test-0.82857, test_2--0.23436, val-0.88172, val_2--0.22538",
                "best_idx0-L2: train-0.80108, train_2--0.38583, test-0.88571, test_2--0.22532, val-0.88172, val_2--0.26676",
                "linear-L2: train-0.82258, train_2--0.24551, test-0.84286, test_2--0.19110, val-0.87097, val_2--0.20991",
                "weighted-L4: train-0.83871, train_2--0.26429, test-0.88571, test_2--0.23961, val-0.87097, val_2--0.23879",
                "weighted-L2: train-0.82258, train_2--0.24697, test-0.87143, test_2--0.23934, val-0.87097, val_2--0.25163",
                "best_idx8-L3: train-0.81720, train_2--0.29207, test-0.87143, test_2--0.18850, val-0.86022, val_2--0.24047",
                "linear-L1: train-0.86559, train_2--0.21024, test-0.84286, test_2--0.20602, val-0.84946, val_2--0.22819",
                "weighted-L1: train-0.86559, train_2--0.22452, test-0.88571, test_2--0.21839, val-0.84946, val_2--0.24678"
            ]
        ],
        "stacking10_0.4_L1_weighted_retainTrue": [
            [
                {
                    "train": [
                        0.8387096774193549,
                        0.8387096774193549,
                        0.8387096774193549,
                        0.8387096774193549,
                        0.8172043010752689,
                        0.8172043010752689,
                        0.7688172043010753,
                        0.7526881720430108,
                        0.8494623655913979,
                        0.7150537634408602
                    ],
                    "train_2": [
                        -0.26607389627726524,
                        -0.2660738982012063,
                        -0.2660738982012063,
                        -0.2660738982012063,
                        -0.33954854944557084,
                        -0.3242669432750367,
                        -0.4633547474069045,
                        -0.4902870822471406,
                        -0.26726510915319,
                        -0.5653044142427953
                    ],
                    "test": [
                        0.8142857142857143,
                        0.8142857142857143,
                        0.8142857142857143,
                        0.8142857142857143,
                        0.8142857142857143,
                        0.8571428571428571,
                        0.8,
                        0.8,
                        0.9285714285714286,
                        0.7428571428571429
                    ],
                    "test_2": [
                        -0.26082706603670136,
                        -0.26148451599022765,
                        -0.26295452195139596,
                        -0.2622970736269907,
                        -0.36307320169071156,
                        -0.21161270135017066,
                        -0.3100466380881553,
                        -0.2914241066907142,
                        -0.14493295906928202,
                        -0.3385500019534282
                    ],
                    "val": [
                        0.8279569892473119,
                        0.8279569892473119,
                        0.8279569892473119,
                        0.8279569892473119,
                        0.7096774193548387,
                        0.8709677419354839,
                        0.7849462365591398,
                        0.8064516129032258,
                        0.8494623655913979,
                        0.7956989247311828
                    ],
                    "val_2": [
                        -0.2751456780250868,
                        -0.2756387546438312,
                        -0.27563876039469254,
                        -0.2751438755016744,
                        -0.3478459541656777,
                        -0.2513375997292776,
                        -0.3369237881809708,
                        -0.2767767064923884,
                        -0.250011663020794,
                        -0.32371047188776186
                    ]
                },
                {
                    "train": [
                        0.8010752688172043,
                        0.8010752688172043,
                        0.8010752688172043,
                        0.8010752688172043,
                        0.8655913978494624,
                        0.8172043010752689,
                        0.6989247311827957,
                        0.7741935483870968,
                        0.8494623655913979,
                        0.7365591397849462
                    ],
                    "train_2": [
                        -0.38583483310689304,
                        -0.38583483310689304,
                        -0.38583483310689304,
                        -0.38583483310689304,
                        -0.24438836013329818,
                        -0.3242669432750367,
                        -0.5768818744161329,
                        -0.44457700208790846,
                        -0.26726510915319,
                        -0.5345656707406761
                    ],
                    "test": [
                        0.8857142857142857,
                        0.8857142857142857,
                        0.8857142857142857,
                        0.8857142857142857,
                        0.8285714285714286,
                        0.8571428571428571,
                        0.8571428571428571,
                        0.8,
                        0.9285714285714286,
                        0.7857142857142857
                    ],
                    "test_2": [
                        -0.2253217734160931,
                        -0.22532178149141063,
                        -0.22532178149141063,
                        -0.22532178149141063,
                        -0.2655758808470434,
                        -0.21161270135017066,
                        -0.26201178270968745,
                        -0.20935577445193165,
                        -0.14493295906928202,
                        -0.2701893177785615
                    ],
                    "val": [
                        0.8817204301075269,
                        0.8817204301075269,
                        0.8817204301075269,
                        0.8817204301075269,
                        0.8387096774193549,
                        0.8709677419354839,
                        0.7956989247311828,
                        0.8172043010752689,
                        0.8494623655913979,
                        0.8172043010752689
                    ],
                    "val_2": [
                        -0.26675715834055197,
                        -0.26675716441874797,
                        -0.26675716441874797,
                        -0.26675716441874797,
                        -0.2681190999890781,
                        -0.2513375997292776,
                        -0.2388348316104667,
                        -0.2816523275990827,
                        -0.250011663020794,
                        -0.29425612008267454
                    ]
                },
                {
                    "train": [
                        0.8010752688172043,
                        0.8010752688172043,
                        0.8010752688172043,
                        0.8010752688172043,
                        0.8655913978494624,
                        0.8172043010752689,
                        0.7688172043010753,
                        0.7741935483870968,
                        0.8494623655913979,
                        0.7365591397849462
                    ],
                    "train_2": [
                        -0.38583483310689304,
                        -0.38583483310689304,
                        -0.38583483310689304,
                        -0.38583483310689304,
                        -0.24438836013329818,
                        -0.3242669432750367,
                        -0.45963941732421526,
                        -0.44457700208790846,
                        -0.26726510915319,
                        -0.5345656707406761
                    ],
                    "test": [
                        0.8857142857142857,
                        0.8857142857142857,
                        0.8857142857142857,
                        0.8857142857142857,
                        0.8285714285714286,
                        0.8571428571428571,
                        0.7857142857142857,
                        0.8,
                        0.9285714285714286,
                        0.7857142857142857
                    ],
                    "test_2": [
                        -0.2253217734160931,
                        -0.22532178149141063,
                        -0.22532178149141063,
                        -0.22532178149141063,
                        -0.2655758808470434,
                        -0.21161270135017066,
                        -0.36043130132090084,
                        -0.20935577445193165,
                        -0.14493295906928202,
                        -0.2701893177785615
                    ],
                    "val": [
                        0.8817204301075269,
                        0.8817204301075269,
                        0.8817204301075269,
                        0.8817204301075269,
                        0.8387096774193549,
                        0.8709677419354839,
                        0.8494623655913979,
                        0.8172043010752689,
                        0.8494623655913979,
                        0.8172043010752689
                    ],
                    "val_2": [
                        -0.26675715834055197,
                        -0.26675716441874797,
                        -0.26675716441874797,
                        -0.26675716441874797,
                        -0.2681190999890781,
                        -0.2513375997292776,
                        -0.2434566225855082,
                        -0.2816523275990827,
                        -0.250011663020794,
                        -0.29425612008267454
                    ]
                },
                {
                    "train": [
                        0.8010752688172043,
                        0.8010752688172043,
                        0.8010752688172043,
                        0.8010752688172043,
                        0.8655913978494624,
                        0.8172043010752689,
                        0.8279569892473119,
                        0.7741935483870968,
                        0.8494623655913979,
                        0.7365591397849462
                    ],
                    "train_2": [
                        -0.38583483310689304,
                        -0.38583483310689304,
                        -0.38583483310689304,
                        -0.38583483310689304,
                        -0.24438836013329818,
                        -0.3242669432750367,
                        -0.3231180621582011,
                        -0.44457700208790846,
                        -0.26726510915319,
                        -0.5345656707406761
                    ],
                    "test": [
                        0.8857142857142857,
                        0.8857142857142857,
                        0.8857142857142857,
                        0.8857142857142857,
                        0.8285714285714286,
                        0.8571428571428571,
                        0.8142857142857143,
                        0.8,
                        0.9285714285714286,
                        0.7857142857142857
                    ],
                    "test_2": [
                        -0.2253217734160931,
                        -0.22532178149141063,
                        -0.22532178149141063,
                        -0.22532178149141063,
                        -0.2655758808470434,
                        -0.21161270135017066,
                        -0.2556468126889387,
                        -0.20935577445193165,
                        -0.14493295906928202,
                        -0.2701893177785615
                    ],
                    "val": [
                        0.8817204301075269,
                        0.8817204301075269,
                        0.8817204301075269,
                        0.8817204301075269,
                        0.8387096774193549,
                        0.8709677419354839,
                        0.8709677419354839,
                        0.8172043010752689,
                        0.8494623655913979,
                        0.8172043010752689
                    ],
                    "val_2": [
                        -0.26675715834055197,
                        -0.26675716441874797,
                        -0.26675716441874797,
                        -0.26675716441874797,
                        -0.2681190999890781,
                        -0.2513375997292776,
                        -0.21042505310247483,
                        -0.2816523275990827,
                        -0.250011663020794,
                        -0.29425612008267454
                    ]
                },
                {
                    "train": [
                        0.8010752688172043,
                        0.8010752688172043,
                        0.8010752688172043,
                        0.8010752688172043,
                        0.8655913978494624,
                        0.8333333333333334,
                        0.8279569892473119,
                        0.7741935483870968,
                        0.8494623655913979,
                        0.7365591397849462
                    ],
                    "train_2": [
                        -0.38583483310689304,
                        -0.38583483310689304,
                        -0.38583483310689304,
                        -0.38583483310689304,
                        -0.24438836013329818,
                        -0.3102206531305322,
                        -0.3231180621582011,
                        -0.44457700208790846,
                        -0.26726510915319,
                        -0.5345656707406761
                    ],
                    "test": [
                        0.8857142857142857,
                        0.8857142857142857,
                        0.8857142857142857,
                        0.8857142857142857,
                        0.8285714285714286,
                        0.8428571428571429,
                        0.8142857142857143,
                        0.8,
                        0.9285714285714286,
                        0.7857142857142857
                    ],
                    "test_2": [
                        -0.2253217734160931,
                        -0.22532178149141063,
                        -0.22532178149141063,
                        -0.22532178149141063,
                        -0.2655758808470434,
                        -0.18577956108574728,
                        -0.2556468126889387,
                        -0.20935577445193165,
                        -0.14493295906928202,
                        -0.2701893177785615
                    ],
                    "val": [
                        0.8817204301075269,
                        0.8817204301075269,
                        0.8817204301075269,
                        0.8817204301075269,
                        0.8387096774193549,
                        0.9032258064516129,
                        0.8709677419354839,
                        0.8172043010752689,
                        0.8494623655913979,
                        0.8172043010752689
                    ],
                    "val_2": [
                        -0.26675715834055197,
                        -0.26675716441874797,
                        -0.26675716441874797,
                        -0.26675716441874797,
                        -0.2681190999890781,
                        -0.1978951388258599,
                        -0.21042505310247483,
                        -0.2816523275990827,
                        -0.250011663020794,
                        -0.29425612008267454
                    ]
                }
            ],
            [
                "best_idx5-L5: train-0.83333, train_2--0.31022, test-0.84286, test_2--0.18578, val-0.90323, val_2--0.19790",
                "linear-L3: train-0.84946, train_2--0.23440, test-0.85714, test_2--0.20068, val-0.88172, val_2--0.21854",
                "weighted-L5: train-0.82258, train_2--0.25463, test-0.85714, test_2--0.23722, val-0.88172, val_2--0.24358",
                "weighted-L3: train-0.83333, train_2--0.24849, test-0.87143, test_2--0.24643, val-0.88172, val_2--0.24383",
                "best_idx0-L2: train-0.80108, train_2--0.38583, test-0.88571, test_2--0.22532, val-0.88172, val_2--0.26676",
                "linear-L5: train-0.81720, train_2--0.26048, test-0.85714, test_2--0.18205, val-0.87097, val_2--0.20723",
                "best_idx6-L4: train-0.82796, train_2--0.32312, test-0.81429, test_2--0.25565, val-0.87097, val_2--0.21043",
                "best_idx5-L3: train-0.81720, train_2--0.35459, test-0.84286, test_2--0.19945, val-0.87097, val_2--0.22967",
                "weighted-L2: train-0.84409, train_2--0.24965, test-0.87143, test_2--0.24235, val-0.87097, val_2--0.25195",
                "weighted-L4: train-0.83333, train_2--0.25620, test-0.87143, test_2--0.24235, val-0.87097, val_2--0.25195",
                "linear-L2: train-0.84946, train_2--0.23916, test-0.87143, test_2--0.18780, val-0.86022, val_2--0.21699",
                "linear-L4: train-0.82796, train_2--0.24676, test-0.85714, test_2--0.19253, val-0.86022, val_2--0.21874",
                "linear-L1: train-0.86559, train_2--0.21024, test-0.84286, test_2--0.20602, val-0.84946, val_2--0.22819",
                "weighted-L1: train-0.86559, train_2--0.22452, test-0.88571, test_2--0.21839, val-0.84946, val_2--0.24678"
            ]
        ]
    }
}